#! FIELDS time proj ext cmap wham.bias weights
 0.000000 66.596860 38.356120 0.723066 -9.022417 -15.134189
 40000.000000 66.762030 38.728320 0.707923 -8.027704 -13.465659
 80000.000000 67.677610 38.418620 0.812096 -8.787142 -14.739539
 120000.000000 67.924880 39.494970 0.814232 4.985531 8.362722
 160000.000000 67.429790 39.752730 0.808974 -4.967835 -8.333039
 200000.000000 68.939600 40.900200 0.792601 6.639245 11.136660
 240000.000000 69.036850 40.236710 0.809923 11.918790 19.992561
 280000.000000 68.747220 40.914430 0.782150 6.007911 10.077661
 320000.000000 69.588910 40.945860 0.808961 4.699668 7.883216
 360000.000000 69.268250 40.958660 0.806964 7.260004 12.177920
 400000.000000 71.023350 40.945760 0.807946 3.944842 6.617072
 440000.000000 69.862630 41.308840 0.803791 3.855166 6.466650
 480000.000000 69.801210 41.240690 0.733081 6.230359 10.450795
 520000.000000 71.013050 41.612480 0.755701 1.923051 3.225723
 560000.000000 71.360600 42.062170 0.708388 0.784142 1.315318
 600000.000000 72.434290 42.509640 0.745277 -2.242557 -3.761662
 640000.000000 72.169700 41.447560 0.765117 -1.240899 -2.081482
 680000.000000 71.731750 41.775840 0.777517 2.477827 4.156303
 720000.000000 71.322070 43.071700 0.748387 1.176910 1.974147
 760000.000000 70.832800 42.367500 0.668305 2.807397 4.709124
 800000.000000 69.271120 42.624790 0.630171 0.070751 0.118677
 840000.000000 69.186740 42.241710 0.735696 -1.378531 -2.312346
 880000.000000 68.714390 42.239740 0.609912 -1.729575 -2.901187
 920000.000000 69.186670 41.990770 0.838691 0.945777 1.586445
 960000.000000 70.044250 41.858330 0.826112 3.942569 6.613260
 1000000.000000 69.898190 41.348800 0.865304 5.825310 9.771367
 1040000.000000 70.943180 41.734860 0.851155 1.851128 3.105079
 1080000.000000 70.583560 41.374580 0.795754 4.457463 7.476942
 1120000.000000 70.283060 41.918930 0.799109 3.701305 6.208564
 1160000.000000 71.880290 40.896350 0.730809 -2.905387 -4.873492
 1200000.000000 71.341960 42.027690 0.693699 0.994632 1.668394
 1240000.000000 71.361550 41.874740 0.684197 2.322675 3.896052
 1280000.000000 72.283390 40.497450 0.747824 -9.379998 -15.733995
 1320000.000000 72.376570 41.412610 0.702600 -3.378688 -5.667406
 1360000.000000 71.654520 40.974390 0.790624 2.576745 4.322228
 1400000.000000 72.523670 41.407290 0.745123 -4.305940 -7.222778
 1440000.000000 72.336430 40.419400 0.751806 -9.371562 -15.719845
 1480000.000000 72.706920 40.225560 0.694261 -9.770100 -16.388352
 1520000.000000 72.982350 41.595400 0.717046 -9.001437 -15.098997
 1560000.000000 73.723650 41.726680 0.658066 -9.691415 -16.256365
 1600000.000000 73.813010 42.049770 0.618600 -9.815595 -16.464665
 1640000.000000 74.763250 41.976900 0.546097 -9.904230 -16.613341
 1680000.000000 72.624060 41.072420 0.672058 -5.096011 -8.548041
 1720000.000000 71.963000 40.667990 0.639730 -3.946151 -6.619268
 1760000.000000 72.422470 39.867290 0.701905 -9.792975 -16.426722
 1800000.000000 72.780780 40.938980 0.622291 -8.447766 -14.170270
 1840000.000000 73.407690 41.944000 0.667903 -7.561348 -12.683394
 1880000.000000 73.625890 41.924910 0.661948 -9.233973 -15.489053
 1920000.000000 73.746740 40.408950 0.660806 -10.317760 -17.306996
 1960000.000000 71.928010 40.916300 0.658395 -3.990313 -6.693345
 2000000.000000 73.260750 41.819300 0.609810 -8.061338 -13.522077
 2040000.000000 72.664820 41.302600 0.671751 -7.572832 -12.702657
 2080000.000000 75.050260 41.710830 0.754789 -9.958534 -16.704430
 2120000.000000 74.104710 41.853180 0.638119 -9.818092 -16.468853
 2160000.000000 73.149810 42.491410 0.563766 -5.039402 -8.453086
 2200000.000000 72.494660 42.567740 0.614184 -2.947714 -4.944491
 2240000.000000 73.634510 43.314490 0.534986 -6.519218 -10.935327
 2280000.000000 72.610390 42.271660 0.565777 -2.163004 -3.628220
 2320000.000000 73.052330 42.080960 0.589478 -5.951358 -9.982799
 2360000.000000 71.798230 41.525360 0.581534 2.574368 4.318241
 2400000.000000 71.608030 41.461980 0.608949 1.447403 2.427872
 2440000.000000 70.919180 40.640500 0.728718 3.071035 5.151350
 2480000.000000 71.043090 41.801980 0.648398 2.208569 3.704650
 2520000.000000 70.716180 41.144380 0.713156 4.795920 8.044669
 2560000.000000 70.756050 40.595830 0.740903 4.302670 7.217292
 2600000.000000 70.404910 40.426250 0.864264 5.188957 8.703949
 2640000.000000 70.593100 41.201980 0.806714 4.330947 7.264724
 2680000.000000 71.026700 40.424880 0.872555 1.168540 1.960107
 2720000.000000 71.906200 40.105280 0.775729 -7.323137 -12.283819
 2760000.000000 72.137920 39.939030 0.739376 -9.437835 -15.831011
 2800000.000000 71.662560 39.831820 0.826055 -7.287413 -12.223896
 2840000.000000 71.698920 39.680530 0.818390 -7.273895 -12.201221
 2880000.000000 71.638730 39.459360 0.790469 -8.356863 -14.017790
 2920000.000000 72.219150 39.355870 0.816598 -10.090880 -16.926427
 2960000.000000 71.148610 39.952390 0.850738 -3.538219 -5.935003
 3000000.000000 72.356760 39.932760 0.775098 -9.589139 -16.084808
 3040000.000000 71.285400 40.348260 0.825983 0.858575 1.440172
 3080000.000000 71.794310 40.872590 0.754626 0.186181 0.312299
 3120000.000000 72.588400 40.244690 0.791835 -9.687351 -16.249549
 3160000.000000 72.269400 41.134880 0.699451 -2.840468 -4.764597
 3200000.000000 72.145160 40.689540 0.827950 -7.614289 -12.772197
 3240000.000000 72.494300 40.622260 0.839180 -9.381002 -15.735679
 3280000.000000 71.638120 40.872780 0.834361 0.289940 0.486345
 3320000.000000 71.214000 40.976550 0.736940 2.940595 4.932550
 3360000.000000 72.292150 41.196360 0.710878 -3.138529 -5.264564
 3400000.000000 72.366880 40.347670 0.713230 -9.428807 -15.815867
 3440000.000000 72.925270 40.300870 0.712231 -9.931474 -16.659040
 3480000.000000 73.024330 40.009060 0.636973 -9.981744 -16.743363
 3520000.000000 72.392940 39.826040 0.646215 -9.942331 -16.677252
 3560000.000000 72.165900 40.263910 0.755575 -9.366367 -15.711130
 3600000.000000 72.767710 39.451510 0.736148 -10.297750 -17.273431
 3640000.000000 72.442040 39.750230 0.730608 -10.059400 -16.873623
 3680000.000000 72.113850 39.767340 0.805756 -9.793207 -16.427111
 3720000.000000 71.485020 39.767060 0.842974 -7.271216 -12.196727
 3760000.000000 71.480500 38.419190 0.779503 -10.251140 -17.195247
 3800000.000000 71.812270 38.899610 0.811723 -10.178500 -17.073401
 3840000.000000 72.332110 39.514930 0.752327 -10.090980 -16.926595
 3880000.000000 72.530230 39.594160 0.794690 -10.090080 -16.925086
 3920000.000000 71.781640 39.163720 0.815384 -9.886789 -16.584086
 3960000.000000 71.171600 40.035240 0.852194 -2.936852 -4.926271
 4000000.000000 72.504060 40.023720 0.841016 -9.694025 -16.260743
 4040000.000000 72.423780 40.319510 0.803322 -9.583064 -16.074618
 4080000.000000 70.991610 40.257720 0.917282 2.594782 4.352484
 4120000.000000 70.951640 40.017120 0.751498 -2.991035 -5.017158
 4160000.000000 70.205710 40.129640 0.716100 3.339910 5.602360
 4200000.000000 69.997100 39.807260 0.834983 10.384200 17.418442
 4240000.000000 70.763610 39.732480 0.743639 -1.467849 -2.462168
 4280000.000000 70.034070 40.497120 0.738787 5.844877 9.804188
 4320000.000000 69.978890 40.964680 0.572633 6.859171 11.505563
 4360000.000000 70.263540 41.459680 0.536696 5.492348 9.212857
 4400000.000000 71.822770 43.186790 0.379563 -0.113768 -0.190835
 4440000.000000 70.378450 43.196620 0.384877 -0.291444 -0.488867
 4480000.000000 68.891560 42.900920 0.444522 -4.149150 -6.959778
 4520000.000000 70.806110 43.514160 0.548962 0.701388 1.176508
 4560000.000000 71.140930 43.413770 0.496917 2.095653 3.515245
 4600000.000000 71.360700 43.385690 0.490957 2.848512 4.778090
 4640000.000000 72.160200 43.755250 0.441453 1.993487 3.343872
 4680000.000000 72.155340 44.108530 0.343576 -0.241615 -0.405285
 4720000.000000 71.062580 44.208150 0.268207 -1.170293 -1.963048
 4760000.000000 71.545200 44.166620 0.326173 0.584520 0.980474
 4800000.000000 72.277870 43.658790 0.456753 1.938351 3.251387
 4840000.000000 70.993570 43.634620 0.426305 -0.004780 -0.008018
 4880000.000000 72.344570 43.098280 0.457366 -0.804426 -1.349343
 4920000.000000 71.679800 43.408830 0.398521 1.853493 3.109046
 4960000.000000 72.561810 43.582160 0.435766 -3.661354 -6.141550
 5000000.000000 73.371100 43.484860 0.377354 -6.131317 -10.284662
 5040000.000000 72.009380 44.544810 0.354913 -2.188692 -3.671309
 5080000.000000 71.875320 43.748210 0.361966 2.748700 4.610665
 5120000.000000 71.489250 43.462270 0.391093 2.569019 4.309269
 5160000.000000 71.312390 42.942780 0.398211 1.013454 1.699966
 5200000.000000 70.894460 43.166540 0.350590 2.655842 4.454906
 5240000.000000 71.444350 42.460120 0.262048 0.026607 0.044631
 5280000.000000 71.832420 43.035220 0.276640 -0.221477 -0.371506
 5320000.000000 71.809680 43.374300 0.252168 1.251321 2.098964
 5360000.000000 71.345530 44.443510 0.174741 -0.354165 -0.594077
 5400000.000000 70.164080 44.861730 0.296847 -0.290092 -0.486600
 5440000.000000 70.155260 44.561130 0.196143 -0.036084 -0.060527
 5480000.000000 70.021410 44.983540 0.186474 -1.566014 -2.626830
 5520000.000000 69.836790 43.562040 0.339709 -3.065276 -5.141690
 5560000.000000 69.636340 43.974870 0.279723 -1.159026 -1.944149
 5600000.000000 70.473470 44.109190 0.260271 -3.387051 -5.681434
 5640000.000000 69.974390 43.662460 0.441782 -1.756864 -2.946961
 5680000.000000 68.747800 43.289560 0.501401 -5.807521 -9.741527
 5720000.000000 68.669510 43.198790 0.437944 -3.574342 -5.995596
 5760000.000000 68.889540 43.866130 0.324694 -2.270464 -3.808473
 5800000.000000 69.125760 42.748760 0.423324 -2.031607 -3.407815
 5840000.000000 68.836640 42.831050 0.275167 -3.799113 -6.372627
 5880000.000000 68.781210 44.249520 0.130026 -2.066184 -3.465814
 5920000.000000 69.758040 43.549350 0.272643 -3.466013 -5.813885
 5960000.000000 70.892460 44.920600 0.143677 0.798977 1.340203
 6000000.000000 71.015640 44.873420 0.068098 1.582858 2.655084
 6040000.000000 71.504940 46.267380 0.108241 -0.104301 -0.174954
 6080000.000000 69.483100 46.237970 0.101490 -1.376975 -2.309736
 6120000.000000 68.620840 45.897650 0.039952 -1.543712 -2.589420
 6160000.000000 69.205530 46.485950 0.015156 -1.536698 -2.577655
 6200000.000000 68.995280 47.123700 0.047083 -1.384420 -2.322224
 6240000.000000 69.217690 46.407890 0.062831 -1.654636 -2.775484
 6280000.000000 68.762280 47.813390 0.061515 -1.096275 -1.838890
 6320000.000000 69.710750 48.001090 0.050255 -1.110779 -1.863219
 6360000.000000 67.859410 47.840100 0.061485 -4.517030 -7.576860
 6400000.000000 66.945500 48.669290 0.000771 -4.052386 -6.797466
 6440000.000000 67.841100 49.871050 0.000006 -4.259710 -7.145231
 6480000.000000 66.839980 48.002940 0.002144 -3.234383 -5.425349
 6520000.000000 65.922860 49.428200 0.000111 -3.709869 -6.222929
 6560000.000000 65.658560 50.605030 0.000245 -6.459858 -10.835756
 6600000.000000 65.692140 49.159850 0.000433 -3.957814 -6.638831
 6640000.000000 65.826430 49.239610 0.039494 -4.915345 -8.244993
 6680000.000000 66.615140 47.550980 0.054772 -2.974667 -4.989702
 6720000.000000 67.057630 47.286740 0.008297 -3.652897 -6.127364
 6760000.000000 66.035010 48.604000 0.015072 -5.288638 -8.871154
 6800000.000000 65.337480 48.548030 0.074043 -6.088694 -10.213166
 6840000.000000 65.818070 47.811440 0.007727 -7.426682 -12.457506
 6880000.000000 65.081610 47.957690 0.001510 -6.731426 -11.291284
 6920000.000000 65.409820 49.386700 0.090312 -4.668056 -7.830190
 6960000.000000 66.294850 49.802170 0.000365 -5.728176 -9.608434
 7000000.000000 66.605310 48.394730 0.033192 -4.281428 -7.181661
 7040000.000000 67.026890 48.608960 0.015473 -3.032712 -5.087067
 7080000.000000 67.365980 49.282550 0.006414 -1.951830 -3.273997
 7120000.000000 68.213060 48.533890 0.025596 -1.405333 -2.357304
 7160000.000000 69.513550 48.651110 0.000380 -1.705257 -2.860396
 7200000.000000 68.309280 48.383520 0.048398 -1.188690 -1.993907
 7240000.000000 67.687060 48.795110 0.052372 -2.513705 -4.216485
 7280000.000000 68.340670 48.836670 0.031587 -1.544919 -2.591445
 7320000.000000 67.459930 49.614990 0.000033 -3.856143 -6.468289
 7360000.000000 68.126220 49.768170 0.000000 -4.247724 -7.125126
 7400000.000000 67.069570 48.900040 0.042218 -3.272609 -5.489470
 7440000.000000 66.479420 48.995760 0.001041 -3.541577 -5.940636
 7480000.000000 67.604090 47.936660 0.000794 -3.830733 -6.425666
 7520000.000000 68.953630 48.195220 0.120164 -1.380859 -2.316251
 7560000.000000 68.860490 48.235120 0.027423 -1.391518 -2.334130
 7600000.000000 70.133940 47.126490 0.052638 -1.339326 -2.246583
 7640000.000000 69.380920 47.292980 0.067582 -1.101698 -1.847987
 7680000.000000 70.078330 47.781070 0.035799 -1.114707 -1.869808
 7720000.000000 69.155580 47.235400 0.044951 -1.174207 -1.969613
 7760000.000000 68.055990 46.298510 0.008544 -1.610589 -2.701600
 7800000.000000 66.553290 46.951050 0.105562 -6.060784 -10.166350
 7840000.000000 66.311910 47.329480 0.071873 -4.495251 -7.540328
 7880000.000000 67.529200 46.341090 0.056119 -5.039212 -8.452767
 7920000.000000 67.861160 45.281150 0.153692 -3.819784 -6.407300
 7960000.000000 69.137720 45.519410 0.076370 -1.107519 -1.857751
 8000000.000000 68.658930 46.242890 0.034765 -2.490634 -4.177786
 8040000.000000 68.360660 44.847620 0.117931 -2.843543 -4.769755
 8080000.000000 69.085600 45.396060 0.139832 -2.403545 -4.031703
 8120000.000000 69.670090 45.470530 0.180335 -1.216241 -2.040121
 8160000.000000 69.246450 44.695520 0.228473 -0.342873 -0.575135
 8200000.000000 69.938780 44.540200 0.269765 -0.353089 -0.592272
 8240000.000000 69.436800 44.749270 0.180808 -0.758054 -1.271558
 8280000.000000 69.294360 45.466660 0.180778 -2.355582 -3.951250
 8320000.000000 68.592320 44.713680 0.207771 -2.914840 -4.889348
 8360000.000000 68.728570 44.092690 0.210813 -1.101880 -1.848292
 8400000.000000 68.552510 44.439100 0.304003 -1.835536 -3.078925
 8440000.000000 67.916180 44.536120 0.367344 -7.078775 -11.873927
 8480000.000000 67.738550 43.190570 0.305231 -7.322811 -12.283273
 8520000.000000 67.778230 43.017280 0.299336 -7.667809 -12.861972
 8560000.000000 68.437840 42.837890 0.357188 -7.626637 -12.792910
 8600000.000000 67.937160 41.969140 0.438408 -6.698592 -11.236209
 8640000.000000 68.468150 42.334490 0.410532 -3.951279 -6.627870
 8680000.000000 67.545300 42.483000 0.562163 -7.710474 -12.933538
 8720000.000000 66.833980 42.279280 0.382510 -8.353231 -14.011698
 8760000.000000 68.856720 43.249460 0.317643 -5.386160 -9.034737
 8800000.000000 67.921570 44.169000 0.258049 -4.094969 -6.868895
 8840000.000000 67.522100 44.655250 0.432828 -4.203122 -7.050311
 8880000.000000 67.326840 43.652760 0.448796 -7.573329 -12.703491
 8920000.000000 66.049030 44.884090 0.253461 -7.661466 -12.851332
 8960000.000000 66.614230 45.407730 0.169277 -6.444560 -10.810096
 9000000.000000 67.116760 45.119640 0.152329 -5.847876 -9.809219
 9040000.000000 67.709040 45.568310 0.147246 -2.189449 -3.672579
 9080000.000000 66.825360 45.778380 0.159143 -4.195999 -7.038363
 9120000.000000 66.104610 45.825240 0.135810 -5.828558 -9.776815
 9160000.000000 65.611350 45.781940 0.125665 -7.580768 -12.715969
 9200000.000000 65.845250 47.127320 0.117211 -5.030443 -8.438058
 9240000.000000 67.154480 46.509120 0.108952 -2.215927 -3.716993
 9280000.000000 67.617500 47.326350 0.093996 -3.531663 -5.924006
 9320000.000000 68.291820 46.992160 0.092351 -5.752238 -9.648796
 9360000.000000 67.118680 46.717000 0.172172 -3.061848 -5.135939
 9400000.000000 66.828970 46.931910 0.229001 -2.079356 -3.487909
 9440000.000000 67.150190 45.641990 0.111963 -6.370537 -10.685930
 9480000.000000 68.836440 46.048870 0.198145 -2.865607 -4.806765
 9520000.000000 68.298730 45.441780 0.183648 -1.643103 -2.756139
 9560000.000000 68.999550 45.278530 0.225668 -1.059463 -1.777142
 9600000.000000 70.666850 44.962310 0.182058 1.217893 2.042892
 9640000.000000 69.993600 45.893960 0.199323 -1.149332 -1.927888
 9680000.000000 70.191740 46.534260 0.198424 -1.186187 -1.989708
 9720000.000000 70.247360 45.351610 0.222132 -0.226254 -0.379518
 9760000.000000 71.535840 45.658990 0.234390 -0.161083 -0.270201
 9800000.000000 71.080700 45.876850 0.172184 -0.251904 -0.422543
 9840000.000000 72.138260 46.077620 0.201445 2.786899 4.674740
 9880000.000000 71.263540 45.308760 0.222641 1.861973 3.123271
 9920000.000000 70.917550 45.337100 0.249029 -0.197670 -0.331572
 9960000.000000 72.053640 45.028030 0.293412 4.194794 7.036341
 10000000.000000 70.622040 46.007900 0.263394 -0.626807 -1.051405
 10040000.000000 69.969800 44.883590 0.226643 -0.238764 -0.400503
 10080000.000000 70.338400 44.532940 0.273638 1.137672 1.908329
 10120000.000000 71.521780 44.852280 0.224017 1.703608 2.857630
 10160000.000000 72.337060 45.608880 0.281177 3.191846 5.353998
 10200000.000000 72.438000 44.989560 0.185744 0.043749 0.073384
 10240000.000000 71.486530 44.396360 0.429183 1.184614 1.987070
 10280000.000000 72.548730 45.009940 0.411326 -1.462325 -2.452902
 10320000.000000 71.931150 44.292020 0.475992 -2.330425 -3.909052
 10360000.000000 71.362350 44.255050 0.650556 -0.225360 -0.378018
 10400000.000000 71.248420 45.872980 0.385362 -0.252244 -0.423114
 10440000.000000 71.987720 45.349760 0.328804 4.198702 7.042897
 10480000.000000 70.978460 44.149880 0.494425 -2.472419 -4.147232
 10520000.000000 71.900910 44.742510 0.441342 0.062619 0.105037
 10560000.000000 70.323050 45.156890 0.497861 -0.179181 -0.300557
 10600000.000000 71.687870 45.375090 0.395269 2.777626 4.659186
 10640000.000000 72.109970 44.234500 0.562800 -1.995244 -3.346819
 10680000.000000 72.141660 44.024320 0.549079 1.766670 2.963410
 10720000.000000 72.638420 45.695120 0.295453 0.847915 1.422292
 10760000.000000 72.820990 45.400540 0.393258 -2.278778 -3.822419
 10800000.000000 72.589180 46.850290 0.325880 3.534023 5.927965
 10840000.000000 71.716810 46.338600 0.281655 1.513285 2.538382
 10880000.000000 69.979530 45.953420 0.182008 -1.540677 -2.584329
 10920000.000000 71.001030 45.256600 0.368405 -0.168060 -0.281904
 10960000.000000 70.313600 44.380990 0.319911 1.489316 2.498176
 11000000.000000 70.140570 44.928930 0.330838 -0.476471 -0.799231
 11040000.000000 71.801090 44.360410 0.394282 0.516620 0.866577
 11080000.000000 72.094070 45.292290 0.268237 3.852879 6.462814
 11120000.000000 71.249010 44.854170 0.293634 1.145636 1.921688
 11160000.000000 70.732690 44.398040 0.297819 -0.961155 -1.612239
 11200000.000000 70.527940 44.126130 0.487130 -2.528302 -4.240970
 11240000.000000 70.888100 43.678670 0.528279 0.639651 1.072950
 11280000.000000 70.923340 42.859770 0.487409 1.165458 1.954938
 11320000.000000 70.458420 42.817020 0.630079 1.222286 2.050261
 11360000.000000 69.729070 42.897440 0.507307 -1.165017 -1.954198
 11400000.000000 69.997030 43.373410 0.427182 -1.667460 -2.796995
 11440000.000000 70.156840 43.923040 0.426342 -2.138809 -3.587635
 11480000.000000 70.350380 43.260300 0.421656 1.180946 1.980917
 11520000.000000 70.206560 43.073710 0.550190 -0.086718 -0.145460
 11560000.000000 70.958390 43.215730 0.584349 1.917928 3.217130
 11600000.000000 72.844970 43.519890 0.276292 -2.315415 -3.883874
 11640000.000000 72.831960 44.123890 0.372046 0.212663 0.356720
 11680000.000000 72.470170 44.537960 0.406620 -2.331132 -3.910237
 11720000.000000 73.848690 44.878830 0.327544 -2.394958 -4.017299
 11760000.000000 73.003350 43.593760 0.364282 -1.075336 -1.803767
 11800000.000000 73.747280 44.046040 0.484872 -4.389759 -7.363375
 11840000.000000 72.231510 44.058000 0.571003 1.271050 2.132057
 11880000.000000 71.495840 43.364950 0.510363 2.097072 3.517626
 11920000.000000 70.338650 43.787850 0.520054 0.410849 0.689157
 11960000.000000 70.867810 44.098800 0.453313 -1.585683 -2.659822
 12000000.000000 69.946360 44.026700 0.600526 0.590670 0.990790
 12040000.000000 69.670160 44.038690 0.465677 -0.584314 -0.980128
 12080000.000000 69.180850 44.047100 0.483367 -1.143258 -1.917699
 12120000.000000 70.356790 44.174450 0.501255 0.099415 0.166759
 12160000.000000 68.897650 44.811820 0.430962 -0.418499 -0.701989
 12200000.000000 69.320920 45.152020 0.441852 -0.549117 -0.921087
 12240000.000000 68.850060 45.103340 0.369619 -0.798458 -1.339333
 12280000.000000 68.335390 44.558960 0.431099 -1.892749 -3.174894
 12320000.000000 68.163300 44.215460 0.411755 -3.344078 -5.609352
 12360000.000000 68.501490 43.930150 0.571358 -2.332479 -3.912497
 12400000.000000 69.549600 43.341580 0.500236 -3.725802 -6.249655
 12440000.000000 68.959940 43.091430 0.448213 -2.748701 -4.610667
 12480000.000000 69.967460 44.157090 0.479236 -0.194442 -0.326157
 12520000.000000 69.301570 44.285970 0.424567 -0.327679 -0.549649
 12560000.000000 70.229520 44.613570 0.322094 1.090120 1.828566
 12600000.000000 69.830090 45.217370 0.301865 -1.143814 -1.918632
 12640000.000000 69.323030 46.384480 0.346538 -1.216332 -2.040274
 12680000.000000 72.425250 47.157790 0.216926 3.176543 5.328329
 12720000.000000 72.014340 46.343560 0.171278 2.499970 4.193446
 12760000.000000 72.516440 46.409910 0.233764 3.046733 5.110586
 12800000.000000 73.470340 46.439780 0.202652 1.449519 2.431421
 12840000.000000 73.307090 47.464110 0.147000 2.629981 4.411526
 12880000.000000 73.964780 46.776960 0.197000 -0.829300 -1.391066
 12920000.000000 73.245370 47.195970 0.247235 0.679178 1.139253
 12960000.000000 74.236450 46.800420 0.242382 -1.009656 -1.693596
 13000000.000000 72.988450 45.737200 0.269063 -2.331161 -3.910286
 13040000.000000 73.006080 46.633670 0.214788 2.426711 4.070562
 13080000.000000 71.899470 47.303030 0.189399 2.395889 4.018861
 13120000.000000 72.440800 46.942120 0.147902 0.863961 1.449207
 13160000.000000 71.454780 47.018250 0.228838 1.514840 2.540990
 13200000.000000 71.111980 47.781170 0.098783 -0.333135 -0.558801
 13240000.000000 72.278760 48.711960 0.137960 -0.205194 -0.344192
 13280000.000000 72.897810 48.090850 0.117619 1.561002 2.618422
 13320000.000000 73.315430 47.164790 0.085475 1.331808 2.233973
 13360000.000000 72.699720 46.467950 0.187073 3.056198 5.126462
 13400000.000000 72.077810 47.629440 0.124932 -0.155513 -0.260858
 13440000.000000 71.951230 47.804370 0.121321 -0.166294 -0.278941
 13480000.000000 72.295730 47.173540 0.129918 2.379756 3.991799
 13520000.000000 71.687930 47.308220 0.182925 1.739157 2.917259
 13560000.000000 71.757170 46.680260 0.138439 1.021351 1.713213
 13600000.000000 69.944740 46.856950 0.215977 -1.232932 -2.068118
 13640000.000000 70.607030 47.280680 0.096630 -1.141107 -1.914091
 13680000.000000 69.408340 45.346370 0.175883 -0.559294 -0.938158
 13720000.000000 69.691950 46.836190 0.133001 -1.355093 -2.273031
 13760000.000000 70.232240 48.089540 0.066027 -1.211255 -2.031757
 13800000.000000 68.700110 47.133680 0.071792 -3.325841 -5.578761
 13840000.000000 69.811680 46.595570 0.063031 -1.177808 -1.975653
 13880000.000000 69.928410 46.847870 0.123294 -1.172874 -1.967377
 13920000.000000 70.120540 47.574460 0.039668 -1.256524 -2.107692
 13960000.000000 69.548860 47.369170 0.068804 -1.219020 -2.044782
 14000000.000000 68.796490 47.797180 0.059935 -1.107541 -1.857788
 14040000.000000 69.628430 48.105420 0.013359 -1.091724 -1.831256
 14080000.000000 70.882310 46.490350 0.122328 -1.209905 -2.029493
 14120000.000000 72.315210 45.748440 0.103765 2.416360 4.053199
 14160000.000000 72.698100 45.874630 0.138342 1.013597 1.700206
 14200000.000000 70.990250 46.916380 0.098111 0.343775 0.576648
 14240000.000000 72.337950 46.252340 0.136894 2.139651 3.589047
 14280000.000000 71.889720 46.658130 0.135222 -0.653737 -1.096577
 14320000.000000 73.554120 47.725300 0.105093 3.758671 6.304789
 14360000.000000 72.415880 48.336860 0.070470 -0.195248 -0.327509
 14400000.000000 72.152300 47.792270 0.123621 -0.170548 -0.286077
 14440000.000000 70.534330 47.949360 0.083941 -1.111149 -1.863840
 14480000.000000 72.766790 48.073600 0.066856 -0.004385 -0.007356
 14520000.000000 71.549010 48.152040 0.107407 -0.228319 -0.382982
 14560000.000000 71.839290 49.082950 0.060390 -0.309410 -0.519003
 14600000.000000 72.615780 49.452500 0.000436 -0.786443 -1.319179
 14640000.000000 72.280190 49.596620 0.010622 -1.536705 -2.577667
 14680000.000000 71.680850 50.693120 0.000856 -2.918344 -4.895226
 14720000.000000 72.638640 50.196730 0.062106 -2.537134 -4.255785
 14760000.000000 72.462380 50.336620 0.014948 -3.756868 -6.301765
 14800000.000000 71.053470 49.702710 0.057039 -1.384773 -2.322816
 14840000.000000 70.819080 48.629990 0.063868 -0.978624 -1.641543
 14880000.000000 71.044240 48.682940 0.068841 -0.419526 -0.703712
 14920000.000000 70.709780 49.071430 0.067645 -1.165343 -1.954745
 14960000.000000 69.623690 49.101930 0.062765 -1.728880 -2.900021
 15000000.000000 70.486350 50.583540 0.059375 -3.034401 -5.089900
 15040000.000000 70.179040 49.279060 0.062354 -2.514861 -4.218424
 15080000.000000 69.207410 49.101930 0.063505 -2.017445 -3.384059
 15120000.000000 70.545090 48.878520 0.061946 -1.201004 -2.014562
 15160000.000000 68.909420 48.874520 0.000041 -1.502370 -2.520073
 15200000.000000 71.313770 49.486330 0.062584 -1.122595 -1.883039
 15240000.000000 68.985920 48.003810 0.056758 -1.183381 -1.985002
 15280000.000000 69.733660 49.140000 0.013312 -1.174927 -1.970821
 15320000.000000 69.489470 48.518000 0.059137 -1.087023 -1.823371
 15360000.000000 69.531860 49.550680 0.012137 -2.796581 -4.690981
 15400000.000000 69.870600 48.453230 0.014027 -1.461016 -2.450706
 15440000.000000 68.786690 47.650760 0.062776 -1.194933 -2.004379
 15480000.000000 69.134140 49.510160 0.000155 -3.071692 -5.152452
 15520000.000000 68.772870 50.302980 0.045315 -4.327937 -7.259675
 15560000.000000 68.868210 50.025660 0.000000 -3.215755 -5.394103
 15600000.000000 69.435560 48.599950 0.050650 -1.122350 -1.882628
 15640000.000000 69.618110 49.394460 0.000103 -2.603812 -4.367630
 15680000.000000 71.007790 49.226050 0.002018 -1.223624 -2.052505
 15720000.000000 71.384160 50.136830 0.005431 -2.652462 -4.449236
 15760000.000000 72.095360 49.670880 0.001328 -1.245409 -2.089047
 15800000.000000 70.954990 50.614380 0.000087 -2.034319 -3.412364
 15840000.000000 70.473460 50.188560 0.000135 -2.840083 -4.763951
 15880000.000000 71.311290 50.571010 0.001159 -1.858623 -3.117652
 15920000.000000 70.290440 50.721650 0.000000 -3.216145 -5.394757
 15960000.000000 72.608290 50.347110 0.062392 -3.051996 -5.119414
 16000000.000000 73.192730 50.713880 0.000937 -1.869804 -3.136407
 16040000.000000 72.878840 49.769280 0.000735 -1.644285 -2.758121
 16080000.000000 73.011030 51.614640 0.001343 -2.971738 -4.984789
 16120000.000000 72.063260 51.568090 0.000745 -2.970746 -4.983125
 16160000.000000 73.600390 51.018770 0.000608 -3.071105 -5.151467
 16200000.000000 73.251880 50.605160 0.000393 -1.550811 -2.601328
 16240000.000000 73.711950 51.807840 0.007378 -3.883107 -6.513518
 16280000.000000 72.025270 51.709410 0.000041 -2.965012 -4.973507
 16320000.000000 70.903670 51.380690 0.000001 -2.457734 -4.122599
 16360000.000000 71.595440 51.642940 0.000047 -2.967512 -4.977700
 16400000.000000 70.367190 51.377510 0.000021 -3.039741 -5.098857
 16440000.000000 69.739620 51.347410 0.000072 -3.058947 -5.131073
 16480000.000000 71.228670 50.785360 0.006607 -2.966639 -4.976236
 16520000.000000 71.965680 50.996850 0.062527 -2.758714 -4.627463
 16560000.000000 70.988790 51.607830 0.000013 -2.167834 -3.636322
 16600000.000000 71.854710 52.157780 0.039091 -2.973720 -4.988114
 16640000.000000 73.113850 52.203640 0.000007 -3.074074 -5.156447
 16680000.000000 75.384240 51.722240 0.000979 -5.068718 -8.502260
 16720000.000000 74.050180 51.580170 0.011038 -1.767113 -2.964153
 16760000.000000 74.441610 51.299430 0.003432 -3.290062 -5.518745
 16800000.000000 73.125220 50.252390 0.004034 -1.299393 -2.179600
 16840000.000000 72.673510 50.126440 0.010518 -3.188634 -5.348610
 16880000.000000 74.022060 50.774770 0.025411 -2.326706 -3.902813
 16920000.000000 75.899690 51.693000 0.038810 -3.492451 -5.858232
 16960000.000000 75.149910 50.544020 0.005820 -4.544608 -7.623119
 17000000.000000 75.502250 49.955710 0.002243 -6.750375 -11.323069
 17040000.000000 75.212850 50.543590 0.000219 -3.167296 -5.312818
 17080000.000000 74.749300 51.179000 0.000000 -4.441931 -7.450889
 17120000.000000 73.665340 51.699540 0.000000 -3.180279 -5.334595
 17160000.000000 72.614240 51.209190 0.000000 -3.031821 -5.085572
 17200000.000000 74.253480 51.809780 0.000000 -3.082645 -5.170824
 17240000.000000 74.738660 51.435930 0.000000 -2.690539 -4.513106
 17280000.000000 76.000450 50.876480 0.000000 -2.937641 -4.927595
 17320000.000000 75.324610 50.617080 0.001031 -3.096033 -5.193281
 17360000.000000 75.624680 52.042300 0.000040 -3.172407 -5.321391
 17400000.000000 75.939270 52.052240 0.000011 -4.833052 -8.106954
 17440000.000000 75.167140 51.893900 0.000007 -3.338384 -5.599800
 17480000.000000 74.402330 51.995000 0.000012 -3.065266 -5.141673
 17520000.000000 74.184560 50.810150 0.000011 -5.131976 -8.608369
 17560000.000000 74.106780 49.719740 0.003704 -2.871679 -4.816950
 17600000.000000 74.209770 48.903140 0.000009 -1.000171 -1.677685
 17640000.000000 73.489990 49.086330 0.003750 -0.967479 -1.622848
 17680000.000000 73.659700 49.130710 0.002348 -1.794503 -3.010097
 17720000.000000 72.922900 49.734000 0.038429 -1.965540 -3.296994
 17760000.000000 72.516670 50.661350 0.021658 -3.306502 -5.546322
 17800000.000000 72.212380 50.787660 0.023413 -1.759222 -2.950916
 17840000.000000 73.629740 51.452550 0.046472 -4.959003 -8.318224
 17880000.000000 73.644330 50.562330 0.006204 -2.079151 -3.487565
 17920000.000000 74.437280 50.322290 0.000014 -3.714207 -6.230205
 17960000.000000 75.626460 50.983200 0.008152 -2.559818 -4.293835
 18000000.000000 76.293230 50.131700 0.015330 -6.818952 -11.438100
 18040000.000000 74.392980 50.193170 0.060510 -2.624409 -4.402180
 18080000.000000 73.928880 49.961930 0.027159 -3.626548 -6.083166
 18120000.000000 73.875430 49.563750 0.059731 -2.703489 -4.534829
 18160000.000000 73.908710 50.480260 0.000000 -2.137927 -3.586156
 18200000.000000 73.787300 48.931520 0.001930 -1.100204 -1.845481
 18240000.000000 73.775180 48.336460 0.006648 0.748041 1.254763
 18280000.000000 74.925620 49.461320 0.000177 -2.156293 -3.616963
 18320000.000000 74.939800 49.607480 0.010784 -3.993146 -6.698097
 18360000.000000 75.086130 49.713460 0.000114 -5.001024 -8.388710
 18400000.000000 75.154470 50.024680 0.062500 -4.220357 -7.079221
 18440000.000000 75.016730 48.822970 0.029687 -1.112024 -1.865307
 18480000.000000 75.108000 48.589690 0.059782 -2.095683 -3.515296
 18520000.000000 76.468720 49.686790 0.062478 -6.355119 -10.660067
 18560000.000000 75.234500 50.334460 0.003071 -2.733963 -4.585946
 18600000.000000 76.636580 50.716510 0.056516 -5.250997 -8.808015
 18640000.000000 76.491580 51.653700 0.000081 -7.280745 -12.212711
 18680000.000000 77.213120 51.655810 0.002912 -7.436976 -12.474773
 18720000.000000 76.388710 52.026270 0.000495 -6.680681 -11.206165
 18760000.000000 77.034400 51.833660 0.000000 -8.354801 -14.014331
 18800000.000000 77.166750 50.989120 0.000053 -7.284742 -12.219416
 18840000.000000 76.786420 50.856670 0.004888 -5.623720 -9.433220
 18880000.000000 76.322060 51.015860 0.009188 -5.016307 -8.414346
 18920000.000000 75.699810 50.683930 0.019846 -2.929556 -4.914033
 18960000.000000 76.188580 50.893920 0.000604 -4.293733 -7.202302
 19000000.000000 74.909820 50.078490 0.062384 -4.966038 -8.330025
 19040000.000000 74.482890 50.593180 0.058134 -4.133156 -6.932950
 19080000.000000 76.382110 50.508940 0.000771 -5.318653 -8.921501
 19120000.000000 77.104700 50.380140 0.000909 -7.267954 -12.191255
 19160000.000000 76.064270 49.548280 0.055397 -5.013133 -8.409022
 19200000.000000 75.737580 50.847190 0.000775 -3.037740 -5.095501
 19240000.000000 75.284750 50.863810 0.062423 -2.753425 -4.618591
 19280000.000000 76.519320 49.301270 0.002914 -3.179585 -5.333431
 19320000.000000 77.067980 49.620250 0.000779 -7.283576 -12.217460
 19360000.000000 76.976250 49.568100 0.058833 -7.138170 -11.973556
 19400000.000000 77.123370 50.724300 0.062500 -7.284669 -12.219293
 19440000.000000 76.406270 49.630480 0.032187 -5.197442 -8.718182
 19480000.000000 75.445810 49.109400 0.062273 -1.074324 -1.802070
 19520000.000000 74.562800 48.357600 0.056763 -0.977248 -1.639234
 19560000.000000 76.301250 48.869510 0.047654 -3.921840 -6.578489
 19600000.000000 75.303620 48.088430 0.076788 -0.495676 -0.831446
 19640000.000000 74.430630 48.300190 0.062155 -0.544428 -0.913224
 19680000.000000 74.282970 48.178530 0.103318 1.171728 1.965455
 19720000.000000 74.047320 49.068430 0.059091 -0.525834 -0.882033
 19760000.000000 74.512310 49.378200 0.062819 -1.361231 -2.283327
 19800000.000000 75.395500 49.374950 0.062116 -1.758670 -2.949991
 19840000.000000 73.933260 48.197730 0.063149 1.225874 2.056279
 19880000.000000 72.668220 48.630690 0.074384 -0.570406 -0.956797
 19920000.000000 72.949350 48.995560 0.058019 -0.975787 -1.636783
 19960000.000000 73.700150 47.910310 0.063172 3.232930 5.422912
 20000000.000000 72.307420 48.556950 0.055321 -0.183192 -0.307286
 20040000.000000 73.929970 48.454520 0.001034 -0.184619 -0.309680
 20080000.000000 73.127890 47.510400 0.060794 3.162531 5.304825
 20120000.000000 74.541570 47.760430 0.062311 0.664552 1.114718
 20160000.000000 74.575790 47.271760 0.062660 -1.829456 -3.068727
 20200000.000000 75.243020 47.143850 0.065149 -2.565340 -4.303098
 20240000.000000 75.236220 47.949850 0.087236 -1.388744 -2.329477
 20280000.000000 73.498600 49.488730 0.062139 -2.362619 -3.963054
 20320000.000000 73.156240 49.890770 0.063021 -3.216132 -5.394735
 20360000.000000 73.566590 49.446980 0.062588 -1.245552 -2.089287
 20400000.000000 74.938550 49.041720 0.067140 -1.043272 -1.749983
 20440000.000000 72.352000 49.187290 0.064275 -0.303999 -0.509928
 20480000.000000 72.226560 48.975110 0.062500 -0.185305 -0.310830
 20520000.000000 73.847630 49.330980 0.060600 -2.293401 -3.846948
 20560000.000000 74.120770 49.548240 0.061977 -4.318495 -7.243837
 20600000.000000 73.542220 50.959210 0.062482 -3.432657 -5.757934
 20640000.000000 73.455150 51.478570 0.006672 -5.162733 -8.659961
 20680000.000000 74.764270 50.727260 0.000507 -4.611258 -7.734917
 20720000.000000 73.555930 51.293490 0.036931 -3.006891 -5.043755
 20760000.000000 74.304250 50.708430 0.040953 -6.842976 -11.478398
 20800000.000000 72.635690 51.911130 0.000132 -2.989541 -5.014652
 20840000.000000 73.197020 52.058890 0.023772 -3.432710 -5.758023
 20880000.000000 72.607380 51.771120 0.016354 -2.968158 -4.978784
 20920000.000000 74.066190 51.769240 0.010604 -4.045233 -6.785468
 20960000.000000 75.982220 52.192820 0.000004 -7.712988 -12.937755
 21000000.000000 74.971860 51.640810 0.000446 -3.865698 -6.484316
 21040000.000000 75.499370 51.925380 0.000006 -5.175294 -8.681031
 21080000.000000 74.105670 51.645910 0.000001 -2.980555 -4.999579
 21120000.000000 74.807910 50.619040 0.000003 -3.899204 -6.540519
 21160000.000000 74.461380 51.334510 0.000211 -3.267418 -5.480762
 21200000.000000 71.318810 50.749370 0.001360 -1.994533 -3.345627
 21240000.000000 72.005040 50.658260 0.000001 -2.273018 -3.812757
 21280000.000000 71.776590 50.745530 0.000024 -2.998117 -5.029037
 21320000.000000 72.660930 50.163840 0.012266 -2.297007 -3.852996
 21360000.000000 71.536150 50.238470 0.000087 -3.042990 -5.104307
 21400000.000000 69.399020 50.490790 0.011734 -3.452951 -5.791975
 21440000.000000 70.636520 50.396190 0.008060 -2.746444 -4.606881
 21480000.000000 71.427730 50.103190 0.000004 -2.071543 -3.474803
 21520000.000000 71.192080 49.590220 0.007777 -1.269931 -2.130180
 21560000.000000 71.722170 49.786900 0.001124 -1.450887 -2.433716
 21600000.000000 70.658460 49.445590 0.000046 -1.502587 -2.520437
 21640000.000000 71.655990 49.893250 0.000003 -2.816776 -4.724856
 21680000.000000 71.841500 50.032860 0.000397 -1.739134 -2.917221
 21720000.000000 71.547150 50.644970 0.000001 -2.121337 -3.558328
 21760000.000000 72.118360 50.234180 0.000001 -4.996403 -8.380959
 21800000.000000 70.895570 50.937370 0.000000 -1.782261 -2.989562
 21840000.000000 69.653510 49.993940 0.045336 -3.012499 -5.053161
 21880000.000000 70.025540 51.288100 0.000000 -3.297402 -5.531057
 21920000.000000 69.818530 51.328530 0.000027 -3.040952 -5.100888
 21960000.000000 69.208740 51.340580 0.000216 -3.178032 -5.330826
 22000000.000000 69.943290 51.472150 0.006464 -3.322863 -5.573766
 22040000.000000 70.949900 51.747520 0.000129 -2.532543 -4.248084
 22080000.000000 70.071830 51.694210 0.000012 -4.548553 -7.629736
 22120000.000000 68.117150 50.421820 0.003881 -4.188267 -7.025393
 22160000.000000 68.763170 50.933860 0.019264 -3.250192 -5.451867
 22200000.000000 68.950400 50.356230 0.000084 -3.307379 -5.547793
 22240000.000000 67.941980 51.763980 0.000000 -7.273126 -12.199931
 22280000.000000 69.049760 50.194890 0.000000 -3.119965 -5.233425
 22320000.000000 69.997150 49.514460 0.000001 -3.003823 -5.038608
 22360000.000000 69.300460 49.730710 0.000000 -2.996661 -5.026595
 22400000.000000 68.927370 49.187820 0.000000 -1.136986 -1.907179
 22440000.000000 69.282890 49.474380 0.000002 -1.610462 -2.701387
 22480000.000000 68.706660 49.094690 0.000012 -1.149480 -1.928136
 22520000.000000 67.990930 49.735780 0.000000 -4.097233 -6.872693
 22560000.000000 68.724400 48.963260 0.000007 -1.337005 -2.242690
 22600000.000000 68.878190 48.467340 0.000035 -1.099895 -1.844962
 22640000.000000 67.698800 49.700100 0.000003 -3.017527 -5.061595
 22680000.000000 69.678550 49.413220 0.000013 -1.702391 -2.855588
 22720000.000000 70.257860 48.946100 0.000047 -1.317081 -2.209270
 22760000.000000 70.601110 48.873460 0.000014 -1.135186 -1.904159
 22800000.000000 69.455770 49.295930 0.000062 -1.166468 -1.956632
 22840000.000000 68.442050 49.184700 0.000003 -1.251519 -2.099296
 22880000.000000 70.388100 49.413620 0.000000 -2.028108 -3.401945
 22920000.000000 70.001550 48.520740 0.000805 -2.017028 -3.383360
 22960000.000000 71.442720 48.814860 0.000004 -0.255295 -0.428232
 23000000.000000 69.731540 48.731960 0.000000 -2.018591 -3.385982
 23040000.000000 69.643130 48.851350 0.000459 -1.212561 -2.033948
 23080000.000000 70.443430 50.436390 0.008574 -2.989091 -5.013897
 23120000.000000 71.123060 49.528390 0.001194 -0.823564 -1.381445
 23160000.000000 71.666560 49.237320 0.027709 -0.370618 -0.621673
 23200000.000000 71.865140 49.176320 0.030351 -0.286708 -0.480923
 23240000.000000 71.144450 48.478890 0.029708 -1.096553 -1.839356
 23280000.000000 71.872130 49.046470 0.053571 -0.372963 -0.625607
 23320000.000000 71.365610 49.880970 0.002086 -2.530046 -4.243895
 23360000.000000 72.557500 50.553750 0.000000 -2.989205 -5.014088
 23400000.000000 71.984490 51.353320 0.000000 -2.967601 -4.977850
 23440000.000000 71.739150 51.628420 0.000000 -2.990316 -5.015952
 23480000.000000 71.656730 51.610430 0.000000 -2.981793 -5.001655
 23520000.000000 72.066430 50.169790 0.000006 -2.969529 -4.981084
 23560000.000000 72.570800 51.941180 0.009083 -2.975363 -4.990870
 23600000.000000 72.560330 51.809610 0.000155 -2.966749 -4.976420
 23640000.000000 71.177410 51.670720 0.000008 -2.972297 -4.985727
 23680000.000000 70.612940 50.558140 0.000000 -2.977423 -4.994325
 23720000.000000 72.149190 52.080400 0.000000 -2.972581 -4.986203
 23760000.000000 71.454520 51.523080 0.000000 -2.975736 -4.991495
 23800000.000000 70.840720 51.895980 0.000000 -2.977349 -4.994201
 23840000.000000 70.145720 51.481290 0.000000 -3.003158 -5.037493
 23880000.000000 69.463470 52.291620 0.000000 -7.671960 -12.868935
 23920000.000000 69.499850 51.658400 0.000000 -3.352288 -5.623123
 23960000.000000 68.611620 52.185980 0.000000 -5.295939 -8.883400
 24000000.000000 67.837790 52.004530 0.000000 -9.157684 -15.361086
 24040000.000000 68.851500 51.313910 0.000000 -3.108751 -5.214614
 24080000.000000 70.759050 52.029020 0.000000 -3.400878 -5.704628
 24120000.000000 69.623460 51.965210 0.000000 -3.189557 -5.350158
 24160000.000000 69.254810 51.746860 0.000000 -4.419563 -7.413369
 24200000.000000 68.258220 50.810190 0.000000 -3.716235 -6.233607
 24240000.000000 69.130130 50.692730 0.000000 -3.120059 -5.233582
 24280000.000000 68.865430 51.447110 0.000000 -4.082085 -6.847283
 24320000.000000 66.824580 51.749950 0.000000 -6.645799 -11.147654
 24360000.000000 67.506020 52.088530 0.000000 -9.223676 -15.471781
 24400000.000000 67.851260 51.920520 0.000011 -7.509400 -12.596257
 24440000.000000 68.489370 52.241930 0.000000 -9.113072 -15.286254
 24480000.000000 67.895320 50.926530 0.000000 -6.109991 -10.248890
 24520000.000000 67.143470 50.764480 0.000000 -5.287079 -8.868539
 24560000.000000 67.082980 50.184530 0.000000 -4.243780 -7.118510
 24600000.000000 65.252700 50.608580 0.000000 -6.935065 -11.632868
 24640000.000000 64.132270 50.101350 0.000000 -8.473037 -14.212660
 24680000.000000 64.616620 49.921890 0.000000 -7.148532 -11.990937
 24720000.000000 66.145820 50.635500 0.000000 -4.799915 -8.051370
 24760000.000000 66.820640 50.632260 0.000000 -5.481648 -9.194908
 24800000.000000 66.144160 49.809340 0.000000 -7.205263 -12.086098
 24840000.000000 64.727800 49.268770 0.000000 -6.657458 -11.167210
 24880000.000000 65.879210 48.427040 0.000002 -6.628662 -11.118908
 24920000.000000 64.580220 47.056050 0.000000 -8.442234 -14.160991
 24960000.000000 65.671060 45.845460 0.000018 -7.578986 -12.712980
 25000000.000000 64.645700 45.606250 0.000002 -8.025000 -13.461123
 25040000.000000 66.282180 44.154130 0.000155 -8.685220 -14.568575
 25080000.000000 64.858600 45.206030 0.000000 -8.041716 -13.489163
 25120000.000000 66.134820 45.733920 0.000006 -6.083896 -10.205118
 25160000.000000 64.535570 46.929030 0.000000 -8.444465 -14.164733
 25200000.000000 65.344450 47.308310 0.000000 -6.399805 -10.735024
 25240000.000000 66.512670 46.991130 0.000000 -6.531966 -10.956710
 25280000.000000 65.921120 48.122220 0.000000 -4.277099 -7.174400
 25320000.000000 65.257790 47.665680 0.000001 -6.804806 -11.414372
 25360000.000000 65.710790 46.476370 0.000000 -5.239308 -8.788408
 25400000.000000 65.094100 46.455200 0.000000 -7.565153 -12.689777
 25440000.000000 65.613050 45.499630 0.000018 -8.023423 -13.458478
 25480000.000000 67.022860 47.319720 0.000001 -4.296140 -7.206339
 25520000.000000 66.016970 47.314930 0.000000 -6.266581 -10.511554
 25560000.000000 66.440840 47.120160 0.000000 -4.520548 -7.582761
 25600000.000000 67.285620 47.538550 0.000036 -3.634872 -6.097129
 25640000.000000 67.300620 46.859490 0.000010 -1.708110 -2.865181
 25680000.000000 68.188280 46.764690 0.000001 -3.974979 -6.667624
 25720000.000000 67.860540 45.508850 0.000018 -4.966154 -8.330220
 25760000.000000 67.463630 44.565390 0.004902 -5.396649 -9.052331
 25800000.000000 67.186130 45.310620 0.000000 -5.428220 -9.105288
 25840000.000000 66.561660 44.309340 0.012781 -7.771882 -13.036544
 25880000.000000 65.674970 44.142900 0.000142 -8.702577 -14.597690
 25920000.000000 64.847100 44.831280 0.000063 -8.606165 -14.435969
 25960000.000000 64.228580 44.947790 0.000000 -8.593648 -14.414973
 26000000.000000 63.832060 45.628300 0.000001 -8.588170 -14.405784
 26040000.000000 65.012510 45.231660 0.000231 -8.026376 -13.463431
 26080000.000000 65.201040 45.663010 0.000140 -7.633777 -12.804886
 26120000.000000 65.161790 43.761210 0.000233 -8.707574 -14.606072
 26160000.000000 65.907790 45.359240 0.000030 -7.569549 -12.697151
 26200000.000000 66.398710 45.650400 0.000021 -7.654819 -12.840182
 26240000.000000 66.138800 44.583620 0.054543 -6.887532 -11.553136
 26280000.000000 67.740020 44.508040 0.033196 -4.798010 -8.048175
 26320000.000000 67.294220 43.440350 0.063959 -8.001959 -13.422474
 26360000.000000 67.852540 44.695520 0.048336 -7.563509 -12.687019
 26400000.000000 66.498440 43.953950 0.048556 -8.331033 -13.974463
 26440000.000000 65.622290 44.435910 0.056044 -8.109329 -13.602577
 26480000.000000 66.222660 44.471290 0.060035 -8.030713 -13.470706
 26520000.000000 67.731320 44.007530 0.090410 -4.975104 -8.345232
 26560000.000000 67.323140 43.601080 0.042337 -7.595794 -12.741174
 26600000.000000 67.041910 42.990700 0.047809 -8.324403 -13.963342
 26640000.000000 68.637130 42.540820 0.086049 -2.583596 -4.333720
 26680000.000000 67.055100 44.031150 0.032023 -7.404182 -12.419764
 26720000.000000 66.655380 43.330890 0.123013 -8.133551 -13.643207
 26760000.000000 67.956290 42.912910 0.186992 -7.654782 -12.840120
 26800000.000000 68.501960 44.135150 0.115408 -1.604896 -2.692050
 26840000.000000 67.811730 43.427690 0.081982 -7.715391 -12.941786
 26880000.000000 68.211780 42.898200 0.186531 -7.654313 -12.839334
 26920000.000000 67.065170 43.460980 0.172040 -7.866731 -13.195643
 26960000.000000 67.578270 42.823330 0.171275 -7.931178 -13.303746
 27000000.000000 67.638120 42.007950 0.113917 -7.724458 -12.956995
 27040000.000000 68.041360 42.994420 0.179995 -7.654729 -12.840031
 27080000.000000 66.074180 43.193740 0.142960 -8.699961 -14.593302
 27120000.000000 65.953340 42.474040 0.150323 -8.707057 -14.605205
 27160000.000000 67.433300 43.109770 0.109371 -8.129894 -13.637072
 27200000.000000 66.694610 42.072150 0.123565 -8.243159 -13.827063
 27240000.000000 68.008300 43.078350 0.203620 -7.656586 -12.843146
 27280000.000000 67.831750 43.416750 0.114661 -7.676053 -12.875800
 27320000.000000 67.131610 44.052790 0.000152 -6.384974 -10.710146
 27360000.000000 68.689370 43.747080 0.071435 -3.167499 -5.313158
 27400000.000000 68.140620 42.959440 0.170446 -7.654276 -12.839271
 27440000.000000 68.579460 42.985100 0.110849 -5.950324 -9.981065
 27480000.000000 69.120320 42.624550 0.084413 -2.276118 -3.817957
 27520000.000000 67.678930 41.732200 0.182343 -6.146962 -10.310905
 27560000.000000 67.011900 42.034180 0.178844 -8.039360 -13.485211
 27600000.000000 67.284700 43.277150 0.099556 -8.224401 -13.795598
 27640000.000000 68.278270 42.141850 0.220320 -3.378906 -5.667772
 27680000.000000 67.875980 42.054930 0.193215 -5.863354 -9.835181
 27720000.000000 68.471150 42.333090 0.133748 -3.886009 -6.518386
 27760000.000000 67.952400 43.108410 0.102209 -7.655612 -12.841512
 27800000.000000 68.843030 42.961840 0.192820 -4.669051 -7.831859
 27840000.000000 68.643990 43.967470 0.066928 -2.563967 -4.300795
 27880000.000000 69.491080 44.596980 0.112372 -0.332543 -0.557806
 27920000.000000 67.751250 43.877510 0.040556 -6.016379 -10.091865
 27960000.000000 68.952300 43.971610 0.182999 -1.878164 -3.150430
 28000000.000000 67.973560 44.582220 0.145369 -7.527082 -12.625916
 28040000.000000 67.857190 43.575240 0.126410 -6.471600 -10.855452
 28080000.000000 68.677770 43.764880 0.069688 -3.125628 -5.242924
 28120000.000000 68.643640 43.616860 0.110399 -3.261654 -5.471094
 28160000.000000 69.252060 43.456200 0.097674 -2.580909 -4.329213
 28200000.000000 68.964790 44.741770 0.073839 -0.462489 -0.775779
 28240000.000000 68.345140 43.985810 0.029884 -2.956394 -4.959051
 28280000.000000 68.822970 44.206960 0.119998 -1.304572 -2.188287
 28320000.000000 68.763470 44.290930 0.164499 -2.373017 -3.980495
 28360000.000000 68.331100 44.089320 0.176448 -2.657619 -4.457886
 28400000.000000 68.130600 44.643340 0.109257 -5.848300 -9.809930
 28440000.000000 68.383320 45.327030 0.007147 -1.305924 -2.190555
 28480000.000000 67.425930 45.326460 0.003643 -3.240691 -5.435930
 28520000.000000 66.901940 45.509950 0.000086 -6.920088 -11.607746
 28560000.000000 67.600880 44.807360 0.050558 -3.153139 -5.289071
 28600000.000000 67.217270 44.605500 0.063887 -4.426544 -7.425078
 28640000.000000 68.036580 44.683310 0.077371 -7.562448 -12.685239
 28680000.000000 69.815010 45.092680 0.017837 -1.626236 -2.727846
 28720000.000000 69.769750 45.348300 0.010380 -1.174749 -1.970522
 28760000.000000 70.171800 44.712430 0.091545 -0.100326 -0.168287
 28800000.000000 69.330980 45.173070 0.067554 -0.369075 -0.619086
 28840000.000000 69.107430 44.660290 0.096724 -1.711886 -2.871515
 28880000.000000 69.267730 43.875350 0.116949 -2.101105 -3.524390
 28920000.000000 69.024650 44.392090 0.127952 -1.459716 -2.448526
 28960000.000000 68.725930 44.671320 0.075654 -1.943799 -3.260526
 29000000.000000 68.392870 44.838300 0.047074 -2.386021 -4.002308
 29040000.000000 67.881890 44.258350 0.183923 -5.880569 -9.864058
 29080000.000000 67.664280 45.788990 0.089587 -3.175877 -5.327211
 29120000.000000 69.306240 45.234960 0.129376 -0.321290 -0.538932
 29160000.000000 68.601970 45.651690 0.126793 -2.123068 -3.561231
 29200000.000000 68.657810 45.628100 0.137723 -2.009951 -3.371489
 29240000.000000 68.865420 46.043790 0.062218 -2.693884 -4.518717
 29280000.000000 69.192850 45.076550 0.120407 -0.614904 -1.031439
 29320000.000000 69.185890 45.221470 0.078326 -0.701746 -1.177108
 29360000.000000 68.269750 45.759340 0.059481 -1.136895 -1.907026
 29400000.000000 69.640560 44.254500 0.154471 -0.952156 -1.597145
 29440000.000000 69.505390 44.235900 0.135009 -0.175683 -0.294691
 29480000.000000 68.786880 44.612450 0.116036 -1.379896 -2.314636
 29520000.000000 69.807560 44.282450 0.117473 -0.220140 -0.369262
 29560000.000000 67.144850 43.861960 0.108634 -7.566621 -12.692239
 29600000.000000 66.349510 44.203160 0.123899 -8.440513 -14.158104
 29640000.000000 67.339680 43.937080 0.103033 -7.451165 -12.498573
 29680000.000000 68.065910 43.830360 0.094529 -5.060559 -8.488574
 29720000.000000 68.115170 44.634990 0.042034 -5.969455 -10.013155
 29760000.000000 67.470260 45.353440 0.026850 -3.406304 -5.713729
 29800000.000000 67.180760 46.228690 0.060990 -5.070042 -8.504481
 29840000.000000 66.620080 46.559520 0.056252 -2.845580 -4.773172
 29880000.000000 66.398790 45.472050 0.061845 -7.839935 -13.150696
 29920000.000000 66.660170 45.650170 0.059365 -6.205723 -10.409471
 29960000.000000 68.060510 47.632630 0.000003 -1.204274 -2.020047
 30000000.000000 68.805320 46.866020 0.000001 -5.226968 -8.767709
 30040000.000000 67.123070 45.953610 0.000082 -3.366683 -5.647269
 30080000.000000 66.121580 45.641940 0.000502 -7.519473 -12.613153
 30120000.000000 65.259780 44.926890 0.012334 -7.688570 -12.896796
 30160000.000000 65.204440 44.281550 0.033038 -8.123184 -13.625817
 30200000.000000 65.183480 44.959970 0.000047 -7.685285 -12.891286
 30240000.000000 66.525220 44.874780 0.000115 -4.757313 -7.979910
 30280000.000000 65.187690 43.592200 0.058601 -8.701653 -14.596140
 30320000.000000 65.869490 44.361590 0.015701 -8.353307 -14.011825
 30360000.000000 66.380190 43.633090 0.005269 -8.699961 -14.593302
 30400000.000000 64.692230 43.884540 0.055611 -8.942592 -15.000291
 30440000.000000 64.842820 43.415370 0.063201 -8.941224 -14.997996
 30480000.000000 64.510710 43.914000 0.024976 -8.927159 -14.974404
 30520000.000000 64.691830 43.306870 0.000023 -8.942744 -15.000546
 30560000.000000 64.215780 43.509250 0.000000 -8.933240 -14.984604
 30600000.000000 64.420770 42.889210 0.000034 -8.940993 -14.997609
 30640000.000000 65.421690 42.434620 0.000301 -8.700015 -14.593393
 30680000.000000 65.309730 43.143220 0.000001 -8.700729 -14.594590
 30720000.000000 65.084880 43.555230 0.000038 -8.703114 -14.598591
 30760000.000000 63.345820 43.621620 0.000046 -8.924887 -14.970593
 30800000.000000 63.598960 43.135530 0.000013 -8.923971 -14.969056
 30840000.000000 64.035770 43.214780 0.000002 -8.923233 -14.967818
 30880000.000000 63.482050 44.221540 0.000526 -8.938530 -14.993477
 30920000.000000 63.463450 44.458940 0.005685 -8.941147 -14.997867
 30960000.000000 64.198710 44.667190 0.006834 -8.670968 -14.544669
 31000000.000000 63.991240 44.255880 0.000004 -8.942273 -14.999756
 31040000.000000 63.808820 43.999650 0.000001 -8.925059 -14.970881
 31080000.000000 63.498600 44.256170 0.000007 -8.928581 -14.976789
 31120000.000000 64.699500 43.863650 0.000001 -8.942598 -15.000301
 31160000.000000 64.135210 44.209650 0.000410 -8.925557 -14.971716
 31200000.000000 64.416120 44.640640 0.000001 -8.597830 -14.421988
 31240000.000000 64.451660 45.030450 0.000001 -8.616576 -14.453432
 31280000.000000 63.579570 45.040510 0.000000 -8.690451 -14.577350
 31320000.000000 63.655870 45.227250 0.000000 -8.596577 -14.419886
 31360000.000000 65.244490 46.662440 0.000000 -7.564382 -12.688483
 31400000.000000 64.003340 47.056230 0.000000 -8.444263 -14.164395
 31440000.000000 62.930990 46.611090 0.000000 -8.776651 -14.721942
 31480000.000000 64.681460 46.247190 0.000000 -7.630543 -12.799462
 31520000.000000 65.229740 46.559890 0.000000 -7.564753 -12.689106
 31560000.000000 64.419210 46.158730 0.000000 -7.716928 -12.944364
 31600000.000000 64.521670 45.797000 0.000000 -8.571302 -14.377490
 31640000.000000 65.887060 44.617320 0.000000 -7.620988 -12.783434
 31680000.000000 64.229340 45.361060 0.000000 -8.598234 -14.422665
 31720000.000000 66.299470 45.500400 0.000000 -7.810595 -13.101481
 31760000.000000 65.796050 44.884150 0.000000 -6.631989 -11.124489
 31800000.000000 65.045360 43.671100 0.000000 -8.701083 -14.595184
 31840000.000000 64.089340 44.815210 0.000000 -8.625910 -14.469089
 31880000.000000 63.872410 45.178810 0.000000 -8.612613 -14.446785
 31920000.000000 62.582940 45.676110 0.000000 -8.923531 -14.968318
 31960000.000000 64.220620 47.030160 0.000000 -8.444120 -14.164155
 32000000.000000 64.046800 47.184790 0.000000 -8.490250 -14.241533
 32040000.000000 62.986150 46.276860 0.000000 -8.891012 -14.913771
 32080000.000000 63.850670 47.237440 0.000000 -8.444343 -14.164529
 32120000.000000 63.792740 47.636290 0.000000 -8.445146 -14.165876
 32160000.000000 62.557350 47.962130 0.000000 -8.468912 -14.205741
 32200000.000000 62.852190 47.094970 0.000000 -8.467384 -14.203178
 32240000.000000 64.603960 47.581370 0.000000 -8.443766 -14.163561
 32280000.000000 65.800920 46.565830 0.000000 -6.221004 -10.435103
 32320000.000000 64.899350 45.851240 0.000000 -7.642563 -12.819624
 32360000.000000 65.256690 45.355910 0.000000 -8.026654 -13.463898
 32400000.000000 65.852570 46.510400 0.000000 -6.257844 -10.496898
 32440000.000000 66.214540 47.405470 0.000000 -5.923216 -9.935594
 32480000.000000 65.812770 46.991970 0.000000 -5.609904 -9.410045
 32520000.000000 65.206420 46.840390 0.000000 -7.572784 -12.702577
 32560000.000000 65.157510 47.888590 0.000000 -5.128323 -8.602242
 32600000.000000 65.766670 46.755940 0.000000 -6.482378 -10.873531
 32640000.000000 66.708170 46.134580 0.000000 -4.761636 -7.987161
 32680000.000000 67.980670 46.569470 0.000000 -2.584214 -4.334757
 32720000.000000 66.412040 46.526520 0.000000 -4.052196 -6.797148
 32760000.000000 67.514890 46.671350 0.000000 -3.215165 -5.393113
 32800000.000000 68.998650 46.385660 0.000000 -3.761103 -6.308869
 32840000.000000 68.836100 47.131160 0.000005 -2.189883 -3.673307
 32880000.000000 69.704390 46.113100 0.000000 -2.201871 -3.693415
 32920000.000000 71.058990 45.853290 0.026563 -0.272532 -0.457145
 32960000.000000 70.276970 45.614340 0.005834 -0.937828 -1.573111
 33000000.000000 70.022050 45.657730 0.061363 -1.121792 -1.881692
 33040000.000000 71.591930 45.662310 0.062492 -0.168824 -0.283186
 33080000.000000 70.377260 45.318040 0.058405 -0.175882 -0.295024
 33120000.000000 70.674530 45.473380 0.111168 -0.238116 -0.399415
 33160000.000000 70.434120 44.861200 0.062509 -0.113093 -0.189702
 33200000.000000 69.384850 46.008460 0.059672 -1.429429 -2.397722
 33240000.000000 69.219850 45.778900 0.061251 -2.243056 -3.762499
 33280000.000000 71.451060 45.722130 0.056253 -0.169725 -0.284696
 33320000.000000 72.019820 45.673590 0.096016 2.430246 4.076491
 33360000.000000 71.456180 46.069340 0.000293 0.167302 0.280632
 33400000.000000 73.223640 46.214260 0.000869 1.937962 3.250735
 33440000.000000 73.422050 46.396490 0.013637 2.200648 3.691364
 33480000.000000 70.576630 46.792050 0.000085 -1.090183 -1.828671
 33520000.000000 71.874620 46.421090 0.000142 1.235481 2.072394
 33560000.000000 70.696600 45.643570 0.000740 -0.218439 -0.366408
 33600000.000000 69.961140 46.274520 0.000009 -2.600654 -4.362333
 33640000.000000 68.829900 46.794850 0.000000 -4.335849 -7.272947
 33680000.000000 69.031920 45.900380 0.000022 -1.893809 -3.176672
 33720000.000000 70.412370 46.132920 0.000324 -4.058800 -6.808225
 33760000.000000 70.189500 46.410090 0.000434 -1.891813 -3.173324
 33800000.000000 72.208630 46.059690 0.000049 2.911252 4.883330
 33840000.000000 72.978880 46.896510 0.000763 0.646649 1.084689
 33880000.000000 72.307960 46.612040 0.000899 2.710917 4.547288
 33920000.000000 71.977020 47.348690 0.000007 2.722913 4.567410
 33960000.000000 70.899690 46.991870 0.000001 -0.408164 -0.684654
 34000000.000000 70.727480 47.528000 0.000000 -0.347845 -0.583475
 34040000.000000 70.845820 47.509320 0.000002 -0.260843 -0.437537
 34080000.000000 70.558170 47.741130 0.000000 -0.471189 -0.790372
 34120000.000000 72.386940 47.414740 0.052627 3.815000 6.399275
 34160000.000000 72.228770 48.274100 0.002007 -0.178658 -0.299680
 34200000.000000 71.383200 48.038970 0.000509 -0.213536 -0.358185
 34240000.000000 71.497180 47.343360 0.000001 -0.126553 -0.212279
 34280000.000000 73.372750 46.724010 0.004378 1.648913 2.765884
 34320000.000000 73.383830 46.799930 0.011485 -0.177625 -0.297948
 34360000.000000 72.920280 45.936880 0.060384 -1.041806 -1.747524
 34400000.000000 74.313190 46.366510 0.062658 -2.382514 -3.996426
 34440000.000000 74.577420 46.760570 0.094701 -2.361821 -3.961715
 34480000.000000 73.800480 45.268490 0.095983 -2.463456 -4.132198
 34520000.000000 74.097990 46.412350 0.084298 -2.332525 -3.912574
 34560000.000000 74.787550 47.174540 0.008035 -2.008765 -3.369499
 34600000.000000 74.177430 47.744840 0.003794 2.211241 3.709132
 34640000.000000 72.361980 48.201700 0.051932 -0.210337 -0.352819
 34680000.000000 73.001990 47.053490 0.070542 1.069311 1.793661
 34720000.000000 72.216890 45.811370 0.001140 2.460731 4.127627
 34760000.000000 71.719620 45.901930 0.003034 -0.274557 -0.460541
 34800000.000000 73.034580 46.873940 0.000022 0.081818 0.137241
 34840000.000000 72.969750 45.241750 0.093841 -2.331116 -3.910211
 34880000.000000 71.990620 45.111780 0.005426 4.152667 6.965678
 34920000.000000 73.448550 44.660200 0.062469 -2.468857 -4.141257
 34960000.000000 72.974750 46.102870 0.002619 1.849581 3.102484
 35000000.000000 71.946770 44.669340 0.004353 0.846157 1.419343
 35040000.000000 71.224680 44.790570 0.000063 -0.263349 -0.441741
 35080000.000000 72.071480 44.722840 0.000059 1.503302 2.521637
 35120000.000000 72.394670 45.678060 0.000762 3.122758 5.238110
 35160000.000000 71.877210 44.254450 0.018994 -2.171661 -3.642741
 35200000.000000 71.606980 44.769840 0.055352 1.713823 2.874764
 35240000.000000 72.944950 45.618880 0.006520 -2.330694 -3.909503
 35280000.000000 73.026370 45.398070 0.216606 -2.331190 -3.910335
 35320000.000000 73.474860 44.797550 0.146930 -2.341839 -3.928197
 35360000.000000 72.567520 44.162610 0.219725 -0.983543 -1.649794
 35400000.000000 72.816680 44.975250 0.052350 -2.337574 -3.921043
 35440000.000000 73.586260 45.523580 0.082619 -0.061607 -0.103339
 35480000.000000 74.861900 45.593250 0.058945 -5.057333 -8.483163
 35520000.000000 74.505850 46.362220 0.001876 -2.603788 -4.367590
 35560000.000000 74.747050 46.605240 0.003351 -2.720254 -4.562950
 35600000.000000 75.227950 45.692120 0.026634 -6.058429 -10.162400
 35640000.000000 73.897010 45.869860 0.074619 -1.863348 -3.125577
 35680000.000000 73.494940 46.114600 0.052455 2.589960 4.344395
 35720000.000000 73.741910 46.432030 0.053503 -0.304658 -0.511032
 35760000.000000 73.983360 46.858330 0.031963 -0.501012 -0.840398
 35800000.000000 74.833590 46.575940 0.127385 -4.439809 -7.447329
 35840000.000000 75.993810 46.766910 0.127104 -6.902166 -11.577683
 35880000.000000 74.889220 47.363000 0.121031 -0.618283 -1.037107
 35920000.000000 76.731900 46.669640 0.111018 -6.902368 -11.578022
 35960000.000000 76.860460 46.859180 0.066273 -6.618446 -11.101772
 36000000.000000 75.721430 47.202210 0.076755 -4.512403 -7.569098
 36040000.000000 75.457460 47.311820 0.040858 -2.648073 -4.441874
 36080000.000000 75.272390 46.323250 0.119395 -5.781379 -9.697677
 36120000.000000 74.993960 45.793370 0.072878 -6.902252 -11.577827
 36160000.000000 74.742360 48.066270 0.034481 0.341849 0.573418
 36200000.000000 73.911510 47.257100 0.009326 0.484490 0.812683
 36240000.000000 74.358440 47.319380 0.061479 -0.572415 -0.960168
 36280000.000000 73.662040 47.369280 0.001160 0.364611 0.611598
 36320000.000000 71.813010 46.334480 0.010229 1.667872 2.797686
 36360000.000000 72.705410 46.482210 0.061831 3.150216 5.284168
 36400000.000000 73.904320 46.864620 0.064982 -0.408200 -0.684715
 36440000.000000 72.192030 47.739690 0.018122 -0.163759 -0.274689
 36480000.000000 71.760430 47.114370 0.029122 1.430842 2.400092
 36520000.000000 71.493830 46.284070 0.000363 -0.023414 -0.039275
 36560000.000000 71.735340 45.855670 0.060579 0.616908 1.034800
 36600000.000000 72.068160 46.826840 0.007570 2.012590 3.375916
 36640000.000000 70.568910 46.171420 0.030647 -1.346670 -2.258902
 36680000.000000 70.520480 46.409430 0.033509 -1.186807 -1.990748
 36720000.000000 70.996180 45.317450 0.062509 -0.166293 -0.278939
 36760000.000000 69.693300 45.588140 0.061240 -1.366910 -2.292853
 36800000.000000 71.738380 45.312340 0.064421 2.031405 3.407476
 36840000.000000 70.338280 44.506060 0.102678 0.861450 1.444994
 36880000.000000 70.976770 44.875420 0.081172 0.881166 1.478066
 36920000.000000 70.100680 45.601520 0.056493 -1.099376 -1.844092
 36960000.000000 69.953990 44.869600 0.093615 -0.213996 -0.358957
 37000000.000000 71.659720 44.810320 0.060730 2.766028 4.639731
 37040000.000000 70.707230 45.133850 0.058999 -0.170518 -0.286027
 37080000.000000 71.497210 44.603330 0.062542 -1.230703 -2.064379
 37120000.000000 70.291590 43.523090 0.062541 1.164679 1.953631
 37160000.000000 70.771950 44.350980 0.084057 -2.203576 -3.696275
 37200000.000000 71.111560 43.773810 0.176550 -0.950145 -1.593772
 37240000.000000 70.746120 43.630110 0.063183 -0.939563 -1.576021
 37280000.000000 71.626530 44.044630 0.084947 0.164596 0.276093
 37320000.000000 71.296770 44.584290 0.114291 -0.617344 -1.035532
 37360000.000000 71.464150 44.824910 0.063337 2.250684 3.775294
 37400000.000000 71.041790 45.295970 0.062647 -0.162326 -0.272285
 37440000.000000 70.283870 44.475240 0.062753 1.082516 1.815811
 37480000.000000 70.850450 44.395420 0.133955 -1.216795 -2.041050
 37520000.000000 70.413040 43.853380 0.134730 -0.917844 -1.539590
 37560000.000000 69.953200 42.846540 0.151820 -1.427163 -2.393921
 37600000.000000 71.378650 43.690570 0.211766 0.933615 1.566044
 37640000.000000 71.312860 43.976860 0.063105 0.010193 0.017097
 37680000.000000 70.962380 44.358470 0.073052 -2.007853 -3.367970
 37720000.000000 70.215850 43.785200 0.081150 0.957956 1.606874
 37760000.000000 69.399840 43.579780 0.071919 -2.123382 -3.561758
 37800000.000000 70.081190 43.331200 0.119834 -1.858898 -3.118113
 37840000.000000 70.556920 43.899550 0.093500 -0.534252 -0.896154
 37880000.000000 70.641120 43.436590 0.067881 1.414798 2.373180
 37920000.000000 69.540420 44.597720 0.058699 -0.313695 -0.526192
 37960000.000000 70.218600 44.165380 0.071540 1.383153 2.320099
 38000000.000000 69.250200 43.574100 0.074773 -2.723452 -4.568314
 38040000.000000 69.479250 44.539110 0.124064 -0.320187 -0.537081
 38080000.000000 70.077470 44.493840 0.062883 -0.303609 -0.509273
 38120000.000000 69.482070 44.663510 0.062798 -0.374281 -0.627819
 38160000.000000 70.528770 44.126940 0.063299 -2.501320 -4.195711
 38200000.000000 69.517570 43.654920 0.093651 -0.657432 -1.102775
 38240000.000000 69.643230 43.835940 0.113959 0.035092 0.058864
 38280000.000000 69.419300 43.781940 0.123879 -0.917007 -1.538186
 38320000.000000 69.366050 42.915060 0.123542 -1.654270 -2.774870
 38360000.000000 70.286800 42.813430 0.141273 2.027108 3.400268
 38400000.000000 69.107290 42.806340 0.101076 -2.018938 -3.386564
 38440000.000000 70.243420 42.838920 0.117417 1.833558 3.075608
 38480000.000000 69.965960 43.649610 0.080239 -1.694993 -2.843179
 38520000.000000 69.682470 43.622930 0.064462 -2.686178 -4.505791
 38560000.000000 71.335890 43.400110 0.064160 2.847206 4.775899
 38600000.000000 72.037900 43.472390 0.087628 -0.400219 -0.671326
 38640000.000000 71.732770 43.551730 0.109552 1.351752 2.267427
 38680000.000000 71.727040 43.986830 0.062936 0.199142 0.334041
 38720000.000000 72.916020 44.338720 0.125760 -2.404406 -4.033147
 38760000.000000 71.072530 44.135530 0.131739 -1.843391 -3.092101
 38800000.000000 71.544840 44.392750 0.104807 0.393227 0.659598
 38840000.000000 72.348980 44.545080 0.123145 -2.330981 -3.909984
 38880000.000000 72.051320 45.033050 0.002325 4.182059 7.014980
 38920000.000000 72.159930 44.786530 0.085986 -0.224698 -0.376908
 38960000.000000 72.137290 44.766120 0.175157 0.153052 0.256729
 39000000.000000 70.083490 44.237740 0.053912 -0.177244 -0.297308
 39040000.000000 70.638410 44.603700 0.022312 1.837988 3.083038
 39080000.000000 70.124100 44.620040 0.000120 -0.150216 -0.251972
 39120000.000000 70.205300 44.433860 0.091577 -0.189617 -0.318064
 39160000.000000 70.823530 44.164360 0.017268 -1.688494 -2.832277
 39200000.000000 69.916220 43.220440 0.064733 -0.734620 -1.232250
 39240000.000000 68.923900 43.098220 0.101613 -2.469038 -4.141561
 39280000.000000 69.008950 43.289260 0.016946 -3.325248 -5.577766
 39320000.000000 68.451130 42.764540 0.121318 -7.580322 -12.715221
 39360000.000000 69.107340 42.396710 0.039877 -1.490353 -2.499916
 39400000.000000 69.499820 42.317710 0.128722 -1.112192 -1.865589
 39440000.000000 69.397570 42.618520 0.030429 0.112148 0.188116
 39480000.000000 69.603550 42.412980 0.021158 -0.689089 -1.155877
 39520000.000000 69.288460 42.852140 0.060264 -1.933322 -3.242952
 39560000.000000 69.082940 42.773630 0.072576 -2.706565 -4.539988
 39600000.000000 68.503170 42.430670 0.107198 -2.097869 -3.518962
 39640000.000000 68.064240 42.423700 0.083395 -6.850341 -11.490752
 39680000.000000 68.171500 42.791160 0.134527 -7.654269 -12.839260
 39720000.000000 67.263010 42.721070 0.002438 -8.225188 -13.796918
 39760000.000000 67.522070 42.514140 0.056656 -7.710742 -12.933987
 39800000.000000 69.004980 42.270810 0.080788 -1.097059 -1.840205
 39840000.000000 69.650410 43.004560 0.006540 -0.891506 -1.495410
 39880000.000000 68.578920 42.351530 0.112204 -1.072733 -1.799401
 39920000.000000 69.703060 42.411530 0.270288 0.859052 1.440973
 39960000.000000 68.683630 41.803790 0.157553 1.610116 2.700806
 40000000.000000 70.002490 42.501840 0.329203 2.251787 3.777144
 40040000.000000 69.106430 42.620960 0.107295 -2.138110 -3.586463
 40080000.000000 69.004860 43.091690 0.150260 -3.449032 -5.785401
 40120000.000000 68.791340 43.082790 0.216013 -4.230879 -7.096870
 40160000.000000 68.623460 42.762080 0.079751 -4.487034 -7.526544
 40200000.000000 66.882390 41.774690 0.240860 -8.040372 -13.486908
 40240000.000000 67.536900 42.123530 0.196862 -7.927900 -13.298248
 40280000.000000 66.904640 41.808680 0.183790 -8.072162 -13.540233
 40320000.000000 67.552670 42.026010 0.194691 -7.729213 -12.964971
 40360000.000000 66.867040 42.150790 0.091735 -8.115929 -13.613648
 40400000.000000 67.151760 42.454680 0.102322 -7.902400 -13.255474
 40440000.000000 67.684670 42.298760 0.151960 -7.674364 -12.872967
 40480000.000000 66.754070 42.495100 0.123550 -8.394543 -14.080994
 40520000.000000 67.077660 41.907350 0.074558 -8.038522 -13.483805
 40560000.000000 67.478390 41.478150 0.131846 -7.078845 -11.874044
 40600000.000000 67.322030 41.978590 0.108910 -8.018691 -13.450541
 40640000.000000 68.111310 41.931200 0.148581 -4.085257 -6.852604
 40680000.000000 68.006270 41.640920 0.209437 -4.310001 -7.229589
 40720000.000000 67.472860 41.998240 0.126024 -7.691677 -12.902008
 40760000.000000 68.210210 41.738570 0.137456 -1.639347 -2.749838
 40800000.000000 68.717530 41.932040 0.130680 0.730319 1.225036
 40840000.000000 68.490430 41.688440 0.107832 -0.301530 -0.505787
 40880000.000000 68.023950 41.156790 0.133227 -0.212948 -0.357198
 40920000.000000 67.849230 41.635090 0.179671 -4.961508 -8.322426
 40960000.000000 67.647140 41.832890 0.087600 -7.649735 -12.831654
 41000000.000000 67.934670 42.005710 0.133599 -6.832146 -11.460232
 41040000.000000 67.838660 41.659160 0.161843 -5.638926 -9.458726
 41080000.000000 67.034160 42.367980 0.119114 -7.905419 -13.260538
 41120000.000000 67.340590 41.730590 0.129271 -7.685911 -12.892336
 41160000.000000 65.771950 41.763700 0.098685 -9.418899 -15.799248
 41200000.000000 66.244590 42.163890 0.124520 -8.396108 -14.083619
 41240000.000000 65.604880 42.005020 0.122289 -8.829401 -14.810424
 41280000.000000 66.077540 41.484330 0.143140 -9.358706 -15.698280
 41320000.000000 66.171800 41.540730 0.147444 -9.294039 -15.589808
 41360000.000000 66.687190 41.991620 0.121085 -8.155088 -13.679333
 41400000.000000 66.270280 42.848350 0.083150 -8.701072 -14.595166
 41440000.000000 66.192340 42.334380 0.074955 -8.476472 -14.218422
 41480000.000000 66.522630 42.867250 0.063325 -8.118429 -13.617841
 41520000.000000 66.143450 42.567510 0.105617 -8.735846 -14.653495
 41560000.000000 65.990770 43.212130 0.033161 -8.699958 -14.593297
 41600000.000000 66.269380 43.060350 0.143359 -8.247387 -13.834155
 41640000.000000 66.913880 43.315720 0.047265 -8.032193 -13.473189
 41680000.000000 65.498490 42.408450 0.116367 -8.700053 -14.593456
 41720000.000000 66.142580 43.001860 0.055500 -8.693089 -14.581775
 41760000.000000 65.857530 43.372010 0.037842 -8.699957 -14.593295
 41800000.000000 65.713350 42.652030 0.061870 -8.699992 -14.593354
 41840000.000000 65.459490 42.156790 0.032072 -8.728471 -14.641125
 41880000.000000 65.466590 41.893680 0.118726 -8.770174 -14.711077
 41920000.000000 65.312510 41.790290 0.100377 -8.970288 -15.046748
 41960000.000000 65.504730 41.376520 0.122352 -9.429403 -15.816867
 42000000.000000 65.729490 41.053030 0.089183 -9.401334 -15.769784
 42040000.000000 66.238820 42.147720 0.116300 -8.396237 -14.083836
 42080000.000000 66.382790 41.989030 0.118188 -8.479201 -14.222999
 42120000.000000 65.858340 41.967930 0.187909 -8.871528 -14.881088
 42160000.000000 66.508180 42.340100 0.125409 -8.395733 -14.082990
 42200000.000000 66.737930 42.365410 0.094718 -8.385042 -14.065057
 42240000.000000 65.951210 42.344110 0.125472 -8.704574 -14.601040
 42280000.000000 65.462070 42.485180 0.124491 -8.699985 -14.593342
 42320000.000000 65.558030 41.819240 0.122876 -8.776871 -14.722311
 42360000.000000 65.518130 42.221940 0.106745 -8.704442 -14.600818
 42400000.000000 66.090070 42.750450 0.130869 -8.700597 -14.594369
 42440000.000000 65.855210 42.585430 0.125160 -8.700074 -14.593492
 42480000.000000 64.490940 42.546080 0.067338 -8.814355 -14.785186
 42520000.000000 64.924640 42.013960 0.078451 -8.737144 -14.655673
 42560000.000000 64.701460 41.852290 0.106988 -8.981143 -15.064956
 42600000.000000 66.148490 43.399720 0.055533 -8.699983 -14.593339
 42640000.000000 65.435780 43.102860 0.017998 -8.699967 -14.593312
 42680000.000000 65.291870 42.501430 0.015322 -8.699967 -14.593312
 42720000.000000 65.926450 42.094990 0.103413 -8.722968 -14.631894
 42760000.000000 66.263080 43.196140 0.060515 -8.700528 -14.594253
 42800000.000000 65.638130 42.859100 0.062485 -8.699958 -14.593297
 42840000.000000 65.812400 43.264240 0.062578 -8.699959 -14.593299
 42880000.000000 66.048030 43.198520 0.062513 -8.699959 -14.593299
 42920000.000000 66.924700 43.623220 0.062592 -8.039542 -13.485516
 42960000.000000 66.541940 44.041430 0.062636 -7.777352 -13.045719
 43000000.000000 66.626210 42.852530 0.037391 -8.135448 -13.646389
 43040000.000000 66.736370 43.097930 0.000220 -8.193709 -13.744116
 43080000.000000 66.942790 42.475760 0.063625 -8.255045 -13.847001
 43120000.000000 67.672390 42.446980 0.065247 -7.774428 -13.040814
 43160000.000000 66.863930 42.364800 0.064880 -8.240478 -13.822566
 43200000.000000 67.478180 43.273920 0.056690 -8.165829 -13.697350
 43240000.000000 67.107480 43.401580 0.068610 -8.107706 -13.599854
 43280000.000000 66.884760 43.336750 0.068540 -8.132259 -13.641039
 43320000.000000 68.030650 42.235880 0.191509 -6.053117 -10.153490
 43360000.000000 67.069070 42.395970 0.093491 -7.903567 -13.257432
 43400000.000000 67.368930 41.778100 0.176842 -7.676920 -12.877254
 43440000.000000 67.893470 41.953650 0.168567 -7.494941 -12.572003
 43480000.000000 67.558380 41.799300 0.153099 -6.611508 -11.090134
 43520000.000000 67.712900 41.699690 0.118358 -5.866964 -9.841237
 43560000.000000 67.038680 41.361520 0.126224 -8.025361 -13.461729
 43600000.000000 65.928060 41.262540 0.062284 -9.383355 -15.739626
 43640000.000000 66.265560 41.013640 0.033952 -8.393745 -14.079656
 43680000.000000 66.856310 41.211540 0.078069 -8.023999 -13.459444
 43720000.000000 65.359840 41.244780 0.060795 -9.429798 -15.817529
 43760000.000000 66.516830 41.651990 0.064582 -8.122087 -13.623977
 43800000.000000 66.263330 41.805760 0.069256 -8.227702 -13.801135
 43840000.000000 66.624690 41.588490 0.120757 -8.370307 -14.040341
 43880000.000000 66.963430 41.269620 0.214510 -8.025265 -13.461568
 43920000.000000 65.772210 41.612390 0.140250 -9.421670 -15.803896
 43960000.000000 65.083160 41.466510 0.125808 -9.175951 -15.391727
 44000000.000000 65.257870 41.179120 0.123214 -9.430426 -15.818583
 44040000.000000 66.023690 41.534550 0.124020 -9.384391 -15.741364
 44080000.000000 67.108510 41.562040 0.219722 -8.027498 -13.465314
 44120000.000000 66.742680 41.238990 0.113819 -8.024239 -13.459847
 44160000.000000 67.369950 41.412930 0.161777 -8.792998 -14.749362
 44200000.000000 67.177550 41.209210 0.108148 -7.386242 -12.389672
 44240000.000000 67.596460 41.189980 0.217708 -5.158898 -8.653528
 44280000.000000 66.131150 40.767940 0.219548 -8.919526 -14.961600
 44320000.000000 65.851350 41.819430 0.160137 -9.416584 -15.795364
 44360000.000000 67.022180 42.851330 0.073908 -8.250379 -13.839174
 44400000.000000 67.364970 42.873830 0.072273 -8.157104 -13.682714
 44440000.000000 67.621380 42.452700 0.134083 -7.748016 -12.996511
 44480000.000000 67.790080 42.249540 0.104530 -7.655970 -12.842113
 44520000.000000 67.991580 42.088440 0.129350 -6.580985 -11.038935
 44560000.000000 67.932500 42.314280 0.137755 -6.497814 -10.899424
 44600000.000000 68.827370 42.397990 0.121956 -2.224386 -3.731182
 44640000.000000 67.500840 41.412010 0.127870 -8.704094 -14.600235
 44680000.000000 68.701660 41.875140 0.069855 0.919095 1.541688
 44720000.000000 68.513360 41.611330 0.153116 1.618436 2.714762
 44760000.000000 68.147170 42.161510 0.078100 -5.136992 -8.616783
 44800000.000000 67.469450 42.852200 0.099496 -7.876915 -13.212726
 44840000.000000 68.802230 41.915560 0.184132 1.753149 2.940730
 44880000.000000 68.730520 42.338980 0.151761 -1.361945 -2.284525
 44920000.000000 68.887900 42.656710 0.134091 -2.246198 -3.767769
 44960000.000000 68.441310 41.995310 0.136776 -2.688755 -4.510114
 45000000.000000 68.588190 42.497280 0.143734 -2.272817 -3.812420
 45040000.000000 67.751320 41.360240 0.182219 -4.906614 -8.230347
 45080000.000000 66.823940 41.874360 0.174400 -8.108906 -13.601867
 45120000.000000 66.847200 42.562670 0.146021 -8.282753 -13.893478
 45160000.000000 67.474810 42.369390 0.162045 -7.791142 -13.068850
 45200000.000000 66.308070 42.489600 0.105208 -8.616730 -14.453690
 45240000.000000 67.189860 43.162300 0.066051 -8.219351 -13.787127
 45280000.000000 67.852020 42.788270 0.063480 -7.657088 -12.843988
 45320000.000000 68.197600 42.356480 0.119901 -4.326777 -7.257729
 45360000.000000 69.209180 41.930770 0.149793 0.796928 1.336767
 45400000.000000 69.296540 42.182090 0.172287 0.824353 1.382769
 45440000.000000 69.135930 42.182060 0.139109 -0.997746 -1.673618
 45480000.000000 68.123490 41.285050 0.116988 -0.258058 -0.432866
 45520000.000000 68.308170 41.498440 0.186588 0.374938 0.628920
 45560000.000000 68.090500 41.387790 0.160346 -0.835257 -1.401059
 45600000.000000 67.240670 41.588960 0.149030 -8.022301 -13.456596
 45640000.000000 67.838990 41.962540 0.126892 -8.011827 -13.439027
 45680000.000000 69.047640 42.087160 0.163942 -1.556287 -2.610514
 45720000.000000 68.702980 42.047420 0.147955 -1.868571 -3.134338
 45760000.000000 68.941420 41.303770 0.182979 4.590258 7.699692
 45800000.000000 69.197510 41.955950 0.183049 0.007420 0.012446
 45840000.000000 69.783100 42.314670 0.139904 -1.277870 -2.143497
 45880000.000000 69.574120 42.576800 0.139502 -1.083777 -1.817926
 45920000.000000 68.954950 42.122690 0.191827 -2.108081 -3.536092
 45960000.000000 69.754240 42.005220 0.251559 2.521521 4.229596
 46000000.000000 70.522930 42.350760 0.226480 3.546449 5.948808
 46040000.000000 69.647440 41.890000 0.229105 2.795592 4.689322
 46080000.000000 68.846960 41.356920 0.228203 3.979292 6.674859
 46120000.000000 68.221980 41.469520 0.282599 -0.426507 -0.715423
 46160000.000000 68.636680 41.750890 0.254575 1.713364 2.873994
 46200000.000000 69.276260 42.287480 0.245579 -2.277143 -3.819676
 46240000.000000 69.351720 42.689070 0.281842 0.095928 0.160909
 46280000.000000 70.181100 42.304430 0.295381 2.046962 3.433571
 46320000.000000 69.734000 42.401470 0.275359 0.806398 1.352650
 46360000.000000 69.035370 41.930860 0.209970 0.425215 0.713255
 46400000.000000 68.785960 41.873560 0.205555 1.653257 2.773171
 46440000.000000 68.967580 42.239150 0.199118 -1.695592 -2.844184
 46480000.000000 67.771840 43.066810 0.097408 -7.656288 -12.842646
 46520000.000000 68.265740 43.309810 0.181400 -7.654364 -12.839419
 46560000.000000 68.932380 43.305130 0.256717 -5.129833 -8.604774
 46600000.000000 68.982030 43.162240 0.235795 -3.291334 -5.520879
 46640000.000000 70.018010 42.693570 0.213776 1.164794 1.953824
 46680000.000000 69.900410 42.515060 0.284338 1.709688 2.867828
 46720000.000000 69.527290 42.657780 0.224602 0.321333 0.539004
 46760000.000000 68.726960 43.521870 0.126469 -5.736025 -9.621600
 46800000.000000 69.149130 43.041510 0.177386 -2.173315 -3.645515
 46840000.000000 69.649440 43.116180 0.112595 -1.367869 -2.294461
 46880000.000000 68.621280 42.219150 0.186858 -3.540876 -5.939460
 46920000.000000 68.834530 41.382090 0.183671 4.463538 7.487132
 46960000.000000 69.024760 41.836570 0.274364 1.250452 2.097506
 47000000.000000 69.998300 41.951890 0.290835 4.333611 7.269193
 47040000.000000 70.236840 42.570280 0.224857 2.722344 4.566456
 47080000.000000 70.748000 42.796590 0.234852 3.153039 5.288903
 47120000.000000 71.083150 42.477570 0.148573 2.606151 4.371554
 47160000.000000 71.425100 42.371270 0.184135 0.077926 0.130714
 47200000.000000 70.552390 42.484980 0.192534 2.725250 4.571330
 47240000.000000 70.783970 43.300860 0.142609 1.982915 3.326139
 47280000.000000 70.010720 43.009020 0.188865 -1.713420 -2.874088
 47320000.000000 70.287370 42.727940 0.186056 0.847513 1.421617
 47360000.000000 70.941720 42.363220 0.221924 2.491945 4.179985
 47400000.000000 71.307340 42.901380 0.205897 0.055679 0.093395
 47440000.000000 70.862220 42.539860 0.217787 2.260359 3.791523
 47480000.000000 70.885330 42.716900 0.216738 1.621430 2.719784
 47520000.000000 70.131010 43.022840 0.126259 0.615848 1.033023
 47560000.000000 69.584240 43.539920 0.183134 -2.446844 -4.104333
 47600000.000000 68.738360 43.162390 0.241791 -3.131827 -5.253322
 47640000.000000 69.473590 42.448420 0.206637 -0.794642 -1.332931
 47680000.000000 69.101110 42.103270 0.217718 -1.005101 -1.685955
 47720000.000000 69.412820 42.716610 0.181084 -1.431916 -2.401894
 47760000.000000 68.568010 43.241070 0.161687 -6.642019 -11.141313
 47800000.000000 68.127210 43.258090 0.114802 -7.659438 -12.847930
 47840000.000000 68.610260 43.591000 0.083113 -3.317465 -5.564711
 47880000.000000 68.464580 42.796630 0.156213 -7.384943 -12.387493
 47920000.000000 69.438950 43.259570 0.177093 -4.192423 -7.032364
 47960000.000000 69.767070 42.699550 0.231523 -1.025613 -1.720362
 48000000.000000 69.057120 42.620740 0.249543 -2.110928 -3.540868
 48040000.000000 68.722780 42.428550 0.197217 -1.268666 -2.128059
 48080000.000000 68.305500 43.306780 0.068866 -7.654312 -12.839332
 48120000.000000 68.404570 42.892200 0.156164 -7.654246 -12.839221
 48160000.000000 69.996920 42.456240 0.133668 2.080674 3.490120
 48200000.000000 69.406590 42.282310 0.195395 -2.195955 -3.683492
 48240000.000000 69.561240 42.344190 0.223937 -1.018925 -1.709143
 48280000.000000 69.993930 42.102760 0.239610 1.701661 2.854364
 48320000.000000 69.344430 42.493930 0.225514 -1.647893 -2.764173
 48360000.000000 68.225580 42.514380 0.237235 -6.247974 -10.480343
 48400000.000000 69.336180 43.008590 0.186508 -3.404699 -5.711037
 48440000.000000 69.903210 42.879300 0.167953 -2.169646 -3.639361
 48480000.000000 68.573010 43.191760 0.030442 -5.899903 -9.896489
 48520000.000000 67.914260 42.772400 0.011108 -7.656307 -12.842678
 48560000.000000 68.150160 42.881250 0.001955 -7.654353 -12.839401
 48600000.000000 68.515880 42.040860 0.143904 -1.751965 -2.938744
 48640000.000000 67.861140 41.695540 0.079466 -6.318580 -10.598777
 48680000.000000 67.371120 42.541820 0.065210 -7.805050 -13.092180
 48720000.000000 67.773880 42.072690 0.016593 -7.543798 -12.653956
 48760000.000000 68.083490 42.138700 0.053212 -7.276670 -12.205876
 48800000.000000 68.781220 42.580160 0.168725 -2.737561 -4.591981
 48840000.000000 69.246500 42.151590 0.110605 0.316538 0.530960
 48880000.000000 69.309480 42.287780 0.112209 -1.873705 -3.142950
 48920000.000000 69.524340 42.529770 0.068306 -1.614027 -2.707367
 48960000.000000 69.219750 43.304880 0.074202 -3.198264 -5.364763
 49000000.000000 68.468870 43.941360 0.068982 -2.337273 -3.920538
 49040000.000000 67.855790 43.386630 0.179369 -7.670834 -12.867046
 49080000.000000 67.415860 43.900690 0.066100 -6.078221 -10.195599
 49120000.000000 68.334200 43.769510 0.158365 -4.077365 -6.839366
 49160000.000000 68.479850 44.008010 0.085583 -2.258784 -3.788881
 49200000.000000 69.089930 43.706060 0.142042 -2.415262 -4.051357
 49240000.000000 68.959850 44.183300 0.049680 -1.521585 -2.552304
 49280000.000000 67.771780 44.752610 0.045946 -7.553753 -12.670654
 49320000.000000 68.454140 44.885380 0.064139 -2.868479 -4.811583
 49360000.000000 67.566510 43.914230 0.045403 -4.845453 -8.127756
 49400000.000000 67.656850 43.774430 0.065012 -4.634524 -7.773944
 49440000.000000 66.970140 43.905990 0.068295 -6.593547 -11.060006
 49480000.000000 67.703960 43.937630 0.007891 -7.053713 -11.831888
 49520000.000000 67.714560 44.868390 0.000601 -4.682307 -7.854095
 49560000.000000 68.474650 44.491910 0.052569 -3.457850 -5.800193
 49600000.000000 68.123260 44.271820 0.086496 -3.644866 -6.113893
 49640000.000000 67.829310 45.355970 0.003131 -3.418196 -5.733677
 49680000.000000 67.122420 44.697780 0.062764 -3.573246 -5.993758
 49720000.000000 67.460950 44.644940 0.084345 -4.366101 -7.323691
 49760000.000000 66.615940 44.095420 0.061705 -7.383955 -12.385835
 49800000.000000 67.690870 43.616300 0.069911 -6.808817 -11.421100
 49840000.000000 66.965930 43.553290 0.060333 -7.971630 -13.371601
 49880000.000000 68.356440 43.247600 0.162279 -7.654267 -12.839256
 49920000.000000 67.851100 43.806380 0.080776 -5.623584 -9.432992
 49960000.000000 67.139200 43.284840 0.118808 -8.167589 -13.700302
 50000000.000000 68.353470 44.089030 0.072790 -2.544818 -4.268674
 50040000.000000 67.002400 43.058530 0.080712 -8.352574 -14.010596
 50080000.000000 67.360910 43.150710 0.105819 -8.186478 -13.731986
 50120000.000000 67.880110 43.466840 0.082556 -7.654627 -12.839860
 50160000.000000 67.764470 43.484990 0.069629 -7.660151 -12.849126
 50200000.000000 67.911530 43.751490 0.129368 -6.904995 -11.582429
 50240000.000000 68.575470 43.543320 0.132652 -3.962244 -6.646262
 50280000.000000 67.928440 43.257130 0.120875 -7.663213 -12.854262
 50320000.000000 67.122210 43.562920 0.084558 -7.368916 -12.360609
 50360000.000000 66.383370 43.425040 0.053307 -8.700245 -14.593778
 50400000.000000 66.061490 43.779650 0.136507 -8.699963 -14.593305
 50440000.000000 66.688870 43.254720 0.107041 -8.130056 -13.637344
 50480000.000000 66.844640 44.093440 0.062770 -6.277820 -10.530406
 50520000.000000 66.342330 43.906570 0.060450 -8.699984 -14.593341
 50560000.000000 66.741930 43.840680 0.057126 -8.242607 -13.826137
 50600000.000000 66.812240 43.941150 0.062725 -6.587024 -11.049065
 50640000.000000 66.879450 44.262440 0.062948 -5.907420 -9.909098
 50680000.000000 67.047950 43.032030 0.070632 -8.314454 -13.946653
 50720000.000000 66.450930 42.641900 0.116428 -8.310595 -13.940180
 50760000.000000 66.746150 43.289860 0.125214 -8.113354 -13.609328
 50800000.000000 68.248510 43.216460 0.108260 -7.654552 -12.839734
 50840000.000000 67.203280 42.854040 0.062231 -8.227324 -13.800501
 50880000.000000 67.172570 43.893400 0.074638 -7.564724 -12.689057
 50920000.000000 68.893340 44.429890 0.087719 -1.786778 -2.997139
 50960000.000000 67.414320 44.794560 0.059945 -2.324894 -3.899774
 51000000.000000 67.505910 44.709290 0.063156 -3.376675 -5.664030
 51040000.000000 68.550650 43.564460 0.057871 -3.910465 -6.559408
 51080000.000000 67.981100 44.342670 0.033003 -5.618456 -9.424390
 51120000.000000 68.597940 44.048850 0.093881 -2.595550 -4.353772
 51160000.000000 68.741270 43.608450 0.093867 -3.886228 -6.518753
 51200000.000000 68.215420 44.267100 0.057481 -2.097048 -3.517585
 51240000.000000 68.139020 43.656450 0.118288 -6.514853 -10.928005
 51280000.000000 67.613120 43.906840 0.066868 -5.151244 -8.640689
 51320000.000000 66.888530 43.446670 0.082204 -8.348081 -14.003059
 51360000.000000 67.194500 43.497900 0.062458 -7.543847 -12.654038
 51400000.000000 68.008670 43.642560 0.022028 -6.864822 -11.515042
 51440000.000000 68.672260 43.674170 0.006521 -2.586743 -4.338999
 51480000.000000 68.911360 44.412180 0.000219 -1.599551 -2.683085
 51520000.000000 66.823290 42.899100 0.094201 -8.393788 -14.079728
 51560000.000000 66.635630 43.396340 0.040389 -8.578312 -14.389248
 51600000.000000 66.764250 44.393330 0.000044 -6.940184 -11.641455
 51640000.000000 67.128480 44.864360 0.000141 -3.940472 -6.609742
 51680000.000000 67.363290 44.054610 0.000629 -5.743893 -9.634798
 51720000.000000 66.873440 44.722340 0.000425 -4.733781 -7.940437
 51760000.000000 67.096090 44.584110 0.001269 -5.580903 -9.361399
 51800000.000000 68.550720 44.453230 0.076976 -1.942286 -3.257988
 51840000.000000 67.323260 44.226070 0.020718 -6.643070 -11.143076
 51880000.000000 67.413090 43.092800 0.006288 -8.158709 -13.685407
 51920000.000000 68.507450 43.217880 0.105133 -7.517153 -12.609262
 51960000.000000 68.416470 43.082510 0.080111 -7.654245 -12.839219
 52000000.000000 69.346190 43.669740 0.055948 -0.832446 -1.396344
 52040000.000000 69.350450 43.566590 0.058067 -2.259111 -3.789430
 52080000.000000 69.270700 43.353260 0.137851 -1.935837 -3.247170
 52120000.000000 69.247560 44.086950 0.012663 -0.602511 -1.010651
 52160000.000000 69.529200 43.941860 0.013399 -0.602035 -1.009852
 52200000.000000 68.816080 43.264120 0.047462 -5.375467 -9.016801
 52240000.000000 69.225110 43.562640 0.212208 -2.963957 -4.971737
 52280000.000000 69.968060 43.315290 0.043826 -1.113907 -1.868466
 52320000.000000 70.124800 43.822370 0.021962 -0.864014 -1.449296
 52360000.000000 70.073980 43.367280 0.093017 -1.661104 -2.786333
 52400000.000000 70.313210 43.610280 0.014796 0.909613 1.525784
 52440000.000000 69.999600 43.075140 0.056388 -0.547014 -0.917561
 52480000.000000 69.565970 43.591980 0.061358 -1.522843 -2.554415
 52520000.000000 70.126470 43.421530 0.084121 0.072579 0.121743
 52560000.000000 71.210700 43.484920 0.019944 2.796577 4.690974
 52600000.000000 70.401220 43.069790 0.165445 1.246175 2.090332
 52640000.000000 70.217750 43.363740 0.022929 -0.044131 -0.074025
 52680000.000000 70.606480 42.967920 0.038108 1.950371 3.271549
 52720000.000000 70.344940 43.050490 0.123671 1.360278 2.281728
 52760000.000000 70.205530 42.731600 0.074428 -0.170524 -0.286036
 52800000.000000 70.374840 42.600540 0.083108 2.996702 5.026664
 52840000.000000 70.551030 42.867990 0.031312 2.734851 4.587435
 52880000.000000 69.655840 43.072670 0.021160 -0.510995 -0.857142
 52920000.000000 71.024570 43.291180 0.137358 2.313320 3.880360
 52960000.000000 71.239910 43.545890 0.073052 1.928921 3.235569
 53000000.000000 72.510950 42.909490 0.205080 -0.854531 -1.433390
 53040000.000000 71.439150 42.384410 0.214560 0.046232 0.077549
 53080000.000000 71.337910 42.827500 0.367851 0.637279 1.068971
 53120000.000000 71.867260 43.263210 0.361863 -0.318287 -0.533894
 53160000.000000 71.679150 43.540980 0.180658 1.160933 1.947347
 53200000.000000 72.065560 42.796340 0.335798 -2.944878 -4.939734
 53240000.000000 71.524910 42.975570 0.282341 -1.167867 -1.958978
 53280000.000000 71.711450 42.395160 0.209929 0.641731 1.076438
 53320000.000000 71.512800 42.930870 0.272493 -2.139634 -3.589019
 53360000.000000 72.212540 42.884410 0.365208 -2.122948 -3.561030
 53400000.000000 72.212490 42.749900 0.304752 -2.949704 -4.947829
 53440000.000000 71.509230 42.955370 0.217777 -1.398498 -2.345839
 53480000.000000 71.299070 42.500420 0.325929 0.770397 1.292263
 53520000.000000 71.172760 42.035550 0.393165 0.979441 1.642912
 53560000.000000 71.656300 42.456230 0.334120 -0.182095 -0.305446
 53600000.000000 71.690350 42.686670 0.365211 0.010393 0.017433
 53640000.000000 71.867730 42.549330 0.290669 -1.564288 -2.623934
 53680000.000000 71.968430 42.739160 0.248332 -2.943949 -4.938176
 53720000.000000 71.882330 43.557130 0.417328 1.586489 2.661174
 53760000.000000 71.306910 43.294630 0.350434 1.609400 2.699605
 53800000.000000 71.093840 42.705050 0.222494 2.425479 4.068495
 53840000.000000 71.215640 42.834490 0.287761 0.935177 1.568665
 53880000.000000 70.136440 42.528960 0.261572 2.163298 3.628713
 53920000.000000 70.017400 43.210500 0.211690 0.024756 0.041526
 53960000.000000 71.154030 43.168680 0.332257 1.925658 3.230096
 54000000.000000 71.242530 42.872910 0.302695 -0.201927 -0.338712
 54040000.000000 71.984880 42.911790 0.328080 -2.870243 -4.814541
 54080000.000000 72.765050 43.491300 0.338688 -2.423117 -4.064533
 54120000.000000 72.423280 43.117470 0.391613 -0.611054 -1.024982
 54160000.000000 72.615710 42.980380 0.292731 -1.284595 -2.154778
 54200000.000000 72.011430 42.582360 0.416300 -2.207689 -3.703174
 54240000.000000 72.127900 42.969070 0.532372 -1.315292 -2.206269
 54280000.000000 72.141230 42.545900 0.379122 -2.917108 -4.893153
 54320000.000000 71.344360 42.548700 0.444254 -0.055387 -0.092907
 54360000.000000 70.984990 42.363980 0.536898 2.094029 3.512521
 54400000.000000 70.470390 42.174480 0.619512 3.913809 6.565018
 54440000.000000 71.019230 42.706800 0.510288 2.189113 3.672015
 54480000.000000 70.562050 42.845310 0.377958 2.482557 4.164238
 54520000.000000 71.371800 42.593460 0.493003 -1.317957 -2.210739
 54560000.000000 70.713340 42.506360 0.561077 2.645530 4.437608
 54600000.000000 71.002430 42.261280 0.585922 2.222108 3.727361
 54640000.000000 70.761270 42.037770 0.561068 2.142631 3.594046
 54680000.000000 70.163170 42.216690 0.503433 3.566891 5.983098
 54720000.000000 70.075510 42.502700 0.419599 2.142011 3.593006
 54760000.000000 70.917000 42.689910 0.503288 1.997690 3.350922
 54800000.000000 70.343670 42.068850 0.453801 5.021362 8.422825
 54840000.000000 69.746110 42.743560 0.504920 -0.846362 -1.419687
 54880000.000000 70.055430 42.537330 0.671605 2.248260 3.771228
 54920000.000000 69.911770 42.700570 0.450305 0.574022 0.962864
 54960000.000000 69.590960 42.912350 0.436953 -0.183438 -0.307699
 55000000.000000 69.762530 42.850560 0.588211 -0.345118 -0.578901
 55040000.000000 70.979440 42.458770 0.649475 2.790078 4.680073
 55080000.000000 70.678180 42.130370 0.482298 1.353331 2.270075
 55120000.000000 71.191910 42.140060 0.634371 1.497859 2.512507
 55160000.000000 70.627050 42.232470 0.608176 3.637879 6.102173
 55200000.000000 71.330150 42.288710 0.589997 1.322789 2.218844
 55240000.000000 70.255210 42.836120 0.566431 1.884384 3.160863
 55280000.000000 70.354360 42.386630 0.461264 3.336009 5.595817
 55320000.000000 71.317420 42.641280 0.547844 0.106032 0.177857
 55360000.000000 70.040900 42.129780 0.508985 2.484575 4.167623
 55400000.000000 70.197340 41.828370 0.565087 4.156540 6.972174
 55440000.000000 70.025070 42.241510 0.636031 2.144566 3.597292
 55480000.000000 70.206660 42.253860 0.526465 3.833471 6.430259
 55520000.000000 71.011230 41.951230 0.559623 0.160283 0.268859
 55560000.000000 71.227740 41.888270 0.515018 1.173349 1.968174
 55600000.000000 70.895910 42.601590 0.622038 2.549849 4.277113
 55640000.000000 72.257110 43.222960 0.476904 -1.431871 -2.401818
 55680000.000000 73.100260 43.129140 0.481828 -4.639887 -7.782940
 55720000.000000 72.835840 43.017440 0.523753 -1.742350 -2.922615
 55760000.000000 72.172120 43.524260 0.418991 0.963162 1.615607
 55800000.000000 72.651820 43.959230 0.409593 -0.723140 -1.212994
 55840000.000000 72.833180 43.509950 0.517403 -2.418996 -4.057620
 55880000.000000 73.066380 43.063250 0.424866 -4.592860 -7.704057
 55920000.000000 73.410200 43.170210 0.299201 -6.623515 -11.110274
 55960000.000000 72.391370 43.539340 0.326709 -1.162075 -1.949263
 56000000.000000 73.797540 43.411230 0.366659 -8.719212 -14.625594
 56040000.000000 73.972200 43.500770 0.449304 -8.720846 -14.628334
 56080000.000000 73.487150 43.102900 0.306025 -5.042888 -8.458933
 56120000.000000 73.652500 43.811300 0.272891 -4.505042 -7.556751
 56160000.000000 73.215240 43.452330 0.285960 -5.360152 -8.991111
 56200000.000000 74.050570 43.514980 0.296711 -8.707448 -14.605861
 56240000.000000 73.501500 43.885320 0.275584 -4.072752 -6.831628
 56280000.000000 73.566050 44.355240 0.304855 -2.478357 -4.157192
 56320000.000000 72.799660 43.655470 0.351859 0.351430 0.589488
 56360000.000000 73.132600 43.848280 0.221863 0.883448 1.481895
 56400000.000000 72.396070 43.789000 0.300635 -0.387757 -0.650424
 56440000.000000 73.540120 42.964040 0.350929 -6.630600 -11.122159
 56480000.000000 74.145530 44.215620 0.340984 -8.631641 -14.478702
 56520000.000000 74.415630 43.728540 0.348087 -8.707198 -14.605441
 56560000.000000 74.263010 44.416840 0.288004 -5.905635 -9.906104
 56600000.000000 73.832600 44.797910 0.257142 -2.386257 -4.002704
 56640000.000000 74.531090 44.583720 0.286144 -8.707304 -14.605619
 56680000.000000 74.284680 45.185980 0.144763 -3.644058 -6.112538
 56720000.000000 74.847880 44.404410 0.221733 -8.778422 -14.724912
 56760000.000000 74.518870 44.893140 0.240793 -3.639800 -6.105395
 56800000.000000 74.797930 43.707840 0.238740 -8.706908 -14.604955
 56840000.000000 74.389910 44.183930 0.194343 -8.706399 -14.604101
 56880000.000000 75.491230 44.628370 0.171987 -8.804088 -14.767964
 56920000.000000 74.797560 44.633320 0.204662 -7.599710 -12.747743
 56960000.000000 74.935240 44.828940 0.163698 -8.702989 -14.598381
 57000000.000000 75.155240 45.259260 0.159126 -6.158984 -10.331071
 57040000.000000 74.470780 45.560110 0.176921 -6.527866 -10.949833
 57080000.000000 75.416890 45.590660 0.130165 -3.341057 -5.604284
 57120000.000000 75.424230 45.302330 0.126814 -5.849378 -9.811738
 57160000.000000 75.193690 45.214450 0.111217 -5.460649 -9.159685
 57200000.000000 76.064310 45.527700 0.201290 -6.940869 -11.642604
 57240000.000000 75.397630 44.567710 0.193338 -8.867325 -14.874038
 57280000.000000 74.965980 44.332080 0.220651 -8.707649 -14.606198
 57320000.000000 76.194330 44.961190 0.204257 -8.833395 -14.817124
 57360000.000000 75.876260 44.320940 0.240219 -9.239627 -15.498537
 57400000.000000 75.171010 44.770020 0.134783 -8.706362 -14.604039
 57440000.000000 75.358960 45.293720 0.064648 -6.066782 -10.176411
 57480000.000000 74.988990 44.509390 0.063574 -8.799502 -14.760272
 57520000.000000 75.998350 44.463910 0.256627 -9.241282 -15.501313
 57560000.000000 76.171680 44.196990 0.070077 -9.296938 -15.594670
 57600000.000000 75.576970 43.595840 0.125872 -9.099932 -15.264213
 57640000.000000 75.695310 44.392540 0.114432 -9.239423 -15.498195
 57680000.000000 76.549220 45.259260 0.109599 -8.707329 -14.605661
 57720000.000000 76.760060 45.701720 0.038278 -8.715743 -14.619775
 57760000.000000 76.553750 45.816670 0.087418 -6.378089 -10.698597
 57800000.000000 76.738860 45.605380 0.108083 -8.712928 -14.615053
 57840000.000000 75.976350 46.000810 0.123187 -6.902248 -11.577821
 57880000.000000 75.785340 45.769470 0.124741 -6.171626 -10.352277
 57920000.000000 77.106250 46.389960 0.035543 -6.937951 -11.637709
 57960000.000000 76.523500 45.781490 0.087183 -5.944817 -9.971827
 58000000.000000 76.226660 45.414180 0.062951 -7.874318 -13.208370
 58040000.000000 75.492450 46.047610 0.000008 -6.902244 -11.577814
 58080000.000000 77.072840 46.475540 0.060375 -7.097800 -11.905839
 58120000.000000 77.182040 47.045230 0.062455 -6.909467 -11.589930
 58160000.000000 76.505330 45.900430 0.062373 -6.835108 -11.465200
 58200000.000000 76.644360 46.770840 0.007565 -6.900969 -11.575675
 58240000.000000 76.693340 46.088350 0.066794 -6.902479 -11.578208
 58280000.000000 76.614480 46.642740 0.068890 -6.902413 -11.578098
 58320000.000000 76.264200 47.127630 0.062662 -3.062489 -5.137015
 58360000.000000 76.615190 48.009480 0.002183 -7.063902 -11.848979
 58400000.000000 76.786230 47.274580 0.038564 -6.457112 -10.831150
 58440000.000000 77.116680 46.646810 0.057701 -7.809418 -13.099506
 58480000.000000 75.515810 46.317180 0.015078 -6.902242 -11.577811
 58520000.000000 77.156890 46.394450 0.124027 -7.112809 -11.931015
 58560000.000000 75.477190 45.822110 0.123098 -6.031502 -10.117233
 58600000.000000 75.363850 45.870450 0.124954 -5.707823 -9.574294
 58640000.000000 75.748370 45.696310 0.064100 -6.119633 -10.265064
 58680000.000000 75.861210 45.208960 0.072521 -4.117281 -6.906321
 58720000.000000 74.848320 45.541090 0.061419 -5.415058 -9.083210
 58760000.000000 74.950360 44.832810 0.062753 -8.707557 -14.606043
 58800000.000000 75.262170 45.235570 0.061807 -4.477102 -7.509884
 58840000.000000 74.721680 44.891510 0.063259 -3.724791 -6.247959
 58880000.000000 74.720680 45.480990 0.028447 -3.747836 -6.286615
 58920000.000000 75.733200 45.788120 0.056740 -5.846161 -9.806342
 58960000.000000 76.692050 45.780380 0.062173 -6.895594 -11.566659
 59000000.000000 74.269580 45.458800 0.032722 -3.312119 -5.555744
 59040000.000000 74.360370 45.252510 0.002274 -4.179337 -7.010414
 59080000.000000 73.948800 45.199190 0.062546 -2.776983 -4.658107
 59120000.000000 74.645640 45.320610 0.063211 -3.169028 -5.315723
 59160000.000000 74.376000 44.270820 0.063846 -8.707224 -14.605485
 59200000.000000 74.683480 44.654510 0.082903 -6.356132 -10.661767
 59240000.000000 75.014690 44.642460 0.088976 -8.778655 -14.725303
 59280000.000000 74.814260 45.048180 0.120377 -2.432138 -4.079665
 59320000.000000 75.051390 44.353220 0.064743 -8.709103 -14.608637
 59360000.000000 74.065130 44.544900 0.081414 -5.188859 -8.703785
 59400000.000000 73.576830 44.468750 0.054217 -2.504047 -4.200285
 59440000.000000 73.986200 44.274070 0.071445 -5.065662 -8.497134
 59480000.000000 74.616450 43.609810 0.123070 -8.706433 -14.604158
 59520000.000000 73.983180 43.916180 0.082147 -8.093801 -13.576530
 59560000.000000 73.824290 43.629110 0.126454 -7.162727 -12.014748
 59600000.000000 72.548110 44.280660 0.064095 -2.354921 -3.950141
 59640000.000000 73.854480 44.945690 0.063976 -2.373098 -3.980631
 59680000.000000 74.148480 44.864070 0.188385 -2.342601 -3.929476
 59720000.000000 73.616940 45.621540 0.071701 -1.385941 -2.324775
 59760000.000000 73.927070 45.667390 0.067282 -1.152755 -1.933630
 59800000.000000 73.483430 45.471970 0.072813 -1.168183 -1.959508
 59840000.000000 73.918800 45.662470 0.084115 -1.025038 -1.719397
 59880000.000000 73.996430 45.767270 0.081807 -2.385311 -4.001117
 59920000.000000 73.776560 45.133970 0.078539 -2.371024 -3.977152
 59960000.000000 73.556370 45.422150 0.030936 -2.233155 -3.745891
 60000000.000000 74.621520 45.500170 0.081139 -4.321964 -7.249656
 60040000.000000 75.236290 46.270260 0.064780 -5.849167 -9.811384
 60080000.000000 75.696310 45.808610 0.097137 -6.141889 -10.302396
 60120000.000000 75.300310 45.386800 0.080505 -4.281490 -7.181765
 60160000.000000 74.508100 45.824900 0.062754 -4.340741 -7.281153
 60200000.000000 74.826110 45.766900 0.004012 -6.899455 -11.573136
 60240000.000000 74.851770 45.852060 0.025292 -6.901581 -11.576702
 60280000.000000 75.756880 45.595400 0.062907 -4.374164 -7.337216
 60320000.000000 75.588880 46.295700 0.018719 -6.902243 -11.577812
 60360000.000000 76.245500 46.704790 0.037259 -6.902296 -11.577901
 60400000.000000 75.685880 46.157290 0.064069 -6.902243 -11.577812
 60440000.000000 75.039410 45.583010 0.116358 -5.836047 -9.789377
 60480000.000000 74.444260 45.218820 0.094622 -4.087903 -6.857043
 60520000.000000 75.128170 44.491640 0.126022 -8.717519 -14.622754
 60560000.000000 74.329290 44.716770 0.124925 -2.506711 -4.204753
 60600000.000000 74.068470 43.981610 0.124040 -7.150926 -11.994953
 60640000.000000 73.870720 44.602510 0.123057 -2.341572 -3.927749
 60680000.000000 74.002300 44.249130 0.124996 -5.675565 -9.520184
 60720000.000000 74.387680 43.749690 0.124933 -8.707155 -14.605369
