#! FIELDS time proj ext cmap wham.bias weights
 0.000000 70.412340 41.675380 0.806637 3.567005 5.983289
 2000.000000 70.768300 41.891720 0.770270 3.865108 6.483327
 4000.000000 69.518830 41.234410 0.766831 2.163886 3.629699
 6000.000000 68.829030 40.450390 0.789117 -5.299922 -8.890081
 8000.000000 69.096460 39.464330 0.826278 -6.840654 -11.474503
 10000.000000 69.745970 39.490890 0.774978 -4.951217 -8.305164
 12000.000000 70.121050 39.617010 0.741108 -0.723439 -1.213495
 14000.000000 70.282590 39.979590 0.817840 5.062336 8.491555
 16000.000000 68.450200 39.892520 0.779302 -6.981456 -11.710684
 18000.000000 69.264880 40.059270 0.800913 -5.637110 -9.455680
 20000.000000 71.030200 39.546040 0.860332 -5.084070 -8.528012
 22000.000000 71.583160 39.939700 0.804581 3.107264 5.212120
 24000.000000 70.025220 39.280480 0.853164 -7.254645 -12.168931
 26000.000000 69.866780 39.077700 0.867473 -7.360711 -12.346846
 28000.000000 70.027680 38.233190 0.868665 -7.569536 -12.697129
 30000.000000 70.772310 38.822090 0.860841 -7.360720 -12.346861
 32000.000000 71.099170 39.291000 0.843935 -7.360711 -12.346846
 34000.000000 72.151270 38.770410 0.859869 -7.753571 -13.005829
 36000.000000 71.711860 38.842720 0.918959 -7.362734 -12.350239
 38000.000000 72.015770 38.459110 0.861711 -7.880170 -13.218186
 40000.000000 72.048340 38.944770 0.870859 -7.445802 -12.489577
 42000.000000 71.752410 38.711480 0.893156 -7.550478 -12.665161
 44000.000000 71.516100 38.700010 0.876833 -7.587868 -12.727879
 46000.000000 72.720520 39.141800 0.795936 -7.833217 -13.139427
 48000.000000 72.992150 39.271220 0.922073 -7.844276 -13.157977
 50000.000000 72.655200 38.702230 0.832114 -7.899882 -13.251251
 52000.000000 72.099880 38.749590 0.863456 -7.858423 -13.181707
 54000.000000 71.633650 39.108770 0.857782 -7.361772 -12.348626
 56000.000000 71.506460 39.524770 0.902148 -5.066223 -8.498075
 58000.000000 71.506790 38.192390 0.865234 -8.121332 -13.622711
 60000.000000 71.449610 38.077100 0.897492 -8.121359 -13.622756
 62000.000000 71.911000 38.081230 0.815434 -8.256930 -13.850162
 64000.000000 71.568070 37.717870 0.832029 -8.540576 -14.325950
 66000.000000 70.512840 38.090360 0.865006 -7.912181 -13.271881
 68000.000000 70.599030 37.751240 0.926752 -8.123882 -13.626988
 70000.000000 70.294920 38.130210 0.846967 -7.949426 -13.334356
 72000.000000 69.961510 37.614930 0.829537 -8.203253 -13.760125
 74000.000000 70.492840 37.462400 0.870439 -8.247300 -13.834009
 76000.000000 70.714420 38.001020 0.919475 -8.121356 -13.622751
 78000.000000 70.903290 37.836610 0.838279 -8.121514 -13.623016
 80000.000000 71.673480 38.199930 0.901757 -8.119542 -13.619708
 82000.000000 70.017830 38.368470 0.904883 -7.363861 -12.352130
 84000.000000 70.635040 38.591690 0.770378 -7.360903 -12.347168
 86000.000000 70.130600 39.035580 0.851041 -7.360711 -12.346846
 88000.000000 70.383610 38.298720 0.849901 -7.573978 -12.704580
 90000.000000 72.295640 38.401260 0.821064 -7.887308 -13.230159
 92000.000000 71.440200 38.233620 0.863096 -8.118849 -13.618546
 94000.000000 71.516170 37.902140 0.852507 -8.122389 -13.624484
 96000.000000 71.094130 38.501800 0.840084 -7.442232 -12.483589
 98000.000000 71.509080 38.957440 0.757501 -7.362161 -12.349278
 100000.000000 71.960470 39.304270 0.809431 -7.365142 -12.354279
 102000.000000 72.714550 38.496850 0.816468 -8.103561 -13.592901
 104000.000000 71.949160 38.371660 0.806662 -7.880169 -13.218184
 106000.000000 72.450650 38.610410 0.795274 -7.879291 -13.216711
 108000.000000 72.378570 38.396340 0.864521 -7.905879 -13.261310
 110000.000000 72.900010 38.805760 0.839636 -7.894520 -13.242256
 112000.000000 71.879740 38.939380 0.703557 -7.769350 -13.032296
 114000.000000 72.967750 39.039460 0.822852 -7.858362 -13.181605
 116000.000000 72.423610 39.379470 0.856634 -7.360957 -12.347259
 118000.000000 71.810580 39.660890 0.828600 -6.940576 -11.642112
 120000.000000 72.136240 39.871660 0.827268 -4.730940 -7.935672
 122000.000000 71.733090 40.214660 0.718946 5.581489 9.362382
 124000.000000 72.518110 39.930990 0.695572 -5.541714 -9.295663
 126000.000000 73.667020 39.528320 0.778690 -7.930753 -13.303034
 128000.000000 72.921040 39.683030 0.656876 -7.362639 -12.350080
 130000.000000 73.191330 39.008430 0.704595 -8.049470 -13.502169
 132000.000000 72.350580 38.739920 0.698134 -7.878235 -13.214940
 134000.000000 72.692910 39.318110 0.739801 -7.429298 -12.461894
 136000.000000 73.206930 39.421370 0.708695 -7.724839 -12.957634
 138000.000000 72.868440 38.997430 0.779452 -7.880532 -13.218793
 140000.000000 72.458090 39.466250 0.723725 -7.360769 -12.346943
 142000.000000 72.287470 38.800480 0.728006 -7.877683 -13.214014
 144000.000000 73.766920 39.408780 0.800726 -7.759488 -13.015754
 146000.000000 73.512120 39.298770 0.758759 -7.977404 -13.381286
 148000.000000 72.774080 39.044690 0.709401 -7.838684 -13.148597
 150000.000000 73.155630 38.642930 0.874619 -8.292502 -13.909831
 152000.000000 73.821300 39.614190 0.762024 -7.746933 -12.994694
 154000.000000 74.158810 39.980700 0.840760 -7.725338 -12.958471
 156000.000000 74.537020 39.748760 0.773584 -8.174915 -13.712591
 158000.000000 74.782440 40.195680 0.748222 -8.036643 -13.480653
 160000.000000 73.870210 39.992370 0.684780 -7.520319 -12.614572
 162000.000000 74.126800 39.588980 0.707504 -7.947360 -13.330890
 164000.000000 73.614310 40.057130 0.688910 -7.359394 -12.344637
 166000.000000 73.923780 39.793710 0.668751 -7.674170 -12.872642
 168000.000000 73.241820 39.906880 0.673733 -7.153919 -11.999973
 170000.000000 74.736160 40.359950 0.648317 -7.705923 -12.925904
 172000.000000 74.584620 40.637010 0.674369 -7.590214 -12.731814
 174000.000000 75.045480 40.597910 0.643630 -7.952742 -13.339918
 176000.000000 75.055970 41.258910 0.590662 -7.567287 -12.693356
 178000.000000 74.724790 41.358310 0.606416 -6.810412 -11.423775
 180000.000000 73.953610 41.717020 0.573087 -3.929205 -6.590843
 182000.000000 74.300070 41.820690 0.560977 -4.883548 -8.191656
 184000.000000 74.755030 41.663870 0.558632 -6.243493 -10.472826
 186000.000000 74.466830 41.584920 0.553565 -6.048535 -10.145804
 188000.000000 74.952440 41.908250 0.532048 -6.049542 -10.147493
 190000.000000 75.788820 41.859040 0.568762 -7.725139 -12.958137
 192000.000000 75.385680 41.362910 0.617604 -7.648847 -12.830165
 194000.000000 76.092970 42.296760 0.561963 -7.686587 -12.893470
 196000.000000 76.267260 41.777450 0.615290 -7.987086 -13.397526
 198000.000000 75.828730 41.093320 0.513009 -8.000985 -13.420841
 200000.000000 76.086780 41.016880 0.552077 -7.998620 -13.416874
 202000.000000 75.172330 41.170000 0.560471 -7.569656 -12.697330
 204000.000000 75.219120 41.416540 0.575482 -7.569705 -12.697412
 206000.000000 75.430220 40.439680 0.627966 -8.017550 -13.448627
 208000.000000 76.412200 40.885530 0.589236 -8.193609 -13.743948
 210000.000000 76.516900 41.305240 0.563214 -8.135276 -13.646100
 212000.000000 77.112130 40.946890 0.555135 -8.220494 -13.789045
 214000.000000 75.760520 40.507340 0.601098 -8.198488 -13.752132
 216000.000000 75.296160 40.869190 0.569407 -7.835178 -13.142716
 218000.000000 74.543740 40.387670 0.585001 -7.695262 -12.908021
 220000.000000 74.744390 41.556500 0.513993 -6.157642 -10.328820
 222000.000000 74.661490 41.219280 0.498624 -7.228436 -12.124968
 224000.000000 75.326860 40.884510 0.563510 -7.944502 -13.326096
 226000.000000 75.168950 41.883730 0.491313 -7.076496 -11.870104
 228000.000000 74.837210 42.302200 0.606470 -6.048662 -10.146017
 230000.000000 74.631630 42.235550 0.559110 -6.048120 -10.145108
 232000.000000 74.732690 42.506550 0.512058 -6.050689 -10.149417
 234000.000000 74.492580 41.983810 0.499415 -6.046481 -10.142358
 236000.000000 74.742040 42.768080 0.524151 -6.049343 -10.147159
 238000.000000 74.830200 41.803220 0.506774 -6.064517 -10.172612
 240000.000000 75.175510 41.529480 0.517127 -7.344755 -12.320081
 242000.000000 75.127250 42.133710 0.545158 -6.625748 -11.114020
 244000.000000 74.857870 41.771220 0.505749 -6.059568 -10.164311
 246000.000000 74.310140 42.681490 0.494811 -5.234087 -8.779650
 248000.000000 74.529330 42.046980 0.557086 -5.957315 -9.992792
 250000.000000 73.667750 42.051500 0.565110 -0.295004 -0.494839
 252000.000000 73.198160 42.499060 0.488358 1.174648 1.970353
 254000.000000 72.987400 41.894860 0.479086 1.453170 2.437545
 256000.000000 72.934170 42.199370 0.503086 2.412550 4.046808
 258000.000000 74.225090 41.261580 0.608540 -6.638966 -11.136192
 260000.000000 73.455110 41.103430 0.618273 -6.020157 -10.098203
 262000.000000 73.814160 41.838370 0.647365 -1.482743 -2.487151
 264000.000000 74.187380 42.020110 0.617629 -4.053119 -6.798696
 266000.000000 73.376720 42.198430 0.497866 0.701868 1.177312
 268000.000000 72.812390 42.187220 0.441611 2.065575 3.464793
 270000.000000 72.338490 42.031850 0.569113 3.242619 5.439164
 272000.000000 72.173570 41.578340 0.561515 4.487537 7.527388
 274000.000000 72.642630 42.210340 0.554054 0.711277 1.193096
 276000.000000 72.322100 41.979040 0.575551 4.604279 7.723211
 278000.000000 73.164720 42.042110 0.539064 1.614332 2.707878
 280000.000000 72.459720 42.608900 0.484095 0.301289 0.505382
 282000.000000 72.075260 42.287350 0.546678 2.661493 4.464384
 284000.000000 71.183540 42.371900 0.497056 0.150790 0.252934
 286000.000000 72.563240 42.439100 0.556111 1.723839 2.891565
 288000.000000 72.578880 41.186100 0.602219 3.066071 5.143023
 290000.000000 70.993800 42.186800 0.593681 2.145129 3.598236
 292000.000000 71.520960 42.051280 0.610604 2.745548 4.605378
 294000.000000 72.180840 42.360730 0.576741 1.996228 3.348470
 296000.000000 71.951590 41.534940 0.725819 5.710857 9.579383
 298000.000000 70.823580 42.532100 0.732118 -1.131590 -1.898127
 300000.000000 71.304230 41.469920 0.748114 3.884235 6.515410
 302000.000000 70.471100 41.875970 0.692939 1.793350 3.008163
 304000.000000 70.428690 41.617100 0.765067 3.739958 6.273400
 306000.000000 69.595790 41.980240 0.681854 1.422190 2.385579
 308000.000000 70.150880 42.024780 0.630037 1.874942 3.145025
 310000.000000 71.072040 41.897610 0.742065 4.131854 6.930766
 312000.000000 70.876040 42.618040 0.629415 -1.365577 -2.290617
 314000.000000 71.364730 42.043920 0.658184 2.094709 3.513662
 316000.000000 70.848280 42.631850 0.701515 -1.845522 -3.095676
 318000.000000 69.349510 41.857640 0.606126 -1.061887 -1.781208
 320000.000000 69.859750 41.413330 0.677931 3.087284 5.178606
 322000.000000 69.339110 41.845510 0.684694 -0.811815 -1.361738
 324000.000000 69.946580 42.848870 0.545416 -2.682701 -4.499959
 326000.000000 70.461580 43.294490 0.610804 0.607286 1.018660
 328000.000000 69.750190 42.549590 0.492355 -0.046405 -0.077839
 330000.000000 70.726460 42.925990 0.400929 -0.005106 -0.008565
 332000.000000 70.713140 42.836410 0.566259 -0.841907 -1.412213
 334000.000000 69.114030 43.524300 0.321385 -4.647918 -7.796411
 336000.000000 68.947250 43.733200 0.388866 -3.171716 -5.320232
 338000.000000 68.864810 43.141700 0.402665 -2.600649 -4.362325
 340000.000000 69.148070 43.173600 0.459146 -3.310614 -5.553219
 342000.000000 70.206350 43.052820 0.257218 -0.884452 -1.483579
 344000.000000 70.826220 43.260280 0.329247 0.287652 0.482508
 346000.000000 70.040010 43.082880 0.321106 -2.352252 -3.945664
 348000.000000 68.306190 42.125910 0.383607 -4.117119 -6.906049
 350000.000000 69.387720 42.134340 0.461901 -1.217054 -2.041485
 352000.000000 68.812790 41.652790 0.482620 -3.320917 -5.570501
 354000.000000 68.653320 42.184210 0.463125 -4.188354 -7.025539
 356000.000000 68.147980 42.434750 0.396118 -5.191437 -8.708109
 358000.000000 68.318530 42.692020 0.314872 -3.496727 -5.865405
 360000.000000 68.459040 42.207740 0.416240 -2.866412 -4.808115
 362000.000000 69.448030 41.936130 0.468792 -0.296851 -0.497937
 364000.000000 68.767810 43.418360 0.430339 -2.902995 -4.869480
 366000.000000 68.573830 42.588270 0.443091 -3.167060 -5.312422
 368000.000000 69.942810 43.364540 0.341285 -2.471066 -4.144963
 370000.000000 69.565540 42.527920 0.244889 -0.409668 -0.687177
 372000.000000 69.658070 44.014570 0.351503 -2.665312 -4.470790
 374000.000000 70.049840 43.703580 0.292801 -2.427679 -4.072185
 376000.000000 70.975730 42.867060 0.412385 0.525420 0.881339
 378000.000000 71.060120 42.828560 0.376251 -0.258333 -0.433327
 380000.000000 71.382090 42.509750 0.396127 -0.346212 -0.580736
 382000.000000 69.836970 42.569040 0.518545 0.255461 0.428510
 384000.000000 70.765850 42.525130 0.544064 -1.620884 -2.718868
 386000.000000 70.467430 42.167310 0.409493 1.441841 2.418542
 388000.000000 70.026420 42.498080 0.511182 -1.228235 -2.060240
 390000.000000 70.775920 43.669060 0.484973 -0.360887 -0.605351
 392000.000000 70.200470 42.834920 0.509111 -2.363852 -3.965122
 394000.000000 71.404920 42.607260 0.530959 0.014127 0.023696
 396000.000000 71.045730 42.885440 0.483318 -0.105148 -0.176375
 398000.000000 71.104130 43.309990 0.481773 -0.345915 -0.580237
 400000.000000 70.775860 43.308510 0.467986 1.242325 2.083874
 402000.000000 71.206220 44.085330 0.406851 -0.276266 -0.463408
 404000.000000 70.944110 43.741900 0.523576 -0.095916 -0.160890
 406000.000000 70.660800 44.405100 0.326823 -1.047395 -1.756899
 408000.000000 70.022600 44.307990 0.407703 -2.884257 -4.838049
 410000.000000 68.904560 43.654410 0.486247 -3.462537 -5.808055
 412000.000000 69.532790 44.145150 0.383697 -2.922487 -4.902175
 414000.000000 68.106810 44.596500 0.398720 -4.065946 -6.820212
 416000.000000 68.832570 44.447210 0.385673 -3.689312 -6.188447
 418000.000000 67.874230 44.876850 0.355945 -4.148748 -6.959104
 420000.000000 68.505180 44.749670 0.353353 -3.901476 -6.544330
 422000.000000 69.710240 44.397770 0.396054 -2.746583 -4.607114
 424000.000000 69.495050 45.379930 0.245038 -3.060561 -5.133781
 426000.000000 71.047310 44.693140 0.234271 -1.443326 -2.421033
 428000.000000 70.547670 44.578940 0.330971 -2.456213 -4.120048
 430000.000000 70.953780 44.170930 0.450264 -0.416657 -0.698899
 432000.000000 70.520330 44.427870 0.406477 -1.810648 -3.037178
 434000.000000 69.147190 43.483520 0.502182 -3.713169 -6.228464
 436000.000000 69.652310 43.084670 0.503879 -2.431336 -4.078319
 438000.000000 69.742480 42.798830 0.500226 -2.572287 -4.314750
 440000.000000 69.843620 43.693830 0.478972 -3.638158 -6.102641
 442000.000000 69.130520 42.843440 0.526286 -4.069344 -6.825912
 444000.000000 69.313150 42.579300 0.505015 -2.488152 -4.173623
 446000.000000 69.221060 41.861720 0.646578 0.315699 0.529552
 448000.000000 69.665130 41.844130 0.532657 1.772066 2.972461
 450000.000000 70.075940 41.733250 0.580101 2.797328 4.692234
 452000.000000 70.280000 41.591260 0.672638 5.108092 8.568306
 454000.000000 71.131640 42.287220 0.606411 -0.144138 -0.241777
 456000.000000 70.692360 41.870620 0.723868 2.842058 4.767264
 458000.000000 69.786780 41.715580 0.750411 1.755970 2.945462
 460000.000000 68.866300 41.491770 0.657899 -1.743105 -2.923882
 462000.000000 68.901220 41.321420 0.672559 -1.884493 -3.161046
 464000.000000 69.481820 41.475650 0.662783 0.338676 0.568094
 466000.000000 69.221350 41.121320 0.598200 -0.022854 -0.038336
 468000.000000 68.469550 41.829070 0.581118 -4.054169 -6.800457
 470000.000000 68.531980 42.515860 0.530924 -2.937232 -4.926909
 472000.000000 69.474210 42.329390 0.633561 -0.470093 -0.788533
 474000.000000 70.376870 42.494730 0.534601 -1.528856 -2.564501
 476000.000000 71.159680 42.392020 0.729280 0.390825 0.655570
 478000.000000 70.036720 42.226750 0.692586 2.403996 4.032459
 480000.000000 71.381400 41.978790 0.607245 3.547615 5.950764
 482000.000000 70.760950 41.590450 0.587458 4.035369 6.768922
 484000.000000 71.308060 42.095010 0.661301 2.460511 4.127258
 486000.000000 70.944510 42.518670 0.680658 0.036775 0.061686
 488000.000000 69.794380 41.441820 0.634129 3.046250 5.109775
 490000.000000 68.549280 40.772160 0.782635 -6.047187 -10.143543
 492000.000000 68.120950 41.087840 0.685160 -6.391869 -10.721712
 494000.000000 69.163210 41.312680 0.716922 -0.881401 -1.478461
 496000.000000 69.555610 41.155110 0.762329 2.093505 3.511642
 498000.000000 70.363910 40.488790 0.713722 5.115771 8.581187
 500000.000000 70.968860 41.229060 0.728513 4.934705 8.277467
 502000.000000 69.450390 40.264420 0.713108 -0.637349 -1.069089
 504000.000000 68.207580 40.281060 0.803376 -6.981414 -11.710614
 506000.000000 69.319270 41.000020 0.756759 1.924396 3.227979
 508000.000000 70.034930 40.043040 0.773242 4.924639 8.260582
 510000.000000 69.406580 40.537160 0.853669 -1.610376 -2.701242
 512000.000000 69.357300 40.393320 0.749102 0.012543 0.021039
 514000.000000 68.671500 39.621070 0.797285 -7.139962 -11.976562
 516000.000000 68.624660 40.155570 0.788782 -6.048962 -10.146520
 518000.000000 68.054680 40.209360 0.744870 -6.981901 -11.711431
 520000.000000 68.679370 40.294320 0.819340 -6.039768 -10.131098
 522000.000000 68.500490 40.903360 0.788070 -6.475903 -10.862670
 524000.000000 68.814420 40.264250 0.819694 -4.585888 -7.692362
 526000.000000 68.657480 41.000670 0.714269 -3.975520 -6.668531
 528000.000000 68.624720 40.496860 0.732333 -6.057571 -10.160961
 530000.000000 68.999520 40.814480 0.718423 -0.420400 -0.705178
 532000.000000 69.917750 41.003060 0.809910 0.559055 0.937758
 534000.000000 69.616280 40.200790 0.800143 -3.108916 -5.214891
 536000.000000 68.368250 41.027190 0.681580 -6.332157 -10.621551
 538000.000000 68.541750 42.064610 0.723166 -2.859965 -4.797301
 540000.000000 68.104650 41.223890 0.673281 -6.336833 -10.629394
 542000.000000 68.196080 42.589210 0.546640 -3.996595 -6.703883
 544000.000000 69.178320 42.544730 0.488702 -3.660616 -6.140312
 546000.000000 69.641300 42.371200 0.753815 0.025455 0.042698
 548000.000000 69.150650 41.871630 0.668463 -1.835431 -3.078749
 550000.000000 70.083390 42.515410 0.724946 -0.913477 -1.532265
 552000.000000 69.625920 42.201810 0.657404 0.770731 1.292823
 554000.000000 69.663330 42.123480 0.643326 1.123571 1.884676
 556000.000000 70.191390 42.494000 0.700481 -0.171715 -0.288035
 558000.000000 71.323610 42.986710 0.603015 0.502009 0.842070
 560000.000000 70.374040 42.666570 0.544981 -1.457074 -2.444094
 562000.000000 69.946380 42.786020 0.587830 -2.622751 -4.399399
 564000.000000 70.926950 43.378100 0.404903 1.266906 2.125106
 566000.000000 71.354870 43.583570 0.549418 -0.270972 -0.454528
 568000.000000 71.908010 43.053060 0.577587 0.694621 1.165157
 570000.000000 71.771240 43.604120 0.563926 -0.044722 -0.075017
 572000.000000 70.986590 43.993940 0.465428 -0.232485 -0.389970
 574000.000000 72.042230 43.376890 0.594145 -0.047840 -0.080247
 576000.000000 72.123690 43.826420 0.443954 -0.032909 -0.055201
 578000.000000 73.201940 43.949510 0.351360 -0.660315 -1.107612
 580000.000000 72.430460 43.782200 0.307156 -0.042953 -0.072049
 582000.000000 71.525370 42.460250 0.461260 1.405762 2.358023
 584000.000000 72.243420 43.226130 0.394026 0.335885 0.563413
 586000.000000 71.616520 43.002740 0.388384 1.155365 1.938008
 588000.000000 72.075990 44.372100 0.312387 -0.034337 -0.057597
 590000.000000 72.753070 44.002020 0.348180 -0.043330 -0.072681
 592000.000000 73.474010 43.321340 0.478233 -0.116991 -0.196241
 594000.000000 73.351700 42.877620 0.440512 -1.255190 -2.105454
 596000.000000 73.021580 43.242110 0.526811 -0.031508 -0.052852
 598000.000000 73.897720 43.004170 0.515307 -3.128960 -5.248513
 600000.000000 74.018260 43.168630 0.523459 -3.878364 -6.505562
 602000.000000 74.535880 42.339230 0.502317 -6.048163 -10.145180
 604000.000000 73.586280 42.984760 0.511265 -3.013445 -5.054748
 606000.000000 73.608500 44.095190 0.428550 -0.094428 -0.158393
 608000.000000 73.713700 43.559360 0.506562 -0.148461 -0.249029
 610000.000000 72.664830 42.492930 0.535323 1.554883 2.608158
 612000.000000 71.676390 42.267430 0.555193 1.134999 1.903846
 614000.000000 71.718520 42.740350 0.574858 1.041212 1.746527
 616000.000000 72.257170 42.837020 0.482473 -0.075136 -0.126033
 618000.000000 71.620600 42.313800 0.605618 1.140079 1.912367
 620000.000000 71.215490 41.850810 0.741248 2.964591 4.972801
 622000.000000 71.282570 42.095760 0.550557 2.734295 4.586502
 624000.000000 71.530320 42.233750 0.583645 1.365524 2.290528
 626000.000000 72.329720 42.150980 0.641333 3.081360 5.168669
 628000.000000 73.499780 42.796180 0.508921 -1.336364 -2.241615
 630000.000000 72.577330 43.320490 0.488708 -0.039637 -0.066487
 632000.000000 72.475340 42.752400 0.539295 0.195255 0.327521
 634000.000000 72.691320 42.795240 0.513481 0.182914 0.306819
 636000.000000 72.325770 42.268310 0.655238 1.810457 3.036858
 638000.000000 72.173740 41.807010 0.727956 3.725238 6.248709
 640000.000000 71.057550 41.353800 0.691360 5.374836 9.015742
 642000.000000 72.397480 42.089460 0.723483 3.433394 5.759170
 644000.000000 72.780780 42.130170 0.632834 1.823519 3.058768
 646000.000000 71.071520 42.725620 0.558467 -2.462229 -4.130139
 648000.000000 72.017880 42.050000 0.697457 2.684164 4.502413
 650000.000000 72.343800 42.046620 0.771943 3.072870 5.154428
 652000.000000 72.574480 42.975750 0.609147 0.298292 0.500355
 654000.000000 71.832630 42.767370 0.539630 -1.469837 -2.465502
 656000.000000 73.349470 43.425550 0.511061 -0.291431 -0.488846
 658000.000000 73.094750 42.901360 0.545230 0.028137 0.047197
 660000.000000 72.782290 43.993400 0.418630 -0.048731 -0.081742
 662000.000000 72.181680 43.659930 0.526014 -0.308908 -0.518161
 664000.000000 71.749120 43.167120 0.480509 1.297519 2.176456
 666000.000000 73.424450 43.412670 0.523006 -0.040851 -0.068524
 668000.000000 72.563120 44.049150 0.457461 -0.070750 -0.118676
 670000.000000 72.680080 43.626640 0.492916 -0.027744 -0.046538
 672000.000000 73.134510 42.774890 0.530156 0.786897 1.319940
 674000.000000 73.993120 43.620570 0.472270 -0.378916 -0.635594
 676000.000000 72.824190 43.562800 0.489999 -0.026761 -0.044888
 678000.000000 71.829750 44.126200 0.356800 -0.091752 -0.153904
 680000.000000 72.136810 44.529890 0.320051 -0.244094 -0.409443
 682000.000000 71.615530 44.026450 0.385850 -0.046229 -0.077545
 684000.000000 72.573890 44.792770 0.405076 -0.352437 -0.591178
 686000.000000 72.324160 44.522530 0.356960 -0.648660 -1.088061
 688000.000000 72.541200 44.861230 0.366964 -0.373050 -0.625753
 690000.000000 70.552260 44.817210 0.358298 -2.535784 -4.253520
 692000.000000 71.869320 44.962070 0.366284 -1.139779 -1.911864
 694000.000000 71.565420 44.534350 0.430916 -0.073706 -0.123635
 696000.000000 71.964780 44.537370 0.410403 -0.050025 -0.083911
 698000.000000 72.350090 44.824510 0.381100 -0.312275 -0.523809
 700000.000000 72.572110 45.229830 0.416431 -0.704550 -1.181811
 702000.000000 73.121550 45.177920 0.337245 -1.180020 -1.979364
 704000.000000 73.138120 45.531210 0.315221 -0.918982 -1.541498
 706000.000000 72.347240 43.955660 0.385497 -0.056584 -0.094914
 708000.000000 73.437750 43.876500 0.447059 -0.200475 -0.336276
 710000.000000 73.070630 44.104610 0.479833 -0.071272 -0.119551
 712000.000000 72.840080 43.298150 0.511917 -0.043418 -0.072829
 714000.000000 72.806150 43.496000 0.513044 -0.023314 -0.039106
 716000.000000 72.064630 43.035080 0.486331 -0.152397 -0.255631
 718000.000000 73.391720 42.335060 0.498983 1.102670 1.849617
 720000.000000 72.091490 42.870440 0.582598 1.503911 2.522658
 722000.000000 72.469130 43.379790 0.485755 -0.025314 -0.042461
 724000.000000 72.091230 43.705570 0.427325 -0.054121 -0.090782
 726000.000000 71.889590 43.349980 0.519437 0.727510 1.220325
 728000.000000 71.245450 43.069470 0.528739 1.771636 2.971740
 730000.000000 71.377660 44.225070 0.343399 -0.153116 -0.256837
 732000.000000 72.095020 44.262180 0.368874 -0.196665 -0.329885
 734000.000000 71.916870 45.040220 0.384919 -0.929997 -1.559975
 736000.000000 73.072270 44.588860 0.344149 -2.828886 -4.745169
 738000.000000 73.966280 45.126490 0.427614 -3.057271 -5.128262
 740000.000000 72.992230 44.150160 0.391188 -0.272093 -0.456409
 742000.000000 73.240330 44.723790 0.422478 -2.220362 -3.724432
 744000.000000 73.909810 44.252490 0.439001 -0.961915 -1.613515
 746000.000000 73.160580 45.087010 0.383468 -0.695912 -1.167322
 748000.000000 72.988210 44.332370 0.414066 -0.432013 -0.724658
 750000.000000 73.512180 44.038720 0.386899 -0.240163 -0.402849
 752000.000000 74.118940 44.743560 0.394254 -3.079083 -5.164849
 754000.000000 74.645830 44.336450 0.370344 -4.163694 -6.984174
 756000.000000 73.961070 43.857780 0.439083 -1.158160 -1.942696
 758000.000000 74.407620 44.039280 0.429975 -2.418772 -4.057245
 760000.000000 74.766070 44.006480 0.399629 -2.628413 -4.408896
 762000.000000 75.358560 43.966090 0.431825 -6.008773 -10.079107
 764000.000000 74.576090 43.260970 0.455915 -6.048299 -10.145408
 766000.000000 73.365810 43.902950 0.508949 -0.322139 -0.540356
 768000.000000 73.464800 43.362560 0.448581 -0.064320 -0.107890
 770000.000000 73.743120 42.324800 0.566215 -3.310536 -5.553088
 772000.000000 74.160240 43.249730 0.511661 -4.048302 -6.790616
 774000.000000 75.104440 43.302260 0.445542 -6.048660 -10.146014
 776000.000000 74.478350 42.810710 0.504770 -4.655646 -7.809374
 778000.000000 74.142210 42.450050 0.597728 -5.544893 -9.300995
 780000.000000 73.988710 42.553530 0.582316 -3.031492 -5.085020
 782000.000000 73.294000 42.182400 0.528129 1.887980 3.166895
 784000.000000 73.072410 42.468060 0.599702 0.406487 0.681840
 786000.000000 73.214770 42.317020 0.595945 2.423353 4.064929
 788000.000000 74.285150 42.129420 0.592305 -4.194301 -7.035514
 790000.000000 73.289430 41.679230 0.593317 -2.005783 -3.364497
 792000.000000 73.358940 42.739290 0.560000 0.210732 0.353482
 794000.000000 72.629210 43.099980 0.474946 -0.045183 -0.075790
 796000.000000 72.195550 41.928750 0.606578 2.711661 4.548536
 798000.000000 72.828850 41.477640 0.641628 -0.042479 -0.071254
 800000.000000 73.389690 41.805230 0.620140 -1.998824 -3.352824
 802000.000000 74.133660 42.363730 0.615184 -5.752094 -9.648554
 804000.000000 74.018850 42.473900 0.580469 -4.390687 -7.364932
 806000.000000 73.674790 42.414950 0.558011 -2.320842 -3.892977
 808000.000000 72.769960 41.575900 0.609738 1.946789 3.265541
 810000.000000 73.127690 41.419660 0.670458 0.598006 1.003095
 812000.000000 73.467670 41.782430 0.555722 -1.337267 -2.243130
 814000.000000 73.614800 42.840080 0.560818 -1.352487 -2.268660
 816000.000000 74.703050 42.991280 0.605973 -6.048216 -10.145269
 818000.000000 75.499320 42.733080 0.465227 -6.091632 -10.218095
 820000.000000 75.558500 42.458940 0.620644 -6.778343 -11.369983
 822000.000000 75.126370 42.889580 0.611128 -6.171463 -10.352003
 824000.000000 74.982150 43.479800 0.622394 -6.049662 -10.147694
 826000.000000 74.568630 43.103190 0.668895 -6.047561 -10.144170
 828000.000000 74.939720 43.182300 0.591036 -6.048601 -10.145915
 830000.000000 74.748990 42.884270 0.569765 -6.048343 -10.145482
 832000.000000 76.048000 43.417460 0.564444 -7.157148 -12.005390
 834000.000000 74.595280 43.496040 0.612441 -4.955733 -8.312739
 836000.000000 75.632490 43.345230 0.588779 -6.061147 -10.166959
 838000.000000 75.423070 42.742600 0.596448 -6.653973 -11.161365
 840000.000000 76.163680 42.598420 0.636214 -7.532716 -12.635367
 842000.000000 76.576040 43.031970 0.605233 -7.558860 -12.679221
 844000.000000 76.723540 43.143620 0.575532 -7.811700 -13.103334
 846000.000000 76.622540 43.924460 0.607587 -7.780195 -13.050488
 848000.000000 76.191520 44.268690 0.602415 -5.655928 -9.487245
 850000.000000 75.689780 44.412260 0.556152 -7.045494 -11.818101
 852000.000000 75.976250 44.110650 0.576659 -6.374464 -10.692517
 854000.000000 74.934040 43.774500 0.648065 -5.676325 -9.521459
 856000.000000 75.087530 44.235860 0.553768 -6.306664 -10.578789
 858000.000000 76.278940 43.825230 0.601895 -7.701256 -12.918076
 860000.000000 76.321650 43.396970 0.580869 -7.164529 -12.017771
 862000.000000 76.495600 43.680610 0.572451 -7.752203 -13.003534
 864000.000000 75.923120 43.067890 0.602757 -6.754041 -11.329219
 866000.000000 75.995920 43.612380 0.578371 -7.147971 -11.989996
 868000.000000 76.197570 43.954150 0.475097 -7.214986 -12.102407
 870000.000000 76.567300 43.235830 0.615113 -7.810116 -13.100677
 872000.000000 76.730110 43.685200 0.588594 -7.796244 -13.077408
 874000.000000 75.399700 43.720250 0.561700 -6.067736 -10.178012
 876000.000000 74.609130 43.206100 0.716114 -6.048098 -10.145071
 878000.000000 74.695950 44.026940 0.658952 -4.195573 -7.037648
 880000.000000 75.563940 43.910040 0.618357 -6.059531 -10.164249
 882000.000000 73.740170 43.957020 0.572823 -0.545940 -0.915759
 884000.000000 74.891760 43.229670 0.620824 -6.048320 -10.145443
 886000.000000 74.933560 43.665510 0.590989 -6.128225 -10.279476
 888000.000000 74.870800 43.171440 0.721060 -6.048530 -10.145795
 890000.000000 74.351790 42.932590 0.660162 -4.781028 -8.019689
 892000.000000 74.849860 43.776580 0.452748 -5.460869 -9.160054
 894000.000000 75.696460 43.884660 0.588691 -6.174947 -10.357847
 896000.000000 75.468070 44.251330 0.559605 -4.536677 -7.609815
 898000.000000 75.464410 44.331880 0.506223 -5.849568 -9.812057
 900000.000000 75.534850 44.175820 0.496952 -3.827727 -6.420624
 902000.000000 74.515350 44.289720 0.448277 -3.936315 -6.602769
 904000.000000 74.874820 44.291490 0.550258 -4.851845 -8.138478
 906000.000000 74.397930 44.257000 0.610828 -2.795230 -4.688715
 908000.000000 73.629540 43.850820 0.560405 -0.148589 -0.249243
 910000.000000 74.612400 44.793150 0.528389 -4.075390 -6.836053
 912000.000000 75.196820 45.430370 0.357909 -4.625026 -7.758012
 914000.000000 74.647220 44.950220 0.411605 -4.584487 -7.690012
 916000.000000 74.111120 45.320460 0.345804 -4.138007 -6.941087
 918000.000000 73.925190 44.854400 0.252349 -5.826793 -9.773854
 920000.000000 75.626230 45.487950 0.134379 -5.811753 -9.748626
 922000.000000 76.030910 45.540220 0.248657 -6.645832 -11.147709
 924000.000000 76.544850 46.038760 0.275984 -7.181193 -12.045723
 926000.000000 75.379130 45.307240 0.345204 -4.592983 -7.704263
 928000.000000 75.030380 44.892620 0.317398 -3.511933 -5.890911
 930000.000000 76.124530 44.965100 0.277765 -6.888501 -11.554762
 932000.000000 76.319580 44.710600 0.076704 -7.104477 -11.917039
 934000.000000 77.106870 45.342490 0.093493 -7.439464 -12.478946
 936000.000000 76.303060 45.278470 0.112946 -7.179489 -12.042864
 938000.000000 76.447680 44.487640 0.069468 -7.070134 -11.859433
 940000.000000 76.105560 44.331740 0.098513 -5.897975 -9.893255
 942000.000000 76.384680 44.260950 0.154434 -7.530099 -12.630977
 944000.000000 77.624770 44.959240 0.126218 -7.919908 -13.284842
 946000.000000 78.496580 44.681100 0.078175 -8.063544 -13.525777
 948000.000000 78.538250 45.487570 0.094421 -8.323215 -13.961349
 950000.000000 75.734860 45.509860 0.196048 -5.331596 -8.943211
 952000.000000 77.078090 45.564520 0.193259 -7.482944 -12.551879
 954000.000000 75.527980 45.608680 0.141933 -6.338854 -10.632785
 956000.000000 75.745440 46.220480 0.252286 -5.212801 -8.743945
 958000.000000 74.923250 45.669990 0.181932 -4.552419 -7.636221
 960000.000000 75.631450 44.771460 0.122321 -6.815774 -11.432769
 962000.000000 75.356650 44.550450 0.161589 -6.332001 -10.621289
 964000.000000 75.365840 45.138480 0.118249 -4.808624 -8.065979
 966000.000000 76.494850 44.929780 0.174896 -7.051918 -11.828877
 968000.000000 76.072010 45.018840 0.114926 -6.983365 -11.713886
 970000.000000 76.158400 45.093620 0.098173 -7.051780 -11.828646
 972000.000000 75.152200 45.610450 0.215291 -4.493073 -7.536674
 974000.000000 74.587700 45.462190 0.235506 -4.487807 -7.527841
 976000.000000 74.673820 44.151920 0.153199 -4.404165 -7.387540
 978000.000000 74.894920 44.333600 0.104932 -4.766643 -7.995560
 980000.000000 73.860170 44.156010 0.210520 -0.639532 -1.072749
 982000.000000 74.086030 43.494850 0.145667 -1.201759 -2.015829
 984000.000000 73.738220 43.742850 0.189613 -0.815302 -1.367587
 986000.000000 73.077010 44.438410 0.135561 -1.120937 -1.880258
 988000.000000 72.912230 43.819030 0.186813 -0.034404 -0.057709
 990000.000000 73.677810 43.963500 0.074258 -0.410154 -0.687991
 992000.000000 73.440340 43.760980 0.127657 -0.069734 -0.116971
 994000.000000 74.781530 44.185480 0.067760 -5.051147 -8.472787
 996000.000000 73.563850 44.617260 0.075223 -3.754197 -6.297285
 998000.000000 72.966860 45.769130 0.093737 -1.395507 -2.340821
 1000000.000000 73.448380 45.332060 0.088193 -2.259330 -3.789797
 1002000.000000 73.175090 45.973490 0.063289 -0.285403 -0.478735
 1004000.000000 73.081570 45.575520 0.067307 -0.607519 -1.019052
 1006000.000000 72.606670 46.387040 0.043674 -0.871243 -1.461422
 1008000.000000 71.606310 45.556710 0.025298 -2.481943 -4.163208
 1010000.000000 70.749330 45.109950 0.064381 -2.558731 -4.292012
 1012000.000000 71.634970 45.357330 0.100896 -2.466749 -4.137721
 1014000.000000 71.847250 45.792380 0.079618 -1.538524 -2.580718
 1016000.000000 71.429280 45.438150 0.098185 -2.468361 -4.140425
 1018000.000000 70.742680 44.869190 0.072724 -2.580081 -4.327824
 1020000.000000 71.280850 45.758090 0.069542 -2.556799 -4.288771
 1022000.000000 70.891550 46.301540 0.164576 -2.873489 -4.819986
 1024000.000000 70.085730 45.867180 0.060295 -2.901753 -4.867396
 1026000.000000 71.077720 45.287980 0.062393 -2.840772 -4.765107
 1028000.000000 72.165570 45.987230 0.123428 -2.466056 -4.136559
 1030000.000000 71.198600 46.267270 0.053452 -2.498294 -4.190635
 1032000.000000 70.932440 46.366110 0.025581 -2.520604 -4.228057
 1034000.000000 71.904600 45.897530 0.078123 -2.472657 -4.147631
 1036000.000000 71.176870 45.188720 0.071037 -2.463116 -4.131627
 1038000.000000 70.318380 45.051820 0.077329 -3.710501 -6.223989
 1040000.000000 69.764750 44.950490 0.012648 -2.858568 -4.794958
 1042000.000000 70.013100 45.745190 0.021813 -2.912743 -4.885831
 1044000.000000 68.579740 45.543250 0.004984 -4.942293 -8.290195
 1046000.000000 68.481820 45.929600 0.013684 -5.900835 -9.898052
 1048000.000000 68.283690 45.010030 0.075642 -4.374320 -7.337478
 1050000.000000 68.321740 44.651650 0.002243 -3.946364 -6.619625
 1052000.000000 67.773830 45.317540 0.001110 -6.208684 -10.414438
 1054000.000000 68.096870 44.729500 0.000010 -4.324527 -7.253955
 1056000.000000 67.803720 44.121720 0.000018 -5.918888 -9.928334
 1058000.000000 67.483680 44.604870 0.000084 -5.949719 -9.980050
 1060000.000000 68.732490 45.146750 0.009022 -3.859827 -6.474468
 1062000.000000 67.995060 45.249470 0.000014 -4.160359 -6.978580
 1064000.000000 68.836790 46.067070 0.000076 -4.095210 -6.869299
 1066000.000000 68.081800 45.472660 0.000152 -5.191273 -8.707834
 1068000.000000 68.115520 46.301570 0.000406 -6.287853 -10.547236
 1070000.000000 69.267610 46.257500 0.000003 -3.935749 -6.601820
 1072000.000000 69.316670 46.882150 0.000121 -4.630990 -7.768016
 1074000.000000 68.176540 47.492270 0.000003 -6.801437 -11.408721
 1076000.000000 67.393020 46.867740 0.074195 -6.761029 -11.340940
 1078000.000000 67.732760 47.284630 0.000062 -6.803726 -11.412560
 1080000.000000 67.998140 48.477420 0.000016 -6.930823 -11.625752
 1082000.000000 68.250620 48.723550 0.000034 -6.814817 -11.431164
 1084000.000000 68.102160 49.371930 0.000001 -7.144699 -11.984508
 1086000.000000 67.845010 48.199920 0.000000 -6.804438 -11.413754
 1088000.000000 66.774750 49.241960 0.000000 -7.305601 -12.254405
 1090000.000000 66.081250 50.319440 0.000000 -7.739147 -12.981634
 1092000.000000 67.341770 50.275870 0.000000 -7.221622 -12.113538
 1094000.000000 66.354250 48.318030 0.000000 -7.179644 -12.043124
 1096000.000000 67.114040 48.537710 0.047584 -7.038128 -11.805746
 1098000.000000 69.045500 48.415510 0.000003 -6.800376 -11.406941
 1100000.000000 68.655270 48.022810 0.000311 -6.813569 -11.429071
 1102000.000000 69.570720 48.900250 0.000020 -6.700164 -11.238845
 1104000.000000 68.867930 49.268860 0.001346 -6.827288 -11.452083
 1106000.000000 68.565150 50.003890 0.058133 -7.166230 -12.020624
 1108000.000000 69.354590 49.553800 0.057843 -6.866644 -11.518099
 1110000.000000 69.314290 48.398810 0.062879 -6.798005 -11.402964
 1112000.000000 69.072150 49.312820 0.003265 -6.820992 -11.441522
 1114000.000000 67.689940 50.204480 0.000146 -7.135339 -11.968807
 1116000.000000 69.308540 51.926610 0.000028 -7.199298 -12.076092
 1118000.000000 68.957960 49.685500 0.051367 -7.287135 -12.223430
 1120000.000000 71.277670 50.422850 0.000010 -7.021432 -11.777740
 1122000.000000 69.696840 50.207490 0.000407 -7.113130 -11.931554
 1124000.000000 69.479500 50.213890 0.001678 -7.246919 -12.155971
 1126000.000000 68.429350 48.964510 0.044674 -6.845115 -11.481986
 1128000.000000 69.290220 48.923980 0.000780 -6.803243 -11.411750
 1130000.000000 68.986470 48.918710 0.000000 -6.801080 -11.408122
 1132000.000000 68.068290 49.899490 0.000017 -7.035938 -11.802072
 1134000.000000 67.533050 50.293070 0.007275 -7.131906 -11.963049
 1136000.000000 68.066910 50.697400 0.000018 -7.315531 -12.271061
 1138000.000000 68.920720 50.671700 0.000000 -7.166681 -12.021380
 1140000.000000 67.383410 50.320710 0.000002 -7.256376 -12.171835
 1142000.000000 66.908750 49.630020 0.005249 -7.065154 -11.851079
 1144000.000000 68.370290 50.805940 0.000023 -7.263408 -12.183630
 1146000.000000 67.351970 51.426580 0.000087 -7.228199 -12.124571
 1148000.000000 67.832970 51.897590 0.000002 -7.780459 -13.050931
 1150000.000000 68.109760 51.362490 0.000000 -7.247178 -12.156406
 1152000.000000 69.077460 50.566080 0.000031 -7.260055 -12.178006
 1154000.000000 69.899700 52.007710 0.000000 -7.252904 -12.166011
 1156000.000000 70.537820 52.339780 0.000002 -7.472394 -12.534183
 1158000.000000 70.151770 51.155970 0.000049 -7.218665 -12.108578
 1160000.000000 71.225900 51.343560 0.002528 -7.217822 -12.107164
 1162000.000000 70.746150 50.472320 0.000274 -7.049739 -11.825222
 1164000.000000 71.483410 48.413710 0.121743 -6.010036 -10.081226
 1166000.000000 70.138550 49.476270 0.061873 -6.803596 -11.412342
 1168000.000000 70.208060 48.686840 0.080860 -6.444908 -10.810679
 1170000.000000 72.032230 48.339260 0.061134 -5.046445 -8.464900
 1172000.000000 71.855480 49.046840 0.014601 -6.272738 -10.521882
 1174000.000000 70.725250 48.150800 0.121504 -5.795947 -9.722113
 1176000.000000 70.487120 49.039330 0.000019 -6.298493 -10.565083
 1178000.000000 68.690600 48.520730 0.063316 -6.819329 -11.438733
 1180000.000000 69.831050 47.260890 0.062949 -4.577617 -7.678488
 1182000.000000 70.331150 46.980270 0.100114 -3.071965 -5.152910
 1184000.000000 70.451230 45.833460 0.130468 -2.864398 -4.804737
 1186000.000000 69.756400 46.224300 0.124844 -3.595457 -6.031014
 1188000.000000 69.536410 45.987500 0.117367 -2.913977 -4.887901
 1190000.000000 69.998230 45.245040 0.123501 -4.467771 -7.494233
 1192000.000000 69.709640 44.919490 0.144807 -2.869675 -4.813589
 1194000.000000 69.477740 44.473740 0.171838 -2.930032 -4.914831
 1196000.000000 70.945910 44.242470 0.183490 -1.504617 -2.523842
 1198000.000000 70.500950 44.298690 0.146472 -1.870680 -3.137876
 1200000.000000 70.509730 44.885180 0.137770 -2.753680 -4.619019
 1202000.000000 70.313570 44.976130 0.147284 -3.718813 -6.237932
 1204000.000000 71.294130 44.867360 0.194687 -0.633489 -1.062613
 1206000.000000 71.154380 44.240130 0.202881 -0.312988 -0.525006
 1208000.000000 70.190020 44.625730 0.171216 -2.906057 -4.874616
 1210000.000000 69.392190 44.761070 0.166832 -2.863329 -4.802944
 1212000.000000 69.845770 43.938470 0.199409 -2.479012 -4.158291
 1214000.000000 69.736730 44.273720 0.171957 -2.513213 -4.215660
 1216000.000000 69.774120 43.686400 0.177511 -3.591036 -6.023599
 1218000.000000 68.857650 43.782360 0.118032 -4.133646 -6.933772
 1220000.000000 70.184660 44.338220 0.133819 -2.825001 -4.738653
 1222000.000000 70.333900 44.395530 0.178301 -1.783544 -2.991714
 1224000.000000 70.137920 45.052860 0.182110 -2.870209 -4.814484
 1226000.000000 69.242470 45.897170 0.152175 -3.849738 -6.457545
 1228000.000000 69.138330 44.717290 0.187847 -2.941057 -4.933325
 1230000.000000 69.086620 44.055670 0.199203 -2.708173 -4.542685
 1232000.000000 69.106500 44.875580 0.071102 -2.595079 -4.352982
 1234000.000000 68.941910 44.830130 0.139763 -3.734834 -6.264805
 1236000.000000 68.097150 44.325250 0.196522 -4.478166 -7.511669
 1238000.000000 69.176450 43.996210 0.229524 -2.615958 -4.388004
 1240000.000000 68.884150 43.602960 0.200335 -3.896562 -6.536087
 1242000.000000 70.088060 44.254950 0.255399 -2.766304 -4.640194
 1244000.000000 69.405350 44.009680 0.247526 -3.843271 -6.446697
 1246000.000000 69.003650 43.198980 0.197260 -2.472938 -4.148103
 1248000.000000 68.454230 43.422770 0.303483 -3.897716 -6.538023
 1250000.000000 68.421220 43.055830 0.247500 -3.787316 -6.352838
 1252000.000000 68.256070 43.329520 0.250114 -3.793201 -6.362710
 1254000.000000 68.840270 42.874860 0.259088 -3.315169 -5.560860
 1256000.000000 67.961270 43.256000 0.275541 -3.875881 -6.501397
 1258000.000000 67.484740 43.142740 0.212170 -5.103746 -8.561016
 1260000.000000 67.660910 42.691360 0.275728 -6.219909 -10.433266
 1262000.000000 68.361660 42.121270 0.360607 -3.583818 -6.011491
 1264000.000000 67.678210 42.972230 0.271873 -5.042033 -8.457499
 1266000.000000 67.485680 42.467690 0.309037 -5.245787 -8.799276
 1268000.000000 67.272080 42.612130 0.213091 -5.911155 -9.915363
 1270000.000000 66.792370 43.024640 0.244033 -6.320944 -10.602742
 1272000.000000 67.412370 42.113050 0.196153 -6.335889 -10.627811
 1274000.000000 68.412420 42.725730 0.310370 -4.603300 -7.721569
 1276000.000000 68.193070 43.620330 0.251469 -3.797719 -6.370288
 1278000.000000 68.532750 43.424670 0.219561 -3.849316 -6.456837
 1280000.000000 67.425880 43.920250 0.244222 -6.154716 -10.323912
 1282000.000000 68.938520 43.130130 0.260045 -2.438693 -4.090660
 1284000.000000 68.570290 42.889870 0.272248 -2.769939 -4.646292
 1286000.000000 68.395600 42.965990 0.241945 -3.802854 -6.378902
 1288000.000000 68.941610 43.744900 0.203976 -3.089910 -5.183011
 1290000.000000 67.302680 43.114980 0.123410 -5.742254 -9.632049
 1292000.000000 67.522000 44.383530 0.115874 -5.570463 -9.343887
 1294000.000000 67.854960 43.751660 0.141765 -5.783744 -9.701644
 1296000.000000 66.426020 43.921290 0.080155 -6.735690 -11.298437
 1298000.000000 66.862230 43.625710 0.150290 -6.330010 -10.617950
 1300000.000000 66.664030 43.269250 0.228073 -6.609437 -11.086660
 1302000.000000 67.486360 42.663950 0.236415 -5.805801 -9.738642
 1304000.000000 67.557730 43.623450 0.177525 -5.410120 -9.074927
 1306000.000000 67.088940 44.393680 0.097883 -6.299079 -10.566066
 1308000.000000 68.327010 44.364980 0.139309 -3.849118 -6.456505
 1310000.000000 66.908640 44.962540 0.123765 -6.785375 -11.381778
 1312000.000000 67.135970 44.733030 0.120321 -6.400662 -10.736461
 1314000.000000 67.449860 45.217670 0.126801 -6.349104 -10.649978
 1316000.000000 66.921800 45.176130 0.062810 -6.780120 -11.372963
 1318000.000000 66.325470 45.320750 0.063411 -7.385300 -12.388092
 1320000.000000 66.782250 45.877350 0.065469 -6.737182 -11.300939
 1322000.000000 66.329620 45.211070 0.106041 -7.417031 -12.441317
 1324000.000000 66.165550 44.179860 0.114237 -7.413283 -12.435030
 1326000.000000 67.242280 44.397040 0.171425 -6.277771 -10.530324
 1328000.000000 66.711500 44.447970 0.166806 -6.718411 -11.269453
 1330000.000000 67.953080 44.123670 0.226464 -4.809273 -8.067068
 1332000.000000 67.702320 43.768090 0.268412 -5.881878 -9.866254
 1334000.000000 66.586470 45.048670 0.168382 -7.200539 -12.078174
 1336000.000000 66.994490 44.578790 0.124572 -6.365619 -10.677680
 1338000.000000 67.403760 45.474400 0.120203 -6.662164 -11.175104
 1340000.000000 67.634840 45.385510 0.120535 -5.678487 -9.525086
 1342000.000000 67.588800 45.025320 0.121449 -5.964915 -10.005540
 1344000.000000 68.139870 45.077270 0.095761 -3.861769 -6.477726
 1346000.000000 67.547330 44.888300 0.069595 -5.938023 -9.960431
 1348000.000000 68.322410 45.483100 0.185151 -4.275331 -7.171434
 1350000.000000 67.716340 44.419790 0.147186 -4.151038 -6.962945
 1352000.000000 68.117960 44.178660 0.127089 -3.820554 -6.408592
 1354000.000000 68.261550 45.191690 0.070290 -4.021125 -6.745029
 1356000.000000 68.141060 45.030110 0.094206 -3.811192 -6.392888
 1358000.000000 68.039270 45.603120 0.119750 -5.941599 -9.966430
 1360000.000000 68.032190 44.519380 0.125378 -4.226900 -7.090196
 1362000.000000 67.231270 43.939020 0.132132 -6.271476 -10.519765
 1364000.000000 65.811090 44.351110 0.063219 -7.446406 -12.490591
 1366000.000000 65.950090 43.972680 0.126273 -7.304881 -12.253197
 1368000.000000 65.583270 44.579280 0.112445 -7.517551 -12.609929
 1370000.000000 66.458090 44.597630 0.107318 -7.191362 -12.062780
 1372000.000000 65.649160 44.029320 0.104656 -7.513347 -12.602877
 1374000.000000 65.701580 44.170460 0.071936 -7.648954 -12.830344
 1376000.000000 64.920390 44.291230 0.125696 -7.656589 -12.843151
 1378000.000000 65.990800 44.789660 0.155137 -7.547807 -12.660681
 1380000.000000 65.591330 45.292530 0.133437 -7.713498 -12.938610
 1382000.000000 65.338390 45.344670 0.151975 -7.887289 -13.230127
 1384000.000000 65.935470 45.771940 0.123137 -7.277099 -12.206595
 1386000.000000 66.401110 45.564200 0.124999 -7.084893 -11.884189
 1388000.000000 66.399760 45.742400 0.133541 -7.027397 -11.787746
 1390000.000000 66.099800 46.015340 0.127068 -7.103893 -11.916060
 1392000.000000 67.555150 46.267180 0.125365 -6.410284 -10.752601
 1394000.000000 66.499970 46.098760 0.184635 -6.901359 -11.576330
 1396000.000000 67.717000 46.069180 0.178857 -6.281493 -10.536567
 1398000.000000 66.674730 45.888860 0.100163 -7.020210 -11.775690
 1400000.000000 67.236150 46.540970 0.062539 -6.388319 -10.715757
 1402000.000000 66.232850 46.321170 0.109844 -7.043601 -11.814926
 1404000.000000 67.973440 46.892160 0.064843 -6.280738 -10.535301
 1406000.000000 68.793210 46.556830 0.127066 -5.976664 -10.025248
 1408000.000000 68.092340 46.452120 0.125018 -6.284406 -10.541454
 1410000.000000 67.360230 47.399920 0.062691 -6.956406 -11.668665
 1412000.000000 68.723760 47.134610 0.062813 -6.339266 -10.633476
 1414000.000000 67.191990 47.067800 0.080669 -6.900650 -11.575140
 1416000.000000 66.288440 47.533210 0.062579 -7.147717 -11.989570
 1418000.000000 65.661060 47.386030 0.062515 -7.162754 -12.014793
 1420000.000000 65.552930 48.932100 0.062277 -7.717457 -12.945251
 1422000.000000 66.673730 47.246760 0.060658 -7.131748 -11.962784
 1424000.000000 65.921180 46.772530 0.062620 -7.133731 -11.966110
 1426000.000000 65.503530 47.929280 0.062373 -7.810896 -13.101986
 1428000.000000 64.782650 48.427960 0.062346 -8.038742 -13.484174
 1430000.000000 63.291730 49.900200 0.038855 -8.145723 -13.663624
 1432000.000000 63.233330 48.446950 0.000084 -8.142416 -13.658077
 1434000.000000 62.376220 49.370760 0.000000 -8.195383 -13.746924
 1436000.000000 62.011890 49.486340 0.000000 -8.182524 -13.725354
 1438000.000000 62.253040 50.389230 0.000000 -8.307511 -13.935007
 1440000.000000 61.608390 51.615200 0.000000 -8.452071 -14.177492
 1442000.000000 61.559760 51.814130 0.000000 -8.309013 -13.937526
 1444000.000000 63.038070 52.310160 0.000000 -8.051872 -13.506198
 1446000.000000 63.075280 52.157130 0.000000 -8.112009 -13.607072
 1448000.000000 63.858440 51.652430 0.000000 -8.040687 -13.487437
 1450000.000000 64.243540 52.365950 0.000000 -7.983928 -13.392229
 1452000.000000 65.325240 50.238860 0.000000 -8.122821 -13.625208
 1454000.000000 65.136230 51.615470 0.000000 -7.987550 -13.398305
 1456000.000000 65.615440 51.477930 0.000000 -7.923172 -13.290317
 1458000.000000 65.498790 51.543040 0.000000 -7.855094 -13.176123
 1460000.000000 65.136740 51.671590 0.000000 -7.909416 -13.267243
 1462000.000000 65.096610 53.379550 0.000000 -8.101346 -13.589186
 1464000.000000 64.960280 52.919160 0.000000 -7.957146 -13.347305
 1466000.000000 64.342840 52.944850 0.000000 -8.092255 -13.573937
 1468000.000000 65.097420 52.281020 0.000000 -7.925638 -13.294454
 1470000.000000 65.795720 51.842000 0.000000 -7.579023 -12.713042
 1472000.000000 66.640550 53.600130 0.000000 -8.096837 -13.581623
 1474000.000000 65.443440 53.331920 0.000000 -8.289818 -13.905329
 1476000.000000 62.414630 54.185900 0.000000 -8.387288 -14.068825
 1478000.000000 61.723280 54.072890 0.000000 -8.318301 -13.953106
 1480000.000000 63.914210 52.826780 0.000000 -8.045390 -13.495326
 1482000.000000 63.652780 53.620130 0.000000 -8.045728 -13.495892
 1484000.000000 62.655620 54.124180 0.000000 -8.321673 -13.958762
 1486000.000000 63.074360 52.971740 0.000000 -8.205653 -13.764150
 1488000.000000 63.514140 52.921720 0.000000 -8.076263 -13.547112
 1490000.000000 64.938040 51.582840 0.000000 -7.965296 -13.360976
 1492000.000000 66.869950 51.917170 0.000000 -7.833753 -13.140326
 1494000.000000 66.591390 51.831620 0.000000 -7.882184 -13.221564
 1496000.000000 67.125510 51.781240 0.000000 -7.715012 -12.941150
 1498000.000000 68.335870 51.969150 0.000000 -7.739337 -12.981953
 1500000.000000 69.240320 52.001440 0.000000 -7.583738 -12.720951
 1502000.000000 68.277060 53.538280 0.000000 -7.639450 -12.814402
 1504000.000000 68.176550 52.170910 0.000000 -7.320991 -12.280220
 1506000.000000 68.889450 52.893030 0.000000 -7.621881 -12.784932
 1508000.000000 70.755360 52.330330 0.000000 -7.763667 -13.022764
 1510000.000000 71.259890 53.381250 0.000000 -7.951523 -13.337873
 1512000.000000 69.776880 53.746020 0.000000 -7.405119 -12.421336
 1514000.000000 70.489550 52.653560 0.000000 -7.356404 -12.339621
 1516000.000000 70.829460 54.050650 0.000000 -7.878265 -13.214990
 1518000.000000 70.021770 54.142790 0.000000 -8.198422 -13.752021
 1520000.000000 66.361850 52.595800 0.000000 -7.875327 -13.210062
 1522000.000000 65.349620 52.445070 0.000000 -7.999159 -13.417778
 1524000.000000 64.650190 53.343730 0.000000 -8.157693 -13.683702
 1526000.000000 66.001210 52.602420 0.000000 -7.865350 -13.193327
 1528000.000000 67.587400 53.649500 0.000000 -7.838418 -13.148151
 1530000.000000 68.479290 52.629410 0.000000 -7.429296 -12.461890
 1532000.000000 67.616920 53.128800 0.000000 -8.001013 -13.420888
 1534000.000000 66.009210 52.721060 0.000000 -7.756598 -13.010906
 1536000.000000 66.818000 50.540320 0.000000 -7.606017 -12.758322
 1538000.000000 67.681070 49.074330 0.000000 -6.892031 -11.560683
 1540000.000000 67.700240 50.452810 0.000000 -7.156986 -12.005118
 1542000.000000 67.626470 51.260160 0.000000 -7.491971 -12.567021
 1544000.000000 66.761070 51.720900 0.000000 -7.845963 -13.160807
 1546000.000000 66.150950 51.464190 0.000000 -7.470807 -12.531521
 1548000.000000 66.610260 52.951230 0.000000 -7.806164 -13.094048
 1550000.000000 66.412990 53.438040 0.000000 -8.045273 -13.495129
 1552000.000000 65.998130 53.701550 0.000000 -7.923389 -13.290681
 1554000.000000 65.441040 53.233150 0.000000 -7.882744 -13.222503
 1556000.000000 64.983060 53.038840 0.000000 -8.093217 -13.575550
 1558000.000000 64.114670 53.793040 0.000000 -8.132331 -13.641160
 1560000.000000 63.926160 53.162570 0.000000 -8.155938 -13.680759
 1562000.000000 63.930370 53.567090 0.000000 -8.158857 -13.685655
 1564000.000000 64.154000 53.574550 0.000000 -8.094341 -13.577436
 1566000.000000 63.949200 52.406240 0.000000 -8.043897 -13.492821
 1568000.000000 63.241870 52.806310 0.000000 -8.124129 -13.627402
 1570000.000000 61.618880 52.647160 0.000000 -8.562798 -14.363225
 1572000.000000 60.889130 53.550410 0.000000 -8.309902 -13.939018
 1574000.000000 60.108150 53.421240 0.000000 -8.556458 -14.352590
 1576000.000000 57.100650 53.627260 0.000000 -8.423199 -14.129062
 1578000.000000 58.319790 53.398660 0.000000 -8.390419 -14.074077
 1580000.000000 58.417750 54.117480 0.000000 -8.597312 -14.421119
 1582000.000000 59.823090 52.906260 0.000000 -8.780192 -14.727881
 1584000.000000 59.675310 51.762620 0.000000 -8.296846 -13.917117
 1586000.000000 59.643200 52.605060 0.000000 -8.394914 -14.081617
 1588000.000000 58.482830 52.568710 0.000000 -8.387792 -14.069670
 1590000.000000 59.678560 50.742300 0.000000 -8.619418 -14.458199
 1592000.000000 59.646670 50.199240 0.000000 -8.387186 -14.068654
 1594000.000000 59.854350 50.114670 0.000000 -8.470822 -14.208945
 1596000.000000 60.062880 51.338660 0.000000 -8.249628 -13.837914
 1598000.000000 59.169790 50.129700 0.000000 -8.500687 -14.259040
 1600000.000000 59.017370 50.513440 0.000000 -8.317927 -13.952479
 1602000.000000 58.873450 50.700570 0.000000 -8.323574 -13.961951
 1604000.000000 59.460840 51.453400 0.000000 -8.330909 -13.974255
 1606000.000000 58.529310 51.300570 0.000000 -8.415541 -14.116216
 1608000.000000 59.867270 50.179310 0.000000 -8.313525 -13.945095
 1610000.000000 59.738780 49.399710 0.000000 -8.314043 -13.945964
 1612000.000000 61.448770 50.293070 0.000000 -8.309813 -13.938868
 1614000.000000 61.091350 50.311090 0.000000 -8.310722 -13.940393
 1616000.000000 60.977030 51.455160 0.000000 -8.235350 -13.813964
 1618000.000000 60.863760 51.592730 0.000000 -8.236775 -13.816354
 1620000.000000 57.977850 52.291620 0.000000 -8.408095 -14.103726
 1622000.000000 59.067600 51.615790 0.000000 -8.424823 -14.131786
 1624000.000000 57.080300 52.923560 0.000000 -8.387529 -14.069229
 1626000.000000 59.370640 52.188450 0.000000 -8.387744 -14.069590
 1628000.000000 58.634870 53.067390 0.000000 -8.597142 -14.420834
 1630000.000000 58.602800 52.084300 0.000000 -8.313176 -13.944509
 1632000.000000 60.920850 51.232110 0.000000 -8.250569 -13.839492
 1634000.000000 61.794270 52.385130 0.000000 -8.239873 -13.821551
 1636000.000000 60.756700 53.278490 0.000000 -8.316134 -13.949471
 1638000.000000 62.609500 53.841680 0.000000 -8.243913 -13.828328
 1640000.000000 62.043330 52.980880 0.000000 -8.235075 -13.813503
 1642000.000000 63.088730 53.643310 0.000000 -8.179322 -13.719983
 1644000.000000 63.008850 54.176690 0.000000 -8.233765 -13.811305
 1646000.000000 63.273390 54.216780 0.000000 -8.188838 -13.735945
 1648000.000000 62.765980 54.017860 0.000000 -8.233389 -13.810675
 1650000.000000 62.888550 53.140860 0.000000 -8.076753 -13.547934
 1652000.000000 63.092920 53.990100 0.000000 -8.073099 -13.541805
 1654000.000000 61.080640 53.469300 0.000000 -8.323010 -13.961005
 1656000.000000 61.489970 53.809180 0.000000 -8.268841 -13.870142
 1658000.000000 62.023680 53.562460 0.000000 -8.251909 -13.841740
 1660000.000000 63.004370 52.185870 0.000000 -8.048544 -13.500616
 1662000.000000 63.778790 51.260750 0.000000 -7.994052 -13.409211
 1664000.000000 64.838430 50.782430 0.000000 -7.932288 -13.305608
 1666000.000000 63.531470 50.479200 0.000000 -8.312785 -13.943854
 1668000.000000 64.114280 50.292980 0.000000 -8.151754 -13.673740
 1670000.000000 65.938400 48.530090 0.000000 -7.220251 -12.111239
 1672000.000000 65.157370 50.109160 0.000000 -8.042335 -13.490201
 1674000.000000 64.365790 51.130290 0.000000 -7.971918 -13.372084
 1676000.000000 66.659380 50.132470 0.000000 -7.554832 -12.672464
 1678000.000000 67.117190 48.994790 0.000000 -7.266364 -12.188588
 1680000.000000 65.930000 49.268360 0.000000 -7.493914 -12.570280
 1682000.000000 64.150360 49.311990 0.000000 -8.144284 -13.661210
 1684000.000000 63.299510 49.559820 0.000000 -8.143090 -13.659207
 1686000.000000 64.541360 49.885050 0.000000 -8.124859 -13.628627
 1688000.000000 64.814860 49.366930 0.000000 -8.104868 -13.595094
 1690000.000000 63.304460 51.247570 0.000000 -8.120734 -13.621707
 1692000.000000 62.189960 50.704960 0.000000 -8.139434 -13.653075
 1694000.000000 62.974280 51.351160 0.000000 -8.051843 -13.506150
 1696000.000000 64.284920 52.221820 0.000000 -8.153434 -13.676558
 1698000.000000 65.805360 52.336970 0.000000 -7.486028 -12.557053
 1700000.000000 66.140410 52.050640 0.000000 -7.694190 -12.906223
 1702000.000000 65.746470 52.367550 0.000000 -7.662575 -12.853192
 1704000.000000 66.086090 51.104710 0.000000 -7.953756 -13.341619
 1706000.000000 65.847580 50.904450 0.000000 -7.951744 -13.338244
 1708000.000000 66.743610 52.038690 0.000000 -7.561298 -12.683310
 1710000.000000 67.060560 52.862940 0.000000 -7.813352 -13.106105
 1712000.000000 66.676070 53.455950 0.000000 -7.964828 -13.360191
 1714000.000000 67.592310 52.315090 0.000000 -7.908999 -13.266543
 1716000.000000 67.732020 51.694450 0.000000 -7.802904 -13.088580
 1718000.000000 69.111770 50.677610 0.000000 -7.121068 -11.944869
 1720000.000000 71.208590 51.038180 0.000001 -7.057466 -11.838183
 1722000.000000 72.759220 51.607790 0.000000 -7.369311 -12.361272
 1724000.000000 71.224250 51.890880 0.000000 -7.586323 -12.725287
 1726000.000000 71.470140 49.891360 0.000044 -6.734519 -11.296472
 1728000.000000 71.600700 50.355400 0.000000 -6.869233 -11.522441
 1730000.000000 72.580280 50.164210 0.000000 -6.809954 -11.423007
 1732000.000000 72.149180 52.143990 0.000000 -7.561630 -12.683867
 1734000.000000 72.908160 50.806800 0.000000 -7.275777 -12.204378
 1736000.000000 73.849890 51.407640 0.000000 -7.320871 -12.280018
 1738000.000000 70.712100 51.500480 0.000000 -7.725846 -12.959323
 1740000.000000 72.712050 52.637780 0.000000 -7.941867 -13.321676
 1742000.000000 72.107160 52.070520 0.000000 -7.383292 -12.384723
 1744000.000000 73.211730 51.225210 0.000002 -7.754535 -13.007446
 1746000.000000 73.001570 51.667650 0.000000 -7.385145 -12.387832
 1748000.000000 70.632550 52.698040 0.000000 -7.558023 -12.677817
 1750000.000000 70.724640 52.261920 0.000000 -7.298700 -12.242829
 1752000.000000 71.668310 51.495940 0.000000 -7.168055 -12.023685
 1754000.000000 72.412890 50.139200 0.000000 -6.875783 -11.533428
 1756000.000000 73.189740 50.136100 0.000000 -6.948145 -11.654808
 1758000.000000 72.528820 49.737550 0.000001 -6.777569 -11.368684
 1760000.000000 73.147670 49.349110 0.002964 -6.088739 -10.213242
 1762000.000000 72.494710 50.198510 0.000014 -6.911456 -11.593266
 1764000.000000 71.757360 50.097510 0.000001 -6.348621 -10.649168
 1766000.000000 70.936040 49.705350 0.000003 -6.822764 -11.444494
 1768000.000000 72.828490 50.315560 0.000000 -7.224058 -12.117624
 1770000.000000 71.105920 50.596350 0.000000 -7.194412 -12.067896
 1772000.000000 69.781140 50.619020 0.000000 -7.038617 -11.806566
 1774000.000000 70.781240 49.803380 0.000000 -6.805939 -11.416272
 1776000.000000 71.660430 48.824360 0.000000 -6.306469 -10.578462
 1778000.000000 71.037490 49.448990 0.000010 -6.594498 -11.061601
 1780000.000000 71.050560 49.033400 0.000001 -6.275367 -10.526292
 1782000.000000 70.323420 48.832640 0.000009 -6.584842 -11.045404
 1784000.000000 70.088610 48.971470 0.046369 -6.800417 -11.407010
 1786000.000000 69.492220 48.932170 0.000025 -6.808664 -11.420843
 1788000.000000 70.334380 47.484600 0.001473 -5.738046 -9.624990
 1790000.000000 70.611230 47.213900 0.006560 -3.811789 -6.393889
 1792000.000000 72.595660 47.708340 0.063229 -2.649578 -4.444398
 1794000.000000 72.832100 46.309060 0.001395 -0.910495 -1.527263
 1796000.000000 72.939900 45.895020 0.115597 -0.704982 -1.182535
 1798000.000000 73.362820 46.069340 0.124515 -0.378281 -0.634529
 1800000.000000 72.196240 46.270180 0.000829 -1.533004 -2.571459
 1802000.000000 71.156150 45.928940 0.125360 -2.508247 -4.207330
 1804000.000000 72.015580 46.948670 0.068012 -2.518331 -4.224245
 1806000.000000 71.799720 46.769990 0.109718 -2.630614 -4.412588
 1808000.000000 71.206390 47.726770 0.000086 -3.826093 -6.417883
 1810000.000000 71.865910 47.881630 0.124600 -3.808392 -6.388191
 1812000.000000 72.604030 48.098980 0.066235 -3.804309 -6.381342
 1814000.000000 71.849040 49.085580 0.026544 -6.273218 -10.522687
 1816000.000000 72.592630 47.992650 0.000852 -3.778692 -6.338372
 1818000.000000 73.803290 48.214400 0.000282 -3.994892 -6.701026
 1820000.000000 72.219230 48.978300 0.000860 -6.272412 -10.521335
 1822000.000000 73.368750 47.982430 0.000000 -3.836785 -6.435818
 1824000.000000 72.835780 46.777100 0.004528 -1.211568 -2.032282
 1826000.000000 73.996350 46.520670 0.001192 -0.985762 -1.653517
 1828000.000000 72.368170 46.129920 0.014850 -0.379034 -0.635791
 1830000.000000 73.064490 46.129160 0.078072 -2.459734 -4.125954
 1832000.000000 71.971670 46.647950 0.109074 -0.951841 -1.596617
 1834000.000000 72.351850 47.129100 0.000374 -2.726612 -4.573615
 1836000.000000 73.426770 48.147570 0.118081 -3.947543 -6.621603
 1838000.000000 73.521420 47.386520 0.040616 -4.416973 -7.409024
 1840000.000000 73.923870 47.853190 0.000319 -4.061875 -6.813383
 1842000.000000 73.730960 49.049550 0.000025 -6.862329 -11.510861
 1844000.000000 73.947590 49.931710 0.000000 -6.932569 -11.628681
 1846000.000000 72.830110 50.762020 0.000004 -7.243294 -12.149891
 1848000.000000 73.352560 48.863590 0.000622 -5.175133 -8.680761
 1850000.000000 73.033650 48.749470 0.000235 -5.430698 -9.109445
 1852000.000000 73.197400 48.224780 0.006252 -3.861013 -6.476458
 1854000.000000 71.395810 47.801670 0.000593 -3.916518 -6.569562
 1856000.000000 72.579490 47.764930 0.010352 -2.526975 -4.238744
 1858000.000000 73.888210 47.599270 0.001732 -4.571622 -7.668432
 1860000.000000 73.536240 47.745450 0.000931 -3.173816 -5.323754
 1862000.000000 72.649850 49.020920 0.000083 -5.795506 -9.721373
 1864000.000000 71.979970 48.250800 0.000022 -5.131736 -8.607967
 1866000.000000 72.052430 47.722260 0.000938 -3.012251 -5.052745
 1868000.000000 71.575160 48.350140 0.000001 -4.364804 -7.321516
 1870000.000000 69.882080 47.453420 0.000004 -4.204455 -7.052547
 1872000.000000 71.342920 47.985980 0.000105 -4.026559 -6.754144
 1874000.000000 69.609390 47.141230 0.021941 -5.830138 -9.779465
 1876000.000000 69.912310 47.500430 0.000011 -4.900698 -8.220424
 1878000.000000 70.568360 46.967350 0.000723 -3.641787 -6.108728
 1880000.000000 69.518590 47.667110 0.000016 -5.995537 -10.056905
 1882000.000000 70.881760 47.397480 0.000375 -3.831253 -6.426538
 1884000.000000 69.625340 48.774200 0.000000 -6.298727 -10.565476
 1886000.000000 70.765050 48.795850 0.000000 -6.329024 -10.616296
 1888000.000000 71.315530 48.670140 0.000004 -5.868692 -9.844135
 1890000.000000 70.846550 49.920530 0.000000 -6.809844 -11.422822
 1892000.000000 70.633180 49.198950 0.000000 -6.336661 -10.629106
 1894000.000000 70.020020 49.810600 0.000000 -6.819192 -11.438503
 1896000.000000 69.380700 49.396630 0.000000 -6.874647 -11.531523
 1898000.000000 68.690190 50.392920 0.000000 -7.065308 -11.851337
 1900000.000000 68.676730 51.419470 0.000000 -7.365980 -12.355684
 1902000.000000 68.844990 51.405990 0.000000 -7.265235 -12.186695
 1904000.000000 69.257070 52.187640 0.000000 -7.361160 -12.347599
 1906000.000000 69.033570 51.440140 0.000000 -7.193572 -12.066487
 1908000.000000 69.808070 52.386680 0.000000 -7.454330 -12.503882
 1910000.000000 70.224000 50.833500 0.000000 -7.112468 -11.930444
 1912000.000000 71.043730 52.009340 0.000000 -7.559931 -12.681017
 1914000.000000 70.284550 51.261720 0.000000 -7.175265 -12.035779
 1916000.000000 71.121480 51.135280 0.000000 -7.073744 -11.865488
 1918000.000000 71.298330 52.449320 0.000000 -7.822371 -13.121234
 1920000.000000 71.612250 52.871680 0.000000 -7.902711 -13.255996
 1922000.000000 71.332880 54.226020 0.000000 -8.209593 -13.770759
 1924000.000000 70.222410 53.381370 0.000000 -7.835552 -13.143344
 1926000.000000 69.171500 53.870310 0.000000 -7.789937 -13.066829
 1928000.000000 68.575560 54.099200 0.000000 -7.763299 -13.022146
 1930000.000000 70.653970 52.287270 0.000000 -7.589872 -12.731240
 1932000.000000 69.107600 53.547420 0.000000 -7.534661 -12.638629
 1934000.000000 69.439370 52.820970 0.000000 -7.468639 -12.527884
 1936000.000000 70.175290 51.509370 0.000000 -7.533620 -12.636883
 1938000.000000 69.881370 51.030930 0.000000 -7.045962 -11.818886
 1940000.000000 70.613200 52.479970 0.000000 -7.454833 -12.504726
 1942000.000000 71.225040 53.266110 0.000000 -7.921884 -13.288157
 1944000.000000 73.649240 52.065170 0.000000 -7.711841 -12.935831
 1946000.000000 71.743270 51.647780 0.000000 -7.681321 -12.884637
 1948000.000000 72.044710 52.414730 0.000000 -7.898189 -13.248411
 1950000.000000 73.277440 51.687140 0.000000 -7.349160 -12.327470
 1952000.000000 73.747600 52.117270 0.000000 -7.390716 -12.397176
 1954000.000000 74.274660 51.157120 0.000000 -7.168707 -12.024779
 1956000.000000 73.643050 51.141280 0.000000 -7.341367 -12.314398
 1958000.000000 73.988680 51.198770 0.000000 -7.237945 -12.140918
 1960000.000000 74.418160 51.044370 0.000000 -7.165515 -12.019424
 1962000.000000 75.540100 51.401550 0.000000 -7.190549 -12.061416
 1964000.000000 75.536810 49.734100 0.000000 -7.200034 -12.077327
 1966000.000000 74.877580 50.682570 0.000000 -7.249227 -12.159843
 1968000.000000 74.703680 50.050000 0.000000 -7.167304 -12.022425
 1970000.000000 74.841890 49.646040 0.000000 -7.139804 -11.976297
 1972000.000000 75.050190 50.061720 0.000000 -7.152203 -11.997095
 1974000.000000 74.532370 49.888580 0.000000 -7.010342 -11.759138
 1976000.000000 73.656660 50.538400 0.000000 -7.175128 -12.035549
 1978000.000000 72.015850 50.452860 0.000000 -7.161215 -12.012212
 1980000.000000 73.301990 49.893990 0.000000 -6.545006 -10.978584
 1982000.000000 74.533770 49.352710 0.000000 -6.998478 -11.739237
 1984000.000000 75.086780 49.277570 0.000000 -7.092559 -11.897048
 1986000.000000 74.957040 48.249640 0.000368 -5.075818 -8.514170
 1988000.000000 74.267910 48.388050 0.000058 -4.277297 -7.174732
 1990000.000000 74.547440 48.065680 0.000348 -4.782991 -8.022982
 1992000.000000 75.592040 48.275980 0.000330 -5.392962 -9.046147
 1994000.000000 74.557450 47.241260 0.037932 -3.536291 -5.931769
 1996000.000000 73.761240 46.902200 0.058451 -2.419844 -4.059043
 1998000.000000 73.879190 46.803740 0.063823 -1.843485 -3.092259
 2000000.000000 75.559200 46.247570 0.062374 -4.989555 -8.369472
 2002000.000000 75.126360 47.091520 0.058971 -5.056518 -8.481796
 2004000.000000 75.345900 47.008770 0.062060 -5.283276 -8.862159
 2006000.000000 75.541120 46.595440 0.040651 -4.911205 -8.238048
 2008000.000000 76.351070 46.389680 0.032634 -7.069541 -11.858438
 2010000.000000 75.164060 46.267810 0.008225 -4.631495 -7.768863
 2012000.000000 74.195460 46.968810 0.000576 -2.778185 -4.660123
 2014000.000000 75.149060 46.151460 0.010153 -4.607800 -7.729117
 2016000.000000 76.109130 46.609990 0.035831 -5.886405 -9.873847
 2018000.000000 76.744550 47.638220 0.040127 -7.064966 -11.850764
 2020000.000000 76.597020 48.357080 0.000042 -6.851285 -11.492336
 2022000.000000 74.995960 47.969850 0.000014 -6.248891 -10.481881
 2024000.000000 76.202370 48.173270 0.000001 -4.783984 -8.024648
 2026000.000000 75.552290 48.148550 0.000001 -5.378468 -9.021834
 2028000.000000 75.764000 48.978670 0.000000 -7.208783 -12.092002
 2030000.000000 77.354840 48.954810 0.000000 -7.167588 -12.022902
 2032000.000000 76.961050 48.492900 0.000003 -6.935383 -11.633401
 2034000.000000 77.890000 48.572030 0.000000 -7.360736 -12.346888
 2036000.000000 77.890750 48.993080 0.000000 -7.121319 -11.945290
 2038000.000000 78.265650 49.514530 0.000000 -7.272275 -12.198504
 2040000.000000 78.737970 49.946310 0.000000 -7.457283 -12.508836
 2042000.000000 78.096880 50.555250 0.000000 -7.438931 -12.478052
 2044000.000000 76.538680 50.406010 0.000000 -7.240171 -12.144652
 2046000.000000 77.095680 49.727320 0.000000 -7.301835 -12.248087
 2048000.000000 76.875290 49.709530 0.000000 -7.180946 -12.045308
 2050000.000000 77.663440 49.092790 0.000000 -7.289450 -12.227313
 2052000.000000 79.063620 49.119340 0.000000 -8.010065 -13.436071
 2054000.000000 77.852830 49.267610 0.000000 -7.151645 -11.996159
 2056000.000000 77.721590 48.536570 0.000000 -7.090947 -11.894344
 2058000.000000 77.601730 47.712460 0.000000 -7.222686 -12.115323
 2060000.000000 76.337840 47.455300 0.000000 -6.620278 -11.104845
 2062000.000000 78.516690 46.624830 0.000001 -8.061763 -13.522790
 2064000.000000 78.349910 47.065390 0.000000 -7.946312 -13.329132
 2066000.000000 77.436510 46.411680 0.000058 -7.723155 -12.954809
 2068000.000000 77.718540 46.602700 0.000000 -7.773964 -13.040036
 2070000.000000 77.347280 45.853180 0.000058 -7.727322 -12.961799
 2072000.000000 77.002020 46.102060 0.000642 -7.516466 -12.608109
 2074000.000000 77.231180 47.119190 0.000013 -6.829981 -11.456600
 2076000.000000 76.450650 46.803890 0.000004 -5.940525 -9.964628
 2078000.000000 75.915340 46.594870 0.000000 -4.536497 -7.609513
 2080000.000000 77.102580 47.014260 0.000006 -7.133900 -11.966394
 2082000.000000 78.218000 46.764860 0.000000 -7.840703 -13.151984
 2084000.000000 78.807310 48.315000 0.000000 -8.264431 -13.862745
 2086000.000000 79.831190 47.014300 0.000000 -8.163196 -13.692933
 2088000.000000 79.342520 46.794980 0.000001 -8.102836 -13.591685
 2090000.000000 79.055250 45.875400 0.000000 -8.104733 -13.594867
 2092000.000000 78.955810 46.090390 0.000000 -8.079433 -13.552429
 2094000.000000 78.077140 45.994950 0.000000 -8.053122 -13.508295
 2096000.000000 78.040340 46.807910 0.000000 -7.749439 -12.998898
 2098000.000000 77.529020 47.345550 0.000000 -7.513662 -12.603406
 2100000.000000 76.367590 47.872700 0.000000 -4.871973 -8.172240
 2102000.000000 76.430160 48.319970 0.000000 -6.586372 -11.047971
 2104000.000000 77.037630 48.628080 0.000000 -6.878968 -11.538771
 2106000.000000 76.820910 48.922030 0.000000 -6.877845 -11.536887
 2108000.000000 75.837310 48.887090 0.000000 -7.218308 -12.107979
 2110000.000000 76.266590 50.870840 0.000000 -7.164985 -12.018535
 2112000.000000 76.420660 50.046850 0.000000 -7.224442 -12.118269
 2114000.000000 76.340910 49.445920 0.000000 -7.309320 -12.260643
 2116000.000000 74.878340 49.134500 0.000000 -7.182867 -12.048531
 2118000.000000 75.323270 47.567330 0.000002 -4.816185 -8.078662
 2120000.000000 74.042990 48.270810 0.000000 -4.224856 -7.086767
 2122000.000000 72.936570 48.626350 0.000000 -5.801905 -9.732107
 2124000.000000 73.818400 48.658520 0.000000 -6.799374 -11.405260
 2126000.000000 73.098910 47.433370 0.000865 -3.580573 -6.006048
 2128000.000000 74.731570 48.208770 0.000000 -5.751478 -9.647521
 2130000.000000 75.477230 47.044280 0.000000 -4.630548 -7.767274
 2132000.000000 76.386460 47.735130 0.000000 -5.174512 -8.679719
 2134000.000000 77.278830 47.882330 0.000000 -7.157048 -12.005222
 2136000.000000 78.063060 48.392510 0.000000 -7.259410 -12.176924
 2138000.000000 78.855250 47.641460 0.000000 -8.030064 -13.469618
 2140000.000000 78.120060 47.963980 0.000000 -7.690339 -12.899763
 2142000.000000 79.676500 46.438740 0.000000 -8.356448 -14.017094
 2144000.000000 78.814130 47.114860 0.000000 -8.074422 -13.544024
 2146000.000000 80.124440 47.827700 0.000000 -8.107992 -13.600334
 2148000.000000 79.611660 48.806920 0.000000 -8.366813 -14.034480
 2150000.000000 78.960610 48.412620 0.000000 -8.210888 -13.772932
 2152000.000000 79.897770 48.475900 0.000000 -8.402741 -14.094746
 2154000.000000 77.977200 50.387110 0.000000 -7.441305 -12.482034
 2156000.000000 79.039890 51.888530 0.000000 -8.045696 -13.495839
 2158000.000000 77.643750 52.675220 0.000000 -8.061368 -13.522127
 2160000.000000 79.130230 53.633540 0.000000 -8.270741 -13.873329
 2162000.000000 80.090360 53.449420 0.000000 -8.259193 -13.853958
 2164000.000000 79.106800 53.685310 0.000000 -8.245055 -13.830243
 2166000.000000 79.472430 53.411900 0.000000 -8.246674 -13.832959
 2168000.000000 79.183230 51.280760 0.000000 -7.743403 -12.988773
 2170000.000000 79.845090 51.788940 0.000000 -8.164227 -13.694663
 2172000.000000 78.308690 52.632120 0.000000 -8.142795 -13.658713
 2174000.000000 76.613370 52.901520 0.000000 -8.092860 -13.574952
 2176000.000000 75.714740 54.002720 0.000000 -8.439656 -14.156667
 2178000.000000 74.383640 52.656910 0.000000 -7.622784 -12.786447
 2180000.000000 73.999170 53.967230 0.000000 -7.948283 -13.332438
 2182000.000000 72.947900 53.287160 0.000000 -8.080104 -13.553555
 2184000.000000 73.820000 54.148120 0.000000 -8.154079 -13.677640
 2186000.000000 74.993720 52.642310 0.000000 -8.157603 -13.683551
 2188000.000000 75.717600 53.529070 0.000000 -8.257238 -13.850679
 2190000.000000 76.174310 52.807600 0.000000 -8.088977 -13.568438
 2192000.000000 76.174920 52.037890 0.000000 -8.124158 -13.627451
 2194000.000000 76.939530 52.896010 0.000000 -8.183243 -13.726560
 2196000.000000 77.502910 52.153840 0.000000 -8.127590 -13.633208
 2198000.000000 77.806930 51.257950 0.000000 -7.389406 -12.394979
 2200000.000000 75.800670 52.020160 0.000000 -8.139785 -13.653664
 2202000.000000 76.639160 51.434990 0.000000 -7.620696 -12.782944
 2204000.000000 77.716830 52.447890 0.000000 -8.045410 -13.495359
 2206000.000000 76.794320 52.550180 0.000000 -8.051462 -13.505511
 2208000.000000 76.031790 51.815920 0.000000 -8.143795 -13.660390
 2210000.000000 75.202250 51.218990 0.000000 -7.316513 -12.272708
 2212000.000000 75.693700 51.762440 0.000000 -7.626205 -12.792185
 2214000.000000 76.248630 51.502590 0.000000 -8.080294 -13.553873
 2216000.000000 76.212400 50.605770 0.000000 -7.166363 -12.020847
 2218000.000000 77.131220 49.958750 0.000000 -7.289670 -12.227682
 2220000.000000 77.244030 50.567730 0.000000 -7.380718 -12.380406
 2222000.000000 77.670060 49.478950 0.000000 -7.274087 -12.201543
 2224000.000000 78.040500 49.966250 0.000000 -7.282175 -12.215110
 2226000.000000 79.880240 50.331380 0.000000 -8.148204 -13.667786
 2228000.000000 78.367920 51.059440 0.000000 -7.457483 -12.509171
 2230000.000000 79.133540 52.046430 0.000000 -8.173922 -13.710925
 2232000.000000 79.052360 53.113940 0.000000 -8.248522 -13.836059
 2234000.000000 77.049890 53.816180 0.000000 -8.372833 -14.044578
 2236000.000000 75.147440 53.114430 0.000000 -8.287522 -13.901477
 2238000.000000 74.836160 53.419750 0.000000 -7.855659 -13.177071
 2240000.000000 75.790920 52.587760 0.000000 -8.220845 -13.789633
 2242000.000000 74.864530 53.137770 0.000000 -8.150306 -13.671311
 2244000.000000 76.008690 53.234830 0.000000 -8.252831 -13.843287
 2246000.000000 75.428050 54.106250 0.000000 -8.016619 -13.447065
 2248000.000000 75.270210 54.111550 0.000000 -8.119476 -13.619597
 2250000.000000 75.554360 53.768230 0.000000 -8.412772 -14.111572
 2252000.000000 74.841760 53.499350 0.000000 -7.684262 -12.889570
 2254000.000000 73.851390 53.132170 0.000000 -7.887889 -13.231134
 2256000.000000 73.841400 52.793300 0.000000 -7.926830 -13.296453
 2258000.000000 76.497520 52.853900 0.000000 -8.244688 -13.829628
 2260000.000000 76.949480 52.086360 0.000000 -8.016480 -13.446832
 2262000.000000 78.057420 52.851780 0.000000 -8.150940 -13.672375
 2264000.000000 76.537840 53.408590 0.000000 -8.237700 -13.817906
 2266000.000000 77.618940 52.770760 0.000000 -8.041480 -13.488767
 2268000.000000 78.742800 51.175040 0.000000 -7.634436 -12.805992
 2270000.000000 79.809070 50.430320 0.000000 -8.146621 -13.665130
 2272000.000000 79.097000 50.186920 0.000000 -7.441296 -12.482019
 2274000.000000 79.444310 50.607890 0.000000 -7.530825 -12.632195
 2276000.000000 79.728100 51.809240 0.000000 -8.170190 -13.704665
 2278000.000000 78.919570 52.384220 0.000000 -8.134055 -13.644052
 2280000.000000 78.687090 52.858830 0.000000 -8.141587 -13.656686
 2282000.000000 78.108060 53.539700 0.000000 -8.241531 -13.824332
 2284000.000000 76.629700 52.417410 0.000000 -8.133837 -13.643686
 2286000.000000 78.537760 51.951430 0.000000 -8.131301 -13.639433
 2288000.000000 80.097550 52.560510 0.000000 -8.207872 -13.767873
 2290000.000000 80.019660 50.697900 0.000000 -8.093828 -13.576575
 2292000.000000 79.192380 52.067800 0.000000 -8.167145 -13.699557
 2294000.000000 78.861500 50.991330 0.000000 -7.444135 -12.486781
 2296000.000000 79.997560 52.513650 0.000000 -8.166050 -13.697720
 2298000.000000 79.522340 53.189590 0.000000 -8.245450 -13.830906
 2300000.000000 78.278100 54.040580 0.000000 -8.398649 -14.087882
 2302000.000000 77.091100 53.451500 0.000000 -8.307013 -13.934172
 2304000.000000 76.221720 53.981290 0.000000 -8.350572 -14.007237
 2306000.000000 76.074690 53.011850 0.000000 -8.103533 -13.592855
 2308000.000000 75.183370 52.011450 0.000000 -7.992258 -13.406202
 2310000.000000 74.989420 52.888670 0.000000 -8.208408 -13.768772
 2312000.000000 72.503370 53.197900 0.000000 -7.920214 -13.285355
 2314000.000000 71.527450 53.069770 0.000000 -7.890656 -13.235775
 2316000.000000 70.575710 53.601880 0.000000 -7.529216 -12.629496
 2318000.000000 69.591960 53.055790 0.000000 -7.538936 -12.645800
 2320000.000000 68.862990 53.536480 0.000000 -7.427851 -12.459466
 2322000.000000 69.456870 54.005090 0.000000 -7.429088 -12.461541
 2324000.000000 69.458000 54.111440 0.000000 -7.427878 -12.459512
 2326000.000000 68.362220 53.388230 0.000000 -7.539081 -12.646044
 2328000.000000 71.625400 52.959680 0.000000 -7.899649 -13.250860
 2330000.000000 71.253810 52.437300 0.000000 -7.829197 -13.132684
 2332000.000000 68.963750 51.823140 0.000000 -7.181489 -12.046219
 2334000.000000 67.972510 52.033590 0.000000 -7.368574 -12.360035
 2336000.000000 67.811560 52.033570 0.000000 -7.439128 -12.478383
 2338000.000000 68.072480 51.909240 0.000000 -7.434537 -12.470682
 2340000.000000 66.907150 52.360190 0.000000 -7.909160 -13.266814
 2342000.000000 68.414660 50.344170 0.000000 -7.056841 -11.837135
 2344000.000000 69.178060 49.944870 0.000000 -7.282187 -12.215130
 2346000.000000 67.745850 50.049890 0.000000 -7.043000 -11.813918
 2348000.000000 67.527360 47.650300 0.000000 -6.809628 -11.422460
 2350000.000000 67.704700 47.471060 0.000000 -6.803243 -11.411750
 2352000.000000 68.673140 48.086040 0.000000 -6.814495 -11.430624
 2354000.000000 68.714770 46.426430 0.000000 -6.101480 -10.234614
 2356000.000000 68.426570 47.094990 0.000000 -6.394061 -10.725389
 2358000.000000 67.044250 47.829500 0.000000 -7.145082 -11.985150
 2360000.000000 67.167840 47.168340 0.000000 -7.218544 -12.108375
 2362000.000000 66.739510 48.228510 0.000000 -7.141542 -11.979212
 2364000.000000 67.770950 48.559130 0.000000 -6.863987 -11.513642
 2366000.000000 68.892890 49.303040 0.000000 -6.863172 -11.512275
 2368000.000000 68.807090 47.617500 0.000000 -6.801170 -11.408273
 2370000.000000 69.072670 46.167590 0.000000 -4.462413 -7.485245
 2372000.000000 68.990990 46.210050 0.000000 -5.624314 -9.434216
 2374000.000000 69.689530 46.507640 0.000000 -3.933018 -6.597239
 2376000.000000 70.312050 46.764090 0.000000 -3.697018 -6.201373
 2378000.000000 70.313980 46.762780 0.000000 -3.705620 -6.215802
 2380000.000000 68.436480 47.568630 0.000000 -6.797922 -11.402825
 2382000.000000 68.970690 46.834460 0.000000 -6.230178 -10.450492
 2384000.000000 68.067410 48.229450 0.000000 -6.802235 -11.410059
 2386000.000000 66.347010 50.627900 0.000000 -7.566997 -12.692870
 2388000.000000 66.026130 50.764640 0.000000 -7.909655 -13.267644
 2390000.000000 65.552920 50.363340 0.000000 -7.839105 -13.149303
 2392000.000000 66.855110 51.349360 0.000000 -7.812553 -13.104765
 2394000.000000 64.678780 50.585390 0.000000 -7.894374 -13.242011
 2396000.000000 65.596170 50.985110 0.000000 -7.928555 -13.299347
 2398000.000000 65.330860 51.150380 0.000000 -7.923756 -13.291297
 2400000.000000 64.031500 52.356390 0.000000 -8.040885 -13.487769
 2402000.000000 64.304520 51.714100 0.000000 -7.956857 -13.346820
 2404000.000000 63.183970 51.381190 0.000000 -8.056577 -13.514091
 2406000.000000 63.520400 49.596560 0.000000 -8.154795 -13.678841
 2408000.000000 62.479170 50.305520 0.000000 -8.215520 -13.780701
 2410000.000000 62.198950 51.029160 0.000000 -8.042591 -13.490630
 2412000.000000 61.609510 49.899950 0.000000 -8.309008 -13.937518
 2414000.000000 61.886790 49.474760 0.000000 -8.204466 -13.762159
 2416000.000000 62.085310 48.184760 0.000000 -8.283201 -13.894229
 2418000.000000 61.543060 46.921700 0.000000 -8.237727 -13.817951
 2420000.000000 64.054210 46.139960 0.000000 -8.190452 -13.738652
 2422000.000000 65.103630 46.488020 0.000000 -7.749262 -12.998601
 2424000.000000 65.616660 45.743950 0.000000 -7.503366 -12.586135
 2426000.000000 65.754180 47.275910 0.000000 -7.175212 -12.035690
 2428000.000000 64.603700 48.365200 0.000000 -7.916815 -13.279654
 2430000.000000 65.112480 48.085590 0.000000 -7.876513 -13.212051
 2432000.000000 63.618940 47.826890 0.000000 -8.164662 -13.695392
 2434000.000000 64.713110 48.723630 0.000000 -7.867037 -13.196156
 2436000.000000 63.999230 48.894800 0.000000 -8.144744 -13.661982
 2438000.000000 62.183230 49.117400 0.000000 -8.142928 -13.658936
 2440000.000000 62.383300 49.580540 0.000000 -8.229386 -13.803960
 2442000.000000 62.267200 48.582940 0.000000 -8.169964 -13.704286
 2444000.000000 64.632800 47.824230 0.000000 -8.062906 -13.524707
 2446000.000000 62.978630 48.285180 0.000000 -8.146197 -13.664419
 2448000.000000 62.825590 48.724920 0.000000 -8.146169 -13.664372
 2450000.000000 62.639250 49.006430 0.000000 -8.173208 -13.709727
 2452000.000000 63.428240 48.446140 0.000000 -8.142695 -13.658545
 2454000.000000 63.536750 48.244650 0.000000 -8.142342 -13.657953
 2456000.000000 64.013770 49.327640 0.000000 -8.158712 -13.685412
 2458000.000000 65.183980 49.277210 0.000000 -7.822842 -13.122024
 2460000.000000 65.049780 50.411020 0.000000 -7.817595 -13.113223
 2462000.000000 65.273510 49.164880 0.000000 -7.823625 -13.123337
 2464000.000000 65.498770 49.353530 0.000000 -7.877859 -13.214309
 2466000.000000 64.778580 48.741540 0.000000 -7.832455 -13.138149
 2468000.000000 66.300430 46.856340 0.000000 -7.127000 -11.954819
 2470000.000000 65.235780 45.811640 0.000000 -7.897360 -13.247020
 2472000.000000 64.329540 45.914320 0.000000 -8.019721 -13.452268
 2474000.000000 64.294390 47.119350 0.000000 -8.098024 -13.583614
 2476000.000000 63.596200 46.511020 0.000000 -8.222961 -13.793183
 2478000.000000 64.799550 47.448490 0.000000 -7.915770 -13.277901
 2480000.000000 64.832860 45.736530 0.000000 -7.857019 -13.179352
 2482000.000000 64.503510 45.435360 0.000000 -7.914769 -13.276222
 2484000.000000 63.658980 45.487740 0.000000 -7.961815 -13.355137
 2486000.000000 61.593690 47.865590 0.000000 -8.229372 -13.803937
 2488000.000000 59.949360 49.182030 0.000000 -8.348289 -14.003408
 2490000.000000 61.168970 49.804040 0.000000 -8.319018 -13.954309
 2492000.000000 60.496230 50.814660 0.000000 -8.251108 -13.840397
 2494000.000000 60.080160 50.600100 0.000000 -8.237408 -13.817416
 2496000.000000 60.053320 49.420260 0.000000 -8.333186 -13.978074
 2498000.000000 61.282530 49.032070 0.000000 -8.240146 -13.822009
 2500000.000000 60.309690 50.064640 0.000000 -8.388417 -14.070719
 2502000.000000 61.942590 49.905340 0.000000 -8.305613 -13.931823
 2504000.000000 61.606390 48.472110 0.000000 -8.206793 -13.766063
 2506000.000000 58.066480 48.587680 0.000000 -8.504891 -14.266092
 2508000.000000 59.462620 49.221960 0.000000 -8.494675 -14.248956
 2510000.000000 56.839170 48.879400 0.000000 -8.499660 -14.257317
 2512000.000000 56.374610 48.707740 0.000000 -8.556862 -14.353268
 2514000.000000 56.771730 49.586400 0.000000 -8.638419 -14.490072
 2516000.000000 57.914140 48.130790 0.000000 -8.502736 -14.262477
 2518000.000000 58.392180 48.791290 0.000000 -8.559484 -14.357666
 2520000.000000 56.054620 51.992090 0.000000 -8.824267 -14.801813
 2522000.000000 57.881190 50.668520 0.000000 -8.360790 -14.024377
 2524000.000000 57.693550 49.849310 0.000000 -8.504668 -14.265718
 2526000.000000 56.347930 51.546210 0.000000 -8.343883 -13.996017
 2528000.000000 57.197930 50.364220 0.000000 -8.538270 -14.322082
 2530000.000000 58.093320 51.236120 0.000000 -8.586540 -14.403050
 2532000.000000 56.703700 52.071290 0.000000 -8.671693 -14.545885
 2534000.000000 57.647420 51.167890 0.000000 -8.410097 -14.107085
 2536000.000000 58.279840 49.964940 0.000000 -8.499668 -14.257331
 2538000.000000 57.256940 48.427420 0.000000 -8.494335 -14.248385
 2540000.000000 59.095690 48.046460 0.000000 -8.237528 -13.817618
 2542000.000000 58.082390 48.487020 0.000000 -8.454747 -14.181980
 2544000.000000 57.979810 46.898030 0.000000 -8.256722 -13.849814
 2546000.000000 56.662690 48.834250 0.000000 -8.513590 -14.280684
 2548000.000000 57.698230 51.009640 0.000000 -8.387270 -14.068795
 2550000.000000 56.506840 51.868680 0.000000 -8.425480 -14.132888
 2552000.000000 57.077310 53.968800 0.000000 -8.803698 -14.767310
 2554000.000000 57.514340 53.216010 0.000000 -8.390924 -14.074924
 2556000.000000 56.812360 52.942330 0.000000 -8.450190 -14.174336
 2558000.000000 58.637810 54.063540 0.000000 -8.594116 -14.415758
 2560000.000000 58.706690 52.244150 0.000000 -8.325456 -13.965108
 2562000.000000 59.733930 53.768100 0.000000 -8.510750 -14.275920
 2564000.000000 60.980080 54.054180 0.000000 -8.317938 -13.952497
 2566000.000000 61.445340 52.684960 0.000000 -8.235816 -13.814746
 2568000.000000 61.906910 51.925140 0.000000 -8.356548 -14.017261
 2570000.000000 60.138710 51.682640 0.000000 -8.238953 -13.820008
 2572000.000000 60.473520 51.765070 0.000000 -8.235885 -13.814862
 2574000.000000 60.813230 51.004370 0.000000 -8.234366 -13.812314
 2576000.000000 61.617500 50.491010 0.000000 -8.309411 -13.938194
 2578000.000000 63.340310 50.812550 0.000000 -8.054863 -13.511216
 2580000.000000 61.123490 50.393400 0.000000 -8.310307 -13.939697
 2582000.000000 59.797040 49.117910 0.000000 -8.236765 -13.816338
 2584000.000000 60.674740 47.052500 0.000000 -8.235089 -13.813526
 2586000.000000 59.880680 48.310470 0.000000 -8.233957 -13.811628
 2588000.000000 60.023600 47.852060 0.000000 -8.234129 -13.811916
 2590000.000000 59.864130 47.157940 0.000000 -8.233895 -13.811524
 2592000.000000 59.886270 47.394190 0.000000 -8.236346 -13.815635
 2594000.000000 58.520450 47.659350 0.000000 -8.373280 -14.045328
 2596000.000000 60.798520 46.240230 0.000000 -8.234836 -13.813102
 2598000.000000 61.515500 46.972730 0.000000 -8.235501 -13.814217
 2600000.000000 60.008380 46.343100 0.000000 -8.235058 -13.813474
 2602000.000000 61.002930 47.017970 0.000000 -8.235259 -13.813812
 2604000.000000 62.688210 47.092180 0.000000 -8.150966 -13.672419
 2606000.000000 63.328540 46.397800 0.000000 -8.235542 -13.814286
 2608000.000000 61.991630 45.939490 0.000000 -8.239115 -13.820280
 2610000.000000 60.561280 45.721630 0.000000 -8.236599 -13.816059
 2612000.000000 60.625500 47.361090 0.000000 -8.234883 -13.813181
 2614000.000000 61.524740 47.163980 0.000000 -8.234183 -13.812007
 2616000.000000 61.633980 46.724000 0.000000 -8.250585 -13.839519
 2618000.000000 60.753160 48.523200 0.000000 -8.233980 -13.811666
 2620000.000000 58.810210 47.761900 0.000000 -8.239033 -13.820142
 2622000.000000 60.607210 48.742630 0.000000 -8.237649 -13.817820
 2624000.000000 59.956310 49.150810 0.000000 -8.310984 -13.940833
 2626000.000000 59.053100 48.051580 0.000000 -8.235303 -13.813885
 2628000.000000 58.737200 49.596330 0.000000 -8.498958 -14.256140
 2630000.000000 59.294270 48.711330 0.000000 -8.237146 -13.816977
 2632000.000000 60.966960 49.382970 0.000000 -8.325175 -13.964636
 2634000.000000 61.025840 47.842620 0.000000 -8.246520 -13.832701
 2636000.000000 59.250490 48.128080 0.000000 -8.249542 -13.837770
 2638000.000000 59.100100 48.713220 0.000000 -8.493775 -14.247446
 2640000.000000 60.551130 48.031060 0.000000 -8.233992 -13.811686
 2642000.000000 57.936300 47.669600 0.000000 -8.326410 -13.966708
 2644000.000000 57.353240 48.304560 0.000000 -8.313799 -13.945554
 2646000.000000 56.198990 49.267610 0.000000 -8.387915 -14.069876
 2648000.000000 56.935260 47.744810 0.000000 -8.474828 -14.215664
 2650000.000000 57.312640 47.639940 0.000000 -8.438221 -14.154260
 2652000.000000 55.797800 46.076570 0.000000 -8.433225 -14.145879
 2654000.000000 57.213590 46.022790 0.000000 -8.322952 -13.960908
 2656000.000000 57.481030 44.208500 0.000000 -8.367737 -14.036030
 2658000.000000 57.734510 44.530410 0.000000 -8.367731 -14.036020
 2660000.000000 60.461900 44.968550 0.000000 -8.286925 -13.900476
 2662000.000000 59.154190 46.714840 0.000000 -8.234056 -13.811794
 2664000.000000 59.136660 44.377930 0.000000 -8.367745 -14.036043
 2666000.000000 58.888840 44.115030 0.000000 -8.367739 -14.036033
 2668000.000000 59.175680 43.152680 0.000000 -8.367759 -14.036067
 2670000.000000 59.154390 41.823150 0.000000 -8.367776 -14.036095
 2672000.000000 58.090240 42.330900 0.000000 -8.368023 -14.036510
 2674000.000000 56.653320 43.815880 0.000000 -8.384231 -14.063697
 2676000.000000 58.326110 42.574730 0.000000 -8.368613 -14.037499
 2678000.000000 56.578910 43.216320 0.000000 -8.396194 -14.083764
 2680000.000000 57.308980 44.245800 0.000000 -8.367751 -14.036053
 2682000.000000 59.089720 43.558200 0.000000 -8.367734 -14.036025
 2684000.000000 57.820990 41.904920 0.000000 -8.368637 -14.037540
 2686000.000000 57.392980 42.413050 0.000000 -8.367858 -14.036233
 2688000.000000 58.920200 41.557320 0.000000 -8.368650 -14.037561
 2690000.000000 59.067100 40.988450 0.000000 -8.368797 -14.037808
 2692000.000000 59.297310 40.669670 0.000000 -8.368648 -14.037558
 2694000.000000 58.492650 41.413100 0.000000 -8.368612 -14.037498
 2696000.000000 59.219090 40.299020 0.000000 -8.368666 -14.037588
 2698000.000000 57.777700 41.494440 0.000000 -8.368630 -14.037528
 2700000.000000 56.587850 42.014490 0.000000 -8.554374 -14.349095
 2702000.000000 55.993410 41.866660 0.000000 -8.588942 -14.407079
 2704000.000000 58.191650 41.121990 0.000000 -8.368800 -14.037813
 2706000.000000 56.739130 40.533890 0.000000 -8.525547 -14.300740
 2708000.000000 57.606300 40.344780 0.000000 -8.376469 -14.050677
 2710000.000000 58.383130 40.245070 0.000000 -8.429152 -14.139047
 2712000.000000 59.095980 40.599930 0.000000 -8.368639 -14.037543
 2714000.000000 59.865590 40.045580 0.000000 -8.369080 -14.038283
 2716000.000000 61.048430 39.692770 0.000000 -8.320649 -13.957045
 2718000.000000 60.837370 40.315270 0.000000 -8.290011 -13.905652
 2720000.000000 59.609670 40.669070 0.000000 -8.368605 -14.037486
 2722000.000000 60.165950 39.031760 0.000000 -8.383578 -14.062602
 2724000.000000 58.109490 40.373070 0.000000 -8.369350 -14.038736
 2726000.000000 58.241830 39.881750 0.000000 -8.400956 -14.091751
 2728000.000000 59.404480 39.023480 0.000000 -8.530268 -14.308659
 2730000.000000 59.440280 39.146160 0.000000 -8.375484 -14.049025
 2732000.000000 58.654240 39.349450 0.000000 -8.380774 -14.057898
 2734000.000000 58.958890 39.140830 0.000000 -8.369372 -14.038772
 2736000.000000 60.665080 39.107020 0.000000 -8.326158 -13.966285
 2738000.000000 61.110290 40.305860 0.000000 -8.358365 -14.020309
 2740000.000000 59.726590 39.953350 0.000000 -8.368615 -14.037503
 2742000.000000 59.953240 42.217610 0.000000 -8.367803 -14.036141
 2744000.000000 57.760550 42.339490 0.000000 -8.367787 -14.036114
 2746000.000000 57.792680 42.937170 0.000000 -8.367742 -14.036038
 2748000.000000 57.737450 41.946400 0.000000 -8.368614 -14.037501
 2750000.000000 56.805770 42.294590 0.000000 -8.542861 -14.329783
 2752000.000000 56.526850 41.380320 0.000000 -8.588797 -14.406836
 2754000.000000 58.176340 40.830750 0.000000 -8.368679 -14.037610
 2756000.000000 58.396960 39.778440 0.000000 -8.374217 -14.046899
 2758000.000000 56.998980 40.129380 0.000000 -8.441194 -14.159247
 2760000.000000 56.484620 41.484120 0.000000 -8.588788 -14.406821
 2762000.000000 58.197700 41.152310 0.000000 -8.368633 -14.037533
 2764000.000000 57.965350 40.784230 0.000000 -8.369523 -14.039026
 2766000.000000 56.337860 41.355380 0.000000 -8.588820 -14.406874
 2768000.000000 56.774160 41.340760 0.000000 -8.543120 -14.330217
 2770000.000000 57.983440 41.604930 0.000000 -8.368640 -14.037545
 2772000.000000 58.680130 40.803690 0.000000 -8.368739 -14.037711
 2774000.000000 59.222720 41.877800 0.000000 -8.367745 -14.036043
 2776000.000000 58.442830 41.192350 0.000000 -8.368716 -14.037672
 2778000.000000 57.669910 41.620480 0.000000 -8.368651 -14.037563
 2780000.000000 56.507780 42.359600 0.000000 -8.543117 -14.330212
 2782000.000000 56.034930 42.587470 0.000000 -8.588785 -14.406816
 2784000.000000 55.956120 43.004130 0.000000 -8.576831 -14.386764
 2786000.000000 55.981960 43.265870 0.000000 -8.552573 -14.346074
 2788000.000000 57.129570 44.316070 0.000000 -8.367735 -14.036027
 2790000.000000 58.171330 42.931080 0.000000 -8.367746 -14.036045
 2792000.000000 57.675840 44.274210 0.000000 -8.367749 -14.036050
 2794000.000000 56.070310 42.965290 0.000000 -8.586195 -14.402471
 2796000.000000 56.810340 43.634430 0.000000 -8.367743 -14.036040
 2798000.000000 57.054540 44.619500 0.000000 -8.367756 -14.036062
 2800000.000000 57.191950 43.849300 0.000000 -8.367738 -14.036032
 2802000.000000 56.137670 44.525420 0.000000 -8.370618 -14.040862
 2804000.000000 56.428550 44.461640 0.000000 -8.387852 -14.069771
 2806000.000000 56.124430 45.220840 0.000000 -8.367944 -14.036377
 2808000.000000 57.017770 45.142290 0.000000 -8.422198 -14.127383
 2810000.000000 56.219140 45.750680 0.000000 -8.325467 -13.965126
 2812000.000000 56.070870 46.708870 0.000000 -8.393778 -14.079711
 2814000.000000 57.892470 45.804420 0.000000 -8.328888 -13.970865
 2816000.000000 59.165380 44.362680 0.000000 -8.367755 -14.036060
 2818000.000000 58.768370 44.572500 0.000000 -8.368015 -14.036496
 2820000.000000 56.459530 45.923480 0.000000 -8.373750 -14.046116
 2822000.000000 57.032580 46.009250 0.000000 -8.331200 -13.974743
 2824000.000000 57.446360 45.048200 0.000000 -8.368638 -14.037541
 2826000.000000 57.375980 45.350180 0.000000 -8.367907 -14.036315
 2828000.000000 56.326200 46.743650 0.000000 -8.324666 -13.963783
 2830000.000000 55.816620 48.480010 0.000000 -8.556835 -14.353223
 2832000.000000 56.818100 47.048710 0.000000 -8.378011 -14.053263
 2834000.000000 56.921610 47.116470 0.000000 -8.387264 -14.068784
 2836000.000000 57.206880 46.770560 0.000000 -8.332879 -13.977559
 2838000.000000 57.729290 47.299190 0.000000 -8.323268 -13.961438
 2840000.000000 59.288320 45.913930 0.000000 -8.251116 -13.840410
 2842000.000000 60.144400 44.882900 0.000000 -8.287314 -13.901128
 2844000.000000 61.355570 46.046620 0.000000 -8.234268 -13.812149
 2846000.000000 60.533240 46.167810 0.000000 -8.234343 -13.812275
 2848000.000000 58.519900 46.566610 0.000000 -8.290207 -13.905981
 2850000.000000 58.406680 45.549140 0.000000 -8.369646 -14.039232
 2852000.000000 57.890120 44.840680 0.000000 -8.367739 -14.036033
 2854000.000000 56.914520 44.170660 0.000000 -8.367779 -14.036100
 2856000.000000 56.979250 44.436640 0.000000 -8.367780 -14.036102
 2858000.000000 57.211900 45.374940 0.000000 -8.368118 -14.036669
 2860000.000000 56.733210 46.690360 0.000000 -8.322859 -13.960752
 2862000.000000 57.124990 45.094520 0.000000 -8.367989 -14.036453
 2864000.000000 59.241480 45.069640 0.000000 -8.339122 -13.988031
 2866000.000000 58.089350 46.382590 0.000000 -8.234174 -13.811992
 2868000.000000 56.803860 46.964050 0.000000 -8.323791 -13.962315
 2870000.000000 57.337500 46.173420 0.000000 -8.322666 -13.960428
 2872000.000000 57.630450 47.749270 0.000000 -8.365160 -14.031707
 2874000.000000 57.880370 47.074750 0.000000 -8.236386 -13.815702
 2876000.000000 56.494000 47.696450 0.000000 -8.517836 -14.287806
 2878000.000000 56.664950 45.817800 0.000000 -8.386241 -14.067068
 2880000.000000 56.281610 47.045170 0.000000 -8.511948 -14.277929
 2882000.000000 56.356460 47.714770 0.000000 -8.557320 -14.354036
 2884000.000000 58.361700 46.548060 0.000000 -8.242338 -13.825686
 2886000.000000 57.858100 46.997300 0.000000 -8.276520 -13.883023
 2888000.000000 58.158120 46.024270 0.000000 -8.322847 -13.960731
 2890000.000000 57.058990 47.494220 0.000000 -8.527027 -14.303223
 2892000.000000 56.327190 48.964130 0.000000 -8.556802 -14.353167
 2894000.000000 57.402120 48.652140 0.000000 -8.315806 -13.948921
 2896000.000000 56.506510 47.564030 0.000000 -8.511634 -14.277403
 2898000.000000 56.694000 47.119220 0.000000 -8.323099 -13.961154
 2900000.000000 57.579280 47.538960 0.000000 -8.318979 -13.954243
 2902000.000000 57.514040 48.292520 0.000000 -8.340747 -13.990757
 2904000.000000 57.731420 46.732230 0.000000 -8.321110 -13.957818
 2906000.000000 57.313760 45.976920 0.000000 -8.329030 -13.971103
 2908000.000000 58.205220 45.418460 0.000000 -8.367734 -14.036025
 2910000.000000 57.454460 44.218100 0.000000 -8.367740 -14.036035
 2912000.000000 58.050200 45.000870 0.000000 -8.367740 -14.036035
 2914000.000000 61.618010 44.317970 0.000000 -8.236307 -13.815569
 2916000.000000 60.373900 43.439550 0.000000 -8.290003 -13.905639
 2918000.000000 58.592550 45.052660 0.000000 -8.292121 -13.909192
 2920000.000000 59.373480 43.187540 0.000000 -8.367744 -14.036042
 2922000.000000 61.085630 44.799870 0.000000 -8.284963 -13.897185
 2924000.000000 60.645340 44.691090 0.000000 -8.294852 -13.913773
 2926000.000000 61.856010 44.659250 0.000000 -8.234675 -13.812832
 2928000.000000 60.192590 44.834290 0.000000 -8.287749 -13.901858
 2930000.000000 59.620090 45.955770 0.000000 -8.233857 -13.811460
 2932000.000000 59.351110 45.314080 0.000000 -8.330106 -13.972908
 2934000.000000 59.952910 46.768730 0.000000 -8.234769 -13.812990
 2936000.000000 61.712750 46.418400 0.000000 -8.235090 -13.813528
 2938000.000000 59.739410 46.989360 0.000000 -8.234694 -13.812864
 2940000.000000 61.772400 45.660780 0.000000 -8.234603 -13.812711
 2942000.000000 61.153730 46.307440 0.000000 -8.234746 -13.812951
 2944000.000000 61.737280 45.003220 0.000000 -8.234160 -13.811968
 2946000.000000 61.462980 45.231520 0.000000 -8.304458 -13.929886
 2948000.000000 61.024940 45.449620 0.000000 -8.284572 -13.896529
 2950000.000000 58.920090 46.568950 0.000000 -8.305091 -13.930948
 2952000.000000 58.647970 46.246540 0.000000 -8.235007 -13.813389
 2954000.000000 58.643710 46.663010 0.000000 -8.235544 -13.814290
 2956000.000000 58.521540 45.920690 0.000000 -8.236355 -13.815650
 2958000.000000 58.573980 46.343250 0.000000 -8.233826 -13.811408
 2960000.000000 58.818670 47.235710 0.000000 -8.235859 -13.814818
 2962000.000000 59.445670 46.803000 0.000000 -8.236594 -13.816051
 2964000.000000 57.814820 46.811390 0.000000 -8.234936 -13.813270
 2966000.000000 58.889630 45.510380 0.000000 -8.289355 -13.904552
 2968000.000000 57.847430 46.289930 0.000000 -8.235399 -13.814046
 2970000.000000 56.227360 46.994060 0.000000 -8.501248 -14.259981
 2972000.000000 57.361960 46.744670 0.000000 -8.323945 -13.962573
 2974000.000000 57.535030 46.508550 0.000000 -8.238051 -13.818495
 2976000.000000 58.107720 45.371420 0.000000 -8.367732 -14.036022
 2978000.000000 56.902700 44.642420 0.000000 -8.367750 -14.036052
 2980000.000000 58.428080 44.408390 0.000000 -8.367732 -14.036022
 2982000.000000 58.827160 43.942450 0.000000 -8.367782 -14.036105
 2984000.000000 59.108470 44.484220 0.000000 -8.367803 -14.036141
 2986000.000000 59.735950 42.507070 0.000000 -8.367788 -14.036115
 2988000.000000 60.111330 42.504840 0.000000 -8.367732 -14.036022
 2990000.000000 59.761800 42.430430 0.000000 -8.367758 -14.036065
 2992000.000000 60.480840 42.028610 0.000000 -8.287324 -13.901145
 2994000.000000 60.539390 41.723540 0.000000 -8.289590 -13.904946
 2996000.000000 60.836960 41.596540 0.000000 -8.286777 -13.900228
 2998000.000000 60.337710 42.253280 0.000000 -8.367738 -14.036032
 3000000.000000 59.445760 41.759560 0.000000 -8.367761 -14.036070
 3002000.000000 59.426810 42.543120 0.000000 -8.367733 -14.036023
 3004000.000000 58.498820 42.766220 0.000000 -8.367865 -14.036245
 3006000.000000 56.546880 44.378090 0.000000 -8.373271 -14.045313
 3008000.000000 56.534410 44.202670 0.000000 -8.373784 -14.046173
 3010000.000000 56.742320 43.273280 0.000000 -8.370891 -14.041320
 3012000.000000 56.966600 43.085500 0.000000 -8.368468 -14.037256
 3014000.000000 57.147260 43.118170 0.000000 -8.368408 -14.037155
 3016000.000000 55.935570 42.689620 0.000000 -8.588785 -14.406816
 3018000.000000 56.446510 42.471030 0.000000 -8.378810 -14.054604
 3020000.000000 56.452710 43.907340 0.000000 -8.373902 -14.046371
 3022000.000000 55.960000 42.558160 0.000000 -8.588785 -14.406816
 3024000.000000 55.797040 42.716680 0.000000 -8.588785 -14.406816
 3026000.000000 58.579570 42.692150 0.000000 -8.368116 -14.036666
 3028000.000000 57.794180 43.083370 0.000000 -8.367870 -14.036253
 3030000.000000 58.234280 42.654730 0.000000 -8.368514 -14.037333
 3032000.000000 58.628550 41.818410 0.000000 -8.368682 -14.037615
 3034000.000000 59.527120 41.726280 0.000000 -8.367731 -14.036020
 3036000.000000 60.313220 41.282810 0.000000 -8.364921 -14.031306
 3038000.000000 61.562990 40.546820 0.000000 -8.355935 -14.016233
 3040000.000000 61.346100 41.623390 0.000000 -8.286754 -13.900189
 3042000.000000 60.688610 40.697890 0.000000 -8.315250 -13.947988
 3044000.000000 60.138990 40.898370 0.000000 -8.367733 -14.036023
 3046000.000000 60.266950 40.244140 0.000000 -8.368782 -14.037783
 3048000.000000 59.840620 40.701460 0.000000 -8.367801 -14.036137
 3050000.000000 59.254270 40.885500 0.000000 -8.368665 -14.037587
 3052000.000000 58.900490 40.605420 0.000000 -8.368618 -14.037508
 3054000.000000 57.368150 40.414400 0.000000 -8.370721 -14.041035
 3056000.000000 56.214570 40.243050 0.000000 -8.589409 -14.407862
 3058000.000000 56.024200 40.487390 0.000000 -8.592707 -14.413394
 3060000.000000 56.494300 40.763750 0.000000 -8.591980 -14.412175
 3062000.000000 57.401210 39.372030 0.000000 -8.543921 -14.331561
 3064000.000000 56.773390 39.064090 0.000000 -8.733249 -14.649139
