#! FIELDS time proj ext cmap wham.bias weights
 0.000000 74.239860 40.449620 0.615534 -4.238519 -7.109686
 2000.000000 73.503260 41.748710 0.517354 2.821637 4.733010
 4000.000000 72.607160 40.326230 0.561313 0.011904 0.019967
 6000.000000 72.334280 41.099550 0.568593 4.312288 7.233426
 8000.000000 72.422330 41.361340 0.463681 3.594551 6.029495
 10000.000000 73.494530 41.064080 0.588632 1.832989 3.074653
 12000.000000 73.085620 41.637290 0.566294 2.768351 4.643628
 14000.000000 73.862940 41.947800 0.523575 -0.200328 -0.336030
 16000.000000 72.992050 41.976310 0.575927 2.564481 4.301657
 18000.000000 73.077710 40.822250 0.582947 3.635378 6.097978
 20000.000000 74.268600 42.229120 0.592317 -1.673004 -2.806294
 22000.000000 74.383230 41.721020 0.558769 -1.620022 -2.717423
 24000.000000 73.619680 42.389760 0.599825 0.766115 1.285080
 26000.000000 74.510340 41.199630 0.587661 -2.896182 -4.858051
 28000.000000 74.519000 41.525790 0.562806 -1.877965 -3.150096
 30000.000000 74.708860 41.026170 0.582023 -3.791020 -6.359051
 32000.000000 74.370040 41.024930 0.652940 -3.056202 -5.126469
 34000.000000 73.958970 41.336730 0.631965 -0.655859 -1.100137
 36000.000000 74.180470 41.366680 0.553272 -1.673356 -2.806885
 38000.000000 74.946840 41.581870 0.556190 -3.462130 -5.807372
 40000.000000 75.668820 41.486470 0.568304 -4.439149 -7.446222
 42000.000000 75.406260 40.807380 0.576178 -5.014560 -8.411416
 44000.000000 74.966670 41.808720 0.555194 -2.513587 -4.216287
 46000.000000 75.784950 42.008270 0.617802 -3.518324 -5.901632
 48000.000000 74.530780 42.123680 0.624615 -1.690800 -2.836145
 50000.000000 74.588890 42.352740 0.597544 -1.695475 -2.843987
 52000.000000 73.607330 41.904940 0.614076 2.337242 3.920486
 54000.000000 73.149140 41.365020 0.569163 3.607429 6.051096
 56000.000000 74.563710 42.165090 0.551152 -1.706501 -2.862482
 58000.000000 74.484700 41.785250 0.610545 -1.703819 -2.857984
 60000.000000 75.135450 42.273410 0.617119 -1.943789 -3.260509
 62000.000000 74.048520 42.413470 0.600020 -1.671755 -2.804199
 64000.000000 73.337560 42.694630 0.489022 0.258739 0.434008
 66000.000000 72.924430 42.525140 0.418259 1.294702 2.171731
 68000.000000 74.462600 43.370950 0.454090 -1.695313 -2.843716
 70000.000000 73.548270 43.204760 0.427571 1.097575 1.841071
 72000.000000 73.065240 42.823030 0.455883 1.108082 1.858695
 74000.000000 72.544700 42.100950 0.509906 2.227500 3.736405
 76000.000000 72.441170 42.456390 0.419615 1.269143 2.128859
 78000.000000 72.397330 42.311920 0.559928 0.303660 0.509359
 80000.000000 71.806220 42.483710 0.448534 -0.261091 -0.437953
 82000.000000 72.549400 43.059470 0.378823 -0.536559 -0.900023
 84000.000000 72.932360 42.743140 0.555030 1.419561 2.381170
 86000.000000 73.974750 42.516600 0.540722 -1.654646 -2.775501
 88000.000000 72.181960 42.726190 0.466677 -0.224222 -0.376109
 90000.000000 72.454000 42.809850 0.464409 0.376644 0.631782
 92000.000000 72.980110 42.699400 0.479040 0.948028 1.590221
 94000.000000 74.023330 43.195980 0.539796 -1.229018 -2.061553
 96000.000000 74.987800 42.983640 0.559880 -1.699906 -2.851420
 98000.000000 75.113940 43.595440 0.452799 -0.355674 -0.596607
 100000.000000 74.950830 42.645950 0.545405 -1.754151 -2.942410
 102000.000000 73.538890 43.515040 0.502692 0.445941 0.748021
 104000.000000 74.439500 43.724860 0.479695 0.270580 0.453871
 106000.000000 74.196680 43.561670 0.515547 0.531491 0.891522
 108000.000000 76.085470 43.772610 0.266213 -1.399751 -2.347940
 110000.000000 75.836670 43.000030 0.370632 -2.166793 -3.634575
 112000.000000 74.339720 43.071340 0.398477 -1.680545 -2.818944
 114000.000000 74.799590 43.429860 0.446366 -1.697485 -2.847359
 116000.000000 75.999650 42.589050 0.521574 -3.343675 -5.608676
 118000.000000 75.069660 42.644500 0.517942 -1.789013 -3.000888
 120000.000000 75.835460 43.367050 0.440583 -1.510609 -2.533893
 122000.000000 75.139030 41.814370 0.558079 -3.342280 -5.606336
 124000.000000 76.133520 42.462500 0.568799 -3.384409 -5.677003
 126000.000000 76.498050 42.797470 0.549754 -3.401846 -5.706252
 128000.000000 75.881820 41.652770 0.547594 -4.374386 -7.337589
 130000.000000 75.435440 41.817970 0.669545 -3.698887 -6.204508
 132000.000000 75.835720 42.107800 0.657761 -3.550422 -5.955473
 134000.000000 75.484100 42.112720 0.597993 -3.316331 -5.562809
 136000.000000 74.723690 41.976030 0.637097 -1.872253 -3.140514
 138000.000000 75.031850 41.329260 0.667969 -4.135876 -6.937512
 140000.000000 75.843450 41.181320 0.643842 -4.730949 -7.935687
 142000.000000 74.796750 41.651690 0.498617 -2.481951 -4.163221
 144000.000000 74.391320 41.146650 0.647483 -3.290064 -5.518749
 146000.000000 74.299510 41.762340 0.572489 -0.833430 -1.397994
 148000.000000 73.871420 42.284970 0.553614 -1.364727 -2.289191
 150000.000000 74.892720 42.107080 0.560878 -1.791501 -3.005061
 152000.000000 74.362380 42.400410 0.611990 -1.682381 -2.822023
 154000.000000 73.439590 41.296700 0.609403 2.902644 4.868891
 156000.000000 73.049070 42.095840 0.546592 2.601845 4.364331
 158000.000000 74.282940 42.601780 0.478264 -1.676767 -2.812607
 160000.000000 74.505960 42.170110 0.526471 -1.694421 -2.842219
 162000.000000 74.944950 43.261320 0.503783 -1.687494 -2.830600
 164000.000000 75.554050 42.670380 0.546909 -2.267795 -3.803996
 166000.000000 75.990010 42.299920 0.552339 -3.420059 -5.736802
 168000.000000 74.913480 42.978150 0.561040 -1.706351 -2.862231
 170000.000000 74.576490 42.689710 0.523259 -1.701815 -2.854622
 172000.000000 75.333570 42.262260 0.609531 -2.561047 -4.295897
 174000.000000 75.274220 41.652070 0.610504 -4.110663 -6.895220
 176000.000000 76.076490 41.380690 0.613470 -4.895806 -8.212218
 178000.000000 76.701640 42.666540 0.504986 -3.542063 -5.941451
 180000.000000 76.365770 43.357010 0.373588 -2.356336 -3.952515
 182000.000000 75.344240 42.789470 0.594602 -1.802523 -3.023549
 184000.000000 75.636090 42.727810 0.546974 -2.217433 -3.719519
 186000.000000 75.829520 42.964600 0.605128 -2.023423 -3.394087
 188000.000000 76.490680 42.443290 0.487012 -3.534427 -5.928643
 190000.000000 76.364730 42.705180 0.602358 -3.383505 -5.675486
 192000.000000 76.031890 41.318360 0.611993 -4.810361 -8.068893
 194000.000000 75.695560 42.392000 0.614812 -3.325766 -5.578635
 196000.000000 75.962630 42.165680 0.516101 -3.493003 -5.859158
 198000.000000 75.695900 41.214700 0.607608 -4.728973 -7.932372
 200000.000000 74.975210 40.727240 0.623658 -4.692828 -7.871743
 202000.000000 74.638960 40.383360 0.731711 -5.168720 -8.670003
 204000.000000 73.361030 40.932940 0.691930 2.069981 3.472183
 206000.000000 74.624060 40.976730 0.772300 -3.639869 -6.105511
 208000.000000 73.624930 39.887930 0.737290 -4.602992 -7.721052
 210000.000000 73.637290 40.235280 0.777318 -3.952606 -6.630096
 212000.000000 73.725690 40.024870 0.734121 -4.559234 -7.647652
 214000.000000 72.838080 39.966320 0.766408 -3.896994 -6.536812
 216000.000000 73.429940 39.627490 0.792026 -4.702594 -7.888124
 218000.000000 73.813400 39.460570 0.806023 -5.169850 -8.671899
 220000.000000 73.157740 39.169240 0.808353 -5.169257 -8.670904
 222000.000000 72.773830 39.600100 0.787893 -3.922862 -6.580203
 224000.000000 72.940350 40.552950 0.793848 -0.575344 -0.965082
 226000.000000 73.970750 40.381740 0.823442 -4.344762 -7.287897
 228000.000000 74.655350 40.273810 0.699040 -5.169778 -8.671778
 230000.000000 74.693280 40.146660 0.707678 -5.169853 -8.671904
 232000.000000 75.143510 40.621160 0.635216 -4.976717 -8.347938
 234000.000000 74.549110 40.861800 0.793753 -3.798348 -6.371343
 236000.000000 73.720380 40.545390 0.692202 -3.016211 -5.059388
 238000.000000 73.100110 41.167680 0.845443 2.871785 4.817128
 240000.000000 73.976850 41.629800 0.720942 -0.280515 -0.470535
 242000.000000 73.769520 41.427860 0.686121 1.928670 3.235148
 244000.000000 74.642330 40.729800 0.708712 -4.392659 -7.368240
 246000.000000 74.831250 40.952740 0.675425 -4.419737 -7.413660
 248000.000000 75.189610 40.743880 0.753397 -4.857958 -8.148732
 250000.000000 75.604720 40.626790 0.723217 -5.176269 -8.682666
 252000.000000 75.570600 41.198550 0.635714 -4.694024 -7.873749
 254000.000000 75.430750 40.629700 0.679251 -5.164546 -8.663002
 256000.000000 75.701150 40.936190 0.626569 -4.942347 -8.290286
 258000.000000 75.928000 41.073690 0.643799 -4.868085 -8.165719
 260000.000000 76.474880 41.869420 0.598248 -5.133996 -8.611757
 262000.000000 76.611900 41.356950 0.568601 -5.209328 -8.738119
 264000.000000 76.549930 41.252310 0.647240 -5.204651 -8.730274
 266000.000000 75.997130 41.471170 0.526757 -4.787217 -8.030071
 268000.000000 75.302180 41.458120 0.572633 -4.139993 -6.944418
 270000.000000 75.779290 41.562480 0.615331 -4.440110 -7.447834
 272000.000000 75.420550 41.700310 0.641843 -4.017197 -6.738440
 274000.000000 75.546230 40.569290 0.643545 -5.177778 -8.685197
 276000.000000 76.341990 41.488560 0.679780 -5.086362 -8.531856
 278000.000000 75.964240 41.815150 0.627049 -4.221948 -7.081889
 280000.000000 76.070080 41.489700 0.650618 -4.744091 -7.957731
 282000.000000 75.235770 41.434600 0.656645 -4.178145 -7.008414
 284000.000000 75.080130 41.220380 0.663577 -4.199847 -7.044817
 286000.000000 75.796410 40.578260 0.620191 -5.200321 -8.723011
 288000.000000 76.224470 40.721400 0.640153 -5.249796 -8.806000
 290000.000000 75.354600 40.106090 0.669508 -5.221304 -8.758208
 292000.000000 74.933910 40.566670 0.632722 -4.943650 -8.292471
 294000.000000 74.944800 40.058410 0.668769 -5.194064 -8.712515
 296000.000000 73.970250 40.598000 0.638940 -3.684064 -6.179644
 298000.000000 73.402270 39.668170 0.681992 -4.697845 -7.880158
 300000.000000 74.507360 40.847720 0.682798 -3.679709 -6.172339
 302000.000000 74.141790 41.393920 0.731452 -1.668119 -2.798100
 304000.000000 73.245070 41.122900 0.617450 2.056653 3.449827
 306000.000000 73.382300 41.540140 0.749573 2.586856 4.339189
 308000.000000 72.901790 41.690820 0.711833 3.830485 6.425250
 310000.000000 72.548690 41.394270 0.663730 3.712286 6.226983
 312000.000000 72.722840 40.927660 0.580164 4.520855 7.583276
 314000.000000 72.078600 40.845380 0.661241 7.156842 12.004876
 316000.000000 74.153960 41.114680 0.679188 -1.710229 -2.868736
 318000.000000 74.256290 41.003680 0.800256 -2.205506 -3.699513
 320000.000000 74.335450 41.392460 0.540958 -1.698145 -2.848466
 322000.000000 74.286890 41.052020 0.593029 -2.405964 -4.035761
 324000.000000 74.306210 41.145950 0.563231 -2.368176 -3.972375
 326000.000000 74.591250 41.042230 0.658283 -3.703113 -6.211596
 328000.000000 75.229690 40.425480 0.675587 -5.087949 -8.534518
 330000.000000 75.106180 40.311190 0.609978 -5.179328 -8.687797
 332000.000000 74.108730 39.381900 0.638338 -5.187865 -8.702117
 334000.000000 74.199700 39.658760 0.683115 -5.181295 -8.691097
 336000.000000 74.092950 39.227870 0.743487 -5.194463 -8.713185
 338000.000000 74.892310 39.277790 0.671159 -5.553199 -9.314928
 340000.000000 74.050810 39.248900 0.783988 -5.188549 -8.703265
 342000.000000 74.117070 39.470030 0.690375 -5.186232 -8.699378
 344000.000000 74.386130 39.321150 0.668184 -5.243431 -8.795324
 346000.000000 73.869060 39.265290 0.810898 -5.183799 -8.695297
 348000.000000 74.066500 39.564620 0.724169 -5.173289 -8.677667
 350000.000000 74.346760 39.829920 0.680225 -5.176510 -8.683070
 352000.000000 73.815950 39.506090 0.759009 -5.169212 -8.670829
 354000.000000 74.067500 39.786850 0.726191 -5.168714 -8.669993
 356000.000000 73.122830 39.537390 0.770745 -3.953041 -6.630825
 358000.000000 72.570470 39.712050 0.728303 -3.897758 -6.538094
 360000.000000 71.857670 39.132490 0.718204 -3.906769 -6.553209
 362000.000000 72.285280 40.346770 0.690359 1.750121 2.935650
 364000.000000 72.152970 40.112230 0.734252 0.719701 1.207225
 366000.000000 72.439260 40.578660 0.762849 4.652280 7.803728
 368000.000000 71.488790 40.392770 0.623956 8.303737 13.928676
 370000.000000 71.297990 40.138270 0.682523 5.759407 9.660821
 372000.000000 71.335570 40.277490 0.739543 7.800296 13.084205
 374000.000000 71.292170 39.891850 0.794613 -0.599357 -1.005361
 376000.000000 71.841040 39.282220 0.794432 -3.901536 -6.544431
 378000.000000 72.005850 39.628430 0.729236 -3.895831 -6.534861
 380000.000000 72.154070 39.216320 0.704360 -3.923266 -6.580881
 382000.000000 70.587570 39.331980 0.825918 -4.339085 -7.278375
 384000.000000 69.122600 39.780600 0.744903 -4.432457 -7.434997
 386000.000000 69.490350 39.430600 0.662060 -4.367616 -7.326233
 388000.000000 69.259090 39.454730 0.637139 -5.044086 -8.460943
 390000.000000 69.342340 38.767570 0.724470 -5.476740 -9.186676
 392000.000000 69.296010 40.503100 0.742338 -3.474490 -5.828104
 394000.000000 69.972980 40.378430 0.758686 7.237174 12.139625
 396000.000000 69.121380 40.249520 0.679531 -4.172048 -6.998187
 398000.000000 69.389230 41.129480 0.736041 -3.518740 -5.902329
 400000.000000 70.008650 40.128980 0.807356 9.775791 16.397898
 402000.000000 69.693540 40.820470 0.845519 0.190334 0.319265
 404000.000000 70.118580 41.190020 0.708205 1.350996 2.266159
 406000.000000 69.990170 40.835920 0.666527 4.213394 7.067541
 408000.000000 70.329620 41.416820 0.690981 0.960534 1.611199
 410000.000000 70.188000 41.056340 0.749622 2.602400 4.365262
 412000.000000 69.942890 39.917970 0.765209 2.460227 4.126781
 414000.000000 70.416520 39.803370 0.687652 4.264946 7.154014
 416000.000000 69.350500 38.698730 0.742136 -5.476808 -9.186790
 418000.000000 69.016410 39.263790 0.621082 -5.476502 -9.186277
 420000.000000 69.464410 38.294250 0.737427 -5.532304 -9.279879
 422000.000000 69.898010 38.687770 0.722242 -4.819225 -8.083761
 424000.000000 70.455670 38.769660 0.733488 -4.343801 -7.286285
 426000.000000 69.750310 38.632970 0.714561 -4.925689 -8.262344
 428000.000000 69.861490 38.753960 0.808415 -4.496310 -7.542104
 430000.000000 70.295450 38.934690 0.784170 -4.343757 -7.286212
 432000.000000 69.830140 39.206940 0.767204 -4.343745 -7.286192
 434000.000000 70.826760 39.064500 0.692404 -4.343744 -7.286190
 436000.000000 71.107820 39.366880 0.728665 -3.904501 -6.549404
 438000.000000 71.752110 39.157720 0.814311 -3.902552 -6.546135
 440000.000000 72.492260 39.086060 0.802494 -4.662160 -7.820300
 442000.000000 71.018690 38.991450 0.763974 -4.343753 -7.286205
 444000.000000 71.041920 38.558890 0.789467 -4.361545 -7.316049
 446000.000000 70.162010 38.214360 0.719914 -5.472666 -9.179842
 448000.000000 70.543690 37.920920 0.675446 -5.548197 -9.306538
 450000.000000 71.489990 38.055830 0.774797 -5.548198 -9.306539
 452000.000000 70.435090 37.969910 0.779186 -5.545258 -9.301608
 454000.000000 69.702310 37.857970 0.741920 -5.541741 -9.295708
 456000.000000 70.200070 37.633930 0.746252 -5.550122 -9.309767
 458000.000000 70.040500 38.133000 0.805808 -5.532301 -9.279874
 460000.000000 69.950550 37.619020 0.729800 -5.543238 -9.298219
 462000.000000 69.902550 38.187470 0.735990 -5.531223 -9.278065
 464000.000000 70.864450 38.105160 0.731139 -5.340711 -8.958501
 466000.000000 70.816520 39.618500 0.778521 -0.423078 -0.709670
 468000.000000 70.719040 39.416980 0.810057 -3.982737 -6.680637
 470000.000000 71.076360 39.229170 0.837712 -4.266670 -7.156906
 472000.000000 70.941790 40.120120 0.875668 6.494478 10.893828
 474000.000000 71.389300 40.074100 0.776304 2.632165 4.415190
 476000.000000 71.423610 39.926490 0.836889 -0.411976 -0.691048
 478000.000000 71.505100 40.118960 0.713253 4.154605 6.968928
 480000.000000 71.414070 41.171860 0.859490 6.172386 10.353551
 482000.000000 70.522200 40.692620 0.833196 7.066705 11.853681
 484000.000000 70.746090 40.547270 0.744648 6.794053 11.396335
 486000.000000 70.886090 40.198650 0.786313 5.998600 10.062043
 488000.000000 70.785330 40.629060 0.773520 5.905850 9.906464
 490000.000000 70.644940 39.982330 0.691454 7.309233 12.260497
 492000.000000 69.635460 39.777950 0.633069 -3.958223 -6.639518
 494000.000000 70.277520 40.121090 0.703035 9.746486 16.348741
 496000.000000 70.850040 40.172320 0.721497 7.253997 12.167844
 498000.000000 71.693220 40.042640 0.883408 1.103448 1.850922
 500000.000000 71.951890 39.311320 0.820083 -3.901704 -6.544713
 502000.000000 72.828460 38.868830 0.846187 -5.157506 -8.651193
 504000.000000 73.023620 38.458260 0.813198 -5.210687 -8.740399
 506000.000000 73.035970 38.738250 0.850038 -5.187387 -8.701315
 508000.000000 73.145000 38.669990 0.919336 -5.189917 -8.705559
 510000.000000 73.103870 38.435240 0.920749 -5.462042 -9.162021
 512000.000000 73.461090 38.929690 0.924773 -5.176684 -8.683362
 514000.000000 73.495560 38.723440 0.862016 -5.224066 -8.762841
 516000.000000 72.657600 38.826500 0.906414 -5.162032 -8.658785
 518000.000000 72.885680 38.731440 0.785155 -5.185122 -8.697516
 520000.000000 72.705660 38.621930 0.862320 -5.176437 -8.682948
 522000.000000 72.824500 39.073580 0.829669 -5.156474 -8.649462
 524000.000000 73.549630 38.640020 0.835691 -5.470903 -9.176885
 526000.000000 73.295790 38.282970 0.816850 -5.553102 -9.314765
 528000.000000 72.626930 38.070620 0.853849 -5.551295 -9.311734
 530000.000000 72.723160 38.232030 0.814104 -5.550993 -9.311228
 532000.000000 72.859530 38.261630 0.799206 -5.550978 -9.311202
 534000.000000 72.704080 38.228200 0.815198 -5.551061 -9.311342
 536000.000000 72.617020 37.838390 0.797602 -5.551316 -9.311769
 538000.000000 72.582080 38.130980 0.770191 -5.551295 -9.311734
 540000.000000 71.936940 37.499350 0.880257 -5.551295 -9.311734
 542000.000000 71.307400 37.221380 0.793666 -5.551295 -9.311734
 544000.000000 71.225850 37.429370 0.790602 -5.550408 -9.310246
 546000.000000 70.954670 37.543180 0.741589 -5.550402 -9.310236
 548000.000000 71.135220 37.361260 0.874137 -5.550410 -9.310250
 550000.000000 70.743560 37.278190 0.774083 -5.550602 -9.310572
 552000.000000 70.320130 37.294470 0.836247 -5.551295 -9.311734
 554000.000000 70.821660 37.499040 0.868781 -5.550407 -9.310245
 556000.000000 71.214100 37.844040 0.858921 -5.549309 -9.308403
 558000.000000 70.612020 37.673850 0.789382 -5.549911 -9.309413
 560000.000000 71.686350 37.090460 0.812311 -5.551326 -9.311786
 562000.000000 70.748210 37.746750 0.780733 -5.548321 -9.306746
 564000.000000 70.406670 37.669880 0.799704 -5.549915 -9.309419
 566000.000000 70.045110 37.196380 0.885666 -5.551302 -9.311746
 568000.000000 70.066930 37.287530 0.801684 -5.551295 -9.311734
 570000.000000 69.969260 37.443190 0.846426 -5.551295 -9.311734
 572000.000000 69.953360 37.935090 0.815572 -5.541229 -9.294849
 574000.000000 71.340160 38.059490 0.882075 -5.547079 -9.304662
 576000.000000 71.540440 37.472840 0.856601 -5.550696 -9.310729
 578000.000000 70.922380 37.619090 0.797247 -5.549976 -9.309522
 580000.000000 70.066510 37.712230 0.810369 -5.541994 -9.296133
 582000.000000 69.374570 37.631910 0.802638 -5.542658 -9.297246
 584000.000000 69.278030 37.990520 0.794624 -5.541755 -9.295732
 586000.000000 69.264710 38.671690 0.812328 -5.489467 -9.208024
 588000.000000 68.266700 39.073170 0.717290 -5.538297 -9.289931
 590000.000000 68.951650 38.888600 0.810181 -5.499337 -9.224580
 592000.000000 68.605560 38.869200 0.746417 -5.537029 -9.287804
 594000.000000 69.390290 39.045280 0.787617 -5.183779 -8.695263
 596000.000000 69.672030 39.474700 0.750530 -4.343779 -7.286249
 598000.000000 69.933730 39.215950 0.871888 -4.343746 -7.286193
 600000.000000 69.539760 38.630050 0.804240 -5.458874 -9.156707
 602000.000000 70.027370 38.722230 0.824356 -4.419565 -7.413372
 604000.000000 70.637040 38.613050 0.774014 -4.348151 -7.293582
 606000.000000 71.156820 38.702340 0.857019 -4.356635 -7.307813
 608000.000000 70.699300 38.584700 0.791012 -4.344738 -7.287857
 610000.000000 70.325020 38.690910 0.836528 -4.355807 -7.306424
 612000.000000 69.935090 37.865570 0.794032 -5.541239 -9.294866
 614000.000000 69.261270 38.190860 0.773032 -5.534988 -9.284381
 616000.000000 69.983950 38.400980 0.787243 -5.480390 -9.192798
 618000.000000 71.038580 38.565710 0.805674 -4.361177 -7.315432
 620000.000000 70.898710 39.284350 0.853049 -4.343611 -7.285967
 622000.000000 71.116590 38.687350 0.783990 -4.357577 -7.309393
 624000.000000 70.734080 38.793150 0.788172 -4.343748 -7.286197
 626000.000000 71.208190 39.255500 0.774069 -4.087027 -6.855573
 628000.000000 71.393650 39.650750 0.848145 -3.900189 -6.542171
 630000.000000 71.985580 39.325570 0.852369 -3.901620 -6.544572
 632000.000000 71.623900 38.996890 0.722559 -3.919309 -6.574243
 634000.000000 71.251130 38.824370 0.832053 -4.356153 -7.307005
 636000.000000 72.082350 38.666960 0.874437 -5.086602 -8.532259
 638000.000000 72.306440 38.197910 0.799962 -5.539672 -9.292238
 640000.000000 72.127630 37.729660 0.862450 -5.550424 -9.310273
 642000.000000 72.545040 38.233700 0.849678 -5.545142 -9.301413
 644000.000000 72.154410 37.934750 0.811786 -5.550047 -9.309641
 646000.000000 72.056840 38.478930 0.814378 -5.168347 -8.669378
 648000.000000 73.006900 38.505970 0.888385 -5.193452 -8.711489
 650000.000000 72.681280 38.696570 0.874725 -5.169400 -8.671144
 652000.000000 72.885760 38.631480 0.807460 -5.188301 -8.702849
 654000.000000 73.167370 38.647120 0.805077 -5.191376 -8.708007
 656000.000000 72.536590 38.026890 0.802853 -5.551289 -9.311724
 658000.000000 71.715280 37.381010 0.754373 -5.551295 -9.311734
 660000.000000 72.466800 38.154680 0.758780 -5.551221 -9.311610
 662000.000000 72.803000 37.881810 0.756268 -5.551347 -9.311821
 664000.000000 72.501850 37.924500 0.796407 -5.551076 -9.311367
 666000.000000 72.647670 37.706590 0.826847 -5.553096 -9.314755
 668000.000000 72.771770 37.803400 0.851989 -5.552568 -9.313870
 670000.000000 72.321850 37.743140 0.748247 -5.551284 -9.311716
 672000.000000 72.835410 38.515020 0.819867 -5.189369 -8.704640
 674000.000000 73.051450 37.968460 0.908507 -5.552035 -9.312975
 676000.000000 73.384990 38.751470 0.839723 -5.186493 -8.699816
 678000.000000 72.549740 38.204860 0.853365 -5.550735 -9.310795
 680000.000000 71.928380 38.613950 0.881933 -5.090742 -8.539203
 682000.000000 72.730280 37.828710 0.847066 -5.551593 -9.312234
 684000.000000 72.883450 38.313420 0.876292 -5.549320 -9.308421
 686000.000000 73.282390 38.203630 0.781812 -5.553102 -9.314765
 688000.000000 72.995990 38.312820 0.800621 -5.549450 -9.308639
 690000.000000 72.102840 37.965110 0.870880 -5.548874 -9.307673
 692000.000000 72.351880 37.351570 0.890300 -5.552870 -9.314376
 694000.000000 71.634670 37.097540 0.864603 -5.551302 -9.311746
 696000.000000 71.872950 37.389770 0.860352 -5.551295 -9.311734
 698000.000000 72.133490 37.302170 0.859303 -5.551565 -9.312187
 700000.000000 72.453840 37.483320 0.867470 -5.553106 -9.314772
 702000.000000 71.968870 37.605560 0.887373 -5.551046 -9.311317
 704000.000000 72.151810 37.547650 0.805997 -5.551292 -9.311729
 706000.000000 71.777900 37.623690 0.846673 -5.549202 -9.308223
 708000.000000 72.530080 37.636040 0.751236 -5.553102 -9.314765
 710000.000000 71.520190 37.727970 0.859917 -5.548709 -9.307396
 712000.000000 71.596520 37.383590 0.847668 -5.551295 -9.311734
 714000.000000 70.413550 36.952010 0.775729 -5.551489 -9.312060
 716000.000000 70.302310 37.021130 0.850934 -5.551758 -9.312511
 718000.000000 71.079270 37.074860 0.823466 -5.551304 -9.311749
 720000.000000 71.215940 37.013600 0.833391 -5.551453 -9.311999
 722000.000000 71.025710 36.988310 0.896349 -5.551488 -9.312058
 724000.000000 71.335580 37.078030 0.861327 -5.551305 -9.311751
 726000.000000 70.518180 37.195040 0.832308 -5.551296 -9.311736
 728000.000000 70.946330 36.866540 0.813418 -5.552747 -9.314170
 730000.000000 70.595630 36.576370 0.858087 -5.554743 -9.317518
 732000.000000 71.414640 37.250360 0.865873 -5.551295 -9.311734
 734000.000000 72.195350 37.081910 0.866551 -5.553698 -9.315765
 736000.000000 70.535230 37.037890 0.808522 -5.551320 -9.311776
 738000.000000 71.842240 37.408810 0.875209 -5.551295 -9.311734
 740000.000000 71.598730 36.905770 0.875626 -5.553561 -9.315535
 742000.000000 71.447420 37.574440 0.864486 -5.550345 -9.310141
 744000.000000 70.831900 37.028870 0.848760 -5.551341 -9.311811
 746000.000000 70.870580 37.268020 0.856226 -5.551128 -9.311454
 748000.000000 70.631830 37.424880 0.852660 -5.550408 -9.310246
 750000.000000 71.174130 37.702390 0.790720 -5.550199 -9.309896
 752000.000000 71.630290 37.433710 0.831058 -5.551295 -9.311734
 754000.000000 70.233560 37.701620 0.814225 -5.549913 -9.309416
 756000.000000 70.713270 38.067120 0.826262 -5.517539 -9.255112
 758000.000000 70.914000 38.325820 0.847518 -5.030318 -8.437848
 760000.000000 70.958610 37.836830 0.837874 -5.548353 -9.306799
 762000.000000 71.399540 37.754990 0.825660 -5.548721 -9.307417
 764000.000000 71.575800 37.328240 0.804193 -5.551295 -9.311734
 766000.000000 71.812790 37.683930 0.788133 -5.548819 -9.307581
 768000.000000 71.246480 38.088790 0.822697 -5.539291 -9.291599
 770000.000000 72.359640 38.058980 0.855062 -5.550464 -9.310340
 772000.000000 72.042540 38.107290 0.870358 -5.547772 -9.305825
 774000.000000 72.019290 38.042430 0.809706 -5.548256 -9.306637
 776000.000000 72.877670 38.435790 0.862185 -5.213292 -8.744768
 778000.000000 73.211950 38.252510 0.794788 -5.553096 -9.314755
 780000.000000 73.377330 38.314450 0.838151 -5.553102 -9.314765
 782000.000000 73.671540 38.719850 0.790861 -5.549627 -9.308936
 784000.000000 73.609340 38.633400 0.837412 -5.547300 -9.305033
 786000.000000 73.814960 38.863890 0.876260 -5.352123 -8.977643
 788000.000000 73.498140 38.405260 0.785707 -5.553097 -9.314757
 790000.000000 73.549180 38.850860 0.847476 -5.196763 -8.717043
 792000.000000 73.683770 38.780580 0.840407 -5.503447 -9.231474
 794000.000000 73.168870 38.811550 0.801736 -5.187576 -8.701632
 796000.000000 73.757340 38.448370 0.836330 -5.553102 -9.314765
 798000.000000 73.257650 38.508100 0.869432 -5.354106 -8.980970
 800000.000000 73.168060 38.273620 0.844817 -5.552934 -9.314483
 802000.000000 73.101680 38.106740 0.833976 -5.552257 -9.313348
 804000.000000 73.380110 38.776580 0.838747 -5.182264 -8.692722
 806000.000000 73.326290 38.176010 0.850783 -5.553102 -9.314765
 808000.000000 73.162390 38.157850 0.813173 -5.553080 -9.314728
 810000.000000 72.893740 38.066880 0.849407 -5.551301 -9.311744
 812000.000000 72.881090 37.789380 0.854392 -5.553089 -9.314743
 814000.000000 73.247480 38.005140 0.837381 -5.553101 -9.314764
 816000.000000 73.612770 38.151410 0.813100 -5.553102 -9.314765
 818000.000000 72.877850 38.193580 0.887288 -5.551198 -9.311571
 820000.000000 73.365470 38.528540 0.855899 -5.333676 -8.946700
 822000.000000 73.082000 38.451630 0.780556 -5.307916 -8.903491
 824000.000000 72.837820 38.141790 0.794428 -5.551278 -9.311706
 826000.000000 72.845140 37.880730 0.901147 -5.551371 -9.311862
 828000.000000 72.373010 38.371570 0.771773 -5.276360 -8.850559
 830000.000000 72.916740 37.716990 0.845831 -5.553102 -9.314765
 832000.000000 72.850610 37.798070 0.875213 -5.553038 -9.314658
 834000.000000 72.755400 38.207840 0.856192 -5.550987 -9.311218
 836000.000000 72.028060 38.691120 0.810759 -5.081274 -8.523322
 838000.000000 72.497420 38.135820 0.786391 -5.551291 -9.311727
 840000.000000 73.258530 38.082960 0.936467 -5.553102 -9.314765
 842000.000000 73.169220 38.621980 0.932846 -5.191915 -8.708911
 844000.000000 72.811900 38.734780 0.948632 -5.183768 -8.695245
 846000.000000 72.627970 38.735620 0.970522 -5.168844 -8.670211
 848000.000000 73.794360 38.808060 0.935033 -5.519317 -9.258094
 850000.000000 73.914990 38.776120 0.806871 -5.552998 -9.314591
 852000.000000 74.034320 38.666750 0.967456 -5.553102 -9.314765
 854000.000000 73.348450 38.845750 0.928080 -5.176326 -8.682762
 856000.000000 73.078180 38.438060 0.902566 -5.351703 -8.976939
 858000.000000 73.812230 38.694390 0.915014 -5.553094 -9.314752
 860000.000000 73.332490 38.132920 0.917736 -5.553102 -9.314765
 862000.000000 73.026720 38.170710 0.830750 -5.551430 -9.311961
 864000.000000 73.230280 37.820070 0.917119 -5.553102 -9.314765
 866000.000000 72.997350 38.063250 0.936738 -5.551451 -9.311996
 868000.000000 73.525060 38.938430 0.956428 -5.185640 -8.698385
 870000.000000 73.321540 38.302980 0.929047 -5.553102 -9.314765
 872000.000000 73.127600 38.067050 0.865637 -5.552313 -9.313442
 874000.000000 72.874680 37.617080 0.839789 -5.553102 -9.314765
 876000.000000 73.166020 37.688260 0.956452 -5.553104 -9.314769
 878000.000000 73.811810 38.524390 0.798473 -5.553102 -9.314765
 880000.000000 73.487450 39.057620 0.797413 -5.169874 -8.671939
 882000.000000 73.775010 38.755800 0.880840 -5.548549 -9.307128
 884000.000000 73.340750 38.871550 0.804272 -5.174292 -8.679350
 886000.000000 73.459810 38.996110 0.807252 -5.172293 -8.675997
 888000.000000 74.171670 38.748210 0.926254 -5.553103 -9.314767
 890000.000000 73.849030 38.812000 0.797497 -5.542489 -9.296963
 892000.000000 73.290030 38.719090 0.839725 -5.185877 -8.698783
 894000.000000 73.476450 39.067180 0.761213 -5.169712 -8.671667
 896000.000000 73.775950 38.720880 0.828022 -5.552717 -9.314119
 898000.000000 73.172470 38.938630 0.853657 -5.169536 -8.671372
 900000.000000 73.179790 38.713540 0.857780 -5.189853 -8.705452
 902000.000000 73.942220 38.636490 0.864518 -5.553102 -9.314765
 904000.000000 73.530710 39.156890 0.866660 -5.169550 -8.671396
 906000.000000 73.813190 39.091300 0.882601 -5.188950 -8.703937
 908000.000000 73.203010 38.869010 0.828892 -5.178535 -8.686467
 910000.000000 73.854070 39.011920 0.799645 -5.196345 -8.716342
 912000.000000 73.686270 38.889910 0.843675 -5.201718 -8.725354
 914000.000000 73.637720 38.341460 0.844165 -5.553102 -9.314765
 916000.000000 73.697130 38.457810 0.858739 -5.553102 -9.314765
 918000.000000 72.810780 38.325460 0.875985 -5.550476 -9.310360
 920000.000000 73.023790 38.167140 0.820432 -5.551422 -9.311947
 922000.000000 73.564220 38.623730 0.785632 -5.516930 -9.254090
 924000.000000 73.655490 38.125360 0.840766 -5.553103 -9.314767
 926000.000000 72.960650 38.128570 0.870422 -5.551325 -9.311785
 928000.000000 72.683530 38.598700 0.882872 -5.177558 -8.684828
 930000.000000 72.932810 38.720710 0.813791 -5.185712 -8.698506
 932000.000000 72.789880 38.467670 0.854954 -5.196378 -8.716397
 934000.000000 73.645110 38.628620 0.748388 -5.552413 -9.313610
 936000.000000 74.170340 38.829920 0.890170 -5.553102 -9.314765
 938000.000000 73.821340 38.353260 0.805965 -5.553102 -9.314765
 940000.000000 73.507120 37.971150 0.904281 -5.553103 -9.314767
 942000.000000 74.238010 38.742600 0.896380 -5.553104 -9.314769
 944000.000000 73.391890 38.446190 0.908347 -5.550429 -9.310282
 946000.000000 73.350440 37.881900 0.918250 -5.553102 -9.314765
 948000.000000 72.549810 37.528310 0.839686 -5.553102 -9.314765
 950000.000000 72.760470 37.922980 0.908160 -5.551304 -9.311749
 952000.000000 72.830340 37.621020 0.818961 -5.553102 -9.314765
 954000.000000 72.675170 38.045640 0.869549 -5.551295 -9.311734
 956000.000000 72.991350 38.679340 0.676316 -5.188108 -8.702525
 958000.000000 72.696080 38.953720 0.749432 -5.156206 -8.649012
 960000.000000 73.395490 39.025880 0.892576 -5.169729 -8.671696
 962000.000000 73.779730 38.364020 0.847825 -5.553102 -9.314765
 964000.000000 73.311600 38.554440 0.826871 -5.272480 -8.844050
 966000.000000 72.855320 38.268340 0.784324 -5.550965 -9.311181
 968000.000000 73.749950 38.300360 0.854037 -5.553102 -9.314765
 970000.000000 73.834770 39.005200 0.822072 -5.195233 -8.714476
 972000.000000 72.993070 38.640180 0.803243 -5.188853 -8.703774
 974000.000000 72.745280 38.607940 0.805285 -5.185397 -8.697977
 976000.000000 72.582160 38.694960 0.803913 -5.167765 -8.668402
 978000.000000 73.094880 38.839680 0.890686 -5.184438 -8.696369
 980000.000000 73.226250 38.265530 0.837700 -5.553098 -9.314759
 982000.000000 73.615320 38.281830 0.863104 -5.553102 -9.314765
 984000.000000 73.239120 37.607150 0.980568 -5.553142 -9.314832
 986000.000000 74.078320 38.394310 0.890455 -5.553111 -9.314780
 988000.000000 73.216130 38.397010 0.837383 -5.551756 -9.312507
 990000.000000 73.962130 38.288370 0.902418 -5.553108 -9.314775
 992000.000000 73.559120 38.420630 0.903165 -5.553101 -9.314764
 994000.000000 73.156720 38.019350 0.835106 -5.552825 -9.314301
 996000.000000 73.110590 38.012810 0.909702 -5.552082 -9.313054
 998000.000000 72.527490 38.668010 0.822352 -5.167667 -8.668237
 1000000.000000 72.487110 39.033590 0.888892 -4.683690 -7.856415
 1002000.000000 72.481300 39.127370 0.937854 -4.557270 -7.644358
 1004000.000000 72.510270 38.764540 0.866452 -5.167437 -8.667851
 1006000.000000 72.636630 38.640230 0.932865 -5.169033 -8.670528
 1008000.000000 72.811810 38.758170 0.930240 -5.178379 -8.686205
 1010000.000000 72.915360 38.745140 0.902301 -5.185119 -8.697511
 1012000.000000 73.492340 38.933430 0.932582 -5.179887 -8.688735
 1014000.000000 73.611100 39.156830 0.867443 -5.170135 -8.672377
 1016000.000000 73.831390 38.698260 0.907108 -5.553097 -9.314757
 1018000.000000 73.608500 38.712320 0.849996 -5.526809 -9.270661
 1020000.000000 73.364270 39.073530 0.848158 -5.169384 -8.671117
 1022000.000000 73.223030 39.074790 0.821606 -5.169341 -8.671045
 1024000.000000 73.586790 39.205090 0.812705 -5.160132 -8.655598
 1026000.000000 73.616450 39.145720 0.871213 -5.170408 -8.672835
 1028000.000000 72.324620 38.980140 0.800104 -4.618110 -7.746411
 1030000.000000 72.878860 39.029400 0.888528 -5.165725 -8.664980
 1032000.000000 72.144530 38.660530 0.901969 -5.087757 -8.534196
 1034000.000000 74.138930 38.878560 0.873879 -5.553018 -9.314624
 1036000.000000 74.032270 39.041450 0.863534 -5.221790 -8.759023
 1038000.000000 73.127390 38.810900 0.917792 -5.187838 -8.702072
 1040000.000000 73.442110 38.875680 0.890063 -5.183214 -8.694316
 1042000.000000 73.427550 38.813130 0.917765 -5.190046 -8.705776
 1044000.000000 73.911820 38.976220 0.817320 -5.203530 -8.728394
 1046000.000000 74.075410 38.863790 0.864795 -5.553016 -9.314621
 1048000.000000 74.555290 39.025950 0.866599 -5.553083 -9.314733
 1050000.000000 74.119190 38.618140 0.871613 -5.553103 -9.314767
 1052000.000000 74.745990 39.369780 0.820779 -5.548267 -9.306655
 1054000.000000 74.572740 38.909550 0.891176 -5.553146 -9.314839
 1056000.000000 74.206380 39.069850 0.837675 -5.462449 -9.162704
 1058000.000000 74.432870 38.966730 0.848741 -5.552896 -9.314420
 1060000.000000 74.693140 39.197030 0.878135 -5.553114 -9.314785
 1062000.000000 74.951140 39.453550 0.948045 -5.552994 -9.314584
 1064000.000000 74.580410 38.800750 0.936030 -5.553237 -9.314992
 1066000.000000 74.158920 38.695240 0.867480 -5.553102 -9.314765
 1068000.000000 73.766040 38.693170 0.867369 -5.553065 -9.314703
 1070000.000000 74.211970 38.822130 0.807069 -5.553102 -9.314765
 1072000.000000 73.833430 38.861110 0.812892 -5.411209 -9.076754
 1074000.000000 74.506080 38.849560 0.822437 -5.553131 -9.314814
 1076000.000000 74.466300 38.687380 0.836549 -5.553249 -9.315012
 1078000.000000 74.677580 39.144080 0.863496 -5.553116 -9.314789
 1080000.000000 74.581660 39.217410 0.808562 -5.551425 -9.311952
 1082000.000000 75.049620 39.501920 0.861197 -5.545076 -9.301302
 1084000.000000 75.128180 39.530340 0.816317 -5.543281 -9.298292
 1086000.000000 75.484990 39.613100 0.791039 -5.553582 -9.315570
 1088000.000000 75.018600 39.347870 0.807902 -5.553223 -9.314968
 1090000.000000 74.967920 39.439300 0.793832 -5.553096 -9.314755
 1092000.000000 75.038360 39.638930 0.785074 -5.477262 -9.187551
 1094000.000000 75.468590 40.093380 0.743451 -5.250055 -8.806435
 1096000.000000 75.283250 39.853610 0.717162 -5.380721 -9.025614
 1098000.000000 75.563990 40.273440 0.694607 -5.213457 -8.745045
 1100000.000000 75.403620 40.294820 0.724293 -5.206714 -8.733735
 1102000.000000 75.416810 39.910750 0.746648 -5.372092 -9.011139
 1104000.000000 75.924330 40.360250 0.662032 -5.302463 -8.894344
 1106000.000000 76.079880 40.439950 0.619709 -5.324111 -8.930656
 1108000.000000 75.637420 40.235570 0.634932 -5.263597 -8.829150
 1110000.000000 75.755490 40.244660 0.670920 -5.319278 -8.922549
 1112000.000000 75.549810 40.130100 0.615029 -5.266120 -8.833382
 1114000.000000 75.357370 40.123720 0.575526 -5.217163 -8.751262
 1116000.000000 75.837960 40.319900 0.622609 -5.304625 -8.897970
 1118000.000000 75.328150 40.216560 0.655475 -5.207526 -8.735097
 1120000.000000 75.385560 39.887690 0.676451 -5.397039 -9.052985
 1122000.000000 75.395270 39.951520 0.738688 -5.309696 -8.906476
 1124000.000000 76.095200 40.348910 0.593759 -5.414514 -9.082298
 1126000.000000 75.790580 40.014660 0.701916 -5.547281 -9.305001
 1128000.000000 75.723320 40.233180 0.633225 -5.309563 -8.906253
 1130000.000000 75.310590 39.867280 0.675278 -5.382234 -9.028152
 1132000.000000 75.353990 39.452470 0.635484 -5.553542 -9.315503
 1134000.000000 74.682510 39.392810 0.661651 -5.504363 -9.233011
 1136000.000000 75.406320 39.566720 0.664748 -5.553522 -9.315470
 1138000.000000 75.195960 39.397670 0.624137 -5.553354 -9.315188
 1140000.000000 75.294890 39.765660 0.629616 -5.510941 -9.244044
 1142000.000000 75.237120 40.035170 0.646737 -5.220127 -8.756233
 1144000.000000 75.905130 40.265340 0.607767 -5.391975 -9.044491
 1146000.000000 76.039640 40.411680 0.623390 -5.318789 -8.921729
 1148000.000000 76.442840 40.811970 0.638886 -5.269281 -8.838684
 1150000.000000 76.201920 40.437510 0.579142 -5.443770 -9.131372
 1152000.000000 76.026740 40.354860 0.597031 -5.323920 -8.930336
 1154000.000000 76.284220 40.784330 0.541875 -5.240933 -8.791133
 1156000.000000 76.331210 40.569130 0.569790 -5.386138 -9.034700
 1158000.000000 76.685140 40.714690 0.555083 -5.536139 -9.286312
 1160000.000000 76.245410 40.617290 0.574306 -5.291952 -8.876713
 1162000.000000 76.227820 40.818440 0.586090 -5.211987 -8.742579
 1164000.000000 76.805750 41.283070 0.555696 -5.218282 -8.753139
 1166000.000000 76.265280 41.307270 0.574996 -5.166612 -8.666467
 1168000.000000 76.680170 41.206970 0.636187 -5.215377 -8.748266
 1170000.000000 76.966480 41.450080 0.612429 -5.216311 -8.749833
 1172000.000000 76.632250 41.459760 0.604103 -5.204217 -8.729546
 1174000.000000 76.929260 41.710800 0.624840 -5.197486 -8.718255
 1176000.000000 77.102630 41.495080 0.616714 -5.217772 -8.752283
 1178000.000000 77.276030 41.702640 0.619213 -5.216518 -8.750180
 1180000.000000 77.040400 41.557530 0.610886 -5.213252 -8.744701
 1182000.000000 76.838400 41.496120 0.616814 -5.210557 -8.740181
 1184000.000000 77.480710 41.963860 0.514378 -5.217918 -8.752528
 1186000.000000 76.344150 41.167100 0.623082 -5.197292 -8.717930
 1188000.000000 76.765880 41.359250 0.613890 -5.213029 -8.744327
 1190000.000000 76.869640 41.706340 0.614740 -5.196969 -8.717388
 1192000.000000 77.010210 41.492240 0.598794 -5.215267 -8.748081
 1194000.000000 76.784130 41.345790 0.597728 -5.214302 -8.746463
 1196000.000000 76.796350 41.651380 0.513675 -5.197893 -8.718938
 1198000.000000 77.278260 41.802120 0.557457 -5.208537 -8.736792
 1200000.000000 76.753070 41.669940 0.558945 -5.194156 -8.712670
 1202000.000000 76.590360 41.249790 0.596901 -5.209097 -8.737732
 1204000.000000 76.986420 41.788360 0.557301 -5.195543 -8.714996
 1206000.000000 76.986230 42.255790 0.504684 -5.101943 -8.557992
 1208000.000000 77.028900 41.365110 0.569205 -5.226201 -8.766422
 1210000.000000 76.640870 41.544520 0.549299 -5.193218 -8.711096
 1212000.000000 76.514580 41.212060 0.611071 -5.200500 -8.723311
 1214000.000000 76.527700 41.104220 0.612086 -5.210471 -8.740036
 1216000.000000 76.796900 41.193080 0.575222 -5.228657 -8.770542
 1218000.000000 76.546840 40.838660 0.593041 -5.289187 -8.872075
 1220000.000000 76.879400 41.630580 0.578686 -5.202746 -8.727079
 1222000.000000 76.758710 41.715260 0.587242 -5.192919 -8.710595
 1224000.000000 77.014540 41.634610 0.558351 -5.207933 -8.735779
 1226000.000000 76.800210 41.535660 0.612905 -5.206131 -8.732757
 1228000.000000 76.894060 41.532210 0.582737 -5.210870 -8.740706
 1230000.000000 76.685740 40.775890 0.610750 -5.475509 -9.184611
 1232000.000000 76.466960 41.019610 0.632153 -5.215909 -8.749158
 1234000.000000 76.709960 40.983120 0.562793 -5.271696 -8.842735
 1236000.000000 76.216730 40.790530 0.569570 -5.220223 -8.756394
 1238000.000000 76.597930 40.949260 0.556266 -5.251527 -8.808904
 1240000.000000 76.330770 40.479030 0.606445 -5.441548 -9.127645
 1242000.000000 76.763640 41.041880 0.587287 -5.264006 -8.829836
 1244000.000000 76.136070 40.423260 0.585968 -5.379082 -9.022864
 1246000.000000 76.574340 40.127610 0.720842 -5.554990 -9.317932
 1248000.000000 75.738560 40.084390 0.600195 -5.444096 -9.131919
 1250000.000000 75.318820 40.110770 0.661515 -5.216563 -8.750255
 1252000.000000 75.320600 39.991770 0.652577 -5.255311 -8.815251
 1254000.000000 75.535280 40.420640 0.580437 -5.184799 -8.696974
 1256000.000000 75.704120 40.283450 0.570489 -5.258853 -8.821192
 1258000.000000 75.521090 40.381360 0.571091 -5.186543 -8.699900
 1260000.000000 75.965050 40.358530 0.705310 -5.302125 -8.893777
 1262000.000000 76.553510 41.159160 0.549476 -5.206495 -8.733367
 1264000.000000 76.593330 41.463100 0.523703 -5.201566 -8.725099
 1266000.000000 76.631540 41.136340 0.588202 -5.219503 -8.755187
 1268000.000000 76.314820 41.152180 0.557354 -5.199551 -8.721719
 1270000.000000 76.782050 41.347080 0.561958 -5.214165 -8.746233
 1272000.000000 76.628700 40.862990 0.592545 -5.314247 -8.914110
 1274000.000000 76.577140 41.474410 0.401012 -5.198663 -8.720230
 1276000.000000 76.882240 41.841320 0.411276 -5.168479 -8.669599
 1278000.000000 76.885640 42.143680 0.425092 -5.117621 -8.584290
 1280000.000000 76.743670 41.761520 0.556236 -5.192146 -8.709298
 1282000.000000 77.018410 41.836160 0.498442 -5.193200 -8.711066
 1284000.000000 76.859990 41.764150 0.572928 -5.193665 -8.711846
 1286000.000000 77.043810 41.851000 0.620042 -5.193035 -8.710789
 1288000.000000 76.931000 42.241120 0.578569 -4.990167 -8.370499
 1290000.000000 76.350000 41.992090 0.595487 -4.764034 -7.991184
 1292000.000000 76.584140 41.964340 0.623135 -5.100896 -8.556236
 1294000.000000 77.033540 41.984860 0.582888 -5.193242 -8.711137
 1296000.000000 77.419390 42.296280 0.520725 -5.201689 -8.725306
 1298000.000000 76.892190 42.002140 0.516597 -5.181499 -8.691439
 1300000.000000 77.290820 42.576940 0.510713 -5.078313 -8.518355
 1302000.000000 76.868840 42.293490 0.576879 -4.937878 -8.282789
 1304000.000000 77.043290 42.240050 0.511332 -5.177886 -8.685378
 1306000.000000 76.871510 42.694820 0.548004 -3.847956 -6.454556
 1308000.000000 76.693340 42.420200 0.583978 -4.042220 -6.780414
 1310000.000000 76.786850 42.197010 0.568631 -5.030807 -8.438668
 1312000.000000 76.813250 42.312310 0.553975 -4.632824 -7.771092
 1314000.000000 76.315400 42.497840 0.552091 -3.439842 -5.769986
 1316000.000000 76.776630 42.398960 0.439037 -4.391228 -7.365839
 1318000.000000 76.462600 42.996920 0.482166 -2.956572 -4.959350
 1320000.000000 76.636870 43.107840 0.495594 -3.244190 -5.441800
 1322000.000000 76.764150 42.600410 0.452114 -3.756261 -6.300747
 1324000.000000 76.586270 42.517150 0.449160 -3.575667 -5.997819
 1326000.000000 76.600810 42.773690 0.429141 -3.453627 -5.793109
 1328000.000000 76.588440 42.224410 0.468952 -4.756232 -7.978097
 1330000.000000 76.397130 42.572330 0.543638 -3.427379 -5.749081
 1332000.000000 77.346320 41.662650 0.599883 -5.224347 -8.763312
 1334000.000000 76.628210 42.248340 0.499277 -4.700023 -7.883812
 1336000.000000 77.141150 42.498380 0.517963 -5.112241 -8.575266
 1338000.000000 76.624930 42.105450 0.435512 -5.060802 -8.488982
 1340000.000000 76.274600 42.299090 0.475548 -3.601294 -6.040805
 1342000.000000 76.977690 42.747090 0.540105 -4.239981 -7.112138
 1344000.000000 76.491840 43.010050 0.414220 -3.072563 -5.153913
 1346000.000000 77.075940 42.639050 0.460662 -4.757539 -7.980289
 1348000.000000 76.518370 42.442530 0.639839 -3.551474 -5.957237
 1350000.000000 76.941550 42.502630 0.626779 -4.875783 -8.178631
 1352000.000000 76.229780 42.296060 0.580969 -3.553258 -5.960230
 1354000.000000 75.955860 42.486950 0.474937 -3.386852 -5.681101
 1356000.000000 76.226010 42.612790 0.420950 -3.391456 -5.688823
 1358000.000000 76.092310 42.764170 0.477463 -3.307015 -5.547182
 1360000.000000 76.111420 42.718170 0.503828 -3.360687 -5.637211
 1362000.000000 76.577970 42.984250 0.473286 -3.097912 -5.196433
 1364000.000000 76.678790 42.997510 0.338027 -3.132549 -5.254533
 1366000.000000 76.845780 43.099200 0.371797 -2.918516 -4.895515
 1368000.000000 77.183740 42.630040 0.476941 -5.073883 -8.510924
 1370000.000000 77.428320 42.960630 0.402091 -4.792597 -8.039095
 1372000.000000 76.875760 42.313260 0.431878 -4.941186 -8.288338
 1374000.000000 76.843160 42.963430 0.471665 -3.222004 -5.404585
 1376000.000000 76.917960 42.547020 0.490781 -4.655406 -7.808971
 1378000.000000 77.014060 42.715730 0.454605 -4.457793 -7.477496
 1380000.000000 77.371770 42.974710 0.371415 -4.763333 -7.990008
 1382000.000000 77.037320 42.572850 0.477216 -4.623197 -7.754944
 1384000.000000 76.450740 42.568320 0.516666 -3.453548 -5.792976
 1386000.000000 76.689720 43.167410 0.318378 -2.860374 -4.797987
 1388000.000000 77.364700 42.782680 0.565939 -5.071230 -8.506474
 1390000.000000 76.877130 43.016350 0.461111 -3.068372 -5.146883
 1392000.000000 76.748130 42.234650 0.453823 -4.923410 -8.258521
 1394000.000000 77.075540 41.591900 0.398947 -5.213350 -8.744866
 1396000.000000 76.545320 41.762280 0.441734 -5.174343 -8.679435
 1398000.000000 76.722360 41.355460 0.503119 -5.211524 -8.741803
 1400000.000000 76.828290 41.832890 0.395533 -5.168388 -8.669447
 1402000.000000 76.730870 41.731180 0.375373 -5.192561 -8.709994
 1404000.000000 76.661920 41.179390 0.429785 -5.215927 -8.749188
 1406000.000000 76.681270 41.417080 0.401878 -5.209533 -8.738463
 1408000.000000 76.339370 42.363920 0.461743 -3.595085 -6.030390
 1410000.000000 76.736180 41.843340 0.483769 -5.178479 -8.686373
 1412000.000000 76.769880 41.709880 0.474952 -5.193126 -8.710942
 1414000.000000 77.404890 42.163140 0.435211 -5.208646 -8.736975
 1416000.000000 76.175070 42.016490 0.382834 -4.363960 -7.320100
 1418000.000000 77.199310 42.029620 0.418537 -5.194171 -8.712695
 1420000.000000 76.918290 42.114310 0.407728 -5.149602 -8.637935
 1422000.000000 76.849300 41.399370 0.402436 -5.213880 -8.745755
 1424000.000000 76.714160 41.632690 0.376564 -5.194661 -8.713517
 1426000.000000 76.812550 41.782860 0.399694 -5.191416 -8.708074
 1428000.000000 76.696980 42.151780 0.375057 -4.983936 -8.360047
 1430000.000000 77.307420 42.506880 0.431836 -5.169970 -8.672100
 1432000.000000 76.176610 42.991560 0.345220 -2.463901 -4.132944
 1434000.000000 76.448220 43.114830 0.309268 -2.716399 -4.556484
 1436000.000000 76.300440 42.827980 0.327140 -3.373281 -5.658337
 1438000.000000 76.741220 43.267760 0.311533 -2.829013 -4.745382
 1440000.000000 76.562160 42.757310 0.311611 -3.451522 -5.789578
 1442000.000000 76.507190 42.860110 0.408965 -3.389166 -5.684982
 1444000.000000 76.397750 42.958710 0.322579 -3.051620 -5.118783
 1446000.000000 76.619360 43.391990 0.327808 -2.557636 -4.290175
 1448000.000000 76.597670 43.037500 0.180087 -3.163734 -5.306843
 1450000.000000 76.966940 42.553060 0.259076 -4.594755 -7.707235
 1452000.000000 76.891190 42.857180 0.297869 -3.659023 -6.137640
 1454000.000000 76.968070 42.852820 0.270333 -3.863973 -6.481423
 1456000.000000 76.777380 42.617510 0.298792 -3.734128 -6.263621
 1458000.000000 76.617830 42.513290 0.312938 -3.587264 -6.017271
 1460000.000000 76.665710 42.646960 0.327661 -3.512163 -5.891297
 1462000.000000 76.698850 42.644700 0.364836 -3.547483 -5.950543
 1464000.000000 76.737980 42.971840 0.381482 -3.108026 -5.213398
 1466000.000000 77.369290 42.703790 0.412279 -5.148764 -8.636529
 1468000.000000 77.811000 42.511750 0.391361 -5.211804 -8.742272
 1470000.000000 77.225360 42.630710 0.410927 -5.075508 -8.513650
 1472000.000000 77.783200 42.642940 0.399006 -5.209261 -8.738007
 1474000.000000 77.252920 42.015430 0.470934 -5.195780 -8.715394
 1476000.000000 77.594390 42.047050 0.387649 -5.215792 -8.748962
 1478000.000000 77.096390 42.319990 0.369962 -5.173350 -8.677770
 1480000.000000 77.019790 42.287230 0.307386 -5.148304 -8.635758
 1482000.000000 76.645230 42.279860 0.432530 -4.542498 -7.619580
 1484000.000000 77.342060 42.545210 0.398591 -5.129307 -8.603892
 1486000.000000 77.412860 42.497140 0.423494 -5.184810 -8.696993
 1488000.000000 77.238680 42.247490 0.343177 -5.192053 -8.709142
 1490000.000000 77.049420 42.060290 0.248358 -5.190000 -8.705698
 1492000.000000 76.621880 42.572970 0.322177 -3.541890 -5.941161
 1494000.000000 76.939450 42.349970 0.355264 -5.004904 -8.395219
 1496000.000000 76.702130 42.622100 0.260776 -3.567350 -5.983868
 1498000.000000 76.297020 42.583530 0.364231 -3.402049 -5.706592
 1500000.000000 76.789590 41.844690 0.270408 -5.169571 -8.671431
 1502000.000000 76.462710 42.560360 0.311990 -3.466125 -5.814073
 1504000.000000 76.872440 41.642110 0.273752 -5.200742 -8.723717
 1506000.000000 77.156000 41.612970 0.271243 -5.216321 -8.749849
 1508000.000000 77.094150 42.456390 0.357447 -5.115442 -8.580635
 1510000.000000 76.862230 41.793930 0.390097 -5.190077 -8.705828
 1512000.000000 76.716460 42.078520 0.352924 -5.095743 -8.547592
 1514000.000000 77.236170 42.010850 0.322426 -5.195176 -8.714381
 1516000.000000 76.480450 42.905990 0.300422 -3.257109 -5.463470
 1518000.000000 76.605310 42.662830 0.278213 -3.506074 -5.881083
 1520000.000000 77.256330 42.664640 0.375346 -5.116002 -8.581574
 1522000.000000 77.433510 42.611190 0.368025 -5.170256 -8.672580
 1524000.000000 76.643590 42.766810 0.421443 -3.464185 -5.810819
 1526000.000000 76.294170 42.730530 0.428238 -3.373759 -5.659138
 1528000.000000 77.041570 42.839250 0.365066 -4.132051 -6.931096
 1530000.000000 76.870680 42.819600 0.316627 -3.748080 -6.287024
 1532000.000000 77.110880 42.821750 0.279548 -4.413344 -7.402937
 1534000.000000 76.250160 42.719920 0.331770 -3.377821 -5.665952
 1536000.000000 76.190350 42.979690 0.322861 -2.474998 -4.151558
 1538000.000000 76.171430 43.206860 0.318747 -2.100739 -3.523777
 1540000.000000 76.820450 42.592310 0.390353 -3.984606 -6.683772
 1542000.000000 76.293510 42.347850 0.433290 -3.508191 -5.884634
 1544000.000000 76.159330 43.176800 0.357526 -2.151921 -3.609629
 1546000.000000 76.499480 43.014300 0.375048 -3.113161 -5.222012
 1548000.000000 76.210760 42.709020 0.411239 -3.380279 -5.670075
 1550000.000000 76.367530 42.575270 0.397167 -3.419327 -5.735574
 1552000.000000 76.550680 42.575170 0.312484 -3.552728 -5.959341
 1554000.000000 76.600810 42.586790 0.260201 -3.536203 -5.931622
 1556000.000000 76.839080 42.843440 0.283884 -3.624587 -6.079877
 1558000.000000 76.251090 42.847390 0.272133 -3.304724 -5.543339
 1560000.000000 76.208000 43.601940 0.202829 -1.619185 -2.716019
 1562000.000000 76.465010 43.592560 0.233981 -2.046073 -3.432080
 1564000.000000 76.340140 43.455650 0.208599 -1.977262 -3.316656
 1566000.000000 76.178620 43.263190 0.174404 -2.109803 -3.538980
 1568000.000000 75.824710 43.569860 0.135761 -0.729320 -1.223360
 1570000.000000 75.780750 43.503530 0.189378 -0.901269 -1.511787
 1572000.000000 75.632280 43.304500 0.213239 -1.814358 -3.043401
 1574000.000000 76.304730 43.478380 0.144103 -1.923697 -3.226807
 1576000.000000 76.106040 43.217860 0.146384 -1.967362 -3.300050
 1578000.000000 75.570930 43.362030 0.183558 -1.769146 -2.967563
 1580000.000000 76.067580 43.403310 0.195444 -1.700567 -2.852529
 1582000.000000 75.442970 43.773700 0.104159 -0.318206 -0.533759
 1584000.000000 75.939200 43.571680 0.116106 -1.096498 -1.839264
 1586000.000000 75.959220 43.861100 0.192962 -1.191403 -1.998458
 1588000.000000 75.867420 43.540710 0.221422 -0.847234 -1.421149
 1590000.000000 75.048970 44.005530 0.281872 -0.476545 -0.799356
 1592000.000000 75.052670 43.794170 0.272158 -0.273593 -0.458925
 1594000.000000 75.172730 43.511520 0.302454 -0.914610 -1.534166
 1596000.000000 74.899790 43.894220 0.342869 0.505638 0.848157
 1598000.000000 75.769460 44.072010 0.273352 -0.741696 -1.244120
 1600000.000000 75.455060 43.809140 0.263583 -0.358758 -0.601779
 1602000.000000 75.618780 44.326510 0.218760 -0.977519 -1.639689
 1604000.000000 75.609070 44.561950 0.151033 -1.438890 -2.413592
 1606000.000000 76.066150 44.777090 0.193294 -1.294056 -2.170648
 1608000.000000 75.732150 45.362520 0.143345 -1.129117 -1.893979
 1610000.000000 75.211360 44.872350 0.239400 -1.359645 -2.280667
 1612000.000000 74.553200 44.155330 0.193668 0.056786 0.095252
 1614000.000000 74.894760 43.948130 0.314657 0.294760 0.494431
 1616000.000000 75.857570 44.330960 0.265841 -1.263293 -2.119046
 1618000.000000 75.143870 43.867050 0.335441 -0.325115 -0.545348
 1620000.000000 74.045740 43.960790 0.391145 -0.184127 -0.308855
 1622000.000000 73.720040 43.560250 0.366444 0.152885 0.256449
 1624000.000000 73.933550 43.610570 0.376289 0.083641 0.140299
 1626000.000000 73.731440 44.156850 0.366169 -0.837824 -1.405365
 1628000.000000 74.302230 44.127700 0.411729 -0.309989 -0.519976
 1630000.000000 74.413990 44.268630 0.328997 -0.464330 -0.778867
 1632000.000000 74.149700 44.367440 0.314088 -0.861563 -1.445185
 1634000.000000 75.104620 44.416190 0.348604 -0.972333 -1.630990
 1636000.000000 74.596130 44.148820 0.349250 -0.080780 -0.135500
 1638000.000000 75.708360 44.163070 0.398470 -0.617340 -1.035525
 1640000.000000 74.872850 43.739290 0.328921 0.007467 0.012525
 1642000.000000 75.472720 44.052130 0.344257 -0.362106 -0.607395
 1644000.000000 76.029980 43.491960 0.342074 -1.191442 -1.998523
 1646000.000000 75.773440 43.350090 0.356291 -1.745324 -2.927604
 1648000.000000 75.934260 43.737790 0.358413 -1.092673 -1.832848
 1650000.000000 75.776740 43.863240 0.332118 -0.722419 -1.211785
 1652000.000000 76.294700 43.843880 0.354575 -1.713855 -2.874818
 1654000.000000 76.079870 43.910790 0.329455 -1.442960 -2.420419
 1656000.000000 75.797080 44.601870 0.340176 -1.391082 -2.333399
 1658000.000000 75.475600 44.270940 0.205858 -0.588440 -0.987049
 1660000.000000 75.620570 44.257190 0.362423 -0.625605 -1.049388
 1662000.000000 74.627510 44.431300 0.351207 -1.424731 -2.389842
 1664000.000000 74.985200 44.817160 0.282088 -1.239985 -2.079949
 1666000.000000 75.092910 44.322350 0.267842 -0.609813 -1.022900
 1668000.000000 76.354970 43.684200 0.322607 -1.844919 -3.094664
 1670000.000000 76.149970 43.778370 0.349347 -1.464379 -2.456347
 1672000.000000 77.129000 43.467050 0.207943 -3.367076 -5.647928
 1674000.000000 76.150010 44.168840 0.292119 -1.278275 -2.144177
 1676000.000000 76.187920 44.487330 0.279932 -1.201798 -2.015894
 1678000.000000 76.302030 43.406070 0.250802 -2.066649 -3.466594
 1680000.000000 76.395610 43.538560 0.355461 -2.053365 -3.444311
 1682000.000000 76.671630 43.423830 0.323769 -2.564917 -4.302388
 1684000.000000 75.875660 43.530970 0.326990 -0.884668 -1.483941
 1686000.000000 76.140690 43.827590 0.397922 -1.548438 -2.597348
 1688000.000000 77.230990 43.980310 0.243399 -2.625211 -4.403525
 1690000.000000 76.715330 43.559150 0.313028 -2.608087 -4.374801
 1692000.000000 75.658310 44.044380 0.315154 -0.645484 -1.082733
 1694000.000000 76.068820 44.221320 0.330753 -0.923813 -1.549603
 1696000.000000 76.504100 44.637260 0.349552 -1.630202 -2.734498
 1698000.000000 76.333530 44.298160 0.325141 -1.247448 -2.092467
 1700000.000000 76.971640 44.856720 0.321929 -2.096821 -3.517205
 1702000.000000 77.004540 45.144580 0.268559 -1.975334 -3.313422
 1704000.000000 76.574050 44.713730 0.255780 -1.770579 -2.969967
 1706000.000000 76.503910 44.503660 0.345345 -1.826599 -3.063935
 1708000.000000 76.871940 45.000970 0.341039 -1.864339 -3.127240
 1710000.000000 76.986270 45.131910 0.253741 -1.960190 -3.288020
 1712000.000000 76.166930 44.767280 0.159010 -1.362811 -2.285977
 1714000.000000 75.941720 44.104730 0.136850 -1.001121 -1.679279
 1716000.000000 76.188300 43.880770 0.233269 -1.755532 -2.944727
 1718000.000000 76.384720 44.109930 0.317173 -1.668081 -2.798037
 1720000.000000 76.793630 43.705400 0.332328 -2.495774 -4.186408
 1722000.000000 77.432840 43.791220 0.333907 -3.244084 -5.441622
 1724000.000000 76.633860 43.325390 0.284736 -2.677086 -4.490540
 1726000.000000 75.782950 43.248890 0.267996 -1.835816 -3.079395
 1728000.000000 76.025720 43.831020 0.312053 -1.338399 -2.245029
 1730000.000000 76.549240 44.024610 0.214249 -1.842882 -3.091248
 1732000.000000 76.475530 43.447560 0.268154 -2.449609 -4.108971
 1734000.000000 76.075250 43.484750 0.314506 -1.327443 -2.226651
 1736000.000000 76.179810 43.278400 0.299381 -2.120207 -3.556432
 1738000.000000 75.453670 43.432070 0.261771 -1.705942 -2.861545
 1740000.000000 75.468230 43.488890 0.269973 -1.104462 -1.852623
 1742000.000000 76.090590 43.629290 0.311180 -1.461140 -2.450914
 1744000.000000 76.577690 43.960270 0.250832 -1.854790 -3.111222
 1746000.000000 76.409780 44.153460 0.129949 -1.538272 -2.580295
 1748000.000000 75.661120 43.546190 0.288981 -0.875910 -1.469251
 1750000.000000 75.973440 43.747310 0.316683 -1.063858 -1.784514
 1752000.000000 75.264450 43.518730 0.311580 -0.672379 -1.127848
 1754000.000000 75.523870 43.924390 0.274847 -0.027002 -0.045294
 1756000.000000 75.750720 43.493670 0.323402 -1.011635 -1.696915
 1758000.000000 75.940000 43.946630 0.282933 -1.116779 -1.873283
 1760000.000000 76.188440 44.151080 0.309237 -1.400768 -2.349646
 1762000.000000 76.617880 44.262220 0.178590 -1.713990 -2.875044
 1764000.000000 76.375220 44.113280 0.306554 -1.641491 -2.753435
 1766000.000000 74.891870 44.073190 0.303110 -0.254685 -0.427208
 1768000.000000 75.164120 43.630550 0.287713 -0.472871 -0.793193
 1770000.000000 75.361400 43.744470 0.304898 -0.240240 -0.402978
 1772000.000000 75.719240 43.513890 0.309812 -1.112319 -1.865802
 1774000.000000 74.776540 43.457080 0.310488 -1.695650 -2.844281
 1776000.000000 74.689280 43.048170 0.304305 -1.696131 -2.845088
 1778000.000000 75.338180 43.267690 0.262268 -1.734724 -2.909824
 1780000.000000 74.664600 43.367550 0.300323 -1.695258 -2.843623
 1782000.000000 74.102970 43.464510 0.296960 0.755590 1.267425
 1784000.000000 73.250300 43.694270 0.268109 -1.985982 -3.331283
 1786000.000000 74.105890 43.623880 0.246570 -0.114966 -0.192843
 1788000.000000 75.805710 43.541180 0.178815 -0.746946 -1.252925
 1790000.000000 74.913610 43.806680 0.143999 0.231584 0.388459
 1792000.000000 74.936940 43.701420 0.213976 -0.042926 -0.072004
 1794000.000000 74.973060 43.842840 0.230393 0.369229 0.619344
 1796000.000000 76.055720 43.634530 0.305773 -1.309092 -2.195869
 1798000.000000 75.628420 44.043770 0.303178 -0.608483 -1.020669
 1800000.000000 74.362540 43.357750 0.315146 -1.726910 -2.896716
 1802000.000000 73.773150 43.617980 0.336793 -0.129671 -0.217510
 1804000.000000 73.930720 43.680150 0.315535 0.173514 0.291052
 1806000.000000 73.688520 43.328680 0.365510 -0.006790 -0.011389
 1808000.000000 73.621150 43.653100 0.315679 -0.527259 -0.884423
 1810000.000000 73.897060 42.786550 0.420626 -1.651482 -2.770194
 1812000.000000 73.603130 43.669720 0.285007 -0.710666 -1.192071
 1814000.000000 73.525390 43.739150 0.344080 -0.685210 -1.149370
 1816000.000000 73.944370 43.693410 0.303435 0.124978 0.209639
 1818000.000000 73.890150 43.374450 0.327626 1.080469 1.812377
 1820000.000000 72.841890 43.549650 0.362217 -2.791195 -4.681946
 1822000.000000 73.548320 43.615810 0.362765 -0.129086 -0.216528
 1824000.000000 73.999290 43.734340 0.227131 -0.207930 -0.348782
 1826000.000000 72.896770 43.696740 0.310519 -2.150926 -3.607960
 1828000.000000 73.080280 43.608120 0.344923 -1.986596 -3.332313
 1830000.000000 72.923900 43.592820 0.361375 -2.050089 -3.438816
 1832000.000000 73.525350 43.339670 0.326057 0.493271 0.827412
 1834000.000000 72.504810 43.380340 0.237678 -2.314148 -3.881748
 1836000.000000 71.360580 42.369250 0.303255 -3.954562 -6.633377
 1838000.000000 71.348700 42.208720 0.321357 -2.733775 -4.585630
 1840000.000000 71.457160 41.910940 0.316380 -0.895110 -1.501456
 1842000.000000 70.941820 42.633330 0.421578 -4.914621 -8.243778
 1844000.000000 71.543570 42.651760 0.358128 -1.360394 -2.281923
 1846000.000000 71.102910 42.612380 0.402366 -4.861887 -8.155322
 1848000.000000 71.626880 43.040370 0.302155 -3.706746 -6.217690
 1850000.000000 71.384670 42.745330 0.323822 -2.715405 -4.554816
 1852000.000000 71.038120 42.229440 0.254853 -4.834511 -8.109402
 1854000.000000 71.084450 41.837870 0.336068 0.338723 0.568173
 1856000.000000 71.362280 42.506250 0.389547 -2.961735 -4.968010
 1858000.000000 71.558360 42.071990 0.444065 0.245042 0.411033
 1860000.000000 71.422650 41.761040 0.348040 2.095056 3.514244
 1862000.000000 71.017220 41.780900 0.352695 -0.998548 -1.674963
 1864000.000000 71.886870 41.779320 0.335521 3.004485 5.039719
 1866000.000000 70.910050 42.238080 0.349216 -4.853351 -8.141004
 1868000.000000 71.939550 41.938600 0.387672 2.531134 4.245721
 1870000.000000 71.731530 41.943780 0.280422 2.343418 3.930846
 1872000.000000 71.729490 42.612510 0.308217 -0.881469 -1.478574
 1874000.000000 71.958800 43.188760 0.332441 -4.310536 -7.230487
 1876000.000000 71.621840 43.434060 0.251299 -5.069315 -8.503262
 1878000.000000 71.603740 42.933100 0.297286 -3.516120 -5.897935
 1880000.000000 70.950850 41.761230 0.270170 -0.695264 -1.166234
 1882000.000000 71.832970 41.783700 0.260324 2.853679 4.786757
 1884000.000000 71.430680 41.925130 0.294368 -0.817060 -1.370535
 1886000.000000 71.229260 42.015520 0.418515 -3.378479 -5.667056
 1888000.000000 70.065410 41.880450 0.280379 -4.225439 -7.087745
 1890000.000000 70.879100 41.774550 0.340809 -1.240818 -2.081346
 1892000.000000 70.366420 41.631490 0.382136 -2.486928 -4.171569
 1894000.000000 71.587570 42.083120 0.215965 0.407239 0.683103
 1896000.000000 70.547630 42.171140 0.223033 -4.941654 -8.289123
 1898000.000000 69.982410 42.086540 0.350794 -4.994982 -8.378576
 1900000.000000 70.775680 41.788660 0.357754 -3.004676 -5.040039
 1902000.000000 69.650890 42.115720 0.294425 -5.009279 -8.402557
 1904000.000000 70.423770 41.593000 0.431821 -1.188567 -1.993701
 1906000.000000 69.974600 41.434060 0.380479 -4.050580 -6.794437
 1908000.000000 71.021960 41.759150 0.214734 -0.833782 -1.398586
 1910000.000000 70.979280 41.426510 0.363576 4.370430 7.330953
 1912000.000000 71.170860 41.631860 0.260718 0.982056 1.647300
 1914000.000000 70.533250 41.855230 0.376035 -3.109725 -5.216248
 1916000.000000 71.084720 41.611200 0.319394 0.458965 0.769867
 1918000.000000 71.823730 41.668780 0.447124 2.820310 4.730784
 1920000.000000 71.601680 41.641080 0.399652 3.881971 6.511613
 1922000.000000 71.126010 41.645330 0.369654 0.438153 0.734957
 1924000.000000 71.569920 41.616350 0.372416 3.574331 5.995578
 1926000.000000 71.785800 42.126990 0.359379 1.194290 2.003300
 1928000.000000 71.348910 41.563140 0.360960 3.318536 5.566507
 1930000.000000 72.028240 41.646680 0.368551 2.246332 3.767994
 1932000.000000 71.764100 41.763230 0.289708 1.756399 2.946181
 1934000.000000 71.504170 42.604070 0.310057 -1.258337 -2.110733
 1936000.000000 71.022410 42.526350 0.252695 -4.848131 -8.132248
 1938000.000000 71.075570 42.987120 0.252420 -5.382245 -9.028170
 1940000.000000 70.301440 42.914490 0.258088 -5.479906 -9.191986
 1942000.000000 70.204080 42.235370 0.197768 -5.126669 -8.599467
 1944000.000000 69.867500 42.877600 0.253143 -5.502171 -9.229334
 1946000.000000 71.321400 42.825080 0.257352 -3.876242 -6.502003
 1948000.000000 72.183870 43.300920 0.279478 -3.646988 -6.117452
 1950000.000000 72.348800 43.451820 0.332461 -3.745831 -6.283251
 1952000.000000 72.641480 43.419090 0.352066 -1.989374 -3.336973
 1954000.000000 71.448790 43.454990 0.456274 -5.160401 -8.656049
 1956000.000000 71.806480 43.046750 0.467708 -2.633520 -4.417463
 1958000.000000 70.744140 43.051170 0.424463 -5.431871 -9.111413
 1960000.000000 71.186080 43.130920 0.395497 -5.383075 -9.029562
 1962000.000000 71.370940 43.461630 0.374071 -5.160992 -8.657040
 1964000.000000 72.745210 43.453430 0.388082 -2.006100 -3.365029
 1966000.000000 73.765660 43.953080 0.354409 -0.788899 -1.323298
 1968000.000000 73.945700 43.932510 0.322465 -0.429034 -0.719661
 1970000.000000 73.573230 44.038670 0.393074 -0.837604 -1.404995
 1972000.000000 73.844790 44.377020 0.356820 -1.143172 -1.917555
 1974000.000000 73.156690 44.601670 0.277627 -2.404874 -4.033932
 1976000.000000 74.015900 44.516090 0.289411 -0.996412 -1.671379
 1978000.000000 73.448370 44.401220 0.368423 -1.656321 -2.778310
 1980000.000000 73.632510 44.893060 0.378806 -2.073096 -3.477408
 1982000.000000 74.567190 44.458210 0.335464 -1.462382 -2.452997
 1984000.000000 74.040610 44.594550 0.356507 -1.121396 -1.881028
 1986000.000000 75.007320 44.496450 0.356007 -1.344556 -2.255356
 1988000.000000 75.700440 44.308810 0.393491 -0.867786 -1.455623
 1990000.000000 75.044980 43.948190 0.375284 -0.381339 -0.639657
 1992000.000000 75.218110 44.282810 0.453492 -0.423059 -0.709638
 1994000.000000 74.719650 44.531420 0.317817 -1.499110 -2.514605
 1996000.000000 75.009110 44.520900 0.322523 -1.420220 -2.382275
 1998000.000000 74.805900 44.209540 0.361536 -0.233740 -0.392074
 2000000.000000 74.539330 44.833230 0.310729 -1.317257 -2.209565
 2002000.000000 75.367210 44.824450 0.345906 -1.358329 -2.278459
 2004000.000000 74.850100 45.019000 0.155048 -1.043156 -1.749788
 2006000.000000 75.554110 45.016760 0.301526 -1.371544 -2.300626
 2008000.000000 76.026230 44.871590 0.315723 -1.340069 -2.247830
 2010000.000000 75.562120 44.919180 0.245627 -1.449583 -2.431528
 2012000.000000 75.205930 45.270920 0.240177 -0.498432 -0.836069
 2014000.000000 75.457830 45.325560 0.209366 -0.453931 -0.761423
 2016000.000000 74.905390 45.143290 0.238591 -1.052762 -1.765901
 2018000.000000 74.631850 45.090910 0.232295 -0.808173 -1.355628
 2020000.000000 74.580500 44.734430 0.179860 -1.485232 -2.491326
 2022000.000000 73.570590 44.799710 0.177451 -2.051189 -3.440661
 2024000.000000 74.507060 44.409780 0.219983 -1.490148 -2.499572
 2026000.000000 74.918020 44.269070 0.207073 -0.521305 -0.874437
 2028000.000000 75.056710 44.109200 0.194478 -0.249949 -0.419264
 2030000.000000 74.972740 44.254590 0.210940 -0.400824 -0.672342
 2032000.000000 74.711020 44.410730 0.152968 -1.125971 -1.888702
 2034000.000000 73.226290 43.838440 0.087842 -1.989486 -3.337161
 2036000.000000 73.802640 43.745290 0.173603 -0.035032 -0.058762
 2038000.000000 74.881560 43.957670 0.141793 0.133261 0.223531
 2040000.000000 74.504860 43.897970 0.128677 0.201348 0.337740
 2042000.000000 74.578040 44.351620 0.139991 -1.385002 -2.323200
 2044000.000000 74.526530 43.935250 0.136428 0.301739 0.506137
 2046000.000000 74.747840 44.650060 0.187403 -1.474879 -2.473960
 2048000.000000 75.355380 44.118740 0.183454 -0.237038 -0.397607
 2050000.000000 75.981540 44.083530 0.240273 -1.077420 -1.807263
 2052000.000000 75.271080 44.281110 0.190606 -0.478960 -0.803407
 2054000.000000 74.833890 44.656360 0.225642 -1.448689 -2.430029
 2056000.000000 75.349900 44.628670 0.097402 -1.430951 -2.400275
 2058000.000000 75.718870 44.402920 0.109888 -1.384355 -2.322115
 2060000.000000 75.252710 44.617170 0.117431 -1.422917 -2.386799
 2062000.000000 75.609100 45.003830 0.104148 -1.325019 -2.222585
 2064000.000000 74.610180 44.477440 0.127234 -1.464191 -2.456032
 2066000.000000 75.573580 44.445800 0.212523 -1.286070 -2.157252
 2068000.000000 73.590400 44.521390 0.213682 -1.979960 -3.321182
 2070000.000000 74.604360 44.685060 0.127648 -1.468974 -2.464055
 2072000.000000 75.075280 43.995120 0.175548 -0.368975 -0.618919
 2074000.000000 74.987900 44.130310 0.155117 -0.309020 -0.518349
 2076000.000000 75.161420 44.500410 0.198208 -1.413013 -2.370186
 2078000.000000 75.371310 44.436750 0.211681 -0.724364 -1.215047
 2080000.000000 74.780060 44.712240 0.188464 -1.462143 -2.452597
 2082000.000000 75.762470 44.786650 0.092037 -1.435267 -2.407515
 2084000.000000 75.025950 44.860890 0.013756 -1.276673 -2.141489
 2086000.000000 74.539310 44.161360 0.123753 0.056150 0.094187
 2088000.000000 74.907250 44.698730 0.067163 -1.449304 -2.431060
 2090000.000000 75.049880 44.106700 0.248648 -0.274839 -0.461015
 2092000.000000 74.762040 44.200480 0.136919 -0.043401 -0.072801
 2094000.000000 75.516020 44.550540 0.236134 -1.313817 -2.203795
 2096000.000000 75.713490 44.311140 0.211479 -0.879276 -1.474896
 2098000.000000 76.012920 44.443460 0.115755 -0.863931 -1.449157
 2100000.000000 77.115400 44.680080 0.151668 -2.037820 -3.418236
 2102000.000000 76.830610 44.464260 0.200002 -2.011845 -3.374666
 2104000.000000 76.628140 44.213410 0.216231 -1.801398 -3.021662
 2106000.000000 75.649100 44.137150 0.193199 -0.644149 -1.080495
 2108000.000000 76.056480 44.438680 0.191817 -0.989592 -1.659940
 2110000.000000 77.024560 44.429860 0.241551 -2.025083 -3.396871
 2112000.000000 75.814620 44.389520 0.204311 -1.343666 -2.253863
 2114000.000000 75.747810 44.004680 0.207602 -0.836104 -1.402479
 2116000.000000 74.666210 43.933850 0.133777 0.267390 0.448520
 2118000.000000 75.779350 44.508030 0.006159 -1.309083 -2.195854
 2120000.000000 76.608990 44.190520 0.131949 -1.773627 -2.975079
 2122000.000000 75.393030 44.041450 0.171665 -0.421719 -0.707391
 2124000.000000 76.328000 44.370940 0.149712 -1.297008 -2.175599
 2126000.000000 76.390200 44.106590 0.216626 -1.689549 -2.834047
 2128000.000000 76.611080 44.485230 0.161616 -1.834146 -3.076594
 2130000.000000 75.864330 44.518080 0.191294 -1.041315 -1.746700
 2132000.000000 76.858740 44.957680 0.253592 -1.757554 -2.948119
 2134000.000000 76.035120 45.212900 0.126141 -1.543802 -2.589571
 2136000.000000 76.347930 44.494400 0.155909 -1.574896 -2.641728
 2138000.000000 75.941410 44.539880 0.159301 -1.233579 -2.069204
 2140000.000000 75.240270 44.693060 0.090485 -1.437169 -2.410705
 2142000.000000 76.342960 45.355940 0.153434 -1.324340 -2.221446
 2144000.000000 76.567850 44.998580 0.209758 -1.751681 -2.938267
 2146000.000000 76.360120 44.740570 0.185166 -1.472631 -2.470189
 2148000.000000 76.641750 45.037930 0.268693 -1.787639 -2.998583
 2150000.000000 76.073040 44.809440 0.186553 -1.244238 -2.087083
 2152000.000000 77.287060 44.136570 0.188201 -2.705368 -4.537980
 2154000.000000 77.249670 44.347280 0.192276 -2.266168 -3.801267
 2156000.000000 76.769390 44.671050 0.226813 -1.903996 -3.193760
 2158000.000000 77.289180 44.100810 0.247581 -2.743753 -4.602367
 2160000.000000 77.467310 44.435260 0.238432 -2.514244 -4.217389
 2162000.000000 76.993790 44.836410 0.194008 -2.107233 -3.534670
 2164000.000000 76.671950 44.703360 0.220553 -1.881522 -3.156062
 2166000.000000 76.903500 44.667850 0.232830 -1.928055 -3.234117
 2168000.000000 77.001450 45.053270 0.181012 -1.897525 -3.182906
 2170000.000000 76.096880 44.872360 0.162470 -1.153347 -1.934623
 2172000.000000 76.515930 45.116550 0.276470 -1.550624 -2.601014
 2174000.000000 76.544480 44.367380 0.156164 -1.789623 -3.001911
 2176000.000000 77.162280 45.194260 0.206636 -1.890798 -3.171622
 2178000.000000 76.633870 44.502290 0.316476 -1.845273 -3.095258
 2180000.000000 77.473290 44.947910 0.294766 -2.151775 -3.609384
 2182000.000000 77.161890 44.493350 0.148920 -2.108967 -3.537578
 2184000.000000 77.365800 44.739690 0.294675 -2.246532 -3.768330
 2186000.000000 76.917680 44.424940 0.322879 -2.056443 -3.449475
 2188000.000000 78.146830 44.636260 0.284755 -3.087288 -5.178612
 2190000.000000 78.090590 44.844090 0.180502 -2.825358 -4.739251
 2192000.000000 77.193990 44.101460 0.301442 -2.511534 -4.212843
 2194000.000000 76.306430 44.885890 0.197285 -1.419764 -2.381510
 2196000.000000 76.443390 44.713960 0.150239 -1.569340 -2.632409
 2198000.000000 76.507050 44.187710 0.158465 -1.669232 -2.799967
 2200000.000000 76.457640 44.127230 0.262778 -1.710131 -2.868571
 2202000.000000 75.887010 44.191840 0.183518 -1.050363 -1.761877
 2204000.000000 76.567210 44.508430 0.299064 -1.838932 -3.084622
 2206000.000000 76.555270 44.882980 0.139267 -1.676067 -2.811432
 2208000.000000 76.705900 45.152830 0.116547 -1.791212 -3.004576
 2210000.000000 75.420820 45.165620 0.052697 -0.441864 -0.741182
 2212000.000000 75.967800 44.748390 0.173637 -1.449176 -2.430846
 2214000.000000 76.281650 44.488590 0.185308 -1.370812 -2.299398
 2216000.000000 75.492760 43.980800 0.247852 -0.264975 -0.444468
 2218000.000000 75.226190 44.100650 0.199253 -0.264687 -0.443986
 2220000.000000 76.026900 44.866950 0.167648 -1.342204 -2.251411
 2222000.000000 75.580890 44.254170 0.200641 -0.557540 -0.935217
 2224000.000000 75.177290 44.251420 0.206941 -0.509078 -0.853928
 2226000.000000 76.032000 44.009190 0.206070 -1.241824 -2.083034
 2228000.000000 76.114610 43.746980 0.213260 -1.450717 -2.433431
 2230000.000000 75.724300 43.254340 0.173967 -1.795401 -3.011603
 2232000.000000 76.644940 43.643240 0.148849 -2.269043 -3.806089
 2234000.000000 76.073210 43.337390 0.194067 -1.762657 -2.956678
 2236000.000000 75.543330 43.701430 0.187473 -0.381075 -0.639214
 2238000.000000 76.132630 43.284050 0.202934 -2.095322 -3.514690
 2240000.000000 75.605190 43.369990 0.262534 -1.789494 -3.001695
 2242000.000000 75.417720 43.218450 0.221254 -1.739792 -2.918325
 2244000.000000 76.155110 44.016980 0.220581 -1.455659 -2.441720
 2246000.000000 75.490760 44.740540 0.185924 -1.451101 -2.434075
 2248000.000000 75.843800 44.619930 0.191526 -1.334368 -2.238267
 2250000.000000 75.981130 44.554510 0.189671 -1.119666 -1.878126
 2252000.000000 76.518680 44.989150 0.243683 -1.720147 -2.885372
 2254000.000000 77.938720 45.235950 0.148758 -2.366182 -3.969030
 2256000.000000 77.311050 45.030280 0.179903 -2.028295 -3.402259
 2258000.000000 76.792260 45.468150 0.195887 -1.602497 -2.688026
 2260000.000000 77.527520 45.566280 0.221429 -2.343063 -3.930250
 2262000.000000 77.542950 44.942560 0.249957 -2.288979 -3.839530
 2264000.000000 77.433630 44.921070 0.254230 -2.120116 -3.556280
 2266000.000000 76.831190 44.821190 0.205590 -1.862004 -3.123323
 2268000.000000 76.294440 44.679340 0.255944 -1.442987 -2.420464
 2270000.000000 76.603700 44.940020 0.279016 -1.535197 -2.575137
 2272000.000000 76.277480 45.058730 0.278953 -1.179266 -1.978099
 2274000.000000 76.345430 44.413700 0.322455 -1.381204 -2.316830
 2276000.000000 76.774450 44.084220 0.379508 -1.947950 -3.267489
 2278000.000000 75.405800 43.917250 0.329452 -0.403327 -0.676541
 2280000.000000 75.035910 44.058670 0.373486 -0.664348 -1.114377
 2282000.000000 75.914100 44.110300 0.313315 -0.926749 -1.554528
 2284000.000000 75.651340 43.958810 0.399071 -0.524430 -0.879678
 2286000.000000 75.473330 44.451750 0.173030 -1.056792 -1.772661
 2288000.000000 75.253990 45.065460 0.182829 -1.231659 -2.065983
 2290000.000000 75.329280 45.332060 0.126428 -0.523754 -0.878544
 2292000.000000 75.701620 44.653840 0.190356 -1.445130 -2.424059
 2294000.000000 75.132170 44.500440 0.241590 -1.423413 -2.387631
 2296000.000000 76.085250 44.961350 0.188276 -0.922889 -1.548052
 2298000.000000 76.688120 45.554800 0.122975 -1.661720 -2.787367
 2300000.000000 75.874770 45.423710 0.197548 -1.316957 -2.209062
 2302000.000000 76.735750 45.690910 0.162084 -1.471054 -2.467544
 2304000.000000 77.102450 45.553970 0.303239 -1.995978 -3.348051
 2306000.000000 75.666670 45.502260 0.138507 -0.757100 -1.269959
 2308000.000000 76.559240 45.090820 0.273297 -1.821508 -3.055395
 2310000.000000 76.795680 45.236920 0.319793 -2.134783 -3.580882
 2312000.000000 76.425350 45.081170 0.338668 -1.433487 -2.404529
 2314000.000000 76.513480 45.027990 0.286551 -1.784108 -2.992660
 2316000.000000 77.126890 44.710940 0.264158 -2.066802 -3.466851
 2318000.000000 77.211420 44.772740 0.244244 -2.121982 -3.559410
 2320000.000000 77.210990 45.554320 0.192732 -2.050633 -3.439729
 2322000.000000 76.657940 45.602790 0.175262 -1.703032 -2.856663
 2324000.000000 76.845220 46.030390 0.150591 -1.489105 -2.497823
 2326000.000000 76.949900 45.200220 0.176097 -2.040663 -3.423005
 2328000.000000 76.542260 45.620420 0.130858 -1.473445 -2.471555
 2330000.000000 77.001510 45.767700 0.076229 -1.555417 -2.609054
 2332000.000000 76.084930 44.993720 0.168959 -0.890532 -1.493777
 2334000.000000 76.767200 45.283440 0.129892 -2.068667 -3.469979
 2336000.000000 77.788950 45.519730 0.159195 -2.374836 -3.983546
 2338000.000000 77.299740 45.779070 0.127618 -2.112349 -3.543251
 2340000.000000 76.861690 45.207210 0.145538 -1.897571 -3.182983
 2342000.000000 76.511110 45.384390 0.190478 -1.467584 -2.461723
 2344000.000000 76.113450 45.093670 0.165072 -1.459000 -2.447324
 2346000.000000 76.914090 45.340400 0.187668 -1.815982 -3.046126
 2348000.000000 77.024830 45.213700 0.268584 -1.992795 -3.342711
 2350000.000000 76.653670 45.075540 0.226157 -1.841871 -3.089552
 2352000.000000 76.223330 45.155050 0.201377 -1.444349 -2.422749
 2354000.000000 75.666380 44.613520 0.249265 -1.438047 -2.412178
 2356000.000000 76.397020 45.432120 0.187914 -1.397178 -2.343624
 2358000.000000 77.115360 45.634320 0.177286 -1.794844 -3.010669
 2360000.000000 76.911610 45.355840 0.208469 -1.767103 -2.964136
 2362000.000000 76.834910 44.785870 0.190215 -1.881291 -3.155675
 2364000.000000 76.564900 44.305670 0.250883 -1.731386 -2.904224
 2366000.000000 76.285530 44.095390 0.305659 -1.574303 -2.640734
 2368000.000000 75.990290 43.606190 0.305282 -1.143132 -1.917488
 2370000.000000 75.898910 43.987540 0.254150 -1.001634 -1.680139
 2372000.000000 76.328230 43.198260 0.340077 -2.539515 -4.259779
 2374000.000000 76.202220 43.789350 0.303481 -1.640311 -2.751455
 2376000.000000 76.341110 43.633540 0.224258 -1.903804 -3.193438
 2378000.000000 76.078830 44.023070 0.249681 -1.221056 -2.048198
 2380000.000000 76.547620 43.944290 0.317186 -1.811977 -3.039408
 2382000.000000 76.493050 44.368390 0.242315 -1.654201 -2.774754
 2384000.000000 76.315500 43.711020 0.337642 -1.668068 -2.798015
 2386000.000000 76.570040 44.630830 0.365810 -1.714805 -2.876411
 2388000.000000 76.332900 44.263620 0.369689 -1.278539 -2.144619
 2390000.000000 76.422150 44.196650 0.312811 -1.538438 -2.580574
 2392000.000000 76.109400 43.681490 0.366062 -1.551988 -2.603302
 2394000.000000 75.388250 43.738790 0.332141 -0.270152 -0.453153
 2396000.000000 76.126320 44.238410 0.327321 -0.989390 -1.659602
 2398000.000000 76.659350 44.742780 0.250341 -1.911359 -3.206111
 2400000.000000 77.480080 45.385040 0.186198 -2.127561 -3.568768
 2402000.000000 76.360760 45.421850 0.191124 -1.379454 -2.313894
 2404000.000000 76.477330 45.407260 0.183213 -1.494827 -2.507421
 2406000.000000 76.616530 44.944430 0.205931 -1.537690 -2.579319
 2408000.000000 76.126040 44.732550 0.221741 -1.285466 -2.156239
 2410000.000000 75.656590 44.375340 0.159736 -1.228291 -2.060334
 2412000.000000 75.891780 44.867280 0.145932 -1.299052 -2.179028
 2414000.000000 76.140810 45.157000 0.204024 -1.521546 -2.552239
 2416000.000000 76.114450 44.719810 0.153289 -1.277125 -2.142248
 2418000.000000 76.750700 44.416780 0.201909 -1.854643 -3.110975
 2420000.000000 77.012440 44.600600 0.274338 -1.970683 -3.305621
 2422000.000000 76.789130 44.730810 0.323093 -1.863103 -3.125166
 2424000.000000 77.399620 44.643570 0.287695 -2.271662 -3.810483
 2426000.000000 77.112550 44.508110 0.321539 -2.024894 -3.396554
 2428000.000000 77.089090 44.614200 0.337718 -1.984922 -3.329505
 2430000.000000 76.872940 45.261250 0.297774 -2.113842 -3.545756
 2432000.000000 77.289860 44.977140 0.287321 -2.096594 -3.516824
 2434000.000000 76.512980 44.453270 0.255128 -1.820787 -3.054185
 2436000.000000 76.331440 45.128810 0.246900 -1.434286 -2.405869
 2438000.000000 76.946080 45.507740 0.239948 -2.058141 -3.452323
 2440000.000000 75.883830 45.051920 0.300241 -1.170616 -1.963590
 2442000.000000 75.939320 44.820410 0.226674 -1.432952 -2.403632
 2444000.000000 76.325920 44.646140 0.210174 -1.476719 -2.477046
 2446000.000000 75.941520 44.387920 0.198216 -1.126720 -1.889958
 2448000.000000 76.788890 45.127290 0.169424 -1.774494 -2.976534
 2450000.000000 76.971460 44.306260 0.174985 -2.026495 -3.399240
 2452000.000000 77.082340 44.722680 0.287119 -2.039322 -3.420756
 2454000.000000 77.110580 44.604750 0.322878 -1.988881 -3.336146
 2456000.000000 76.946890 44.196710 0.302332 -2.097453 -3.518265
 2458000.000000 76.530640 44.186290 0.336911 -1.696485 -2.845681
 2460000.000000 76.832310 44.461220 0.308555 -2.015210 -3.380310
 2462000.000000 77.007280 44.879120 0.330280 -2.018444 -3.385735
 2464000.000000 77.628270 44.911990 0.363931 -2.422353 -4.063251
 2466000.000000 77.282760 45.126790 0.246405 -2.076619 -3.483318
 2468000.000000 76.875110 45.302480 0.250986 -1.970223 -3.304849
 2470000.000000 77.610830 45.134700 0.281770 -2.209324 -3.705917
 2472000.000000 76.839270 44.529700 0.176873 -1.912617 -3.208221
 2474000.000000 77.512260 45.378740 0.241128 -2.103021 -3.527604
 2476000.000000 77.456780 45.612360 0.191526 -2.385855 -4.002030
 2478000.000000 77.547870 45.243560 0.256281 -2.240174 -3.757665
 2480000.000000 77.593380 44.619990 0.282830 -2.442707 -4.097393
 2482000.000000 77.471310 44.373590 0.272795 -2.583067 -4.332833
 2484000.000000 77.187670 44.459330 0.247935 -2.114890 -3.547513
 2486000.000000 76.565420 44.445210 0.308689 -1.829695 -3.069128
 2488000.000000 76.820050 43.788200 0.313764 -2.360455 -3.959424
 2490000.000000 76.522010 44.026570 0.328698 -1.825635 -3.062318
 2492000.000000 76.599560 43.844910 0.345215 -1.917220 -3.215942
 2494000.000000 76.409260 43.680710 0.296912 -1.991091 -3.339853
 2496000.000000 76.505540 44.146590 0.350471 -1.724489 -2.892655
 2498000.000000 76.306080 43.828850 0.341746 -1.749470 -2.934558
 2500000.000000 75.911050 44.068740 0.302915 -0.966367 -1.620982
 2502000.000000 76.310860 44.113010 0.255366 -1.548357 -2.597212
 2504000.000000 76.873650 44.134910 0.355614 -2.025408 -3.397416
 2506000.000000 75.941150 44.051850 0.341681 -1.151570 -1.931642
 2508000.000000 75.715770 43.707220 0.301527 -0.685050 -1.149103
 2510000.000000 75.657870 44.501800 0.247737 -1.444759 -2.423437
 2512000.000000 76.200100 43.959680 0.348362 -1.734493 -2.909436
 2514000.000000 75.903240 43.754990 0.373314 -1.113476 -1.867743
 2516000.000000 76.589570 44.647320 0.325380 -1.746014 -2.928761
 2518000.000000 77.682100 45.314950 0.306424 -2.263816 -3.797322
 2520000.000000 77.412790 45.742430 0.175565 -2.145760 -3.599295
 2522000.000000 77.925620 45.311040 0.212408 -2.335205 -3.917069
 2524000.000000 78.450440 45.558090 0.185174 -2.537045 -4.255636
 2526000.000000 77.419120 45.211500 0.292586 -2.051190 -3.440663
 2528000.000000 78.061950 45.617150 0.192314 -2.343147 -3.930391
 2530000.000000 78.114880 45.185940 0.219679 -2.476223 -4.153613
 2532000.000000 77.549180 44.684470 0.291513 -2.482433 -4.164030
 2534000.000000 76.874690 44.113550 0.364246 -2.033815 -3.411518
 2536000.000000 77.971980 44.533160 0.372520 -2.908993 -4.879541
 2538000.000000 77.718370 44.873720 0.347804 -2.457122 -4.121573
 2540000.000000 77.199540 45.080370 0.294333 -2.029644 -3.404522
 2542000.000000 76.814680 44.865530 0.229750 -1.805951 -3.029300
 2544000.000000 76.885860 44.840550 0.237947 -1.988214 -3.335027
 2546000.000000 77.826690 45.067260 0.319778 -2.342658 -3.929571
 2548000.000000 77.670570 45.017280 0.194293 -2.364584 -3.966350
 2550000.000000 76.141250 44.828200 0.225892 -1.253747 -2.103033
 2552000.000000 75.462030 44.710980 0.239438 -1.451074 -2.434029
 2554000.000000 75.399830 44.956670 0.244765 -1.386481 -2.325681
 2556000.000000 75.818290 45.035880 0.209801 -1.106192 -1.855525
 2558000.000000 76.288490 44.922890 0.135641 -1.389769 -2.331197
 2560000.000000 75.706780 44.450180 0.241395 -1.433481 -2.404519
 2562000.000000 76.015420 45.232800 0.125975 -1.536683 -2.577630
 2564000.000000 76.951960 44.774320 0.179523 -1.995443 -3.347153
 2566000.000000 76.521490 45.001310 0.154380 -1.751685 -2.938274
 2568000.000000 77.249970 45.457430 0.171307 -1.970627 -3.305527
 2570000.000000 76.812890 45.555280 0.246244 -1.565548 -2.626048
 2572000.000000 77.161240 45.641000 0.088381 -1.902596 -3.191412
 2574000.000000 77.339150 45.713010 0.095849 -2.077738 -3.485195
 2576000.000000 77.487800 45.623360 0.077978 -2.366882 -3.970204
 2578000.000000 78.059510 45.888400 0.162452 -2.361655 -3.961437
 2580000.000000 78.297320 45.980580 0.123551 -2.483118 -4.165179
 2582000.000000 77.943000 45.438740 0.183136 -2.345591 -3.934491
 2584000.000000 76.618260 45.957170 0.158403 -1.586084 -2.660495
 2586000.000000 77.587940 46.219840 0.113828 -1.934190 -3.244408
 2588000.000000 77.558950 45.231940 0.068308 -2.218342 -3.721044
 2590000.000000 77.170670 45.542530 0.179513 -1.960021 -3.287736
 2592000.000000 77.234170 45.211920 0.136123 -2.023646 -3.394461
 2594000.000000 77.088350 44.304210 0.147896 -2.110494 -3.540140
 2596000.000000 76.734770 44.352700 0.231689 -1.856197 -3.113582
 2598000.000000 76.917740 44.511290 0.317926 -1.972864 -3.309279
 2600000.000000 76.548150 44.463830 0.257028 -1.838342 -3.083632
 2602000.000000 76.685660 44.134190 0.311579 -1.851147 -3.105111
 2604000.000000 76.464790 44.120820 0.256802 -1.736974 -2.913598
 2606000.000000 77.300190 44.327780 0.343110 -2.476286 -4.153719
 2608000.000000 77.167630 44.770120 0.276333 -2.098263 -3.519623
 2610000.000000 77.339830 44.943570 0.288663 -2.093476 -3.511594
 2612000.000000 77.059260 44.412050 0.309502 -2.028930 -3.403324
 2614000.000000 77.060040 45.261460 0.403014 -2.026244 -3.398819
 2616000.000000 77.104250 45.197830 0.435256 -1.815173 -3.044769
 2618000.000000 77.285480 44.924170 0.422212 -2.091921 -3.508985
 2620000.000000 76.471250 44.529870 0.392565 -1.771359 -2.971275
 2622000.000000 75.585420 44.388350 0.299305 -1.289448 -2.162918
 2624000.000000 76.242230 43.995850 0.312372 -1.640348 -2.751517
 2626000.000000 76.402930 44.324080 0.290242 -1.390077 -2.331713
 2628000.000000 77.337560 44.853200 0.208693 -2.146512 -3.600556
 2630000.000000 76.809760 44.808790 0.251070 -1.826447 -3.063680
 2632000.000000 77.323660 44.304360 0.292995 -2.606378 -4.371935
 2634000.000000 75.805850 44.595870 0.186699 -1.365898 -2.291155
 2636000.000000 76.467800 45.437110 0.226188 -1.398607 -2.346021
 2638000.000000 77.331460 45.522470 0.316760 -2.311230 -3.876854
 2640000.000000 77.607070 44.889900 0.271956 -2.461898 -4.129584
 2642000.000000 77.390780 44.642260 0.339450 -2.263995 -3.797622
 2644000.000000 76.355140 45.006780 0.291269 -1.343326 -2.253293
 2646000.000000 77.118830 45.124240 0.348380 -1.965101 -3.296258
 2648000.000000 75.997280 44.447820 0.398634 -0.850018 -1.425818
 2650000.000000 76.953210 44.162920 0.309093 -2.132729 -3.577437
 2652000.000000 77.062050 44.481220 0.288103 -2.021202 -3.390361
 2654000.000000 76.789570 44.771570 0.225653 -1.833836 -3.076074
 2656000.000000 76.963350 44.882220 0.221739 -2.011149 -3.373498
 2658000.000000 78.058240 44.685080 0.264301 -2.922055 -4.901451
 2660000.000000 77.806310 44.750150 0.336207 -2.524732 -4.234982
 2662000.000000 77.664880 44.753230 0.251319 -2.555186 -4.286065
 2664000.000000 77.403320 45.286510 0.156384 -2.062423 -3.459505
 2666000.000000 77.543320 45.254120 0.215373 -2.245354 -3.766354
 2668000.000000 77.816300 45.210530 0.266265 -2.302877 -3.862843
 2670000.000000 76.806810 45.011470 0.279511 -1.777473 -2.981531
 2672000.000000 76.526890 45.444190 0.156586 -1.469224 -2.464474
 2674000.000000 76.996170 45.340110 0.144004 -1.867325 -3.132248
 2676000.000000 76.522290 45.115490 0.149345 -1.579035 -2.648671
 2678000.000000 75.859150 45.116360 0.145043 -1.313440 -2.203162
 2680000.000000 75.592740 44.719970 0.139185 -1.441422 -2.417839
 2682000.000000 75.291810 44.358240 0.208562 -0.773768 -1.297917
 2684000.000000 75.989890 44.507370 0.236577 -0.903889 -1.516182
 2686000.000000 75.117580 44.677070 0.200009 -1.440624 -2.416501
 2688000.000000 75.092220 44.684440 0.195268 -1.438708 -2.413287
 2690000.000000 75.375490 44.632000 0.160796 -1.432318 -2.402568
 2692000.000000 75.811390 45.027950 0.232173 -1.117147 -1.873901
 2694000.000000 75.644650 44.756210 0.176681 -1.450431 -2.432951
 2696000.000000 75.879930 44.988140 0.174101 -1.158635 -1.943493
 2698000.000000 74.985010 44.915590 0.166897 -0.948394 -1.590834
 2700000.000000 75.250020 45.212820 0.236313 -0.302800 -0.507916
 2702000.000000 75.020660 46.105210 0.163785 -3.038258 -5.096370
 2704000.000000 75.328190 45.372500 0.291486 -0.743731 -1.247533
 2706000.000000 75.154180 45.611350 0.278191 -1.079372 -1.810537
 2708000.000000 74.309140 45.142190 0.188175 -0.891783 -1.495876
 2710000.000000 74.249340 45.025210 0.296674 -0.907732 -1.522628
 2712000.000000 73.712180 44.909590 0.253674 -2.056789 -3.450055
 2714000.000000 74.770530 44.673550 0.279971 -1.465109 -2.457572
 2716000.000000 74.352230 44.864540 0.253069 -0.862400 -1.446588
 2718000.000000 73.904320 44.768680 0.223178 -1.077651 -1.807650
 2720000.000000 74.266930 44.691620 0.255632 -0.919953 -1.543128
 2722000.000000 75.482710 45.160370 0.296486 -0.413414 -0.693460
 2724000.000000 75.887250 45.335240 0.248630 -1.509451 -2.531951
 2726000.000000 75.778480 45.221640 0.261862 -1.434857 -2.406827
 2728000.000000 75.291190 44.828090 0.288508 -1.221983 -2.049753
 2730000.000000 75.130150 44.859470 0.324485 -1.504014 -2.522831
 2732000.000000 74.832690 44.689560 0.339135 -1.440030 -2.415504
 2734000.000000 75.086870 44.916260 0.273795 -1.504811 -2.524168
 2736000.000000 75.463390 44.737350 0.191160 -1.463505 -2.454881
 2738000.000000 74.785970 45.193860 0.284069 -0.912173 -1.530078
 2740000.000000 75.268800 45.134950 0.208404 -0.590170 -0.989950
 2742000.000000 75.453250 45.546210 0.232688 -0.981136 -1.645756
 2744000.000000 75.911560 45.580700 0.144856 -0.997345 -1.672945
 2746000.000000 74.960280 45.375530 0.214316 -1.043816 -1.750895
 2748000.000000 75.627410 45.433900 0.121851 -0.996965 -1.672308
 2750000.000000 77.371240 45.757210 0.133015 -2.060721 -3.456650
 2752000.000000 77.319900 45.858870 0.146415 -1.790422 -3.003251
 2754000.000000 75.964700 45.788290 0.195128 -1.581078 -2.652098
 2756000.000000 76.308970 45.721810 0.234125 -1.728902 -2.900058
 2758000.000000 76.628870 45.502520 0.219628 -1.617928 -2.713910
 2760000.000000 76.877050 46.046360 0.182319 -1.517599 -2.545618
 2762000.000000 76.753470 46.102080 0.110049 -1.445114 -2.424032
 2764000.000000 76.764920 45.764940 0.207127 -1.591982 -2.670388
 2766000.000000 77.795120 45.832810 0.146400 -2.366685 -3.969874
 2768000.000000 77.448660 46.219880 0.174646 -1.902971 -3.192041
 2770000.000000 76.702340 46.029020 0.246319 -1.541532 -2.585764
 2772000.000000 76.756660 45.501400 0.296597 -1.507169 -2.528123
 2774000.000000 77.306660 45.588470 0.299962 -2.464247 -4.133524
 2776000.000000 77.919240 45.967780 0.186959 -2.098214 -3.519541
 2778000.000000 77.398080 46.387980 0.203720 -1.804234 -3.026419
 2780000.000000 76.614530 46.273890 0.240534 -1.596462 -2.677903
 2782000.000000 78.113280 46.361820 0.149570 -2.140447 -3.590383
 2784000.000000 77.824510 46.238780 0.166495 -2.070024 -3.472255
 2786000.000000 77.071460 46.255290 0.178159 -1.592394 -2.671079
 2788000.000000 75.963760 45.748080 0.239087 -1.585078 -2.658808
 2790000.000000 77.103890 46.273790 0.188231 -1.632999 -2.739190
 2792000.000000 77.627430 46.332180 0.190952 -1.865887 -3.129836
 2794000.000000 77.710810 45.779210 0.194763 -2.202623 -3.694677
 2796000.000000 77.195610 46.051740 0.198188 -2.095384 -3.514794
 2798000.000000 76.589640 46.224960 0.181662 -1.631331 -2.736392
 2800000.000000 76.437610 45.327420 0.221629 -1.641098 -2.752775
 2802000.000000 77.266390 45.307940 0.184558 -2.103582 -3.528545
 2804000.000000 76.088670 45.668560 0.237949 -1.099146 -1.843706
 2806000.000000 75.508340 45.107740 0.196114 -0.655976 -1.100334
 2808000.000000 76.125880 45.697080 0.179076 -1.261958 -2.116807
 2810000.000000 75.949210 45.956110 0.237294 -1.355270 -2.273328
 2812000.000000 75.653360 45.613780 0.181111 -0.895077 -1.501400
 2814000.000000 74.936730 44.887120 0.248401 -0.790659 -1.326251
 2816000.000000 74.861420 44.692290 0.238312 -1.441520 -2.418004
 2818000.000000 75.107130 45.410760 0.221795 -1.020149 -1.711196
 2820000.000000 76.323770 45.419210 0.231071 -1.277632 -2.143098
 2822000.000000 76.281590 45.438630 0.246767 -1.236045 -2.073340
 2824000.000000 75.696750 45.694440 0.229702 -1.074567 -1.802477
 2826000.000000 76.259510 45.871380 0.264411 -1.284664 -2.154894
 2828000.000000 76.516560 45.922380 0.318394 -1.810111 -3.036278
 2830000.000000 75.917510 45.787850 0.345882 -1.538002 -2.579842
 2832000.000000 76.598410 45.862070 0.336840 -1.498301 -2.513248
 2834000.000000 75.486130 44.776360 0.340236 -1.454819 -2.440311
 2836000.000000 75.003290 45.199190 0.306617 -0.894167 -1.499874
 2838000.000000 74.588920 44.909840 0.298777 -1.349503 -2.263654
 2840000.000000 75.182410 45.344250 0.256877 -0.795949 -1.335123
 2842000.000000 75.756550 45.754500 0.291163 -1.196791 -2.007495
 2844000.000000 76.269640 45.805730 0.280360 -1.980200 -3.321585
 2846000.000000 76.848040 45.689300 0.271714 -1.506827 -2.527549
 2848000.000000 76.544500 46.026460 0.289473 -1.998315 -3.351971
 2850000.000000 77.183430 45.995710 0.314380 -2.090497 -3.506597
 2852000.000000 76.036480 45.423470 0.289056 -1.336893 -2.242502
 2854000.000000 76.445760 45.339240 0.242351 -1.647837 -2.764079
 2856000.000000 77.246960 45.697710 0.274169 -2.184001 -3.663440
 2858000.000000 77.316690 46.275560 0.160779 -1.692688 -2.839312
 2860000.000000 77.882460 46.496820 0.221708 -1.950974 -3.272561
 2862000.000000 77.767790 46.857200 0.208077 -2.106586 -3.533584
 2864000.000000 78.037680 46.953620 0.184086 -2.088243 -3.502816
 2866000.000000 77.162340 45.950970 0.229320 -1.973464 -3.310286
 2868000.000000 76.352310 46.147180 0.207778 -1.787059 -2.997610
 2870000.000000 76.565120 46.061880 0.207072 -1.832764 -3.074276
 2872000.000000 76.749810 45.575930 0.137694 -1.344717 -2.255626
 2874000.000000 76.659360 46.201640 0.128380 -1.498538 -2.513645
 2876000.000000 77.188530 46.411440 0.231444 -1.678363 -2.815284
 2878000.000000 77.278010 46.280890 0.080506 -1.659851 -2.784232
 2880000.000000 76.760590 46.076540 0.180154 -1.451868 -2.435361
 2882000.000000 77.045020 46.470820 0.136177 -1.642764 -2.755570
 2884000.000000 77.774600 46.125870 0.272403 -2.098023 -3.519221
 2886000.000000 78.053700 46.386610 0.247575 -2.185068 -3.665230
 2888000.000000 77.417290 46.241780 0.158450 -1.844251 -3.093544
 2890000.000000 77.782430 46.045940 0.197944 -2.281697 -3.827315
 2892000.000000 78.713630 45.806340 0.178023 -2.741326 -4.598296
 2894000.000000 78.033360 45.894400 0.071340 -2.352509 -3.946095
 2896000.000000 77.776690 46.680040 0.169557 -1.995755 -3.347677
 2898000.000000 78.492190 46.560950 0.163654 -2.294719 -3.849158
 2900000.000000 79.226050 46.196770 0.181681 -2.919612 -4.897353
 2902000.000000 78.571460 46.315840 0.190347 -2.441026 -4.094573
 2904000.000000 78.331860 46.726700 0.067427 -2.123513 -3.561978
 2906000.000000 77.282540 45.946170 0.220411 -1.828263 -3.066726
 2908000.000000 77.335520 46.608600 0.156576 -1.856057 -3.113347
 2910000.000000 77.544870 46.316060 0.201751 -1.820493 -3.053692
 2912000.000000 76.930060 45.958990 0.209939 -1.910098 -3.203996
 2914000.000000 77.474870 46.032700 0.221289 -2.180811 -3.658089
 2916000.000000 76.464100 46.162400 0.199397 -1.650354 -2.768301
 2918000.000000 76.110350 45.998130 0.220549 -1.764624 -2.959978
 2920000.000000 76.312710 46.043880 0.308719 -1.839818 -3.086108
 2922000.000000 76.994370 46.288450 0.195893 -1.648676 -2.765487
 2924000.000000 77.012690 46.845780 0.137329 -1.837016 -3.081408
 2926000.000000 77.582020 47.020240 0.127856 -1.978345 -3.318473
 2928000.000000 77.658470 45.743270 0.116118 -2.211836 -3.710130
 2930000.000000 77.039030 45.800030 0.175031 -1.751921 -2.938670
 2932000.000000 77.145150 46.299790 0.170234 -1.694274 -2.841973
 2934000.000000 77.006930 45.883370 0.180163 -1.819373 -3.051814
 2936000.000000 76.638070 46.623070 0.160243 -1.655295 -2.776589
 2938000.000000 77.082200 46.144680 0.180932 -1.677129 -2.813214
 2940000.000000 77.065200 45.327340 0.205503 -1.955999 -3.280990
 2942000.000000 76.466440 45.616830 0.338954 -1.413600 -2.371171
 2944000.000000 75.948350 45.514090 0.205267 -1.019016 -1.709296
 2946000.000000 75.481330 45.040980 0.235724 -1.169602 -1.961889
 2948000.000000 76.588940 45.665530 0.178799 -1.556975 -2.611668
 2950000.000000 75.937680 45.439920 0.182668 -1.243083 -2.085146
 2952000.000000 76.191780 45.645520 0.173112 -1.183908 -1.985886
 2954000.000000 76.376050 45.734800 0.179699 -1.761053 -2.953988
 2956000.000000 76.671450 45.372270 0.186506 -1.673789 -2.807611
 2958000.000000 77.219640 46.447810 0.209774 -1.802048 -3.022753
 2960000.000000 77.280890 46.422670 0.144296 -1.738190 -2.915637
 2962000.000000 77.021090 46.231750 0.140396 -1.529801 -2.566086
 2964000.000000 77.062700 46.336810 0.134874 -1.635066 -2.742657
 2966000.000000 76.679370 45.524060 0.195067 -1.720628 -2.886179
 2968000.000000 77.698830 45.388270 0.161134 -2.339065 -3.923544
 2970000.000000 77.784850 45.062610 0.109626 -2.339158 -3.923700
 2972000.000000 76.530080 45.753020 0.160132 -1.585868 -2.660133
 2974000.000000 77.528650 45.410790 0.165368 -2.177270 -3.652150
 2976000.000000 78.024290 45.701790 0.121479 -2.304544 -3.865639
 2978000.000000 77.717940 45.961220 0.110812 -2.244656 -3.765183
 2980000.000000 78.370170 46.092350 0.119775 -2.377510 -3.988032
 2982000.000000 78.220500 46.622580 0.113663 -2.087394 -3.501392
 2984000.000000 76.822850 45.812580 0.106520 -1.556767 -2.611319
 2986000.000000 76.886470 46.242050 0.120191 -1.440441 -2.416194
 2988000.000000 76.411980 45.815330 0.120395 -1.891372 -3.172585
 2990000.000000 77.081680 46.103090 0.115821 -1.578259 -2.647369
 2992000.000000 77.083920 46.552830 0.122369 -1.663090 -2.789665
 2994000.000000 77.312730 46.478790 0.119358 -1.845951 -3.096396
 2996000.000000 77.866510 46.245840 0.145217 -2.168009 -3.636615
 2998000.000000 78.054620 46.143990 0.244736 -2.411355 -4.044803
 3000000.000000 77.943360 46.492820 0.122107 -2.207035 -3.702077
 3002000.000000 78.367040 46.635270 0.132060 -2.184753 -3.664702
 3004000.000000 78.425480 46.325870 0.086848 -2.434058 -4.082885
 3006000.000000 77.101000 45.877890 0.141961 -1.736080 -2.912098
 3008000.000000 77.612200 45.527640 0.230237 -2.422285 -4.063137
 3010000.000000 77.739770 46.333290 0.180999 -1.899561 -3.186321
 3012000.000000 77.640800 46.063680 0.133055 -2.046963 -3.433573
 3014000.000000 77.119400 45.994750 0.116509 -1.718480 -2.882576
 3016000.000000 77.309800 45.964580 0.122286 -1.843365 -3.092058
 3018000.000000 78.584920 46.164770 0.126928 -2.511201 -4.212285
 3020000.000000 79.324540 46.828980 0.118965 -2.698693 -4.526784
 3022000.000000 79.443390 46.870470 0.172356 -2.808114 -4.710326
 3024000.000000 78.925750 46.402810 0.224257 -2.664326 -4.469137
 3026000.000000 79.826410 46.960060 0.194958 -2.885052 -4.839382
 3028000.000000 79.589330 47.134350 0.121566 -2.737471 -4.591830
 3030000.000000 79.169570 46.428690 0.205859 -2.780726 -4.664386
 3032000.000000 77.849600 46.290660 0.173774 -2.107921 -3.535824
 3034000.000000 78.187060 46.224370 0.247731 -2.407675 -4.038631
 3036000.000000 77.496580 45.878030 0.254817 -1.982186 -3.324916
 3038000.000000 77.803390 45.733700 0.288702 -2.337503 -3.920924
 3040000.000000 77.458750 45.665370 0.304149 -2.490391 -4.177378
 3042000.000000 76.729750 45.346870 0.262794 -1.735236 -2.910682
 3044000.000000 77.653410 45.797800 0.203300 -2.168688 -3.637754
 3046000.000000 77.806790 45.723800 0.225178 -2.340713 -3.926309
 3048000.000000 78.109350 46.059250 0.256195 -2.450256 -4.110056
 3050000.000000 78.669190 45.957280 0.294235 -2.625997 -4.404844
 3052000.000000 78.285660 46.098450 0.177573 -2.321398 -3.893910
 3054000.000000 77.645590 45.643960 0.100099 -2.233775 -3.746931
 3056000.000000 77.826450 45.499100 0.211338 -2.372614 -3.979819
 3058000.000000 78.003900 45.967490 0.235032 -2.232142 -3.744192
 3060000.000000 77.827190 45.486980 0.254416 -2.345086 -3.933644
 3062000.000000 78.013160 45.949310 0.230882 -2.259230 -3.789629
 3064000.000000 78.045770 45.860070 0.283757 -2.363096 -3.963854
 3066000.000000 78.094780 45.864310 0.215760 -2.356325 -3.952496
 3068000.000000 77.934740 45.930260 0.236336 -2.144322 -3.596883
 3070000.000000 77.974780 45.220850 0.244302 -2.364041 -3.965439
 3072000.000000 78.014480 45.627010 0.228697 -2.347048 -3.936935
 3074000.000000 78.259450 45.599270 0.123861 -2.409859 -4.042294
 3076000.000000 77.560750 45.382330 0.207051 -2.092558 -3.510054
 3078000.000000 77.012320 45.593450 0.217655 -1.754779 -2.943464
 3080000.000000 77.995660 46.022080 0.165852 -2.294980 -3.849596
 3082000.000000 77.691560 45.655590 0.260581 -2.345440 -3.934238
 3084000.000000 76.814020 45.567350 0.187486 -1.541254 -2.585297
 3086000.000000 76.824490 45.227390 0.199751 -2.097661 -3.518614
 3088000.000000 76.680890 45.054070 0.262799 -1.727606 -2.897884
 3090000.000000 77.754040 45.393520 0.289346 -2.264287 -3.798112
 3092000.000000 78.232570 46.014440 0.250170 -2.364585 -3.966351
 3094000.000000 77.729780 46.217850 0.244712 -2.038596 -3.419538
 3096000.000000 78.399770 45.607110 0.247706 -2.592806 -4.349169
