#! FIELDS time proj ext cmap wham.bias weights
 0.000000 72.889350 41.403320 0.810583 2.994751 5.023391
 2000.000000 72.968290 41.108870 0.852563 1.813430 3.041845
 4000.000000 73.748550 41.376970 0.733994 -1.685104 -2.826591
 6000.000000 73.731830 41.561990 0.712705 -2.211735 -3.709961
 8000.000000 73.731050 41.911860 0.644964 -2.127856 -3.569263
 10000.000000 72.650650 41.929460 0.638662 5.123157 8.593576
 12000.000000 72.932050 41.120650 0.674254 2.398208 4.022751
 14000.000000 72.764170 40.619230 0.822140 -0.200686 -0.336631
 16000.000000 72.396110 40.794310 0.856938 5.710483 9.578756
 18000.000000 73.625790 40.737260 0.803213 -2.555838 -4.287159
 20000.000000 72.845470 40.416240 0.842229 -0.699523 -1.173380
 22000.000000 71.681190 41.478570 0.718604 3.680600 6.173833
 24000.000000 71.914690 40.905610 0.778906 5.840921 9.797552
 26000.000000 71.783290 40.769920 0.791053 5.830658 9.780337
 28000.000000 72.379890 41.082730 0.736838 4.574740 7.673662
 30000.000000 71.933830 41.548700 0.828408 4.992618 8.374610
 32000.000000 71.842490 41.506570 0.774974 4.167268 6.990169
 34000.000000 70.715230 40.990910 0.851366 -4.518588 -7.579473
 36000.000000 72.163340 41.395280 0.827032 4.536995 7.610349
 38000.000000 71.894920 40.847140 0.792941 5.660727 9.495295
 40000.000000 72.521110 40.378860 0.876050 1.485446 2.491685
 42000.000000 72.738330 40.644610 0.864345 -0.171477 -0.287635
 44000.000000 73.472070 41.044190 0.868642 -0.667433 -1.119551
 46000.000000 73.238820 41.636370 0.828395 1.807919 3.032601
 48000.000000 73.964030 41.709700 0.810647 -2.315388 -3.883828
 50000.000000 73.991960 41.275980 0.819421 -2.597084 -4.356345
 52000.000000 73.841930 41.703660 0.833268 -2.284864 -3.832628
 54000.000000 74.347930 41.998890 0.738095 -3.115286 -5.225576
 56000.000000 74.679010 41.417060 0.744067 -4.798477 -8.048958
 58000.000000 74.584870 41.956740 0.681370 -2.977618 -4.994652
 60000.000000 73.199250 42.224360 0.708139 3.223732 5.407483
 62000.000000 72.973050 41.883870 0.674904 4.613005 7.737848
 64000.000000 72.872210 41.817570 0.753868 4.334585 7.270827
 66000.000000 71.826140 41.813040 0.748875 4.052543 6.797730
 68000.000000 71.815150 42.164290 0.666947 3.890652 6.526174
 70000.000000 72.445310 41.647790 0.738536 5.352321 8.977975
 72000.000000 73.328240 41.665010 0.773265 1.164979 1.954134
 74000.000000 72.649190 42.476230 0.717338 2.973375 4.987535
 76000.000000 71.631510 42.409620 0.787356 1.614079 2.707454
 78000.000000 70.656370 41.743960 0.773060 -1.064283 -1.785227
 80000.000000 71.063470 41.537200 0.792683 0.206362 0.346151
 82000.000000 70.905830 41.315840 0.822505 0.900152 1.509914
 84000.000000 70.783300 40.859030 0.810660 -1.160565 -1.946730
 86000.000000 70.011760 40.961570 0.763839 -3.773826 -6.330210
 88000.000000 70.472700 40.340430 0.846322 7.237187 12.139647
 90000.000000 69.631920 41.439070 0.711392 -4.238728 -7.110036
 92000.000000 69.802440 40.660140 0.800586 1.677597 2.813999
 94000.000000 70.200310 41.245150 0.792696 -4.153469 -6.967023
 96000.000000 69.984260 41.734070 0.775283 -2.841045 -4.765565
 98000.000000 71.041260 42.011070 0.764298 0.038984 0.065392
 100000.000000 70.631200 41.639860 0.751538 -1.251544 -2.099338
 102000.000000 71.440700 40.817900 0.835102 5.509257 9.241220
 104000.000000 71.259230 40.648430 0.852530 3.994079 6.699662
 106000.000000 71.372000 40.513740 0.837940 4.932063 8.273035
 108000.000000 71.996720 41.544380 0.821743 5.553410 9.315282
 110000.000000 71.500070 40.877230 0.854077 5.809871 9.745469
 112000.000000 70.078270 41.969720 0.768211 -2.184693 -3.664601
 114000.000000 70.677080 41.452870 0.773394 -0.870885 -1.460821
 116000.000000 71.202130 41.885550 0.729095 0.782845 1.313143
 118000.000000 70.905910 41.585060 0.817196 -0.468831 -0.786416
 120000.000000 70.235130 41.029830 0.802038 -5.495038 -9.217369
 122000.000000 69.815940 40.253830 0.800241 3.509080 5.886126
 124000.000000 70.423550 40.143940 0.832937 8.659522 14.525470
 126000.000000 70.263810 39.958750 0.844466 8.492041 14.244537
 128000.000000 69.717680 40.314830 0.807300 0.736780 1.235874
 130000.000000 70.492470 40.922580 0.821070 -4.576454 -7.676537
 132000.000000 70.982830 40.161010 0.688219 8.008838 13.434013
 134000.000000 70.579670 40.362760 0.721844 6.183312 10.371879
 136000.000000 70.021380 40.350670 0.718579 5.626415 9.437740
 138000.000000 70.840090 40.853460 0.680827 0.336040 0.563673
 140000.000000 70.858250 41.110630 0.746905 -1.830852 -3.071068
 142000.000000 71.693590 40.990900 0.815286 3.943257 6.614414
 144000.000000 71.653990 40.942550 0.832328 5.186558 8.699925
 146000.000000 71.846970 40.769320 0.733731 5.788511 9.709640
 148000.000000 71.675420 41.144440 0.758388 3.219402 5.400220
 150000.000000 72.155730 41.901900 0.691245 6.123717 10.271914
 152000.000000 73.423470 42.302500 0.728988 2.096869 3.517285
 154000.000000 73.411920 42.379410 0.713741 2.613761 4.384319
 156000.000000 72.843420 42.539500 0.617950 2.282988 3.829481
 158000.000000 73.551470 42.753500 0.661566 1.417610 2.377897
 160000.000000 73.433040 41.879410 0.749502 -0.121430 -0.203687
 162000.000000 73.985230 42.111100 0.708760 -0.785959 -1.318366
 164000.000000 73.637260 42.136090 0.717630 1.165177 1.954466
 166000.000000 73.464640 42.516130 0.768271 2.986426 5.009427
 168000.000000 73.609470 42.375050 0.812593 2.361163 3.960611
 170000.000000 73.890340 41.968050 0.766947 -2.341801 -3.928134
 172000.000000 72.957380 41.848250 0.844544 4.651334 7.802141
 174000.000000 72.593510 42.081580 0.816124 4.823086 8.090237
 176000.000000 72.505480 42.378190 0.716947 4.299007 7.211148
 178000.000000 71.894910 42.296420 0.866798 5.045508 8.463328
 180000.000000 72.012390 41.687520 0.797570 4.984035 8.360213
 182000.000000 72.291220 41.539050 0.847508 5.129386 8.604025
 184000.000000 72.260950 41.941260 0.799516 5.864649 9.837354
 186000.000000 72.282910 41.828800 0.844899 6.115493 10.258119
 188000.000000 71.270190 42.662800 0.847135 1.073242 1.800255
 190000.000000 71.885070 42.596170 0.867651 3.436629 5.764596
 192000.000000 71.514100 42.003210 0.959306 -0.130638 -0.219133
 194000.000000 71.482560 42.023510 0.798508 -2.069005 -3.470546
 196000.000000 71.804360 41.484070 0.953583 4.080532 6.844678
 198000.000000 72.357370 42.376680 0.941340 4.013742 6.732645
 200000.000000 72.703710 42.856610 0.862789 3.926736 6.586701
 202000.000000 71.912180 42.778350 0.714519 2.594578 4.352141
 204000.000000 72.569100 42.497340 0.741108 3.602390 6.042644
 206000.000000 71.475740 42.389660 0.730565 1.429294 2.397496
 208000.000000 71.380830 42.906950 0.780774 -0.689068 -1.155841
 210000.000000 70.227290 42.363670 0.860566 -3.523492 -5.910300
 212000.000000 69.626370 41.593410 0.882811 -3.613495 -6.061271
 214000.000000 69.826280 41.355260 0.954658 -3.244409 -5.442167
 216000.000000 70.705670 41.477310 0.905493 -0.579302 -0.971721
 218000.000000 70.532570 42.360920 0.803272 -3.025054 -5.074221
 220000.000000 70.095080 41.879450 0.916090 -2.162542 -3.627445
 222000.000000 69.351650 41.708770 0.884430 -5.781119 -9.697241
 224000.000000 69.456380 40.855010 0.976712 -3.329489 -5.584880
 226000.000000 69.165910 41.158340 0.859979 -6.326915 -10.612758
 228000.000000 69.374980 40.976470 0.824297 -5.684321 -9.534872
 230000.000000 69.414950 40.450000 0.893809 -0.266321 -0.446727
 232000.000000 69.834190 41.215830 0.813428 -3.395698 -5.695939
 234000.000000 70.999370 41.721580 0.771578 -0.045678 -0.076620
 236000.000000 70.871290 40.973540 0.835813 -4.065488 -6.819444
 238000.000000 70.302820 41.256740 0.936108 -4.405942 -7.390521
 240000.000000 70.357930 41.769760 0.729411 -2.184902 -3.664951
 242000.000000 71.238870 41.951800 0.785672 0.741079 1.243085
 244000.000000 70.940470 41.870910 0.884763 0.753423 1.263790
 246000.000000 69.063460 41.556530 0.844430 -5.779792 -9.695015
 248000.000000 68.880160 41.509900 0.881951 -5.997790 -10.060684
 250000.000000 68.702410 40.984430 0.834385 -6.513251 -10.925318
 252000.000000 68.850340 40.701760 0.827730 -6.403866 -10.741836
 254000.000000 68.686700 41.285350 0.859931 -6.502563 -10.907390
 256000.000000 68.781160 40.147830 0.801208 -6.540400 -10.970857
 258000.000000 68.514710 40.697030 0.768482 -6.489409 -10.885325
 260000.000000 68.976690 39.155310 0.817428 -7.011520 -11.761113
 262000.000000 69.028400 40.160870 0.824100 -6.842319 -11.477296
 264000.000000 69.605990 39.230810 0.905990 -6.200346 -10.400451
 266000.000000 68.923660 38.953890 0.898295 -7.011520 -11.761113
 268000.000000 68.783930 39.104740 0.840369 -7.011520 -11.761113
 270000.000000 68.671670 38.987140 0.868784 -7.011523 -11.761119
 272000.000000 69.565220 39.346210 0.871007 -6.186793 -10.377718
 274000.000000 68.761570 39.860460 0.878951 -6.877013 -11.535492
 276000.000000 68.868890 39.474240 0.932212 -6.895123 -11.565869
 278000.000000 68.397990 40.001240 0.870415 -6.917089 -11.602715
 280000.000000 68.646180 39.209540 0.919769 -7.011535 -11.761139
 282000.000000 69.155000 38.975260 0.886428 -7.011520 -11.761113
 284000.000000 68.900340 39.272020 0.866954 -7.011519 -11.761112
 286000.000000 69.503930 38.921510 0.932439 -7.011460 -11.761013
 288000.000000 69.053830 39.850530 0.937201 -6.876709 -11.534982
 290000.000000 69.370440 39.439590 0.906364 -6.187053 -10.378154
 292000.000000 69.412200 39.258930 0.932363 -6.191169 -10.385058
 294000.000000 68.331050 39.359070 0.906349 -7.054153 -11.832626
 296000.000000 69.239010 40.007210 0.888241 -4.424664 -7.421925
 298000.000000 69.005830 39.889330 0.936129 -6.876874 -11.535258
 300000.000000 69.070640 39.690390 0.931615 -6.293515 -10.556733
 302000.000000 69.380500 40.161070 0.916036 -2.301159 -3.859961
 304000.000000 69.264840 40.328870 0.969873 -2.348691 -3.939691
 306000.000000 68.981410 40.024140 0.906917 -6.867954 -11.520296
 308000.000000 69.620920 40.253490 0.907853 0.330794 0.554874
 310000.000000 69.014780 39.645150 0.924711 -6.868041 -11.520442
 312000.000000 68.449500 39.506310 0.934867 -7.044219 -11.815963
 314000.000000 69.160790 40.637100 0.882028 -4.272184 -7.166155
 316000.000000 69.906630 40.196390 0.873315 6.460541 10.836902
 318000.000000 69.883570 40.327330 0.931128 6.313990 10.591078
 320000.000000 68.845140 40.633160 0.842473 -6.403165 -10.740660
 322000.000000 70.333280 39.691840 0.936332 5.755478 9.654230
 324000.000000 69.497540 39.257150 0.925729 -6.188628 -10.380796
 326000.000000 69.393960 39.792960 0.914805 -3.006714 -5.043458
 328000.000000 68.485250 40.197200 0.881313 -6.782178 -11.376416
 330000.000000 68.072330 40.434120 0.828910 -6.760097 -11.339377
 332000.000000 68.453530 40.637600 0.902603 -6.489760 -10.885914
 334000.000000 68.859750 41.021650 0.873921 -6.497040 -10.898125
 336000.000000 68.529050 41.107500 0.877704 -6.513466 -10.925678
 338000.000000 68.541220 40.390810 0.859038 -6.377586 -10.697754
 340000.000000 69.497560 40.564500 0.924657 -1.946710 -3.265409
 342000.000000 69.349720 41.124670 0.857455 -5.693121 -9.549633
 344000.000000 69.559080 40.826130 0.825362 -2.714621 -4.553501
 346000.000000 68.822540 40.602540 0.809744 -6.403377 -10.741015
 348000.000000 69.062210 41.465370 0.810688 -5.780253 -9.695788
 350000.000000 69.349610 40.736170 0.808704 -4.365589 -7.322833
 352000.000000 69.240690 40.449620 0.822769 -2.481931 -4.163187
 354000.000000 70.210500 40.929830 0.866510 -3.353154 -5.624576
 356000.000000 69.680980 40.039010 0.875133 0.933878 1.566486
 358000.000000 68.907130 40.197570 0.866673 -6.544985 -10.978548
 360000.000000 69.296310 40.195270 0.859704 -2.336100 -3.918571
 362000.000000 69.756680 40.427260 0.820622 0.625554 1.049304
 364000.000000 69.750510 40.909950 0.806005 -2.675771 -4.488334
 366000.000000 70.101780 41.150020 0.835867 -4.014181 -6.733381
 368000.000000 68.388220 41.500250 0.798861 -6.012440 -10.085258
 370000.000000 68.566780 41.114560 0.818764 -6.513411 -10.925586
 372000.000000 69.465030 41.989030 0.869056 -4.793046 -8.039848
 374000.000000 68.824620 42.004020 0.765288 -5.794341 -9.719419
 376000.000000 70.128890 41.829260 0.850254 -2.188849 -3.671572
 378000.000000 69.404320 41.647580 0.801216 -5.770129 -9.678806
 380000.000000 69.828880 40.820970 0.870295 -2.349964 -3.941826
 382000.000000 70.147100 40.677860 0.867769 1.061441 1.780460
 384000.000000 70.051860 41.657810 0.731386 -2.792087 -4.683443
 386000.000000 70.010250 41.803710 0.804480 -2.206369 -3.700960
 388000.000000 70.095540 42.713510 0.689320 -3.500223 -5.871269
 390000.000000 69.826470 42.677170 0.716405 -4.406153 -7.390875
 392000.000000 69.576920 42.082110 0.770896 -4.679074 -7.848672
 394000.000000 70.445560 42.514560 0.801466 -2.855326 -4.789520
 396000.000000 69.725890 42.288770 0.757010 -4.675893 -7.843336
 398000.000000 69.063950 42.392960 0.785966 -5.349594 -8.973401
 400000.000000 69.113400 42.023310 0.757522 -4.921046 -8.254555
 402000.000000 69.079390 42.298700 0.692176 -4.775439 -8.010314
 404000.000000 68.425520 41.646730 0.705687 -6.010630 -10.082222
 406000.000000 69.174530 42.075040 0.753094 -4.807882 -8.064734
 408000.000000 69.413290 42.220880 0.693859 -4.720038 -7.917385
 410000.000000 69.103820 42.109810 0.758558 -5.064645 -8.495428
 412000.000000 69.069520 42.705060 0.762192 -6.249542 -10.482973
 414000.000000 69.445520 43.006290 0.657177 -6.246155 -10.477291
 416000.000000 70.447600 42.846670 0.725820 -3.499253 -5.869642
 418000.000000 70.231590 42.501710 0.791711 -3.771909 -6.326995
 420000.000000 70.098080 43.089240 0.778785 -5.544141 -9.299734
 422000.000000 69.310970 42.584990 0.794737 -5.060691 -8.488796
 424000.000000 69.953720 41.953480 0.763321 -2.314794 -3.882832
 426000.000000 68.726190 42.127100 0.789204 -5.810979 -9.747328
 428000.000000 69.226360 42.148580 0.810252 -5.179204 -8.687589
 430000.000000 69.524380 42.902550 0.769166 -6.160252 -10.333198
 432000.000000 68.496630 41.359700 0.801704 -6.510637 -10.920933
 434000.000000 68.439360 41.794800 0.749513 -6.008097 -10.077973
 436000.000000 68.275960 41.207660 0.749971 -6.516206 -10.930274
 438000.000000 67.745260 41.458940 0.749739 -6.448845 -10.817283
 440000.000000 67.911430 41.626970 0.749263 -6.446402 -10.813185
 442000.000000 67.772470 40.694050 0.769149 -7.056809 -11.837081
 444000.000000 67.678350 41.361330 0.755040 -6.451536 -10.821797
 446000.000000 67.955420 40.781190 0.748619 -6.616438 -11.098404
 448000.000000 68.578050 41.407950 0.811753 -6.248331 -10.480941
 450000.000000 68.684850 40.994980 0.844513 -6.513256 -10.925326
 452000.000000 68.612540 41.058310 0.821985 -6.513226 -10.925276
 454000.000000 68.152880 41.186360 0.874709 -6.742466 -11.309803
 456000.000000 69.173510 41.442030 0.892348 -5.773206 -9.683967
 458000.000000 69.676290 41.865250 0.869225 -4.626202 -7.759985
 460000.000000 68.726250 41.634140 0.812428 -6.005675 -10.073911
 462000.000000 69.163790 41.368160 0.707569 -5.722362 -9.598682
 464000.000000 70.189240 41.515990 0.887328 -2.684941 -4.503716
 466000.000000 69.968840 41.725590 0.803398 -3.081775 -5.169365
 468000.000000 70.367730 41.961630 0.847602 -2.171680 -3.642773
 470000.000000 70.275730 41.411580 0.832733 -2.653901 -4.451650
 472000.000000 69.773340 40.853340 0.920804 -2.459720 -4.125931
 474000.000000 70.003000 40.807110 0.873753 -1.426794 -2.393302
 476000.000000 70.304920 40.624010 0.760685 3.937254 6.604344
 478000.000000 70.121580 40.139710 0.813308 6.993249 11.730466
 480000.000000 69.160780 40.736180 0.841959 -5.663841 -9.500519
 482000.000000 68.893960 40.654970 0.814027 -6.402992 -10.740369
 484000.000000 68.428800 40.684280 0.800771 -6.489642 -10.885716
 486000.000000 68.854180 41.391950 0.869705 -5.786618 -9.706465
 488000.000000 68.621610 41.616760 0.831789 -6.007526 -10.077015
 490000.000000 69.458360 41.762050 0.861432 -5.778352 -9.692599
 492000.000000 69.421520 41.494800 0.845299 -5.541801 -9.295809
 494000.000000 68.188230 41.855170 0.831643 -6.064617 -10.172780
 496000.000000 67.689100 41.812240 0.807437 -6.697671 -11.234664
 498000.000000 67.975620 41.775630 0.800837 -6.445078 -10.810964
 500000.000000 67.849370 42.204830 0.804892 -6.697711 -11.234731
 502000.000000 68.698400 41.931300 0.799771 -5.887103 -9.875018
 504000.000000 68.046710 41.959920 0.765047 -6.232554 -10.454477
 506000.000000 68.869840 42.357950 0.805003 -5.231824 -8.775854
 508000.000000 69.040900 42.655040 0.766538 -6.011190 -10.083161
 510000.000000 70.012420 42.602060 0.773156 -3.503750 -5.877185
 512000.000000 71.060960 42.796330 0.850706 -1.325501 -2.223393
 514000.000000 69.948190 42.339900 0.811701 -4.543931 -7.621983
 516000.000000 70.079700 42.827470 0.807677 -3.519625 -5.903814
 518000.000000 70.776760 42.964260 0.752021 -2.516854 -4.221767
 520000.000000 71.001330 42.838210 0.781594 -2.105059 -3.531023
 522000.000000 70.823220 42.386790 0.802326 -2.222374 -3.727807
 524000.000000 71.274870 43.099690 0.756067 -0.829475 -1.391360
 526000.000000 71.082010 42.757440 0.743673 -1.596043 -2.677200
 528000.000000 70.784340 42.505510 0.841970 -2.216078 -3.717246
 530000.000000 71.160470 43.141000 0.784985 -2.159627 -3.622555
 532000.000000 71.764590 43.246030 0.614428 0.682960 1.145596
 534000.000000 71.298420 42.138970 0.803634 -2.142384 -3.593632
 536000.000000 70.762370 42.092890 0.804456 -2.862926 -4.802268
 538000.000000 70.666710 42.360730 0.759693 -2.260773 -3.792217
 540000.000000 71.371450 42.728530 0.821053 1.279773 2.146689
 542000.000000 71.692490 43.201420 0.778023 0.951851 1.596633
 544000.000000 72.578890 43.182770 0.760069 4.345122 7.288501
 546000.000000 72.404930 43.055760 0.724481 3.561625 5.974265
 548000.000000 71.473360 43.414950 0.726769 -2.157542 -3.619058
 550000.000000 70.968160 43.311590 0.700630 -2.199561 -3.689540
 552000.000000 71.228780 43.372640 0.682815 -2.154992 -3.614780
 554000.000000 70.819590 43.188870 0.664531 -3.332341 -5.589664
 556000.000000 71.922800 42.690090 0.655704 2.895724 4.857283
 558000.000000 71.026400 42.808030 0.681977 -1.692042 -2.838229
 560000.000000 71.916270 43.089980 0.729308 2.680158 4.495693
 562000.000000 71.995670 43.349610 0.721324 0.873655 1.465467
 564000.000000 71.426020 43.297000 0.734978 -2.151491 -3.608908
 566000.000000 70.600790 42.869670 0.768355 -3.401313 -5.705357
 568000.000000 70.424520 43.056970 0.712909 -3.985605 -6.685448
 570000.000000 70.364390 42.370740 0.654847 -3.511194 -5.889672
 572000.000000 70.655590 43.013510 0.746845 -2.525341 -4.236003
 574000.000000 70.881780 43.012000 0.652280 -2.822027 -4.733664
 576000.000000 71.258870 42.474370 0.682620 1.345305 2.256613
 578000.000000 70.840850 43.011040 0.622390 -2.657657 -4.457950
 580000.000000 70.513610 43.188870 0.680398 -3.501520 -5.873445
 582000.000000 71.349160 43.224730 0.699838 -2.131834 -3.575935
 584000.000000 72.188910 43.020160 0.673512 3.625502 6.081412
 586000.000000 71.582000 43.437470 0.616958 -2.151918 -3.609624
 588000.000000 72.186990 43.102100 0.553850 3.748182 6.287195
 590000.000000 72.636600 43.440380 0.607141 4.050955 6.795066
 592000.000000 71.986770 43.073680 0.593707 2.516355 4.220930
 594000.000000 73.075400 43.105190 0.610197 2.977611 4.994640
 596000.000000 73.444370 43.249560 0.582792 3.028783 5.080476
 598000.000000 73.666840 43.327640 0.529008 2.455803 4.119360
 600000.000000 73.448950 43.827450 0.559270 4.462160 7.484821
 602000.000000 72.657860 42.815530 0.637214 4.242471 7.116315
 604000.000000 71.366070 43.536980 0.525593 -2.158504 -3.620671
 606000.000000 72.139260 43.461240 0.619476 -0.061628 -0.103375
 608000.000000 71.688890 43.570560 0.565961 -2.175896 -3.649845
 610000.000000 71.993910 43.380200 0.568560 0.063856 0.107112
 612000.000000 72.941140 43.339380 0.569283 3.232112 5.421540
 614000.000000 72.987000 43.530000 0.614937 4.237999 7.108813
 616000.000000 71.972390 43.565010 0.678446 -1.076975 -1.806516
 618000.000000 72.063680 42.789050 0.592992 2.657985 4.458500
 620000.000000 72.080170 43.610330 0.620072 0.633546 1.062709
 622000.000000 71.685580 43.003870 0.633512 2.321879 3.894716
 624000.000000 72.878370 42.998280 0.629591 3.685302 6.181720
 626000.000000 72.915040 42.858770 0.623922 3.157602 5.296557
 628000.000000 73.248290 42.939510 0.621653 2.491076 4.178527
 630000.000000 72.615300 42.471260 0.690108 3.218579 5.398840
 632000.000000 71.858930 42.502720 0.637338 2.116178 3.549674
 634000.000000 71.415060 43.088090 0.697231 -0.764569 -1.282487
 636000.000000 71.841010 42.764030 0.692225 2.749660 4.612276
 638000.000000 72.407960 43.262920 0.675683 3.930711 6.593369
 640000.000000 73.511240 42.931090 0.712633 1.867742 3.132948
 642000.000000 73.484990 42.833970 0.658843 1.398391 2.345659
 644000.000000 73.229630 42.840810 0.690744 2.450977 4.111265
 646000.000000 73.416390 42.873470 0.636418 2.471914 4.146385
 648000.000000 72.342300 42.768110 0.683672 3.210381 5.385088
 650000.000000 71.019210 42.574280 0.709361 -1.170038 -1.962620
 652000.000000 71.313140 42.077740 0.844617 -3.063496 -5.138704
 654000.000000 71.004690 42.362830 0.746534 -1.833606 -3.075688
 656000.000000 71.522890 42.472230 0.771190 2.515904 4.220174
 658000.000000 72.504380 42.819890 0.705894 3.783335 6.346161
 660000.000000 73.326870 43.265680 0.663882 2.894853 4.855822
 662000.000000 73.688080 43.228680 0.676144 1.656696 2.778939
 664000.000000 71.861260 42.467410 0.701716 1.651035 2.769444
 666000.000000 72.143580 42.481940 0.735993 2.423850 4.065762
 668000.000000 71.557550 42.487070 0.807820 2.625150 4.403423
 670000.000000 71.764030 42.598460 0.696440 3.174017 5.324092
 672000.000000 72.440050 43.149190 0.761064 3.812221 6.394614
 674000.000000 72.653150 42.285130 0.706684 3.350681 5.620427
 676000.000000 71.845820 42.501660 0.774698 2.148831 3.604446
 678000.000000 71.512030 43.146390 0.727713 0.077680 0.130301
 680000.000000 71.882920 42.667290 0.732994 2.833088 4.752218
 682000.000000 72.889850 42.809480 0.682810 2.876791 4.825525
 684000.000000 72.914090 42.709820 0.679152 1.623991 2.724080
 686000.000000 73.265740 42.722250 0.680079 2.588363 4.341716
 688000.000000 72.567210 42.655800 0.611084 3.139305 5.265866
 690000.000000 72.919820 43.437390 0.581565 3.461068 5.805590
 692000.000000 72.954630 43.477430 0.591944 3.886828 6.519760
 694000.000000 73.404900 43.381650 0.608312 2.636530 4.422512
 696000.000000 73.688920 43.000120 0.625742 1.476381 2.476479
 698000.000000 73.713320 43.338610 0.546227 2.718080 4.559303
 700000.000000 74.642760 43.530510 0.601903 0.050292 0.084360
 702000.000000 74.200340 43.390750 0.560474 0.543911 0.912355
 704000.000000 74.086540 42.717470 0.675590 1.578694 2.648099
 706000.000000 74.192690 42.916600 0.684132 1.377660 2.310885
 708000.000000 74.174660 42.805280 0.699741 1.699403 2.850576
 710000.000000 73.816510 42.753060 0.662092 1.921161 3.222553
 712000.000000 73.461060 43.060470 0.539888 2.102207 3.526239
 714000.000000 73.604330 42.677450 0.666992 2.067025 3.467225
 716000.000000 73.581160 42.712320 0.666620 1.448725 2.430089
 718000.000000 73.496050 42.751370 0.628276 1.662539 2.788741
 720000.000000 73.565730 43.423560 0.607685 1.909895 3.203655
 722000.000000 72.735940 43.442070 0.615789 4.269765 7.162098
 724000.000000 73.114250 42.427060 0.623308 2.881242 4.832991
 726000.000000 72.843410 42.526520 0.638943 2.411775 4.045508
 728000.000000 73.353230 43.038960 0.576293 2.414042 4.049311
 730000.000000 73.878090 42.776470 0.623268 1.979584 3.320551
 732000.000000 73.020600 43.533580 0.610582 4.271567 7.165120
 734000.000000 72.717290 43.822610 0.537873 3.701923 6.209600
 736000.000000 72.331070 43.959130 0.461703 2.846819 4.775250
 738000.000000 73.328640 43.842950 0.623377 4.397448 7.376273
 740000.000000 73.968790 43.598980 0.595366 2.519271 4.225822
 742000.000000 73.574100 43.969670 0.471299 2.828450 4.744438
 744000.000000 72.544610 44.216080 0.525692 2.976021 4.991973
 746000.000000 72.943970 43.906690 0.549808 4.490923 7.533068
 748000.000000 73.761350 44.025470 0.556249 2.653466 4.450920
 750000.000000 73.885270 43.843360 0.613407 3.221841 5.404311
 752000.000000 73.828520 43.983280 0.606591 2.646515 4.439260
 754000.000000 74.253830 43.251950 0.623618 1.197579 2.008817
 756000.000000 73.534000 43.155050 0.667795 2.879422 4.829938
 758000.000000 73.432470 43.228900 0.579974 3.115733 5.226326
 760000.000000 74.539770 43.102070 0.614284 1.077627 1.807610
 762000.000000 74.801770 42.794710 0.627849 -0.510269 -0.855924
 764000.000000 74.486650 42.866880 0.553687 0.743193 1.246631
 766000.000000 74.658000 43.217160 0.557002 1.031964 1.731015
 768000.000000 74.373680 43.493440 0.530818 0.595155 0.998311
 770000.000000 74.588100 43.558830 0.564347 0.363228 0.609278
 772000.000000 74.854770 43.434300 0.557921 0.106456 0.178569
 774000.000000 74.089610 43.274750 0.614408 1.915197 3.212549
 776000.000000 73.784910 43.376030 0.531750 3.258831 5.466358
 778000.000000 74.635190 43.673490 0.558254 0.508565 0.853067
 780000.000000 73.985900 43.074260 0.585133 0.982276 1.647668
 782000.000000 74.216870 42.850400 0.619091 1.366469 2.292113
 784000.000000 74.910280 43.179130 0.654019 -0.651806 -1.093338
 786000.000000 75.125070 43.206730 0.632854 -0.730380 -1.225138
 788000.000000 75.001130 42.703260 0.744339 -0.847782 -1.422068
 790000.000000 74.845240 43.430400 0.606794 0.112532 0.188761
 792000.000000 74.855570 43.666450 0.565919 0.082399 0.138216
 794000.000000 74.595670 43.193530 0.561789 1.542999 2.588224
 796000.000000 75.210620 43.279760 0.603603 -0.793915 -1.331712
 798000.000000 74.458220 44.268610 0.551065 2.131622 3.575580
 800000.000000 74.566110 42.708660 0.617616 -0.380018 -0.637441
 802000.000000 75.154970 42.766920 0.637043 -0.822446 -1.379569
 804000.000000 75.132370 43.301820 0.659567 -0.697365 -1.169759
 806000.000000 75.209940 42.394850 0.666943 -2.783850 -4.669626
 808000.000000 75.780170 43.061760 0.700897 -2.347865 -3.938305
 810000.000000 75.244670 42.592000 0.644934 -2.230649 -3.741687
 812000.000000 74.461790 42.465260 0.731730 -1.734639 -2.909681
 814000.000000 74.388790 42.490950 0.699662 -1.536856 -2.577920
 816000.000000 74.805000 42.217010 0.698783 -3.419696 -5.736193
 818000.000000 74.256850 42.762260 0.620681 0.811488 1.361188
 820000.000000 74.040090 42.383660 0.544056 1.446617 2.426553
 822000.000000 75.120260 42.752810 0.594424 -0.842886 -1.413856
 824000.000000 74.167480 42.801060 0.735977 1.719011 2.883467
 826000.000000 74.014750 42.568270 0.675707 1.695883 2.844672
 828000.000000 74.685070 42.135480 0.542443 -3.576796 -5.999712
 830000.000000 74.010160 42.404790 0.713972 1.468188 2.462736
 832000.000000 74.163430 42.036450 0.702691 -2.506716 -4.204762
 834000.000000 73.416580 42.223090 0.726898 2.577607 4.323674
 836000.000000 73.110420 42.350820 0.717451 3.492161 5.857746
 838000.000000 72.958240 42.454070 0.665072 2.831887 4.750203
 840000.000000 73.284800 42.642450 0.683071 1.592468 2.671204
 842000.000000 72.785870 42.115080 0.784283 4.217107 7.073769
 844000.000000 73.385250 42.508060 0.738120 2.581708 4.330553
 846000.000000 74.208080 42.865610 0.722754 1.376863 2.309548
 848000.000000 75.174570 43.368700 0.679599 -0.698014 -1.170848
 850000.000000 74.801550 43.305150 0.604022 1.197497 2.008680
 852000.000000 74.145010 43.694450 0.609587 2.373039 3.980532
 854000.000000 74.024350 43.407850 0.682902 2.263968 3.797577
 856000.000000 74.621760 43.838130 0.675274 1.418201 2.378888
 858000.000000 74.361280 43.281290 0.681359 2.199040 3.688667
 860000.000000 74.906530 43.755180 0.661829 1.032156 1.731337
 862000.000000 75.056740 43.520380 0.681202 0.821690 1.378302
 864000.000000 75.017640 43.498850 0.609821 0.775817 1.301355
 866000.000000 73.981180 43.905600 0.585673 2.320454 3.892326
 868000.000000 73.587020 43.121580 0.649485 1.958384 3.284990
 870000.000000 73.023370 43.271160 0.552344 3.370899 5.654341
 872000.000000 72.423730 43.300400 0.633558 3.432866 5.758284
 874000.000000 73.241480 43.491050 0.638164 2.921995 4.901350
 876000.000000 73.531780 43.277190 0.682141 3.035247 5.091319
 878000.000000 72.852060 43.241060 0.632986 3.737523 6.269316
 880000.000000 72.314150 43.345770 0.676407 2.404375 4.033095
 882000.000000 73.633520 43.807230 0.622575 4.619620 7.748944
 884000.000000 73.677680 44.098070 0.693142 2.106920 3.534145
 886000.000000 73.107790 43.746810 0.647781 3.202231 5.371418
 888000.000000 72.730450 43.429230 0.677303 4.258438 7.143098
 890000.000000 72.851330 43.696920 0.600687 4.215069 7.070351
 892000.000000 73.039630 42.452080 0.697954 2.203087 3.695455
 894000.000000 74.037110 42.920620 0.683799 1.982877 3.326075
 896000.000000 73.838640 43.016760 0.595154 1.503830 2.522522
 898000.000000 74.302630 43.291560 0.690381 1.696356 2.845465
 900000.000000 73.986600 42.677810 0.619017 2.012196 3.375255
 902000.000000 73.831540 42.851380 0.632099 2.577795 4.323990
 904000.000000 74.050870 42.580540 0.586410 1.595176 2.675746
 906000.000000 74.818800 42.384510 0.659182 -3.066086 -5.143048
 908000.000000 73.839860 42.539630 0.507316 2.447431 4.105317
 910000.000000 74.386440 42.262220 0.628003 -2.774848 -4.654526
 912000.000000 74.644670 42.692130 0.637187 -1.194960 -2.004424
 914000.000000 75.421890 42.487740 0.594514 -2.475715 -4.152761
 916000.000000 74.815030 41.974300 0.631063 -3.890060 -6.525181
 918000.000000 74.450480 42.080600 0.720174 -3.625232 -6.080959
 920000.000000 74.820130 42.330990 0.562039 -3.233003 -5.423035
 922000.000000 75.253640 42.500500 0.622010 -2.389048 -4.007386
 924000.000000 74.716030 42.313800 0.533132 -2.648929 -4.443310
 926000.000000 74.716290 42.429480 0.630995 -2.201199 -3.692288
 928000.000000 74.588530 42.494220 0.640451 -1.387966 -2.328172
 930000.000000 75.863530 42.841670 0.670968 -2.416919 -4.054136
 932000.000000 75.025850 43.063010 0.526309 -0.672627 -1.128263
 934000.000000 75.003270 43.035800 0.601782 -0.662009 -1.110453
 936000.000000 75.377180 43.266020 0.621280 -1.071895 -1.797995
 938000.000000 74.686350 42.800990 0.743997 -0.336151 -0.563859
 940000.000000 73.925800 43.347910 0.648871 2.774224 4.653479
 942000.000000 73.661750 43.804440 0.519845 4.363306 7.319003
 944000.000000 73.949980 44.170660 0.568800 2.781489 4.665666
 946000.000000 74.276350 42.832720 0.601611 0.634369 1.064089
 948000.000000 73.533780 43.458050 0.607409 1.248749 2.094650
 950000.000000 73.581110 42.768370 0.689271 1.630341 2.734732
 952000.000000 72.590510 43.189860 0.672669 4.302730 7.217393
 954000.000000 72.220740 42.911100 0.667738 3.392572 5.690695
 956000.000000 72.597420 42.799300 0.675832 3.983355 6.681674
 958000.000000 72.706160 43.269940 0.642048 3.869389 6.490507
 960000.000000 73.971460 43.265680 0.649186 2.383089 3.997390
 962000.000000 73.517710 43.335790 0.558396 3.086950 5.178045
 964000.000000 73.779350 42.730750 0.556671 2.420198 4.059637
 966000.000000 73.620850 42.732040 0.616635 1.872500 3.140929
 968000.000000 73.623810 42.750690 0.622189 1.829079 3.068094
 970000.000000 74.337720 42.489000 0.574855 -1.616465 -2.711456
 972000.000000 74.680290 42.616130 0.487794 -1.244791 -2.088011
 974000.000000 74.697100 42.835570 0.559125 -0.501816 -0.841745
 976000.000000 74.956540 42.608300 0.583242 -1.245534 -2.089257
 978000.000000 75.401700 42.221370 0.567727 -4.178225 -7.008549
 980000.000000 74.654440 41.615290 0.619089 -4.743134 -7.956126
 982000.000000 74.436330 41.218780 0.785044 -3.691618 -6.192315
 984000.000000 74.401540 41.498450 0.758028 -3.839666 -6.440650
 986000.000000 74.146960 41.732600 0.792966 -2.500405 -4.194176
 988000.000000 74.259550 41.743970 0.719705 -3.093761 -5.189470
 990000.000000 74.474040 41.223790 0.631489 -4.038687 -6.774488
 992000.000000 74.823580 42.038860 0.675840 -3.450747 -5.788278
 994000.000000 74.691980 41.686110 0.614295 -4.739081 -7.949328
 996000.000000 74.589070 41.562360 0.667731 -4.628031 -7.763052
 998000.000000 74.466990 42.077700 0.676078 -3.497223 -5.866237
 1000000.000000 74.708360 41.961500 0.659167 -3.772242 -6.327553
 1002000.000000 75.267480 41.825890 0.682881 -6.164019 -10.339517
 1004000.000000 75.047020 42.163980 0.678998 -4.096587 -6.871609
 1006000.000000 74.273510 42.515370 0.632578 -0.066408 -0.111393
 1008000.000000 74.613670 42.443700 0.623825 -2.038319 -3.419073
 1010000.000000 75.482030 42.737450 0.676442 -2.256908 -3.785734
 1012000.000000 75.080990 42.241370 0.554452 -3.642727 -6.110305
 1014000.000000 74.365840 42.576000 0.669617 -0.766926 -1.286441
 1016000.000000 74.329010 42.744890 0.637709 -0.287852 -0.482843
 1018000.000000 73.909860 42.483660 0.583376 2.450256 4.110056
 1020000.000000 74.810680 43.183540 0.552347 -0.526383 -0.882954
 1022000.000000 74.641960 42.118450 0.623715 -3.415477 -5.729116
 1024000.000000 74.423720 41.983780 0.554925 -2.817802 -4.726577
 1026000.000000 74.838980 42.280250 0.640664 -3.210887 -5.385937
 1028000.000000 74.997090 42.589740 0.627000 -1.557940 -2.613286
 1030000.000000 74.982090 43.093820 0.552269 -0.669536 -1.123079
 1032000.000000 75.718050 43.185530 0.614967 -2.338693 -3.922920
 1034000.000000 75.790010 43.074840 0.562011 -2.346434 -3.935905
 1036000.000000 75.540480 42.871340 0.577250 -2.348554 -3.939461
 1038000.000000 74.418220 43.477040 0.588934 0.750203 1.258389
 1040000.000000 75.052470 43.141180 0.593399 -0.673469 -1.129676
 1042000.000000 75.791020 43.110550 0.621811 -2.342688 -3.929621
 1044000.000000 75.527010 43.578330 0.587836 -2.165448 -3.632319
 1046000.000000 76.120000 43.559070 0.421770 -2.358281 -3.955777
 1048000.000000 75.556570 43.741560 0.608299 -0.674364 -1.131177
 1050000.000000 75.634880 43.925860 0.618551 -0.216201 -0.362655
 1052000.000000 75.246740 43.831980 0.556281 1.227149 2.058418
 1054000.000000 75.047280 44.136830 0.618678 1.627567 2.730079
 1056000.000000 75.281810 44.054000 0.640982 1.438015 2.412124
 1058000.000000 75.809940 43.943640 0.637344 -1.791793 -3.005551
 1060000.000000 74.988900 43.730110 0.599290 1.592998 2.672093
 1062000.000000 75.568080 43.782710 0.685438 -0.464770 -0.779605
 1064000.000000 75.243400 43.752120 0.663367 1.409863 2.364902
 1066000.000000 74.840610 43.425550 0.600778 0.162185 0.272048
 1068000.000000 75.346470 43.229110 0.617467 -1.183805 -1.985713
 1070000.000000 76.073360 43.834160 0.656807 -2.305168 -3.866685
 1072000.000000 75.648480 43.835240 0.651344 -0.944826 -1.584850
 1074000.000000 75.591830 43.464920 0.590279 -2.337870 -3.921540
 1076000.000000 75.407350 43.338480 0.624360 -0.987007 -1.655603
 1078000.000000 75.524200 43.316920 0.702608 -1.781152 -2.987702
 1080000.000000 75.260600 42.872020 0.688205 -0.990714 -1.661823
 1082000.000000 75.980700 43.096830 0.703697 -2.351050 -3.943648
 1084000.000000 75.180190 43.469530 0.737716 -0.456309 -0.765412
 1086000.000000 75.976870 43.380670 0.738765 -2.340649 -3.926201
 1088000.000000 75.797410 43.972510 0.641687 -1.563431 -2.622497
 1090000.000000 76.565100 43.899660 0.710167 -2.407542 -4.038407
 1092000.000000 76.373920 43.465420 0.680679 -2.527644 -4.239866
 1094000.000000 76.610660 43.866870 0.676205 -2.387861 -4.005395
 1096000.000000 76.117940 43.544740 0.689157 -2.356454 -3.952713
 1098000.000000 76.482140 43.304420 0.664015 -2.544739 -4.268542
 1100000.000000 76.523770 43.584660 0.688595 -2.705951 -4.538958
 1102000.000000 76.235170 43.186460 0.703907 -2.372475 -3.979586
 1104000.000000 75.851300 43.362200 0.684377 -2.338600 -3.922764
 1106000.000000 76.289900 43.211440 0.637860 -2.420556 -4.060237
 1108000.000000 75.793040 42.945740 0.705053 -2.377989 -3.988835
 1110000.000000 76.142750 42.566970 0.700914 -4.588927 -7.697459
 1112000.000000 76.249750 42.918750 0.718798 -2.585074 -4.336199
 1114000.000000 75.298410 42.647800 0.643196 -2.287625 -3.837259
 1116000.000000 74.757420 43.170960 0.677230 -0.461685 -0.774430
 1118000.000000 75.095730 43.109340 0.748789 -0.701688 -1.177010
 1120000.000000 75.421550 42.244590 0.722042 -4.103636 -6.883433
 1122000.000000 75.438630 41.911920 0.702710 -6.702097 -11.242088
 1124000.000000 75.637560 42.266370 0.732120 -5.482354 -9.196093
 1126000.000000 75.133950 41.999860 0.731526 -4.534514 -7.606187
 1128000.000000 75.206870 42.244100 0.714443 -3.383901 -5.676151
 1130000.000000 76.309050 42.790300 0.683295 -3.232830 -5.422744
 1132000.000000 76.067670 42.525010 0.686612 -5.788836 -9.710185
 1134000.000000 76.070830 42.231220 0.745919 -6.101995 -10.235478
 1136000.000000 75.782600 42.130070 0.715685 -6.252981 -10.488741
 1138000.000000 75.970960 41.904800 0.737782 -6.896965 -11.568959
 1140000.000000 76.174770 42.457910 0.700699 -5.495850 -9.218731
 1142000.000000 75.808220 42.635650 0.694136 -3.953678 -6.631894
 1144000.000000 75.230970 41.797810 0.705140 -6.230452 -10.450951
 1146000.000000 75.719340 41.619700 0.747118 -7.005720 -11.751385
 1148000.000000 75.912810 41.976440 0.745771 -6.875151 -11.532368
 1150000.000000 75.430620 42.535200 0.689154 -2.401454 -4.028195
 1152000.000000 75.513210 42.370010 0.699520 -4.725470 -7.926497
 1154000.000000 75.028360 42.235480 0.699302 -3.483821 -5.843756
 1156000.000000 75.455950 42.498580 0.747916 -2.554088 -4.284224
 1158000.000000 74.770740 42.552420 0.718252 -1.416391 -2.375852
 1160000.000000 74.278980 42.498340 0.710401 -0.275047 -0.461363
 1162000.000000 74.839730 41.964170 0.731854 -3.873133 -6.496788
 1164000.000000 75.324680 41.941680 0.776339 -5.495065 -9.217414
 1166000.000000 75.340460 42.790990 0.714980 -1.935924 -3.247316
 1168000.000000 75.976320 43.082160 0.748998 -2.352559 -3.946179
 1170000.000000 75.917460 43.172520 0.689817 -2.341896 -3.928293
 1172000.000000 75.461020 42.969860 0.720483 -2.283979 -3.831143
 1174000.000000 75.156330 42.873010 0.756165 -0.724687 -1.215589
 1176000.000000 75.985430 43.297180 0.695380 -2.344551 -3.932746
 1178000.000000 76.950430 43.537130 0.686691 -2.557478 -4.289910
 1180000.000000 76.335380 43.107410 0.685608 -2.446319 -4.103452
 1182000.000000 76.468540 43.278660 0.669696 -2.594980 -4.352816
 1184000.000000 76.745940 43.717670 0.665610 -2.695795 -4.521923
 1186000.000000 76.821950 43.277380 0.700699 -3.440917 -5.771789
 1188000.000000 76.688400 43.157930 0.674222 -3.054892 -5.124271
 1190000.000000 76.390640 43.052480 0.710174 -2.700223 -4.529350
 1192000.000000 76.815680 43.358350 0.713286 -3.416886 -5.731480
 1194000.000000 76.636920 43.238520 0.713153 -3.061606 -5.135533
 1196000.000000 76.010180 43.286240 0.742602 -2.348085 -3.938674
 1198000.000000 75.578430 42.671100 0.797237 -2.428448 -4.073475
 1200000.000000 75.399940 42.521640 0.741505 -2.388280 -4.006097
 1202000.000000 75.207690 43.489490 0.664715 -0.593760 -0.995971
 1204000.000000 76.087940 43.505990 0.610704 -2.344683 -3.932968
 1206000.000000 75.301110 43.037020 0.705543 -1.592708 -2.671606
 1208000.000000 75.740350 42.992350 0.706308 -2.356527 -3.952835
 1210000.000000 75.473110 42.731670 0.622501 -2.253867 -3.780633
 1212000.000000 76.611750 42.800890 0.681114 -3.636412 -6.099712
 1214000.000000 76.471330 43.157330 0.657126 -2.969445 -4.980943
 1216000.000000 74.772160 42.719040 0.678878 -0.903553 -1.515619
 1218000.000000 74.827380 42.748430 0.684210 -0.728788 -1.222469
 1220000.000000 74.442510 43.042350 0.734939 1.284535 2.154677
 1222000.000000 74.175890 43.299440 0.666626 1.622899 2.722248
 1224000.000000 73.967820 43.080630 0.686191 0.756224 1.268490
 1226000.000000 73.574360 42.916800 0.797436 1.976124 3.314748
 1228000.000000 73.260290 42.211160 0.847598 3.258099 5.465131
 1230000.000000 73.256140 41.994850 0.907482 3.424832 5.744808
 1232000.000000 73.581070 42.094490 0.796495 1.353644 2.270600
 1234000.000000 73.072020 42.297680 0.743776 3.172323 5.321250
 1236000.000000 73.064390 42.695740 0.813250 1.834186 3.076661
 1238000.000000 73.572930 42.287910 0.805189 2.267561 3.803604
 1240000.000000 74.039710 42.002290 0.803135 -2.336270 -3.918856
 1242000.000000 74.340650 42.235000 0.792075 -3.566737 -5.982839
 1244000.000000 74.920070 42.298490 0.774275 -3.056118 -5.126328
 1246000.000000 73.652500 42.548250 0.786770 2.597302 4.356711
 1248000.000000 74.060420 42.922190 0.675309 1.986130 3.331532
 1250000.000000 74.779410 43.210260 0.659092 -0.083810 -0.140583
 1252000.000000 74.823950 43.426110 0.740318 0.107118 0.179679
 1254000.000000 75.170070 42.722530 0.764157 -0.901738 -1.512574
 1256000.000000 75.242650 42.534750 0.695769 -2.345359 -3.934102
 1258000.000000 74.772350 42.846310 0.716209 -0.448496 -0.752307
 1260000.000000 74.231270 42.465110 0.719683 0.368421 0.617989
 1262000.000000 73.860210 41.715700 0.851220 -2.288419 -3.838591
 1264000.000000 73.931740 42.138180 0.881888 -0.156093 -0.261831
 1266000.000000 74.082110 42.007680 0.780145 -2.364610 -3.966393
 1268000.000000 73.569780 42.157120 0.660928 2.268809 3.805697
 1270000.000000 72.554870 42.369080 0.624695 3.967872 6.655703
 1272000.000000 73.576820 42.503180 0.700879 3.103800 5.206310
 1274000.000000 74.294910 42.005080 0.748423 -3.147321 -5.279312
 1276000.000000 75.048510 42.250440 0.642435 -3.568959 -5.986567
 1278000.000000 74.989800 42.750830 0.499965 -0.804088 -1.348776
 1280000.000000 74.923010 42.573550 0.558971 -1.326226 -2.224610
 1282000.000000 76.553840 43.149550 0.643071 -2.925559 -4.907328
 1284000.000000 76.534050 42.745490 0.676123 -3.979557 -6.675303
 1286000.000000 77.616900 43.065020 0.681090 -6.289372 -10.549783
 1288000.000000 76.646680 43.903660 0.634697 -2.398280 -4.022871
 1290000.000000 76.385290 42.815210 0.666412 -3.271160 -5.487039
 1292000.000000 76.561730 43.047570 0.684511 -3.115246 -5.225509
 1294000.000000 76.939860 43.832080 0.601432 -2.869693 -4.813619
 1296000.000000 76.264330 43.406200 0.585104 -2.409098 -4.041017
 1298000.000000 75.815680 43.724790 0.582108 -2.332409 -3.912379
 1300000.000000 75.194210 44.274700 0.565265 1.546420 2.593963
 1302000.000000 75.480140 44.143400 0.551432 0.983047 1.648961
 1304000.000000 74.168030 44.044720 0.552550 1.705889 2.861456
 1306000.000000 74.265830 44.435890 0.520572 1.339501 2.246877
 1308000.000000 74.954490 43.918100 0.545523 2.026448 3.399161
 1310000.000000 75.345930 43.918690 0.539998 0.505046 0.847163
 1312000.000000 75.593360 44.073710 0.603385 0.701603 1.176868
 1314000.000000 75.220020 43.711040 0.587212 1.274226 2.137385
 1316000.000000 75.120810 44.101920 0.437192 1.270589 2.131284
 1318000.000000 74.604580 44.280530 0.609920 2.015727 3.381178
 1320000.000000 74.865690 44.080660 0.553376 2.071301 3.474397
 1322000.000000 75.366830 44.049820 0.498035 1.295209 2.172582
 1324000.000000 76.394500 44.081960 0.497219 -2.241903 -3.760565
 1326000.000000 75.097950 44.093150 0.577059 1.268850 2.128367
 1328000.000000 76.348300 44.747520 0.497390 -0.751240 -1.260129
 1330000.000000 75.382670 44.588300 0.555402 0.796239 1.335610
 1332000.000000 75.607940 44.189650 0.487528 0.565576 0.948696
 1334000.000000 75.236060 43.752200 0.549184 1.485313 2.491462
 1336000.000000 75.682790 44.085050 0.601121 0.010053 0.016862
 1338000.000000 75.530290 44.854610 0.552524 -0.422583 -0.708839
 1340000.000000 75.326750 44.616040 0.501695 0.931684 1.562805
 1342000.000000 74.698960 44.255210 0.532817 1.290912 2.165374
 1344000.000000 74.785130 44.653520 0.563544 0.904032 1.516422
 1346000.000000 73.992890 44.242180 0.427066 2.317442 3.887274
 1348000.000000 74.481330 44.656800 0.567795 0.426472 0.715364
 1350000.000000 75.291610 44.785540 0.599923 0.141151 0.236767
 1352000.000000 75.864670 44.291520 0.576489 -0.108439 -0.181896
 1354000.000000 74.829100 44.134860 0.552861 2.015176 3.380253
 1356000.000000 74.324860 44.245860 0.551031 1.739081 2.917132
 1358000.000000 74.824530 44.055560 0.481775 1.881770 3.156478
 1360000.000000 74.091730 44.784370 0.455452 1.327647 2.226993
 1362000.000000 74.877940 44.528400 0.490873 1.300710 2.181809
 1364000.000000 73.511960 44.391550 0.471932 3.627005 6.083933
 1366000.000000 74.012960 44.615780 0.397262 0.832228 1.395978
 1368000.000000 74.534860 43.864420 0.439733 2.068386 3.469508
 1370000.000000 73.667290 43.966390 0.522118 2.494045 4.183507
 1372000.000000 73.552000 43.557270 0.561350 2.566144 4.304446
 1374000.000000 74.079090 44.209750 0.515257 1.956728 3.282213
 1376000.000000 74.267940 44.354210 0.537652 1.522207 2.553348
 1378000.000000 74.091160 44.096400 0.557471 1.924602 3.228325
 1380000.000000 74.149270 43.327550 0.601119 1.476663 2.476952
 1382000.000000 75.058170 44.638680 0.522978 1.127658 1.891532
 1384000.000000 75.475540 44.031090 0.540317 1.092234 1.832112
 1386000.000000 74.329400 43.701010 0.524943 1.644771 2.758936
 1388000.000000 74.088670 43.675950 0.503628 3.033135 5.087776
 1390000.000000 73.830370 43.691670 0.548035 3.512961 5.892636
 1392000.000000 73.234720 43.258060 0.421941 3.463399 5.809500
 1394000.000000 73.464880 43.598110 0.590666 4.307199 7.224889
 1396000.000000 72.455850 43.415020 0.626963 3.448340 5.784241
 1398000.000000 73.540530 42.848610 0.578684 1.412613 2.369515
 1400000.000000 73.210320 43.441980 0.507883 2.745085 4.604602
 1402000.000000 73.269270 43.153450 0.620220 3.037799 5.095600
 1404000.000000 73.120270 42.941250 0.603098 2.916711 4.892487
 1406000.000000 74.122800 43.089500 0.583152 1.547475 2.595732
 1408000.000000 73.356740 42.791480 0.621536 2.728305 4.576455
 1410000.000000 72.341260 42.387080 0.704852 3.904008 6.548577
 1412000.000000 72.441200 42.538400 0.729186 3.833317 6.430000
 1414000.000000 71.558090 42.933560 0.658122 0.907850 1.522826
 1416000.000000 73.201760 42.190250 0.765979 3.336705 5.596984
 1418000.000000 72.751420 42.277990 0.707880 2.263609 3.796974
 1420000.000000 71.658550 42.077860 0.791111 3.897585 6.537803
 1422000.000000 72.703810 42.284900 0.770413 2.198304 3.687432
 1424000.000000 72.087000 42.784200 0.804852 2.820419 4.730967
 1426000.000000 73.641180 41.666650 0.796892 -1.556200 -2.610368
 1428000.000000 73.719210 41.771700 0.700811 -2.141523 -3.592188
 1430000.000000 73.735420 41.604940 0.761706 -2.187172 -3.668759
 1432000.000000 72.688520 41.883760 0.749122 5.130922 8.606601
 1434000.000000 73.053630 41.869530 0.709663 4.148039 6.957915
 1436000.000000 72.607320 42.446460 0.737630 3.298342 5.532634
 1438000.000000 73.216360 42.447440 0.710369 2.641213 4.430367
 1440000.000000 73.063640 42.012320 0.748012 4.398109 7.377382
 1442000.000000 74.037790 42.223910 0.726275 -0.125531 -0.210566
 1444000.000000 74.189140 41.901800 0.741219 -2.666270 -4.472397
 1446000.000000 74.648990 42.097520 0.753986 -3.437273 -5.765677
 1448000.000000 75.087060 41.585550 0.816575 -6.423192 -10.774253
 1450000.000000 74.272760 41.066540 0.673047 -3.208822 -5.382473
 1452000.000000 74.206580 41.122200 0.719693 -3.331023 -5.587453
 1454000.000000 74.765550 41.462870 0.625805 -4.936027 -8.279685
 1456000.000000 74.963170 41.335650 0.641395 -6.196852 -10.394591
 1458000.000000 75.165940 41.324630 0.665794 -6.616226 -11.098048
 1460000.000000 74.555020 41.140170 0.733704 -4.356954 -7.308348
 1462000.000000 74.111790 40.994150 0.631094 -2.654363 -4.452425
 1464000.000000 74.430040 41.469560 0.738084 -4.449817 -7.464117
 1466000.000000 74.912740 41.183670 0.717653 -6.202828 -10.404615
 1468000.000000 74.537370 40.755140 0.660116 -6.118857 -10.263762
 1470000.000000 74.791570 40.799950 0.702987 -6.589286 -11.052859
 1472000.000000 74.363360 40.536760 0.751244 -6.516709 -10.931118
 1474000.000000 74.502670 40.772990 0.724405 -6.098121 -10.228979
 1476000.000000 74.768610 40.762690 0.729598 -6.739283 -11.304464
 1478000.000000 74.849620 41.032870 0.703202 -5.880360 -9.863707
 1480000.000000 74.752500 40.696890 0.730587 -6.768418 -11.353335
 1482000.000000 74.667010 40.998610 0.718777 -5.520585 -9.260221
 1484000.000000 74.518600 40.918570 0.813789 -6.121955 -10.268958
 1486000.000000 74.292290 41.077100 0.735598 -3.163867 -5.307066
 1488000.000000 74.727090 40.789460 0.722062 -6.578596 -11.034927
 1490000.000000 74.778490 41.190110 0.770436 -5.597672 -9.389527
 1492000.000000 74.085880 40.859280 0.742500 -2.974570 -4.989539
 1494000.000000 73.932790 40.669560 0.849902 -5.675276 -9.519700
 1496000.000000 74.099260 40.733760 0.863923 -6.059729 -10.164581
 1498000.000000 74.021050 40.486410 0.824306 -6.167179 -10.344817
 1500000.000000 73.905140 40.700140 0.830478 -5.428368 -9.105537
 1502000.000000 74.024850 41.289180 0.776521 -2.612568 -4.382318
 1504000.000000 73.529880 40.998120 0.786886 -0.692460 -1.161531
 1506000.000000 74.163080 41.365240 0.810816 -2.667872 -4.475085
 1508000.000000 74.280600 41.275020 0.896532 -3.452197 -5.790710
 1510000.000000 73.258880 41.516870 0.957500 1.428024 2.395365
 1512000.000000 74.016700 41.312180 0.810815 -2.518939 -4.225265
 1514000.000000 74.349590 40.394130 0.937197 -6.554775 -10.994970
 1516000.000000 74.634680 41.010640 0.861644 -5.221506 -8.758547
 1518000.000000 74.276240 41.268370 0.802570 -3.435921 -5.763409
 1520000.000000 74.314370 41.430770 0.827573 -2.991895 -5.018600
 1522000.000000 74.067090 41.291290 0.888489 -2.741637 -4.598818
 1524000.000000 73.601800 41.152930 0.866400 -0.723223 -1.213133
 1526000.000000 74.541830 40.626300 0.956618 -6.446716 -10.813712
 1528000.000000 74.125430 40.761400 0.938010 -6.043626 -10.137569
 1530000.000000 73.898330 40.251810 0.882911 -6.543106 -10.975397
 1532000.000000 73.668290 40.539940 0.894025 -6.042327 -10.135391
 1534000.000000 73.895120 40.862130 0.943735 -2.962193 -4.968778
 1536000.000000 73.685120 40.646250 0.927073 -5.306726 -8.901494
 1538000.000000 73.205210 41.633060 0.816487 1.753003 2.940485
 1540000.000000 73.037410 41.417170 0.777268 1.217214 2.041753
 1542000.000000 74.219250 41.611470 0.830094 -2.790953 -4.681541
 1544000.000000 73.976320 41.259160 0.824237 -2.619058 -4.393204
 1546000.000000 73.868970 41.128410 0.820168 -2.823229 -4.735680
 1548000.000000 74.128040 41.933260 0.805505 -2.370192 -3.975757
 1550000.000000 73.578820 41.841250 0.901633 -1.988460 -3.335440
 1552000.000000 74.165180 41.852040 0.829398 -2.441214 -4.094889
 1554000.000000 74.745110 41.700670 0.800111 -4.899112 -8.217763
 1556000.000000 74.240300 41.409060 0.871169 -2.639279 -4.427123
 1558000.000000 73.463590 41.727730 0.787481 -0.961229 -1.612364
 1560000.000000 73.345360 42.173210 0.789868 3.219208 5.399895
 1562000.000000 74.003830 41.898900 0.809683 -2.352801 -3.946585
 1564000.000000 73.621840 42.455540 0.778151 2.846249 4.774294
 1566000.000000 72.984190 41.763510 0.741807 3.936776 6.603542
 1568000.000000 73.156070 41.563340 0.820235 1.739225 2.917373
 1570000.000000 72.629650 41.760360 0.726722 5.342900 8.962173
 1572000.000000 73.011380 41.127620 0.815700 1.445202 2.424180
 1574000.000000 73.941470 41.010590 0.850294 -2.560064 -4.294248
 1576000.000000 74.502700 41.546490 0.860919 -4.242408 -7.116209
 1578000.000000 75.486800 41.491450 0.876377 -7.021611 -11.778040
 1580000.000000 74.610750 40.951310 0.891095 -5.959348 -9.996202
 1582000.000000 74.566320 41.559850 0.816143 -4.575593 -7.675093
 1584000.000000 75.367610 41.709110 0.789917 -6.817089 -11.434975
 1586000.000000 74.739120 41.006760 0.868902 -5.873158 -9.851627
 1588000.000000 73.901700 41.118490 0.871516 -2.845814 -4.773564
 1590000.000000 74.347440 42.508320 0.893597 -1.392550 -2.335861
 1592000.000000 74.314840 42.401610 0.854411 -1.886742 -3.164818
 1594000.000000 74.706580 42.188380 0.906179 -3.645368 -6.114735
 1596000.000000 74.847470 42.193580 0.828027 -3.383904 -5.676156
 1598000.000000 75.018070 42.292920 0.806435 -3.413072 -5.725082
 1600000.000000 75.637700 42.597980 0.777181 -3.752293 -6.294091
 1602000.000000 75.382810 41.617360 0.890304 -6.768836 -11.354036
 1604000.000000 73.979030 41.631850 0.788856 -2.329475 -3.907458
 1606000.000000 73.833430 42.011420 0.881729 -1.921903 -3.223797
 1608000.000000 74.266300 41.834630 0.882666 -2.761935 -4.632866
 1610000.000000 73.740990 41.169280 0.912521 -1.511742 -2.535794
 1612000.000000 73.441430 41.256360 0.924925 -0.768724 -1.289456
 1614000.000000 73.430500 41.470940 0.850663 -0.256383 -0.430056
 1616000.000000 73.024390 41.713000 0.859187 3.541071 5.939787
 1618000.000000 73.431350 41.377930 0.889869 0.373553 0.626597
 1620000.000000 72.718560 41.320200 0.885772 2.393907 4.015536
 1622000.000000 72.662150 41.893540 0.891964 5.224789 8.764053
 1624000.000000 71.974640 41.903510 0.918631 6.217690 10.429544
 1626000.000000 72.209960 41.555580 0.906951 5.938707 9.961579
 1628000.000000 72.842210 41.992680 0.817129 4.826132 8.095347
 1630000.000000 72.501350 41.727000 0.904435 5.492169 9.212556
 1632000.000000 72.706680 41.350430 0.848962 2.328859 3.906425
 1634000.000000 72.664370 42.175660 0.720815 4.196861 7.039809
 1636000.000000 72.530330 42.418350 0.724277 3.793144 6.362614
 1638000.000000 72.463710 42.806390 0.687699 3.612370 6.059384
 1640000.000000 72.868290 42.856420 0.683003 3.400208 5.703504
 1642000.000000 72.892420 42.626980 0.710385 0.975965 1.637082
 1644000.000000 73.163870 42.748380 0.783750 2.596653 4.355622
 1646000.000000 73.011040 42.908800 0.866385 3.340658 5.603615
 1648000.000000 73.409570 42.814650 0.785126 1.895703 3.179849
 1650000.000000 73.458600 42.528670 0.941692 2.901685 4.867282
 1652000.000000 73.258710 42.761820 0.842479 3.139501 5.266194
 1654000.000000 73.449190 42.792280 0.797461 1.748668 2.933213
 1656000.000000 73.923470 42.639680 0.668711 2.071129 3.474109
 1658000.000000 73.229190 42.831380 0.578832 2.515802 4.220003
 1660000.000000 72.395880 42.498650 0.759397 3.730132 6.256918
 1662000.000000 72.626830 42.140540 0.614644 4.200565 7.046022
 1664000.000000 72.787680 43.501080 0.612895 3.551194 5.956768
 1666000.000000 72.042290 43.470320 0.586443 -0.436205 -0.731690
 1668000.000000 72.733210 43.589490 0.574307 3.055373 5.125078
 1670000.000000 73.148100 43.691410 0.713874 3.907877 6.555067
 1672000.000000 72.381400 44.107930 0.598135 2.638060 4.425078
 1674000.000000 73.254770 44.168940 0.583987 2.551129 4.279260
 1676000.000000 73.270890 44.208050 0.437787 3.058786 5.130803
 1678000.000000 73.956540 43.947880 0.579120 2.165992 3.633232
 1680000.000000 73.172770 43.966620 0.556433 4.128942 6.925881
 1682000.000000 72.808040 44.258740 0.567005 4.243831 7.118596
 1684000.000000 72.285390 44.043270 0.518988 2.229599 3.739926
 1686000.000000 73.464430 44.054740 0.490262 3.664789 6.147312
 1688000.000000 72.238810 44.134610 0.517534 1.339151 2.246290
 1690000.000000 71.345470 43.723470 0.470311 -3.287493 -5.514436
 1692000.000000 71.646460 43.231830 0.445507 0.341954 0.573592
 1694000.000000 71.393580 43.014850 0.441492 -0.871937 -1.462587
 1696000.000000 71.317220 43.976950 0.480221 -3.508340 -5.884884
 1698000.000000 71.547400 43.511420 0.559335 -2.153007 -3.611451
 1700000.000000 71.758890 44.010320 0.478473 -2.147304 -3.601885
 1702000.000000 71.896730 43.962660 0.422883 0.121727 0.204185
 1704000.000000 73.425810 43.402920 0.482993 2.400076 4.025884
 1706000.000000 74.290480 43.253510 0.546600 1.577768 2.646546
 1708000.000000 73.717140 43.027200 0.526283 1.692533 2.839052
 1710000.000000 74.342150 43.688390 0.519479 1.341621 2.250433
 1712000.000000 74.168360 43.240110 0.558912 1.557045 2.611785
 1714000.000000 73.990540 44.495400 0.424263 1.354155 2.271458
 1716000.000000 73.717750 44.277780 0.416950 4.343968 7.286566
 1718000.000000 73.203360 44.428880 0.433514 3.891488 6.527576
 1720000.000000 72.448680 44.837080 0.457154 3.201610 5.370376
 1722000.000000 71.814040 44.408690 0.421232 -1.408630 -2.362834
 1724000.000000 72.231980 44.213220 0.368587 1.758952 2.950464
 1726000.000000 73.128560 43.851270 0.459141 3.865962 6.484759
 1728000.000000 72.327880 43.547240 0.452407 3.284892 5.510073
 1730000.000000 71.553260 43.935890 0.377354 -3.375120 -5.661421
 1732000.000000 71.078300 44.000780 0.552766 -3.524908 -5.912676
 1734000.000000 71.298400 43.757610 0.700038 -3.052306 -5.119934
 1736000.000000 70.922160 43.908550 0.468667 -3.152267 -5.287608
 1738000.000000 71.858420 43.665950 0.547539 -1.539382 -2.582157
 1740000.000000 72.159420 43.008220 0.544701 3.225251 5.410031
 1742000.000000 72.300140 43.703060 0.533647 3.288156 5.515548
 1744000.000000 70.862840 43.402320 0.375620 -2.990666 -5.016539
 1746000.000000 72.306230 43.371470 0.640683 2.104462 3.530022
 1748000.000000 72.548310 43.528930 0.572264 4.044714 6.784597
 1750000.000000 72.737800 43.535210 0.629067 3.398993 5.701466
 1752000.000000 72.104510 43.051480 0.590762 2.960025 4.965142
 1754000.000000 72.728840 44.008110 0.566645 4.624792 7.757619
 1756000.000000 72.755150 43.086910 0.701435 3.834057 6.431242
 1758000.000000 72.699920 43.000990 0.624859 4.540914 7.616923
 1760000.000000 73.228750 43.821390 0.507686 4.516261 7.575570
 1762000.000000 73.664980 43.836950 0.527937 4.176576 7.005783
 1764000.000000 73.227250 43.536680 0.529083 3.362782 5.640726
 1766000.000000 72.997110 43.627770 0.579310 3.319911 5.568814
 1768000.000000 72.412810 43.712490 0.575853 4.285647 7.188738
 1770000.000000 73.631450 44.332550 0.356847 3.898064 6.538607
 1772000.000000 74.521070 43.833410 0.502017 1.799821 3.019017
 1774000.000000 74.240090 44.265560 0.467733 1.474388 2.473136
 1776000.000000 74.752120 44.368860 0.543312 1.074973 1.803158
 1778000.000000 74.012660 44.938330 0.492068 2.463689 4.132588
 1780000.000000 74.932830 44.992330 0.456145 1.378288 2.311938
 1782000.000000 74.627610 45.562560 0.381240 1.952318 3.274815
 1784000.000000 74.151130 45.249160 0.356782 2.287692 3.837371
 1786000.000000 74.201720 44.972460 0.417964 2.201514 3.692816
 1788000.000000 74.412560 44.946710 0.282012 1.634597 2.741871
 1790000.000000 74.562020 44.815990 0.472495 1.092925 1.833271
 1792000.000000 75.559210 45.149770 0.464570 -0.507364 -0.851051
 1794000.000000 75.023660 45.371100 0.373359 2.471279 4.145320
 1796000.000000 73.999540 44.529420 0.312121 1.378115 2.311648
 1798000.000000 73.833490 45.214150 0.247819 1.936103 3.247616
 1800000.000000 75.009740 44.919950 0.446307 0.982184 1.647514
 1802000.000000 74.233590 44.907900 0.351668 1.903006 3.192100
 1804000.000000 75.335290 45.124680 0.294909 0.485012 0.813558
 1806000.000000 75.255810 45.383650 0.383549 1.840064 3.086521
 1808000.000000 74.102370 45.269930 0.328291 2.502237 4.197249
 1810000.000000 74.910620 45.966570 0.333121 2.507729 4.206461
 1812000.000000 75.406360 44.944700 0.369945 0.138831 0.232876
 1814000.000000 75.559970 45.003650 0.328608 -0.523686 -0.878431
 1816000.000000 75.369870 44.683140 0.320494 0.946716 1.588020
 1818000.000000 74.907220 44.383840 0.357188 0.722236 1.211477
 1820000.000000 75.250790 44.721690 0.304314 0.941609 1.579453
 1822000.000000 75.757130 44.640580 0.319773 -0.182732 -0.306515
 1824000.000000 75.653000 43.633580 0.198870 -2.204650 -3.698077
 1826000.000000 75.672150 44.610300 0.320767 0.296599 0.497514
 1828000.000000 76.300080 45.338100 0.236600 -0.498613 -0.836372
 1830000.000000 75.742540 45.628120 0.317447 0.207440 0.347959
 1832000.000000 74.290990 44.703100 0.331770 0.612710 1.027759
 1834000.000000 74.936710 44.395560 0.475050 0.675648 1.133332
 1836000.000000 74.897920 44.397610 0.346591 0.682124 1.144194
 1838000.000000 74.254050 45.189330 0.312332 2.787242 4.675316
 1840000.000000 75.128930 45.012770 0.351556 0.337690 0.566440
 1842000.000000 74.221000 45.683700 0.310209 0.134013 0.224793
 1844000.000000 73.345510 45.366840 0.311301 2.641584 4.430989
 1846000.000000 73.521370 44.619470 0.313736 3.196857 5.362403
 1848000.000000 74.341740 44.562850 0.372603 1.169260 1.961315
 1850000.000000 74.395620 44.633060 0.377869 0.241224 0.404628
 1852000.000000 73.336630 44.668160 0.370378 3.552634 5.959183
 1854000.000000 74.036080 44.961450 0.369528 2.370229 3.975819
 1856000.000000 73.243150 44.956210 0.309623 3.299422 5.534446
 1858000.000000 73.236190 44.406650 0.343936 4.137743 6.940644
 1860000.000000 72.104960 44.558930 0.310718 -0.456266 -0.765340
 1862000.000000 72.390260 44.787330 0.313832 3.098633 5.197642
 1864000.000000 72.428680 44.702420 0.310377 3.283369 5.507518
 1866000.000000 73.104580 45.173680 0.312429 3.599085 6.037100
 1868000.000000 72.499760 44.678680 0.311397 3.156660 5.294977
 1870000.000000 72.957810 44.976760 0.312272 3.184039 5.340902
 1872000.000000 73.296490 44.936730 0.316372 3.069169 5.148220
 1874000.000000 72.938180 45.210580 0.312576 3.025579 5.075102
 1876000.000000 73.112880 45.485950 0.294477 1.570307 2.634031
 1878000.000000 72.718560 45.584390 0.195409 -0.238330 -0.399775
 1880000.000000 72.839050 45.491990 0.279970 -0.440992 -0.739720
 1882000.000000 71.964020 44.935430 0.295954 -0.231942 -0.389060
 1884000.000000 72.194510 44.395870 0.307368 1.621776 2.720365
 1886000.000000 71.837140 44.667230 0.344584 -2.150847 -3.607828
 1888000.000000 71.713310 44.338920 0.281842 -1.356855 -2.275987
 1890000.000000 72.160200 44.522790 0.190019 1.037759 1.740735
 1892000.000000 72.503780 45.341070 0.203879 0.364512 0.611432
 1894000.000000 72.992950 44.496200 0.296269 4.700453 7.884533
 1896000.000000 73.080400 44.417970 0.348066 4.362143 7.317052
 1898000.000000 73.322960 43.944230 0.318088 4.249829 7.128657
 1900000.000000 73.690930 44.424780 0.346930 3.518481 5.901895
 1902000.000000 74.123380 44.337790 0.374308 1.034821 1.735807
 1904000.000000 73.931330 44.356890 0.359824 2.568603 4.308571
 1906000.000000 72.456000 44.234610 0.343071 2.021679 3.391161
 1908000.000000 71.676260 44.196520 0.353894 -2.018006 -3.385000
 1910000.000000 72.335800 43.898170 0.365668 3.512474 5.891819
 1912000.000000 72.111890 43.632000 0.375059 1.315960 2.207389
 1914000.000000 71.207880 43.988880 0.312078 -3.502031 -5.874302
 1916000.000000 71.009030 43.860950 0.348307 -2.770692 -4.647555
 1918000.000000 69.969950 44.265680 0.377566 -3.502894 -5.875749
 1920000.000000 70.369500 43.975690 0.352768 -3.571146 -5.990235
 1922000.000000 71.186720 44.051290 0.360524 -3.502521 -5.875124
 1924000.000000 70.896230 44.425490 0.366535 -2.974844 -4.989999
 1926000.000000 70.840250 44.618670 0.333577 -2.164830 -3.631283
 1928000.000000 71.079660 44.610300 0.354457 -2.198378 -3.687556
 1930000.000000 70.355200 43.781640 0.381472 -3.504396 -5.878269
 1932000.000000 70.903610 43.128370 0.444544 -2.649979 -4.445071
 1934000.000000 69.831840 43.173430 0.578797 -6.083728 -10.204837
 1936000.000000 71.186840 43.007570 0.514439 -1.613533 -2.706538
 1938000.000000 71.299170 43.272920 0.444810 -2.154969 -3.614742
 1940000.000000 69.765680 43.584760 0.454838 -5.467845 -9.171755
 1942000.000000 69.424770 43.592190 0.483272 -6.189462 -10.382195
 1944000.000000 69.292200 43.419700 0.430377 -6.211568 -10.419275
 1946000.000000 70.593380 43.563670 0.520201 -3.547572 -5.950692
 1948000.000000 71.183780 44.052150 0.418767 -3.502680 -5.875390
 1950000.000000 70.042420 44.116960 0.351779 -3.500482 -5.871703
 1952000.000000 70.410480 43.936130 0.360811 -3.553210 -5.960149
 1954000.000000 70.767560 43.517080 0.409569 -3.500077 -5.871024
 1956000.000000 70.210370 43.039100 0.448805 -5.759232 -9.660527
 1958000.000000 69.556500 42.731030 0.490761 -4.976929 -8.348293
 1960000.000000 69.800510 43.395000 0.483881 -5.934092 -9.953837
 1962000.000000 69.472510 43.046160 0.426306 -6.248830 -10.481778
 1964000.000000 69.806000 42.942680 0.372487 -6.212511 -10.420857
 1966000.000000 70.701900 42.817160 0.493930 -2.244296 -3.764579
 1968000.000000 71.187010 43.337650 0.491512 -2.154776 -3.614418
 1970000.000000 70.661460 42.698790 0.472465 -2.281676 -3.827280
 1972000.000000 71.870350 43.024060 0.519196 3.316369 5.562873
 1974000.000000 70.995600 42.684640 0.470702 -2.147267 -3.601823
 1976000.000000 71.756110 42.974570 0.610353 2.888929 4.845885
 1978000.000000 71.163260 42.576700 0.584232 -0.491010 -0.823620
 1980000.000000 70.832530 42.463320 0.604030 -2.341809 -3.928147
 1982000.000000 71.761500 42.117100 0.680097 4.164520 6.985560
 1984000.000000 71.616380 42.950750 0.683072 1.326407 2.224913
 1986000.000000 69.893560 43.378730 0.641799 -4.496598 -7.542587
 1988000.000000 71.428530 43.112360 0.654457 -0.739108 -1.239780
 1990000.000000 70.376360 42.808110 0.577725 -3.499524 -5.870096
 1992000.000000 70.984770 43.309380 0.536270 -2.192804 -3.678206
 1994000.000000 71.568330 43.610290 0.461608 -2.161979 -3.626500
 1996000.000000 70.926310 44.078300 0.423166 -3.498940 -5.869117
 1998000.000000 70.937170 44.192690 0.321211 -3.498927 -5.869095
 2000000.000000 69.876700 44.085770 0.443182 -4.283622 -7.185341
 2002000.000000 70.449170 44.106650 0.341220 -3.499979 -5.870860
 2004000.000000 70.592150 44.441190 0.330318 -3.052839 -5.120828
 2006000.000000 69.914180 44.971800 0.287557 -3.685369 -6.181833
 2008000.000000 70.626950 44.614030 0.363792 -2.467509 -4.138996
 2010000.000000 70.980600 44.569370 0.285935 -2.188827 -3.671535
 2012000.000000 71.073110 44.351380 0.300866 -2.443202 -4.098223
 2014000.000000 71.057200 45.139820 0.405161 -2.170850 -3.641381
 2016000.000000 70.495410 44.198230 0.342604 -3.499018 -5.869248
 2018000.000000 70.572840 43.971900 0.430065 -3.499123 -5.869424
 2020000.000000 70.632400 43.680910 0.398817 -3.550201 -5.955102
 2022000.000000 69.753690 44.413400 0.354924 -5.580191 -9.360204
 2024000.000000 71.283830 44.981280 0.338614 -2.169375 -3.638906
 2026000.000000 71.836320 44.862950 0.349523 -1.364839 -2.289379
 2028000.000000 70.971300 45.443640 0.283515 -2.240000 -3.757373
 2030000.000000 71.268750 44.786860 0.306007 -2.613555 -4.383973
 2032000.000000 71.897770 44.570370 0.332457 -1.033444 -1.733497
 2034000.000000 72.377440 45.185090 0.265826 1.779178 2.984391
 2036000.000000 72.920880 46.057880 0.263699 -2.599558 -4.360495
 2038000.000000 73.764140 45.867690 0.345714 -1.492721 -2.503888
 2040000.000000 74.437070 45.420390 0.256855 2.188023 3.670187
 2042000.000000 73.575180 45.659260 0.283286 0.806759 1.353256
 2044000.000000 73.515130 45.802740 0.245493 -1.949251 -3.269671
 2046000.000000 73.603610 45.509660 0.299875 2.233559 3.746569
 2048000.000000 74.574840 45.873990 0.288291 0.489579 0.821219
 2050000.000000 75.167240 45.995200 0.243648 1.871230 3.138798
 2052000.000000 74.741240 46.460670 0.256418 1.698617 2.849258
 2054000.000000 73.901430 46.080760 0.245004 -2.015353 -3.380550
 2056000.000000 72.962160 45.993350 0.174794 -2.584682 -4.335542
 2058000.000000 73.405190 46.022710 0.208075 -3.425276 -5.745553
 2060000.000000 73.060730 44.931000 0.232207 3.904665 6.549679
 2062000.000000 72.471640 45.118260 0.244198 2.188188 3.670463
 2064000.000000 73.224130 45.445140 0.230713 1.751642 2.938202
 2066000.000000 73.419150 45.398040 0.232174 2.715620 4.555177
 2068000.000000 72.932890 46.470480 0.184619 -0.012254 -0.020554
 2070000.000000 73.585480 46.457860 0.144976 0.841469 1.411480
 2072000.000000 73.682160 46.724530 0.093511 0.866914 1.454160
 2074000.000000 73.441220 46.936320 0.087298 -0.215377 -0.361273
 2076000.000000 72.953450 46.988490 0.064594 -1.358939 -2.279482
 2078000.000000 73.073200 45.752950 0.236919 -0.040929 -0.068655
 2080000.000000 72.404110 45.596750 0.200121 -1.686693 -2.829256
 2082000.000000 72.578380 45.139410 0.164797 2.151304 3.608594
 2084000.000000 73.577880 45.178650 0.213299 3.491104 5.855973
 2086000.000000 74.039600 46.619730 0.153917 1.345357 2.256700
 2088000.000000 73.719310 46.219410 0.197886 -2.586087 -4.337899
 2090000.000000 74.548130 46.420990 0.103029 1.937200 3.249456
 2092000.000000 74.588100 45.978900 0.146316 0.077378 0.129794
 2094000.000000 75.937910 45.894290 0.181955 0.978699 1.641668
 2096000.000000 76.305890 46.634480 0.246377 0.209236 0.350972
 2098000.000000 76.801380 46.439700 0.231075 -1.090544 -1.829277
 2100000.000000 76.618960 47.052640 0.120485 -0.587325 -0.985178
 2102000.000000 76.157030 46.166440 0.225606 0.974824 1.635168
 2104000.000000 76.595380 46.973850 0.241317 -0.529065 -0.887453
 2106000.000000 77.323320 47.201120 0.265537 -1.493997 -2.506028
 2108000.000000 77.705660 46.633540 0.292418 -1.238416 -2.077317
 2110000.000000 77.214040 46.392350 0.243757 -0.973365 -1.632721
 2112000.000000 76.908290 46.170510 0.207342 -0.791362 -1.327430
 2114000.000000 78.059200 47.385290 0.262255 -1.979746 -3.320823
 2116000.000000 77.926660 46.803370 0.347537 -1.475587 -2.475147
 2118000.000000 77.953140 47.340190 0.247196 -1.559289 -2.615549
 2120000.000000 76.640400 47.581620 0.254598 -0.656920 -1.101917
 2122000.000000 77.041470 46.959120 0.369403 -0.900022 -1.509695
 2124000.000000 77.507650 46.636810 0.391224 -0.843544 -1.414959
 2126000.000000 76.993220 47.325790 0.283112 -1.142763 -1.916869
 2128000.000000 76.760600 46.396500 0.312192 -1.020150 -1.711198
 2130000.000000 76.022680 46.022540 0.193913 0.394875 0.662363
 2132000.000000 76.754430 46.300450 0.298097 -0.963749 -1.616591
 2134000.000000 75.776470 46.458490 0.229412 1.699179 2.850200
 2136000.000000 75.568960 46.100220 0.204887 1.911758 3.206780
 2138000.000000 74.397550 46.789230 0.106959 1.167182 1.957829
 2140000.000000 75.108640 46.584260 0.246770 1.610147 2.700858
 2142000.000000 75.255110 46.912100 0.179022 0.822198 1.379154
 2144000.000000 75.291560 47.245270 0.226377 -0.523039 -0.877345
 2146000.000000 75.436580 46.612870 0.155916 1.604088 2.690695
 2148000.000000 75.245180 46.314440 0.205690 1.776209 2.979410
 2150000.000000 75.069310 47.199330 0.146716 -0.127520 -0.213901
 2152000.000000 74.625280 47.539410 0.139272 -1.376508 -2.308953
 2154000.000000 76.131100 47.917280 0.214912 -0.543245 -0.911239
 2156000.000000 76.156450 47.761760 0.121046 -0.352162 -0.590717
 2158000.000000 76.990700 47.749830 0.122471 -1.176648 -1.973708
 2160000.000000 77.796460 47.463800 0.139479 -1.336119 -2.241204
 2162000.000000 77.882300 48.053450 0.126672 -2.623306 -4.400330
 2164000.000000 76.420070 47.614200 0.064800 -0.315193 -0.528704
 2166000.000000 76.197860 47.258830 0.121243 0.621870 1.043123
 2168000.000000 75.733240 47.276010 0.244128 -0.290376 -0.487077
 2170000.000000 75.704310 46.894090 0.165936 0.834473 1.399744
 2172000.000000 75.922120 47.162090 0.228724 0.647644 1.086358
 2174000.000000 76.121200 47.012640 0.232981 0.789217 1.323831
 2176000.000000 77.650840 47.647660 0.151984 -1.998562 -3.352385
 2178000.000000 78.114100 47.993160 0.118630 -1.898883 -3.185184
 2180000.000000 77.891450 48.698120 0.057169 -2.541060 -4.262370
 2182000.000000 78.974440 48.926170 0.119525 -3.134363 -5.257576
 2184000.000000 79.189600 49.493500 0.006287 -3.283352 -5.507490
 2186000.000000 79.263120 49.739840 0.029461 -3.394538 -5.693993
 2188000.000000 79.635120 50.016870 0.054194 -4.083357 -6.849417
 2190000.000000 80.209790 49.464870 0.064199 -4.795819 -8.044500
 2192000.000000 79.511050 48.688790 0.120193 -3.064673 -5.140678
 2194000.000000 78.518420 47.852730 0.241252 -1.646553 -2.761926
 2196000.000000 79.511420 47.702710 0.187709 -2.707876 -4.542187
 2198000.000000 79.324300 48.021500 0.167198 -2.644991 -4.436704
 2200000.000000 78.968610 48.210040 0.063585 -2.716273 -4.556272
 2202000.000000 79.351660 48.431620 0.041160 -3.461148 -5.805725
 2204000.000000 78.819820 48.867690 0.003082 -2.691101 -4.514049
 2206000.000000 79.606640 48.818320 0.014047 -3.195777 -5.360592
 2208000.000000 79.055650 48.547420 0.017801 -2.863612 -4.803419
 2210000.000000 79.018140 49.101350 0.012021 -3.048937 -5.114283
 2212000.000000 79.611510 49.219390 0.001227 -3.103656 -5.206068
 2214000.000000 79.489150 48.574600 0.069242 -2.913319 -4.886797
 2216000.000000 79.625160 48.328210 0.114744 -3.216452 -5.395272
 2218000.000000 79.329300 48.155190 0.057979 -2.385913 -4.002127
 2220000.000000 78.580940 48.162830 0.006315 -2.204869 -3.698444
 2222000.000000 79.857080 48.164690 0.003522 -3.606867 -6.050153
 2224000.000000 79.719210 47.720260 0.000633 -2.600685 -4.362385
 2226000.000000 79.605130 47.662530 0.001123 -2.593176 -4.349790
 2228000.000000 79.595180 48.270040 0.036608 -3.141020 -5.268742
 2230000.000000 79.428710 48.866480 0.038822 -3.042856 -5.104082
 2232000.000000 80.019240 49.219560 0.050161 -3.688706 -6.187430
 2234000.000000 80.148780 48.316970 0.018771 -4.862594 -8.156508
 2236000.000000 80.201640 48.506020 0.063645 -3.725616 -6.249343
 2238000.000000 79.740040 48.732460 0.062582 -3.095463 -5.192325
 2240000.000000 78.981620 48.649690 0.014584 -2.801705 -4.699576
 2242000.000000 78.760300 48.580140 0.035370 -2.680929 -4.496986
 2244000.000000 79.013100 48.154140 0.002813 -2.531359 -4.246098
 2246000.000000 79.394570 48.795680 0.015359 -3.011639 -5.051719
 2248000.000000 79.864310 49.326770 0.001528 -3.721865 -6.243051
 2250000.000000 78.364300 47.981600 0.019950 -1.849462 -3.102285
 2252000.000000 78.548230 48.420850 0.061162 -2.438064 -4.089605
 2254000.000000 78.586200 48.797840 0.000222 -2.681783 -4.498419
 2256000.000000 79.089710 49.130880 0.000426 -3.175768 -5.327029
 2258000.000000 79.618210 48.944670 0.000301 -3.137170 -5.262284
 2260000.000000 79.536710 49.208620 0.005211 -3.057042 -5.127878
 2262000.000000 78.337290 47.801130 0.050955 -1.644486 -2.758458
 2264000.000000 78.421580 48.278950 0.059652 -2.470296 -4.143671
 2266000.000000 77.788710 47.761970 0.061334 -1.960899 -3.289209
 2268000.000000 78.147470 48.270690 0.017402 -2.377759 -3.988449
 2270000.000000 77.495680 48.060320 0.021594 -2.294930 -3.849512
 2272000.000000 77.651660 47.962780 0.047147 -2.485962 -4.169949
 2274000.000000 77.361580 48.285390 0.055889 -1.845483 -3.095611
 2276000.000000 77.369450 48.250460 0.048586 -1.939737 -3.253712
 2278000.000000 77.344220 49.110930 0.025894 -2.570897 -4.312419
 2280000.000000 77.228580 48.408410 0.059241 -1.742499 -2.922865
 2282000.000000 77.716740 49.654610 0.000012 -3.674732 -6.163990
 2284000.000000 78.641980 49.786070 0.000018 -3.191880 -5.354055
 2286000.000000 79.297700 49.164640 0.000006 -3.297386 -5.531030
 2288000.000000 79.070150 49.284600 0.000081 -3.121906 -5.236681
 2290000.000000 79.871530 49.703430 0.000004 -3.894736 -6.533025
 2292000.000000 78.785610 49.307640 0.000000 -3.128975 -5.248538
 2294000.000000 78.010480 49.076940 0.000213 -2.839504 -4.762980
 2296000.000000 78.817390 49.500370 0.000005 -3.181918 -5.337345
 2298000.000000 79.314600 48.998230 0.000106 -3.187206 -5.346215
 2300000.000000 78.565450 49.825870 0.000045 -3.324437 -5.576406
 2302000.000000 78.449090 49.622870 0.000009 -3.268394 -5.482399
 2304000.000000 78.819180 48.985740 0.000008 -3.007046 -5.044015
 2306000.000000 78.582190 49.047910 0.000040 -2.902308 -4.868327
 2308000.000000 77.669540 48.856760 0.000135 -2.614921 -4.386265
 2310000.000000 78.134810 48.748000 0.000066 -2.614668 -4.385840
 2312000.000000 78.081300 48.888920 0.000021 -2.660521 -4.462754
 2314000.000000 78.774350 48.820780 0.000014 -2.731119 -4.581175
 2316000.000000 79.914310 48.573820 0.000010 -3.086177 -5.176749
 2318000.000000 79.160870 48.593350 0.000013 -2.683545 -4.501374
 2320000.000000 80.014180 48.797110 0.000030 -3.151894 -5.286982
 2322000.000000 79.248250 48.482490 0.000014 -2.965271 -4.973941
 2324000.000000 78.851010 48.744950 0.000184 -2.770858 -4.647833
 2326000.000000 79.820830 48.546610 0.000268 -3.008713 -5.046811
 2328000.000000 80.089390 48.978370 0.000013 -3.182442 -5.338224
 2330000.000000 79.139440 49.215750 0.000014 -3.159075 -5.299028
 2332000.000000 78.379320 48.488490 0.000109 -2.509566 -4.209542
 2334000.000000 79.260340 49.283720 0.000016 -3.207769 -5.380707
 2336000.000000 79.636170 49.186360 0.000017 -3.183714 -5.340357
 2338000.000000 80.103870 49.776300 0.000008 -4.165763 -6.987645
 2340000.000000 79.452840 49.743100 0.000001 -3.649979 -6.122469
 2342000.000000 79.207160 49.581990 0.000000 -3.253008 -5.456591
 2344000.000000 78.746050 49.651160 0.000001 -3.222897 -5.406083
 2346000.000000 78.872790 49.848040 0.000002 -3.400073 -5.703278
 2348000.000000 79.254940 49.882690 0.000059 -3.435733 -5.763094
 2350000.000000 78.777680 49.803300 0.000002 -3.219475 -5.400343
 2352000.000000 79.981160 50.285380 0.000002 -3.807550 -6.386779
 2354000.000000 79.944780 49.491380 0.000147 -3.872813 -6.496251
 2356000.000000 78.893500 49.730480 0.000001 -3.288244 -5.515696
 2358000.000000 78.051730 49.085660 0.000004 -2.862574 -4.801677
 2360000.000000 77.802480 49.289500 0.000000 -2.684877 -4.503609
 2362000.000000 78.432720 49.094980 0.000001 -2.950969 -4.949951
 2364000.000000 77.536150 49.020490 0.000002 -2.590340 -4.345033
 2366000.000000 77.602950 48.540460 0.000000 -2.489254 -4.175471
 2368000.000000 78.180600 48.392700 0.000054 -2.690728 -4.513423
 2370000.000000 77.458360 48.734710 0.000000 -2.440903 -4.094367
 2372000.000000 77.565790 48.014520 0.000002 -2.278754 -3.822379
 2374000.000000 76.425250 48.009330 0.000002 -0.832161 -1.395866
 2376000.000000 75.805190 47.377630 0.034247 -0.141480 -0.237318
 2378000.000000 76.162090 47.518260 0.015630 -0.383184 -0.642752
 2380000.000000 77.126570 47.687840 0.037867 -1.235132 -2.071809
 2382000.000000 76.340040 46.955540 0.060598 -0.367441 -0.616345
 2384000.000000 75.631360 46.977880 0.062734 0.725565 1.217061
 2386000.000000 77.019710 48.107980 0.009652 -1.647100 -2.762843
 2388000.000000 78.531270 47.506870 0.038132 -1.824668 -3.060695
 2390000.000000 77.822630 48.237710 0.038942 -2.481990 -4.163286
 2392000.000000 79.006750 47.921210 0.048060 -2.450867 -4.111081
 2394000.000000 78.429910 47.824440 0.025515 -1.688543 -2.832360
 2396000.000000 77.330710 47.459820 0.063417 -1.303250 -2.186070
 2398000.000000 76.644520 47.833160 0.028436 -0.414646 -0.695527
 2400000.000000 76.348570 47.388060 0.181986 -0.029510 -0.049499
 2402000.000000 76.468940 46.989140 0.081331 -0.283733 -0.475934
 2404000.000000 75.915030 46.519110 0.179808 1.602397 2.687858
 2406000.000000 74.842540 46.266570 0.176637 2.533252 4.249273
 2408000.000000 75.496930 46.400360 0.068090 1.518686 2.547442
 2410000.000000 76.147130 46.585800 0.128736 0.403602 0.677002
 2412000.000000 75.733440 47.069650 0.074819 0.838874 1.407126
 2414000.000000 76.380880 46.593420 0.164072 -0.254124 -0.426267
 2416000.000000 77.345290 47.343470 0.084526 -1.210031 -2.029704
 2418000.000000 76.821580 47.847450 0.141320 -0.631479 -1.059241
 2420000.000000 76.456520 46.908270 0.241964 -0.566418 -0.950109
 2422000.000000 77.062100 47.645720 0.167734 -1.038219 -1.741507
 2424000.000000 77.194020 47.092320 0.088468 -1.100672 -1.846266
 2426000.000000 78.298010 47.474790 0.146849 -1.640711 -2.752126
 2428000.000000 77.806210 47.004060 0.147824 -1.199446 -2.011949
 2430000.000000 77.658680 46.486530 0.126451 -1.050877 -1.762740
 2432000.000000 77.589060 47.052760 0.043398 -1.325904 -2.224069
 2434000.000000 77.131880 47.319210 0.074357 -1.054290 -1.768465
 2436000.000000 77.441700 47.558410 0.067625 -1.822524 -3.057099
 2438000.000000 78.483780 47.354480 0.131820 -1.657541 -2.780357
 2440000.000000 78.425120 47.307360 0.079462 -1.865812 -3.129710
 2442000.000000 79.483710 47.185850 0.061516 -3.262532 -5.472566
 2444000.000000 78.916500 47.115570 0.171477 -3.089069 -5.181600
 2446000.000000 78.798820 47.051920 0.150689 -3.022048 -5.069179
 2448000.000000 78.158210 47.215540 0.096577 -1.744394 -2.926044
 2450000.000000 78.547730 47.441190 0.095649 -1.822545 -3.057134
 2452000.000000 78.111160 47.345120 0.115106 -2.020864 -3.389794
 2454000.000000 77.021320 47.397840 0.031642 -0.863955 -1.449197
 2456000.000000 76.583890 46.530000 0.135968 -0.676248 -1.134338
 2458000.000000 78.066480 46.679980 0.084354 -1.666830 -2.795938
 2460000.000000 78.509650 47.083630 0.164180 -2.009529 -3.370781
 2462000.000000 77.576920 47.614850 0.162616 -2.066286 -3.465985
 2464000.000000 77.920320 47.563340 0.200953 -1.688816 -2.832818
 2466000.000000 78.384890 47.890260 0.145628 -1.616247 -2.711090
 2468000.000000 78.476520 47.470510 0.129509 -1.891296 -3.172457
 2470000.000000 78.835980 47.439610 0.207230 -2.842612 -4.768193
 2472000.000000 79.347710 47.125010 0.101598 -2.971969 -4.985176
 2474000.000000 78.895160 47.732990 0.092818 -2.108118 -3.536154
 2476000.000000 79.911650 48.024490 0.009952 -2.891408 -4.850044
 2478000.000000 79.348520 47.629620 0.108880 -2.279228 -3.823174
 2480000.000000 79.105730 47.468250 0.123361 -2.738985 -4.594369
 2482000.000000 79.482420 47.597950 0.093750 -2.308437 -3.872169
 2484000.000000 79.956420 47.453440 0.099232 -2.926656 -4.909169
 2486000.000000 79.476820 47.271380 0.192655 -3.072745 -5.154218
 2488000.000000 79.894220 47.252950 0.113655 -3.040713 -5.100488
 2490000.000000 79.404390 47.057530 0.070288 -3.445726 -5.779856
 2492000.000000 79.580940 47.472810 0.178657 -2.603433 -4.366995
 2494000.000000 78.367010 47.573350 0.094279 -1.741133 -2.920574
 2496000.000000 78.332210 47.575190 0.163382 -1.772030 -2.972401
 2498000.000000 78.586350 47.012020 0.172370 -2.494290 -4.183918
 2500000.000000 79.037860 47.639810 0.120593 -2.168836 -3.638002
 2502000.000000 79.654920 47.035200 0.178512 -3.373743 -5.659112
 2504000.000000 79.186040 46.997210 0.125038 -3.010580 -5.049943
 2506000.000000 79.469120 46.809030 0.269275 -3.321095 -5.570800
 2508000.000000 79.011580 46.631890 0.205390 -2.470722 -4.144385
 2510000.000000 77.504450 45.917000 0.220223 -0.791672 -1.327949
 2512000.000000 78.186980 46.432140 0.221976 -2.221183 -3.725809
 2514000.000000 78.478580 46.608650 0.247182 -2.003322 -3.360369
 2516000.000000 77.609810 46.034880 0.185416 -0.913825 -1.532849
 2518000.000000 78.727800 46.173980 0.221085 -2.464571 -4.134068
 2520000.000000 78.733970 46.457820 0.176818 -2.264033 -3.797686
 2522000.000000 78.806280 46.835350 0.170304 -2.561225 -4.296195
 2524000.000000 78.153260 46.326120 0.132606 -1.695117 -2.843387
 2526000.000000 78.112900 45.798790 0.229372 -1.896886 -3.181834
 2528000.000000 77.976040 46.394000 0.195640 -1.502061 -2.519555
 2530000.000000 78.269270 46.198830 0.073685 -1.566079 -2.626939
 2532000.000000 78.793650 46.569300 0.103481 -2.471886 -4.146338
 2534000.000000 78.850090 45.774430 0.079709 -4.510282 -7.565540
 2536000.000000 79.111330 46.122920 0.165767 -3.772624 -6.328194
 2538000.000000 77.856130 46.187340 0.147606 -1.255659 -2.106241
 2540000.000000 78.243850 45.991520 0.120025 -1.938641 -3.251874
 2542000.000000 79.230880 46.421050 0.115222 -2.725932 -4.572474
 2544000.000000 79.823410 46.219280 0.101758 -4.945959 -8.296344
 2546000.000000 79.838410 46.698540 0.078107 -3.547469 -5.950519
 2548000.000000 78.763790 45.540800 0.120947 -4.529060 -7.597039
 2550000.000000 77.904320 45.380680 0.206574 -2.617500 -4.390591
 2552000.000000 78.049250 45.885630 0.107440 -1.563385 -2.622420
 2554000.000000 79.256120 46.254890 0.153204 -3.447501 -5.782833
 2556000.000000 79.048540 46.266050 0.145339 -3.236311 -5.428583
 2558000.000000 78.562300 45.504340 0.161763 -4.139599 -6.943757
 2560000.000000 79.046520 46.095380 0.071181 -3.795247 -6.366142
 2562000.000000 77.530950 45.920040 0.122319 -0.760947 -1.276412
 2564000.000000 77.469590 46.310220 0.198172 -0.983034 -1.648940
 2566000.000000 76.996590 45.620280 0.111899 -0.881258 -1.478221
 2568000.000000 76.977510 46.044160 0.247123 -0.709315 -1.189805
 2570000.000000 76.385250 45.569460 0.125677 -0.544186 -0.912816
 2572000.000000 76.817960 45.609530 0.068655 -0.705569 -1.183520
 2574000.000000 76.674550 45.647680 0.064032 -0.537184 -0.901071
 2576000.000000 77.474440 45.650310 0.053772 -0.927495 -1.555779
 2578000.000000 78.102920 45.959710 0.019141 -1.763283 -2.957728
 2580000.000000 78.542550 45.430630 0.081667 -3.511911 -5.890874
 2582000.000000 77.993480 45.481640 0.101379 -2.497768 -4.189752
 2584000.000000 78.036370 45.423450 0.055859 -3.387018 -5.681379
 2586000.000000 77.970070 45.532160 0.134241 -2.264553 -3.798558
 2588000.000000 77.681110 45.272390 0.124468 -2.466748 -4.137720
 2590000.000000 78.429700 46.549300 0.025149 -1.937989 -3.250780
 2592000.000000 78.295400 46.658790 0.048411 -2.084646 -3.496782
 2594000.000000 78.711500 46.712530 0.020151 -2.419092 -4.057781
 2596000.000000 79.630810 47.539580 0.007502 -2.580652 -4.328782
 2598000.000000 79.430930 46.607400 0.046183 -3.516387 -5.898382
 2600000.000000 78.989270 46.518220 0.057791 -2.562496 -4.298327
 2602000.000000 77.144360 46.029310 0.074906 -0.644597 -1.081247
 2604000.000000 77.332750 45.934180 0.132412 -0.635144 -1.065389
 2606000.000000 76.542350 45.468440 0.069949 -0.499431 -0.837745
 2608000.000000 77.317350 46.364110 0.045430 -0.854455 -1.433262
 2610000.000000 77.756720 46.557170 0.053516 -1.575306 -2.642416
 2612000.000000 77.617010 46.530790 0.088596 -0.957943 -1.606852
 2614000.000000 77.741890 46.736130 0.028806 -1.187954 -1.992672
 2616000.000000 79.008290 46.983980 0.053620 -3.441331 -5.772484
 2618000.000000 78.909450 46.902720 0.026996 -2.535940 -4.253782
 2620000.000000 79.997320 47.102470 0.043905 -4.332328 -7.267041
 2622000.000000 78.850100 47.585110 0.117723 -2.242183 -3.761035
 2624000.000000 78.352390 46.940050 0.127266 -2.725071 -4.571030
 2626000.000000 78.317360 46.410180 0.216043 -1.814453 -3.043561
 2628000.000000 79.523420 47.008910 0.111563 -3.365525 -5.645327
 2630000.000000 78.661540 46.470120 0.173481 -2.241067 -3.759163
 2632000.000000 79.242900 46.541250 0.214092 -3.146862 -5.278542
 2634000.000000 79.857410 46.505630 0.254861 -4.188171 -7.025232
 2636000.000000 79.763310 46.890090 0.118818 -4.055394 -6.802512
 2638000.000000 78.950020 46.731630 0.247907 -2.671369 -4.480950
 2640000.000000 79.633640 46.899220 0.193028 -3.566456 -5.982368
 2642000.000000 79.668360 47.056270 0.302271 -3.456731 -5.798316
 2644000.000000 79.384220 47.231750 0.141306 -2.798123 -4.693567
 2646000.000000 79.804610 46.689930 0.067099 -3.454752 -5.794996
 2648000.000000 79.975950 47.862670 0.119130 -3.133191 -5.255610
 2650000.000000 79.314360 47.079800 0.102861 -3.263017 -5.473380
 2652000.000000 78.466180 46.494590 0.191764 -2.020204 -3.388687
 2654000.000000 78.585870 45.827900 0.111242 -4.505618 -7.557717
 2656000.000000 78.778810 46.388270 0.164047 -2.386079 -4.002405
 2658000.000000 78.988890 46.828960 0.127578 -2.731598 -4.581979
 2660000.000000 79.582820 46.563450 0.170352 -3.277632 -5.497895
 2662000.000000 78.803030 46.937390 0.231629 -2.600851 -4.362664
 2664000.000000 78.550530 46.637270 0.190355 -2.286517 -3.835400
 2666000.000000 79.390000 46.876930 0.208401 -3.385885 -5.679479
 2668000.000000 79.873820 46.595950 0.221622 -3.785449 -6.349707
 2670000.000000 79.848350 46.258830 0.175653 -5.001234 -8.389063
 2672000.000000 78.932910 45.529000 0.129559 -4.548250 -7.629228
 2674000.000000 78.210700 45.636650 0.208157 -4.409669 -7.396772
 2676000.000000 78.054860 45.698050 0.236110 -1.861713 -3.122835
 2678000.000000 78.704720 46.587220 0.164585 -2.325992 -3.901616
 2680000.000000 76.902230 45.435560 0.201268 -0.573416 -0.961847
 2682000.000000 76.813920 45.183590 0.205505 -1.006786 -1.688781
 2684000.000000 76.407130 44.824500 0.240424 -0.647038 -1.085341
 2686000.000000 76.465360 45.295360 0.158421 -0.642592 -1.077882
 2688000.000000 76.806420 46.083220 0.119107 -0.671069 -1.125651
 2690000.000000 77.013070 46.562210 0.061118 -0.878402 -1.473430
 2692000.000000 76.445910 45.790170 0.150532 -0.486560 -0.816155
 2694000.000000 75.804310 45.107640 0.247347 -0.540582 -0.906771
 2696000.000000 75.945220 45.287970 0.241417 -0.611468 -1.025675
 2698000.000000 76.155990 44.930770 0.269238 -0.586558 -0.983892
 2700000.000000 76.734690 44.880940 0.255739 -1.065987 -1.788085
 2702000.000000 76.539360 45.455470 0.275822 -0.501037 -0.840439
 2704000.000000 77.911660 45.979720 0.262287 -1.383281 -2.320314
 2706000.000000 77.207830 45.829480 0.055005 -0.574305 -0.963338
 2708000.000000 77.563120 45.516620 0.191078 -1.449798 -2.431889
 2710000.000000 77.989960 45.732590 0.101078 -1.744882 -2.926863
 2712000.000000 77.816780 46.252460 0.128779 -1.164283 -1.952967
 2714000.000000 77.441140 46.275750 0.242167 -0.775063 -1.300090
 2716000.000000 76.143810 46.070730 0.213092 0.808909 1.356863
 2718000.000000 76.601520 45.929200 0.204495 -0.589228 -0.988371
 2720000.000000 75.889160 45.546800 0.165092 -0.289022 -0.484806
 2722000.000000 75.679610 45.628720 0.235472 0.328325 0.550733
 2724000.000000 76.273900 45.846730 0.260116 -0.204923 -0.343738
 2726000.000000 76.181280 45.786740 0.184754 -0.413379 -0.693402
 2728000.000000 76.994530 46.000320 0.237013 -0.620964 -1.041604
 2730000.000000 76.324660 46.319580 0.113088 0.631759 1.059712
 2732000.000000 76.270610 45.585930 0.238176 -0.517030 -0.867265
 2734000.000000 76.968010 45.307710 0.251832 -0.759570 -1.274102
 2736000.000000 77.696990 45.590510 0.281566 -1.386573 -2.325836
 2738000.000000 77.926480 45.647210 0.194058 -1.475118 -2.474361
 2740000.000000 77.197230 46.117770 0.234710 -0.687452 -1.153131
 2742000.000000 77.581480 46.296590 0.195465 -0.998855 -1.675478
 2744000.000000 76.439670 46.519480 0.151042 -0.428317 -0.718459
 2746000.000000 75.133030 45.640520 0.060942 2.476812 4.154601
 2748000.000000 75.658240 45.337340 0.277300 -0.399879 -0.670757
 2750000.000000 76.351240 44.907470 0.167191 -0.655995 -1.100364
 2752000.000000 76.116980 44.982050 0.220125 -0.519911 -0.872098
 2754000.000000 76.306650 45.543780 0.242561 -0.523413 -0.877972
 2756000.000000 76.855280 45.786860 0.152347 -0.653146 -1.095586
 2758000.000000 77.746820 46.270500 0.174570 -1.127957 -1.892033
 2760000.000000 77.142000 45.412540 0.188790 -1.012053 -1.697616
 2762000.000000 77.086080 44.920110 0.173591 -1.193646 -2.002220
 2764000.000000 77.110970 45.779670 0.101023 -0.580665 -0.974006
 2766000.000000 77.048390 45.428250 0.179103 -0.683662 -1.146774
 2768000.000000 77.697610 46.448580 0.055120 -1.148505 -1.926501
 2770000.000000 77.519020 46.324690 0.191751 -1.094966 -1.836694
 2772000.000000 77.547200 45.568640 0.196886 -1.308207 -2.194385
 2774000.000000 76.609340 45.762660 0.146794 -0.545233 -0.914573
 2776000.000000 76.374570 46.304540 0.178336 0.642756 1.078157
 2778000.000000 77.148400 46.263390 0.182482 -1.177113 -1.974488
 2780000.000000 75.188460 46.034790 0.140149 2.126450 3.566904
 2782000.000000 75.335720 45.855360 0.145692 2.090380 3.506400
 2784000.000000 76.058430 45.413650 0.198151 -0.506089 -0.848913
 2786000.000000 76.629350 46.244870 0.111043 -0.688659 -1.155156
 2788000.000000 76.633840 46.062420 0.075632 -0.444754 -0.746029
 2790000.000000 76.664670 45.326910 0.139033 -0.616511 -1.034134
 2792000.000000 76.210970 44.766310 0.208616 -0.678219 -1.137644
 2794000.000000 76.556060 46.135110 0.184381 0.195583 0.328070
 2796000.000000 76.033000 45.853130 0.142970 0.332448 0.557648
 2798000.000000 75.213000 45.403500 0.130673 2.268537 3.805241
 2800000.000000 76.275450 45.350670 0.081906 -0.499592 -0.838014
 2802000.000000 76.218800 46.079050 0.101518 0.596516 1.000595
 2804000.000000 75.497000 45.271580 0.242997 -0.481001 -0.806831
 2806000.000000 75.599790 45.273200 0.168960 -0.484798 -0.813200
 2808000.000000 76.064740 44.608330 0.223489 -0.447402 -0.750472
 2810000.000000 75.942340 45.050160 0.169913 -0.500011 -0.838717
 2812000.000000 75.924350 45.164960 0.159326 -0.562756 -0.943966
 2814000.000000 75.850720 44.969920 0.175368 -0.453544 -0.760774
 2816000.000000 75.158230 45.299900 0.181773 1.905218 3.195810
 2818000.000000 75.691390 45.182610 0.191293 -0.560600 -0.940350
 2820000.000000 76.842470 44.786120 0.262617 -1.082867 -1.816400
 2822000.000000 76.445760 44.963260 0.087461 -0.642174 -1.077181
 2824000.000000 76.528150 45.396010 0.188441 -0.539736 -0.905353
 2826000.000000 77.243090 44.694370 0.294130 -1.956432 -3.281716
 2828000.000000 77.194080 44.846580 0.249077 -1.301243 -2.182703
 2830000.000000 76.578510 44.689190 0.168425 -0.959590 -1.609615
 2832000.000000 76.775140 45.234550 0.214292 -0.910152 -1.526687
 2834000.000000 76.105770 45.718210 0.162320 -0.446210 -0.748471
 2836000.000000 75.290270 46.474830 0.014715 2.106578 3.533571
 2838000.000000 76.118880 46.676210 0.030987 0.665992 1.117134
 2840000.000000 76.272870 45.377350 0.095446 -0.506266 -0.849209
 2842000.000000 75.811040 45.896760 0.027653 1.301995 2.183965
 2844000.000000 75.517710 45.865410 0.107379 2.084319 3.496234
 2846000.000000 75.564550 45.807170 0.115407 1.676964 2.812937
 2848000.000000 75.090140 46.260850 0.166164 2.062191 3.459116
 2850000.000000 74.606430 45.595960 0.033059 2.210083 3.707190
 2852000.000000 74.788420 46.443470 0.114936 1.465824 2.458771
 2854000.000000 74.865990 46.042070 0.121692 2.435106 4.084643
 2856000.000000 74.401640 45.896510 0.034673 -0.411669 -0.690533
 2858000.000000 75.509460 46.264750 0.000333 2.223415 3.729553
 2860000.000000 75.155200 46.038990 0.077598 1.912636 3.208253
 2862000.000000 74.162990 46.422970 0.064140 1.807398 3.031727
 2864000.000000 74.623100 45.794490 0.036321 1.018116 1.707786
 2866000.000000 73.973930 45.650100 0.074865 0.025975 0.043570
 2868000.000000 73.641040 45.472070 0.101376 3.163971 5.307240
 2870000.000000 74.671760 45.373790 0.122696 1.794472 3.010045
 2872000.000000 75.273390 45.527070 0.124158 2.261331 3.793153
 2874000.000000 75.179290 45.809010 0.108533 1.747618 2.931452
 2876000.000000 76.156460 46.743580 0.084881 0.420172 0.704795
 2878000.000000 75.441850 46.113670 0.114554 2.542818 4.265319
 2880000.000000 75.705340 46.183550 0.073921 1.403161 2.353660
 2882000.000000 76.825130 46.841570 0.047338 -0.722333 -1.211640
 2884000.000000 76.739810 46.711360 0.105428 -0.518505 -0.869739
 2886000.000000 76.986290 47.126070 0.042949 -1.035815 -1.737475
 2888000.000000 77.295550 47.589290 0.026943 -1.852730 -3.107767
 2890000.000000 76.123890 47.657110 0.060522 -0.228792 -0.383776
 2892000.000000 76.868270 47.172670 0.162986 -0.828948 -1.390477
 2894000.000000 77.315170 47.171750 0.130032 -1.574507 -2.641076
 2896000.000000 76.642130 46.841940 0.176166 -0.588880 -0.987786
 2898000.000000 77.618120 47.873720 0.013918 -2.733236 -4.584726
 2900000.000000 77.647030 47.208360 0.034331 -1.593929 -2.673654
 2902000.000000 77.467420 47.886690 0.000162 -2.330585 -3.909320
 2904000.000000 76.425110 47.910110 0.002822 -0.484435 -0.812591
 2906000.000000 77.968150 47.370760 0.033615 -1.591189 -2.669058
 2908000.000000 78.379510 47.737040 0.000433 -1.733979 -2.908574
 2910000.000000 78.745770 48.097630 0.000559 -2.345535 -3.934397
 2912000.000000 78.022810 47.930100 0.000124 -2.308785 -3.872753
 2914000.000000 78.165600 47.010340 0.009405 -1.457638 -2.445040
 2916000.000000 77.288110 47.006720 0.000316 -1.914651 -3.211633
 2918000.000000 78.139710 47.752330 0.000108 -1.900367 -3.187673
 2920000.000000 79.206140 47.954090 0.000008 -3.147542 -5.279682
 2922000.000000 78.373190 47.925900 0.000247 -1.688421 -2.832155
 2924000.000000 76.947010 47.705760 0.000005 -1.151793 -1.932016
 2926000.000000 77.085570 48.251330 0.000007 -1.621231 -2.719451
 2928000.000000 77.487500 48.356320 0.000394 -2.011939 -3.374824
 2930000.000000 75.784250 48.358380 0.019296 -2.553210 -4.282751
 2932000.000000 75.309450 48.311760 0.061597 -2.590940 -4.346039
 2934000.000000 75.471200 48.136900 0.062085 -2.544146 -4.267547
 2936000.000000 76.028600 47.835210 0.054936 -0.698769 -1.172113
 2938000.000000 75.729690 47.615630 0.063725 -1.108123 -1.858764
 2940000.000000 75.525660 47.046110 0.063668 0.978276 1.640959
 2942000.000000 75.207080 47.982810 0.058263 -2.396151 -4.019300
 2944000.000000 74.210950 46.796450 0.060201 1.197385 2.008492
 2946000.000000 74.245660 47.107490 0.064734 -0.002969 -0.004981
 2948000.000000 75.088480 47.755890 0.045417 -1.730428 -2.902617
 2950000.000000 74.147020 47.214350 0.057457 -0.968289 -1.624206
 2952000.000000 75.185580 47.120230 0.002068 -0.593563 -0.995641
 2954000.000000 74.386500 47.448890 0.035272 -1.358443 -2.278650
 2956000.000000 73.385280 47.270940 0.062430 -1.563554 -2.622703
 2958000.000000 73.758330 46.766720 0.061589 0.897555 1.505557
 2960000.000000 74.588670 47.422480 0.065240 -1.131901 -1.898649
 2962000.000000 73.790300 47.673320 0.053133 -1.591594 -2.669737
 2964000.000000 74.125510 48.057250 0.051525 -1.955176 -3.279609
 2966000.000000 74.621240 46.882760 0.065994 1.108114 1.858749
 2968000.000000 75.105680 47.202240 0.061066 -0.370070 -0.620755
 2970000.000000 73.991220 46.738360 0.067522 0.795662 1.334642
 2972000.000000 74.190700 46.539090 0.065535 1.835327 3.078575
 2974000.000000 74.121000 46.006620 0.065690 -0.528003 -0.885671
 2976000.000000 74.795630 46.566480 0.065363 1.355451 2.273632
 2978000.000000 74.850040 46.955920 0.063548 0.304930 0.511488
 2980000.000000 75.324230 47.436650 0.071624 -1.357487 -2.277047
 2982000.000000 75.951990 47.435050 0.096142 -0.408809 -0.685736
 2984000.000000 76.304780 47.999610 0.089983 -0.852113 -1.429334
 2986000.000000 75.558640 48.073020 0.058676 -2.073191 -3.477568
 2988000.000000 75.045730 47.808120 0.065788 -2.336409 -3.919089
 2990000.000000 74.414760 47.275410 0.079682 -1.069322 -1.793679
 2992000.000000 75.291480 46.987030 0.127256 0.503799 0.845072
 2994000.000000 75.394400 47.672800 0.119663 -1.395813 -2.341335
 2996000.000000 75.393240 47.760870 0.089153 -1.413361 -2.370770
 2998000.000000 75.367870 46.912710 0.088155 1.177057 1.974394
 3000000.000000 76.608970 47.967960 0.114335 -0.620742 -1.041232
 3002000.000000 77.239200 47.938770 0.156980 -1.619874 -2.717174
 3004000.000000 78.149730 48.268080 0.066499 -2.368671 -3.973205
 3006000.000000 78.616140 48.878200 0.066956 -2.799158 -4.695304
 3008000.000000 77.261770 48.771220 0.016459 -2.183436 -3.662492
 3010000.000000 76.804600 48.925490 0.003373 -2.317437 -3.887265
 3012000.000000 77.528940 48.624840 0.145736 -2.459251 -4.125144
 3014000.000000 76.598120 48.673180 0.130160 -1.764961 -2.960543
 3016000.000000 76.774240 49.026800 0.089502 -2.182694 -3.661248
 3018000.000000 76.715300 48.265700 0.072336 -1.385870 -2.324656
 3020000.000000 76.594180 49.195010 0.060049 -2.359773 -3.958280
 3022000.000000 76.183970 48.624980 0.091850 -1.948644 -3.268653
 3024000.000000 76.682130 48.413620 0.060667 -1.552701 -2.604498
 3026000.000000 76.997460 48.589850 0.025727 -1.881374 -3.155814
 3028000.000000 76.980570 49.339220 0.001850 -2.677978 -4.492036
 3030000.000000 77.163400 49.503210 0.003086 -2.891236 -4.849755
 3032000.000000 77.580830 48.877320 0.018608 -2.583834 -4.334119
 3034000.000000 78.292300 49.650180 0.000158 -3.393956 -5.693017
 3036000.000000 78.809750 49.602300 0.001596 -3.245905 -5.444676
 3038000.000000 78.779460 49.548540 0.001681 -3.217070 -5.396309
 3040000.000000 78.936910 49.305780 0.000022 -3.061011 -5.134535
 3042000.000000 78.797440 48.812160 0.005233 -2.750494 -4.613675
 3044000.000000 78.879160 49.293550 0.008921 -3.024651 -5.073545
 3046000.000000 78.029770 48.697590 0.019650 -2.633442 -4.417332
 3048000.000000 77.748820 48.143330 0.000215 -2.455309 -4.118532
 3050000.000000 77.240050 48.678580 0.032389 -2.233540 -3.746537
 3052000.000000 78.118840 48.749100 0.016366 -2.598346 -4.358462
 3054000.000000 78.034990 49.431570 0.000489 -2.924518 -4.905582
 3056000.000000 78.552860 49.167260 0.001884 -2.986268 -5.009162
 3058000.000000 79.643040 50.014270 0.000727 -4.081656 -6.846564
 3060000.000000 80.069380 50.271640 0.000017 -3.926996 -6.587137
 3062000.000000 79.202300 50.462880 0.000338 -4.529842 -7.598350
 3064000.000000 80.100030 50.535760 0.002037 -4.711821 -7.903602
 3066000.000000 79.002070 49.934950 0.000363 -3.304086 -5.542269
 3068000.000000 78.337340 50.193860 0.000020 -4.153935 -6.967805
 3070000.000000 77.711730 49.603630 0.000007 -3.347298 -5.614753
 3072000.000000 77.161890 49.946690 0.003690 -3.040460 -5.100063
 3074000.000000 77.318990 48.914370 0.000240 -2.413562 -4.048505
 3076000.000000 77.029130 48.804860 0.077699 -2.154383 -3.613759
 3078000.000000 76.846830 48.470440 0.003732 -1.778301 -2.982920
 3080000.000000 78.205920 48.671070 0.190852 -2.649817 -4.444799
 3082000.000000 77.667550 48.320870 0.076819 -2.416762 -4.053873
 3084000.000000 77.017040 48.136080 0.131354 -1.616628 -2.711729
 3086000.000000 78.342940 48.645100 0.065929 -2.671088 -4.480479
 3088000.000000 78.782510 48.613580 0.099694 -2.774363 -4.653712
 3090000.000000 78.280100 48.568130 0.108931 -2.634042 -4.418338
 3092000.000000 79.149920 48.074960 0.122346 -2.661858 -4.464997
 3094000.000000 76.975480 47.465200 0.091195 -0.827128 -1.387423
 3096000.000000 76.782890 47.546850 0.124656 -0.703624 -1.180257
 3098000.000000 78.090870 47.250890 0.108480 -1.684508 -2.825591
 3100000.000000 76.997740 48.155040 0.063115 -1.548733 -2.597842
 3102000.000000 77.165630 47.740640 0.145064 -1.466414 -2.459761
 3104000.000000 76.681210 47.927310 0.126324 -0.632051 -1.060201
 3106000.000000 74.873530 47.799140 0.079808 -2.252514 -3.778364
 3108000.000000 75.752750 47.717220 0.099892 -1.463550 -2.454957
 3110000.000000 75.254140 47.092370 0.108163 -0.106342 -0.178378
 3112000.000000 76.681130 47.707030 0.186432 -0.715015 -1.199366
 3114000.000000 76.335580 47.228520 0.179242 0.219438 0.368085
 3116000.000000 76.327680 46.379200 0.141376 0.838708 1.406848
 3118000.000000 76.059630 46.551440 0.270188 1.034573 1.735391
 3120000.000000 74.738790 46.110300 0.235724 2.100916 3.524073
