#! FIELDS time proj ext cmap wham.bias weights
 0.000000 73.668570 41.702510 0.633409 -3.472764 -5.825209
 2000.000000 73.860110 40.487110 0.665751 -4.016696 -6.737600
 4000.000000 73.571990 39.508710 0.633691 -4.208032 -7.058547
 6000.000000 72.803340 39.643620 0.622552 -2.208583 -3.704674
 8000.000000 73.676120 39.644310 0.603277 -4.216569 -7.072867
 10000.000000 72.361030 39.916720 0.621162 -1.747463 -2.931192
 12000.000000 72.880080 39.043010 0.767051 -3.982169 -6.679685
 14000.000000 72.123080 38.835130 0.779877 -3.645221 -6.114488
 16000.000000 71.906180 38.737190 0.722111 -3.539095 -5.936473
 18000.000000 71.234850 38.252430 0.705515 -3.640044 -6.105805
 20000.000000 70.734050 38.443900 0.817372 -2.755878 -4.622706
 22000.000000 71.978020 38.305540 0.684344 -4.004087 -6.716450
 24000.000000 71.222190 38.234220 0.722686 -3.529561 -5.920481
 26000.000000 72.315090 38.147080 0.685075 -4.299253 -7.211561
 28000.000000 71.571010 38.503970 0.755557 -3.418870 -5.734808
 30000.000000 71.351900 38.730300 0.728789 -2.787124 -4.675118
 32000.000000 72.922300 38.458170 0.731498 -4.245835 -7.121957
 34000.000000 73.227940 39.201970 0.818607 -4.250631 -7.130002
 36000.000000 71.127000 37.792230 0.804867 -4.010220 -6.726737
 38000.000000 70.441020 38.075700 0.785372 -2.929445 -4.913847
 40000.000000 70.132630 38.219310 0.664797 -2.752166 -4.616479
 42000.000000 71.237970 37.326000 0.705431 -4.337641 -7.275953
 44000.000000 69.811550 37.665430 0.686691 -3.496732 -5.865413
 46000.000000 70.701560 38.311330 0.769844 -2.761884 -4.632780
 48000.000000 69.651320 38.450960 0.738067 -2.545562 -4.269922
 50000.000000 69.609150 38.442770 0.831149 -2.723853 -4.568987
 52000.000000 69.874120 38.184760 0.797727 -2.754558 -4.620492
 54000.000000 69.338230 38.988690 0.721569 3.021249 5.067839
 56000.000000 69.502550 38.264930 0.793930 -2.751554 -4.615453
 58000.000000 70.043660 38.925700 0.778299 3.896463 6.535921
 60000.000000 69.445060 39.128600 0.753429 6.592006 11.057421
 62000.000000 69.503490 39.993190 0.733376 8.533954 14.314842
 64000.000000 69.822450 39.870150 0.753128 8.674565 14.550703
 66000.000000 70.522550 38.792810 0.767139 -1.058190 -1.775006
 68000.000000 68.706600 38.741730 0.677030 -1.749452 -2.934528
 70000.000000 68.549960 39.168500 0.615850 -1.747455 -2.931178
 72000.000000 69.443640 38.913750 0.715501 3.322034 5.572375
 74000.000000 69.818480 38.965490 0.692530 5.737058 9.623333
 76000.000000 70.651380 38.832140 0.653460 3.214181 5.391463
 78000.000000 70.424520 38.781210 0.744418 -1.745514 -2.927923
 80000.000000 70.094880 39.092910 0.742573 6.253782 10.490085
 82000.000000 70.434150 39.241860 0.591941 8.629362 14.474879
 84000.000000 71.162520 39.303600 0.733486 6.252488 10.487914
 86000.000000 71.086120 39.602180 0.720065 10.979150 18.416410
 88000.000000 71.677050 40.026600 0.802130 9.053067 15.185601
 90000.000000 71.196640 40.003220 0.757404 12.921900 21.675176
 92000.000000 71.224190 39.597140 0.760370 9.773164 16.393491
 94000.000000 71.498590 40.240340 0.695200 11.665880 19.568330
 96000.000000 70.307640 40.368410 0.653628 8.566056 14.368690
 98000.000000 70.676680 40.306470 0.678933 11.754740 19.717384
 100000.000000 71.085850 40.087710 0.762280 13.503640 22.650986
 102000.000000 70.667590 40.393530 0.548541 9.855077 16.530892
 104000.000000 70.183140 39.955410 0.770606 11.617150 19.486591
 106000.000000 69.775220 39.430140 0.728292 8.682699 14.564347
 108000.000000 68.553410 39.701080 0.632062 6.651641 11.157453
 110000.000000 70.209970 40.493590 0.694230 10.487690 17.592036
 112000.000000 70.084140 40.556120 0.738035 10.487040 17.590946
 114000.000000 71.906390 40.260630 0.741409 9.108668 15.278866
 116000.000000 70.328950 40.019590 0.633026 10.669880 17.897641
 118000.000000 70.524610 40.533150 0.744006 6.929736 11.623929
 120000.000000 69.846490 40.737440 0.697583 9.126416 15.308637
 122000.000000 69.890820 40.140090 0.675157 8.662837 14.531030
 124000.000000 69.614010 40.675440 0.605334 7.483310 12.552493
 126000.000000 69.704080 40.688150 0.685743 7.714294 12.939946
 128000.000000 69.750900 40.732680 0.632583 8.421917 14.126911
 130000.000000 70.418760 40.889030 0.717048 7.595821 12.741219
 132000.000000 69.423300 41.092730 0.700671 4.479118 7.513266
 134000.000000 69.701740 41.319250 0.689906 2.720349 4.563109
 136000.000000 69.448360 41.000670 0.623104 5.334796 8.948579
 138000.000000 68.921200 41.076000 0.749743 2.640678 4.429469
 140000.000000 68.817520 40.697540 0.652020 4.641363 7.785416
 142000.000000 68.634470 40.687610 0.650487 3.324542 5.576582
 144000.000000 69.385120 40.517120 0.672661 8.225053 13.796692
 146000.000000 68.901830 40.107130 0.629244 6.865579 11.516312
 148000.000000 69.099620 39.956030 0.624301 6.771848 11.359088
 150000.000000 68.589880 39.412820 0.747928 -0.143381 -0.240507
 152000.000000 68.397290 39.594430 0.648718 2.731226 4.581355
 154000.000000 68.308840 40.105490 0.603465 -0.426993 -0.716238
 156000.000000 68.757200 40.074930 0.661751 4.255679 7.138470
 158000.000000 68.402670 39.728240 0.620698 5.485260 9.200967
 160000.000000 68.402870 39.513080 0.682815 2.563093 4.299328
 162000.000000 68.660300 39.177310 0.465895 -1.703500 -2.857448
 164000.000000 68.621350 39.156660 0.653459 -1.747187 -2.930729
 166000.000000 69.174580 39.424850 0.647488 8.392487 14.077546
 168000.000000 68.183260 39.995940 0.562360 1.505385 2.525131
 170000.000000 68.421950 39.815350 0.571194 5.089002 8.536285
 172000.000000 68.475720 39.802210 0.730360 5.831101 9.781080
 174000.000000 68.951610 40.102000 0.707368 6.760993 11.340880
 176000.000000 69.108950 40.326270 0.642946 6.154814 10.324076
 178000.000000 68.716700 40.220900 0.729087 4.784260 8.025111
 180000.000000 68.812660 39.874230 0.665164 7.391296 12.398149
 182000.000000 68.556090 39.135120 0.724990 -1.747456 -2.931180
 184000.000000 69.024630 38.131960 0.812560 -3.360958 -5.637666
 186000.000000 69.063940 38.203520 0.768552 -3.050730 -5.117290
 188000.000000 69.573590 37.991730 0.876018 -3.413201 -5.725298
 190000.000000 70.001530 37.778450 0.751535 -3.617429 -6.067870
 192000.000000 70.498420 38.425780 0.766479 -2.748923 -4.611039
 194000.000000 71.283230 38.783230 0.892479 -2.654223 -4.452190
 196000.000000 71.081750 37.857440 0.785612 -3.999069 -6.708033
 198000.000000 70.290650 37.803470 0.824439 -3.534161 -5.928197
 200000.000000 70.078320 37.532150 0.733680 -4.094855 -6.868704
 202000.000000 69.657270 38.190830 0.722066 -2.978029 -4.995342
 204000.000000 69.035370 37.880750 0.716691 -3.556964 -5.966446
 206000.000000 70.248840 38.064600 0.741273 -3.102889 -5.204782
 208000.000000 69.907050 38.323000 0.700308 -2.751407 -4.615206
 210000.000000 69.482710 38.000690 0.740994 -3.468096 -5.817379
 212000.000000 69.431820 37.797810 0.541234 -3.491615 -5.856830
 214000.000000 71.541110 38.135690 0.730715 -4.005862 -6.719427
 216000.000000 70.879850 38.063080 0.753740 -3.460254 -5.804225
 218000.000000 70.377880 38.803080 0.704991 -1.423475 -2.387735
 220000.000000 71.183150 38.931020 0.715860 -1.031700 -1.730572
 222000.000000 71.158240 39.173420 0.834319 -0.369368 -0.619578
 224000.000000 72.090370 39.495740 0.749399 -1.747518 -2.931284
 226000.000000 71.850120 39.394140 0.804198 -1.747453 -2.931175
 228000.000000 71.382820 39.460890 0.727393 8.653848 14.515952
 230000.000000 72.223890 39.783770 0.672051 -1.747114 -2.930606
 232000.000000 71.720430 39.756370 0.715940 3.799889 6.373928
 234000.000000 71.110400 38.998150 0.699513 -1.370653 -2.299131
 236000.000000 70.222140 38.793140 0.780707 -1.402698 -2.352884
 238000.000000 71.297890 38.982340 0.797145 0.019965 0.033490
 240000.000000 71.938770 38.572560 0.804982 -3.832253 -6.428216
 242000.000000 72.261920 39.025100 0.847849 -3.482239 -5.841103
 244000.000000 71.847630 39.246310 0.746346 -1.792148 -3.006146
 246000.000000 71.203700 38.116810 0.808209 -3.765291 -6.315894
 248000.000000 71.340660 38.187780 0.804844 -3.772996 -6.328818
 250000.000000 71.242210 37.503500 0.789610 -4.175818 -7.004511
 252000.000000 72.235550 37.836650 0.780797 -4.377780 -7.343282
 254000.000000 72.195590 37.843200 0.809614 -4.377779 -7.343280
 256000.000000 72.442780 38.265620 0.774087 -4.275668 -7.171999
 258000.000000 71.838970 37.497440 0.810693 -4.377765 -7.343257
 260000.000000 72.505830 38.328240 0.814198 -4.375145 -7.338862
 262000.000000 72.434030 38.018060 0.747394 -4.378128 -7.343866
 264000.000000 71.591190 37.740320 0.766047 -4.175991 -7.004801
 266000.000000 71.843830 37.510040 0.726834 -4.377723 -7.343186
 268000.000000 71.659670 38.096430 0.728767 -4.012675 -6.730855
 270000.000000 72.682070 37.977310 0.805558 -4.378805 -7.345001
 272000.000000 71.271350 37.789460 0.735007 -4.070282 -6.827485
 274000.000000 71.210720 37.969860 0.767683 -3.845533 -6.450491
 276000.000000 71.394780 37.617270 0.738422 -4.184123 -7.018442
 278000.000000 72.547840 38.546310 0.729336 -4.039906 -6.776532
 280000.000000 71.918920 39.215200 0.809914 -2.154134 -3.613341
 282000.000000 72.489260 38.552210 0.838180 -4.011360 -6.728649
 284000.000000 73.157420 39.091380 0.784719 -4.250632 -7.130004
 286000.000000 72.884540 39.283100 0.833612 -3.738551 -6.271040
 288000.000000 72.466150 39.218990 0.751474 -3.292257 -5.522427
 290000.000000 72.950480 38.353160 0.733081 -4.293114 -7.201263
 292000.000000 72.664320 39.526200 0.832154 -1.767683 -2.965109
 294000.000000 73.486190 38.833100 0.782977 -4.345064 -7.288404
 296000.000000 73.393710 38.668830 0.755511 -4.380807 -7.348359
 298000.000000 72.591170 39.149770 0.728689 -3.527365 -5.916797
 300000.000000 72.532570 38.561170 0.782350 -4.023519 -6.749045
 302000.000000 71.829450 38.156480 0.791171 -4.076534 -6.837972
 304000.000000 73.073080 38.274430 0.801846 -4.383048 -7.352118
 306000.000000 73.810570 38.849470 0.845983 -4.382996 -7.352031
 308000.000000 73.252450 38.414340 0.864062 -4.383054 -7.352128
 310000.000000 71.889710 37.908310 0.866033 -4.213914 -7.068413
 312000.000000 73.502230 39.206570 0.876764 -4.250646 -7.130027
 314000.000000 73.190310 39.438230 0.836104 -3.997063 -6.704668
 316000.000000 73.536750 38.795700 0.883134 -4.340957 -7.281515
 318000.000000 73.810090 39.266920 0.819818 -4.336069 -7.273316
 320000.000000 74.089040 39.516630 0.805268 -4.307883 -7.226037
 322000.000000 73.408470 38.318320 0.865636 -4.387064 -7.358855
 324000.000000 73.520800 38.841000 0.761894 -4.341119 -7.281787
 326000.000000 73.029510 38.824480 0.763602 -4.161748 -6.980910
 328000.000000 73.137180 39.113310 0.792691 -4.250634 -7.130007
 330000.000000 73.229900 38.606980 0.848756 -4.383039 -7.352103
 332000.000000 73.030200 38.768140 0.863008 -4.248068 -7.125703
 334000.000000 73.903180 38.809030 0.759892 -4.386735 -7.358303
 336000.000000 73.613850 38.492120 0.831171 -4.385545 -7.356307
 338000.000000 72.906640 38.246290 0.892993 -4.379156 -7.345590
 340000.000000 72.809100 38.341670 0.796099 -4.377999 -7.343649
 342000.000000 72.956620 38.021990 0.841666 -4.382287 -7.350842
 344000.000000 72.306040 37.957040 0.794391 -4.377053 -7.342062
 346000.000000 72.108540 37.470060 0.823097 -4.382774 -7.351659
 348000.000000 71.877090 37.562690 0.756515 -4.377774 -7.343272
 350000.000000 70.579950 37.342450 0.781792 -4.188228 -7.025328
 352000.000000 71.366940 37.330690 0.824825 -4.280082 -7.179403
 354000.000000 71.368680 37.181770 0.801157 -4.378540 -7.344557
 356000.000000 70.445940 37.343960 0.774370 -4.193768 -7.034620
 358000.000000 71.175590 37.152920 0.865467 -4.378585 -7.344632
 360000.000000 71.846740 37.303690 0.828128 -4.378906 -7.345171
 362000.000000 72.282030 38.264780 0.729222 -4.274043 -7.169274
 364000.000000 71.589510 37.721220 0.773664 -4.176030 -7.004867
 366000.000000 71.807570 37.817540 0.846340 -4.256933 -7.140573
 368000.000000 71.115090 37.526950 0.763977 -4.196899 -7.039872
 370000.000000 70.858270 38.005200 0.754942 -3.521368 -5.906738
 372000.000000 70.273070 37.909690 0.720021 -3.433264 -5.758952
 374000.000000 69.953400 37.374930 0.753906 -4.149765 -6.960810
 376000.000000 70.431250 37.808200 0.788868 -3.837564 -6.437124
 378000.000000 70.904090 37.794060 0.723522 -3.927320 -6.587681
 380000.000000 70.549560 37.928050 0.689342 -3.495934 -5.864075
 382000.000000 70.166790 37.284160 0.823145 -4.192881 -7.033133
 384000.000000 69.747020 37.550670 0.766807 -3.901303 -6.544040
 386000.000000 70.977090 37.383170 0.811656 -4.177528 -7.007379
 388000.000000 71.016570 36.979880 0.791023 -4.378584 -7.344630
 390000.000000 70.219650 37.214490 0.838132 -4.226176 -7.088981
 392000.000000 70.769090 37.489630 0.757033 -4.119912 -6.910734
 394000.000000 69.941070 37.098630 0.747078 -4.228406 -7.092722
 396000.000000 69.554370 37.439130 0.782230 -4.067945 -6.823565
 398000.000000 69.435140 37.608280 0.745697 -3.963031 -6.647582
 400000.000000 69.925010 37.556870 0.820934 -3.992805 -6.697525
 402000.000000 69.298280 37.671680 0.796733 -3.882088 -6.511809
 404000.000000 69.079040 37.739840 0.807268 -3.653631 -6.128595
 406000.000000 69.304470 37.825740 0.730437 -3.490315 -5.854649
 408000.000000 70.125600 38.025330 0.792038 -3.084623 -5.174142
 410000.000000 70.394850 38.124470 0.738117 -2.792385 -4.683943
 412000.000000 69.522950 37.940650 0.763255 -3.488762 -5.852044
 414000.000000 70.946970 38.420020 0.834393 -2.779140 -4.661725
 416000.000000 71.206040 37.695770 0.746259 -4.133552 -6.933614
 418000.000000 70.117700 38.435500 0.835190 -1.900848 -3.188480
 420000.000000 70.572940 38.829490 0.787015 1.532513 2.570635
 422000.000000 70.397270 38.414360 0.872586 -2.747316 -4.608344
 424000.000000 69.493260 37.664100 0.927831 -3.534293 -5.928418
 426000.000000 69.777810 38.656150 0.876261 -1.749149 -2.934020
 428000.000000 69.844930 37.728220 0.831826 -3.553994 -5.961464
 430000.000000 69.928840 37.394790 0.805651 -4.141294 -6.946601
 432000.000000 70.016370 37.738680 0.796431 -3.672706 -6.160592
 434000.000000 70.187680 38.253530 0.810471 -2.751511 -4.615381
 436000.000000 70.945740 37.563750 0.801997 -4.145967 -6.954439
 438000.000000 70.129710 37.547900 0.795168 -4.121997 -6.914232
 440000.000000 69.748340 37.788470 0.849443 -3.493124 -5.859361
 442000.000000 69.806040 38.037550 0.801333 -3.470777 -5.821876
 444000.000000 70.580920 37.895120 0.749936 -3.831797 -6.427451
 446000.000000 70.917010 37.489430 0.776240 -4.122058 -6.914334
 448000.000000 70.255930 37.413430 0.800379 -4.156386 -6.971916
 450000.000000 70.976470 37.524960 0.890330 -4.153284 -6.966713
 452000.000000 70.502040 37.836500 0.825067 -3.841213 -6.443245
 454000.000000 70.298020 37.710260 0.842506 -3.823517 -6.413562
 456000.000000 69.361240 37.389330 0.785898 -4.175475 -7.003936
 458000.000000 69.358690 37.953840 0.767981 -3.488837 -5.852170
 460000.000000 69.732980 37.245760 0.865237 -4.225095 -7.087168
 462000.000000 69.429210 37.236280 0.869990 -4.227772 -7.091659
 464000.000000 70.614000 37.585410 0.782725 -4.118367 -6.908143
 466000.000000 69.320610 38.015640 0.745094 -3.488765 -5.852049
 468000.000000 68.818830 37.972400 0.767280 -3.420695 -5.737869
 470000.000000 68.948090 38.307660 0.780361 -2.867508 -4.809954
 472000.000000 68.939790 38.132960 0.759000 -3.361134 -5.637961
 474000.000000 69.405710 37.878840 0.787614 -3.488800 -5.852108
 476000.000000 69.904150 37.435690 0.787010 -4.153975 -6.967872
 478000.000000 68.713690 37.766490 0.810271 -3.655068 -6.131006
 480000.000000 69.548700 38.064730 0.745892 -3.226756 -5.412556
 482000.000000 69.584320 37.848450 0.822577 -3.488842 -5.852179
 484000.000000 70.199620 37.392490 0.836149 -4.172231 -6.998494
 486000.000000 69.448280 37.780440 0.742930 -3.496540 -5.865091
 488000.000000 69.137790 37.969370 0.799627 -3.535840 -5.931013
 490000.000000 69.036670 38.113330 0.808365 -3.361014 -5.637760
 492000.000000 68.592620 38.317590 0.841476 -3.194563 -5.358555
 494000.000000 69.247180 37.474040 0.811573 -4.116234 -6.904565
 496000.000000 68.865680 37.524520 0.864698 -4.080206 -6.844132
 498000.000000 68.235520 38.457650 0.844872 -3.094963 -5.191486
 500000.000000 68.578670 38.553280 0.833394 -2.087267 -3.501179
 502000.000000 68.492060 38.505100 0.823329 -2.455357 -4.118612
 504000.000000 68.322190 39.043340 0.803075 -1.747476 -2.931214
 506000.000000 68.519680 38.755770 0.840750 -1.766558 -2.963222
 508000.000000 68.327250 38.401790 0.731199 -3.319516 -5.568151
 510000.000000 68.490800 38.989450 0.854381 -1.747461 -2.931189
 512000.000000 68.204970 38.725010 0.837335 -1.783078 -2.990932
 514000.000000 68.353460 39.062190 0.803335 -1.747463 -2.931192
 516000.000000 68.621890 38.648450 0.709862 -1.821757 -3.055813
 518000.000000 68.897910 38.926470 0.836623 -1.747461 -2.931189
 520000.000000 68.202680 39.360930 0.764950 -1.747499 -2.931252
 522000.000000 68.603040 39.041510 0.859704 -1.747454 -2.931177
 524000.000000 68.542720 38.485560 0.845964 -2.775318 -4.655314
 526000.000000 68.618800 38.158480 0.863135 -3.561344 -5.973793
 528000.000000 68.187860 38.308680 0.822536 -3.559380 -5.970499
 530000.000000 68.753420 38.371240 0.792642 -2.804440 -4.704164
 532000.000000 68.362440 38.409430 0.813519 -3.363973 -5.642723
 534000.000000 68.530180 38.477180 0.830146 -2.776105 -4.656635
 536000.000000 68.556940 38.645690 0.821006 -1.787666 -2.998628
 538000.000000 68.734910 38.186180 0.850018 -3.371415 -5.655207
 540000.000000 68.722380 38.549270 0.809269 -2.708780 -4.543704
 542000.000000 68.858710 38.077560 0.788937 -3.369948 -5.652746
 544000.000000 68.754060 37.614770 0.799873 -3.895543 -6.534378
 546000.000000 68.967730 38.408540 0.722527 -2.757028 -4.624635
 548000.000000 68.798680 37.642990 0.812271 -3.784778 -6.348581
 550000.000000 69.258560 37.340650 0.804439 -4.175872 -7.004602
 552000.000000 69.329300 37.834250 0.750463 -3.489766 -5.853728
 554000.000000 69.204340 37.986550 0.784810 -3.437184 -5.765527
 556000.000000 69.004970 37.682330 0.751903 -3.672283 -6.159882
 558000.000000 68.929240 37.691720 0.787851 -3.728243 -6.253749
 560000.000000 69.004900 37.445940 0.789339 -4.178051 -7.008257
 562000.000000 68.466310 37.761880 0.737830 -3.849283 -6.456782
 564000.000000 68.895240 38.086580 0.761086 -3.362835 -5.640815
 566000.000000 68.910180 38.024060 0.753282 -3.396023 -5.696484
 568000.000000 69.452000 38.090510 0.785589 -3.319223 -5.567660
 570000.000000 69.016000 37.824550 0.750280 -3.581452 -6.007522
 572000.000000 68.177570 38.259120 0.781594 -3.560977 -5.973178
 574000.000000 67.974030 38.376880 0.777245 -3.560995 -5.973208
 576000.000000 68.802070 38.223330 0.754397 -3.275276 -5.493943
 578000.000000 68.749560 38.521500 0.793451 -2.725129 -4.571127
 580000.000000 68.792560 38.622220 0.737648 -1.811645 -3.038851
 582000.000000 68.393290 38.543860 0.766101 -2.717124 -4.557700
 584000.000000 68.299390 38.520870 0.765945 -2.837680 -4.759920
 586000.000000 68.254980 37.907020 0.853952 -3.824815 -6.415739
 588000.000000 68.325420 38.230560 0.753900 -3.559253 -5.970286
 590000.000000 67.920370 38.930960 0.764563 -2.347768 -3.938143
 592000.000000 68.109020 39.055460 0.704826 -1.748209 -2.932443
 594000.000000 68.407070 39.128160 0.653608 -1.747456 -2.931180
 596000.000000 68.086520 39.025290 0.676853 -1.748930 -2.933653
 598000.000000 68.097670 39.171170 0.733523 -1.747638 -2.931485
 600000.000000 68.007090 39.131610 0.660729 -1.748684 -2.933240
 602000.000000 68.044590 39.061030 0.708017 -1.749506 -2.934619
 604000.000000 68.402340 39.147360 0.731067 -1.747455 -2.931178
 606000.000000 68.378270 39.282270 0.716560 -1.747453 -2.931175
 608000.000000 67.959990 38.283650 0.764655 -3.563581 -5.977546
 610000.000000 68.626500 39.112940 0.739381 -1.747420 -2.931120
 612000.000000 68.360760 38.604300 0.871153 -2.172445 -3.644056
 614000.000000 68.250130 39.136680 0.695507 -1.747513 -2.931276
 616000.000000 67.940620 39.155770 0.737682 -1.749750 -2.935028
 618000.000000 68.026670 39.116440 0.816076 -1.749347 -2.934352
 620000.000000 67.747270 39.048900 0.786855 -2.277053 -3.819525
 622000.000000 67.908930 39.423120 0.805832 -1.768724 -2.966855
 624000.000000 68.099160 39.230070 0.825726 -1.747625 -2.931464
 626000.000000 67.925760 39.538390 0.772195 -1.749387 -2.934419
 628000.000000 67.548790 39.556190 0.762387 -2.783755 -4.669467
 630000.000000 68.038450 39.514560 0.808758 -1.747545 -2.931329
 632000.000000 68.026140 40.039140 0.754839 0.326700 0.548006
 634000.000000 68.162690 40.373250 0.775393 2.484102 4.166829
 636000.000000 67.990870 40.295420 0.770297 1.179852 1.979082
 638000.000000 68.090540 40.004040 0.851790 -0.124127 -0.208210
 640000.000000 67.764020 40.407340 0.683338 -1.761366 -2.954513
 642000.000000 68.163540 40.362090 0.783020 2.091482 3.508249
 644000.000000 68.052350 39.959480 0.816018 -0.282953 -0.474625
 646000.000000 67.532590 39.431770 0.869156 -2.466401 -4.137137
 648000.000000 68.059360 39.679920 0.915609 -0.096784 -0.162345
 650000.000000 67.711420 40.056580 0.841290 -2.675836 -4.488443
 652000.000000 67.512130 39.159890 0.751168 -3.378156 -5.666514
 654000.000000 68.212390 39.612070 0.767782 0.276880 0.464438
 656000.000000 68.296000 39.538740 0.814040 -1.042686 -1.749000
 658000.000000 67.963030 39.823030 0.837124 -1.057815 -1.774377
 660000.000000 68.393870 40.292750 0.787604 3.457165 5.799044
 662000.000000 68.220700 39.804140 0.806012 2.837962 4.760393
 664000.000000 67.960990 39.273460 0.807137 -1.751462 -2.937900
 666000.000000 67.912210 39.475500 0.814859 -1.761552 -2.954825
 668000.000000 67.995300 38.951090 0.749033 -1.812766 -3.040731
 670000.000000 68.168740 38.793480 0.783732 -1.796955 -3.014210
 672000.000000 68.421420 38.447110 0.744852 -3.080983 -5.168036
 674000.000000 68.110520 39.135370 0.867247 -1.747763 -2.931695
 676000.000000 67.685390 39.061980 0.823500 -2.560194 -4.294466
 678000.000000 67.809190 39.382040 0.815227 -1.783615 -2.991833
 680000.000000 69.089070 39.215010 0.809266 3.080283 5.166862
 682000.000000 68.763330 39.034330 0.823966 -1.747435 -2.931145
 684000.000000 68.409290 39.339640 0.703288 -1.740285 -2.919152
 686000.000000 68.557240 39.941960 0.795980 6.447035 10.814247
 688000.000000 67.665580 39.094880 0.754722 -2.438343 -4.090073
 690000.000000 67.761640 38.367290 0.760311 -3.746056 -6.283629
 692000.000000 68.133280 39.032860 0.799579 -1.748078 -2.932224
 694000.000000 68.171080 38.871290 0.787945 -1.756311 -2.946034
 696000.000000 68.098490 38.453170 0.832447 -3.413760 -5.726236
 698000.000000 68.406220 38.351800 0.846582 -3.401796 -5.706168
 700000.000000 67.984090 38.422730 0.826888 -3.558695 -5.969350
 702000.000000 68.237310 38.103210 0.825431 -3.634256 -6.096096
 704000.000000 67.508790 38.743010 0.742563 -3.692247 -6.193370
 706000.000000 67.463580 38.974960 0.696349 -3.432142 -5.757070
 708000.000000 67.980710 39.369350 0.849482 -1.751089 -2.937274
 710000.000000 67.612450 39.757200 0.811032 -1.826829 -3.064320
 712000.000000 67.678680 39.070110 0.779475 -2.494881 -4.184910
 714000.000000 67.343520 39.048980 0.770467 -3.603700 -6.044841
 716000.000000 68.625070 39.760260 0.814783 6.573822 11.026919
 718000.000000 67.612240 39.662730 0.788799 -2.748602 -4.610501
 720000.000000 67.694530 39.844210 0.757163 -1.661395 -2.786822
 722000.000000 67.501790 40.525800 0.704024 -2.685274 -4.504275
 724000.000000 67.282700 39.899750 0.688870 -2.764573 -4.637291
 726000.000000 67.863340 40.316640 0.647471 -0.540103 -0.905967
 728000.000000 68.461550 40.495170 0.733762 4.440721 7.448859
 730000.000000 68.040780 40.087410 0.784943 0.014403 0.024160
 732000.000000 67.722580 39.706270 0.751810 -2.115467 -3.548481
 734000.000000 67.948570 39.349910 0.777019 -1.750472 -2.936239
 736000.000000 67.663730 39.537580 0.906968 -1.838733 -3.084288
 738000.000000 67.778870 39.532830 0.788935 -1.780887 -2.987257
 740000.000000 67.351840 40.197030 0.774960 -2.958796 -4.963080
 742000.000000 67.608210 39.984550 0.759636 -2.021045 -3.390098
 744000.000000 67.848300 40.101770 0.761390 -2.650862 -4.446552
 746000.000000 67.321550 40.130270 0.765891 -3.009613 -5.048320
 748000.000000 67.169540 39.509550 0.769712 -3.154699 -5.291688
 750000.000000 66.927040 39.919040 0.747822 -3.077951 -5.162951
 752000.000000 66.979500 39.506290 0.747866 -3.577400 -6.000726
 754000.000000 67.287370 39.576820 0.781839 -2.847320 -4.776090
 756000.000000 67.448190 40.559320 0.841244 -2.684489 -4.502958
 758000.000000 67.227530 39.094570 0.742244 -3.692864 -6.194405
 760000.000000 67.275750 40.113470 0.754386 -3.226357 -5.411887
 762000.000000 67.680990 40.183490 0.739881 -2.645718 -4.437924
 764000.000000 67.772600 40.794920 0.725009 -1.470325 -2.466321
 766000.000000 67.704540 40.832850 0.702427 -1.825139 -3.061486
 768000.000000 67.870770 40.745440 0.748789 -1.899819 -3.186754
 770000.000000 67.296220 40.585770 0.678284 -2.684409 -4.502824
 772000.000000 68.192880 40.479220 0.672998 2.358713 3.956502
 774000.000000 68.224750 40.400150 0.763802 2.369504 3.974603
 776000.000000 68.629130 41.037890 0.760045 -0.428744 -0.719175
 778000.000000 68.057210 40.731560 0.832252 -0.924551 -1.550840
 780000.000000 67.491380 40.902320 0.721813 -1.453664 -2.438374
 782000.000000 67.551170 40.813390 0.762137 -0.890206 -1.493230
 784000.000000 67.813880 41.217500 0.666933 -0.469784 -0.788015
 786000.000000 68.249650 41.013670 0.704935 -0.437193 -0.733346
 788000.000000 67.935870 40.594790 0.756848 -2.083215 -3.494382
 790000.000000 68.449180 40.881020 0.742063 -0.393169 -0.659501
 792000.000000 68.224990 41.294810 0.854788 -0.430692 -0.722441
 794000.000000 68.829550 41.179890 0.702874 -0.426401 -0.715244
 796000.000000 68.404970 41.394830 0.772146 -0.430688 -0.722435
 798000.000000 68.118990 41.399230 0.681178 -0.430950 -0.722875
 800000.000000 68.145140 40.675770 0.746938 0.573200 0.961485
 802000.000000 67.585750 40.300710 0.808707 -0.862656 -1.447017
 804000.000000 68.352720 40.980270 0.797610 -0.442489 -0.742230
 806000.000000 67.816940 40.687790 0.749926 -2.681022 -4.497142
 808000.000000 68.227000 40.858040 0.850706 -0.384362 -0.644728
 810000.000000 67.843200 40.232800 0.862886 -1.368247 -2.295096
 812000.000000 67.202030 40.288130 0.821640 -3.191921 -5.354124
 814000.000000 67.132080 40.759340 0.889473 -2.963690 -4.971289
 816000.000000 67.238780 40.354220 0.774633 -2.738717 -4.593920
 818000.000000 67.386380 40.503460 0.708923 -2.703745 -4.535258
 820000.000000 67.908130 40.591180 0.834997 -2.491570 -4.179356
 822000.000000 68.625710 40.041720 0.770049 3.656379 6.133205
 824000.000000 67.886120 40.222730 0.814037 -1.024415 -1.718352
 826000.000000 68.140350 40.770670 0.716272 -0.656399 -1.101042
 828000.000000 68.301750 40.936960 0.772798 0.596741 1.000972
 830000.000000 68.125380 40.825880 0.759084 -0.512487 -0.859645
 832000.000000 67.487460 40.992970 0.769633 -2.458956 -4.124649
 834000.000000 67.575560 40.730510 0.774584 -0.842261 -1.412807
 836000.000000 67.853680 41.025610 0.806848 -0.467204 -0.783687
 838000.000000 67.810370 40.459270 0.780291 -2.648770 -4.443043
 840000.000000 68.417770 40.531050 0.812547 3.888092 6.521880
 842000.000000 68.631730 40.773180 0.813461 1.448978 2.430514
 844000.000000 68.545110 40.280170 0.814374 4.330832 7.264531
 846000.000000 68.390230 40.709310 0.808702 0.146126 0.245111
 848000.000000 69.246230 41.360520 0.744579 2.977617 4.994650
 850000.000000 69.162560 40.996720 0.861767 5.041926 8.457319
 852000.000000 69.145940 41.305000 0.774109 2.586909 4.339277
 854000.000000 69.027560 41.640380 0.764519 0.662590 1.111427
 856000.000000 68.405670 41.640510 0.881520 -0.430924 -0.722831
 858000.000000 69.545150 41.872500 0.811087 6.867804 11.520044
 860000.000000 68.696090 41.521990 0.852197 -0.430672 -0.722409
 862000.000000 69.309840 41.267430 0.783402 2.790720 4.681150
 864000.000000 69.331110 41.401930 0.830754 1.276939 2.141936
 866000.000000 68.431220 41.404410 0.796070 -0.430680 -0.722423
 868000.000000 67.957770 41.000140 0.726028 -0.524359 -0.879559
 870000.000000 67.534690 40.863960 0.776659 -0.786412 -1.319126
 872000.000000 67.361060 40.696120 0.685214 -2.682057 -4.498879
 874000.000000 67.862730 40.519570 0.632594 -2.596045 -4.354602
 876000.000000 68.174250 40.686330 0.810324 -0.270332 -0.453455
 878000.000000 68.585140 40.333970 0.806929 5.211387 8.741573
 880000.000000 68.580540 40.370010 0.803320 5.160013 8.655398
 882000.000000 67.530010 40.161430 0.836879 -2.705074 -4.537487
 884000.000000 67.735180 39.896070 0.738551 -2.613480 -4.383848
 886000.000000 67.625950 39.917310 0.785519 -2.681836 -4.498508
 888000.000000 67.009200 40.264660 0.749370 -3.273935 -5.491694
 890000.000000 66.844620 39.896890 0.730822 -3.474746 -5.828534
 892000.000000 68.504610 39.898550 0.837224 6.269912 10.517141
 894000.000000 67.093290 40.439260 0.762484 -3.140296 -5.267528
 896000.000000 68.175220 39.964100 0.794346 2.407447 4.038248
 898000.000000 68.024380 40.238320 0.741619 -0.547149 -0.917786
 900000.000000 67.636800 39.275010 0.763179 -2.364718 -3.966575
 902000.000000 67.779390 40.170890 0.811333 -1.734605 -2.909624
 904000.000000 67.466530 40.361990 0.677301 -2.683161 -4.500730
 906000.000000 68.111040 40.526310 0.732294 -0.294508 -0.494007
 908000.000000 67.591530 40.543430 0.692575 -2.681994 -4.498773
 910000.000000 67.681400 40.092010 0.725215 -2.678134 -4.492298
 912000.000000 68.207330 39.699510 0.666517 2.510353 4.210862
 914000.000000 68.601990 40.419050 0.736090 4.257872 7.142148
 916000.000000 68.326050 40.471920 0.718108 3.436623 5.764586
 918000.000000 67.760060 41.198010 0.738863 -0.556258 -0.933066
 920000.000000 68.538130 41.380140 0.740795 -0.430672 -0.722408
 922000.000000 68.403260 41.088300 0.781250 -0.431688 -0.724112
 924000.000000 68.414820 41.126680 0.736857 -0.430795 -0.722616
 926000.000000 68.045800 40.900490 0.691595 -0.517732 -0.868443
 928000.000000 67.306510 40.502420 0.746071 -2.710271 -4.546205
 930000.000000 67.010160 40.707900 0.658867 -2.983063 -5.003786
 932000.000000 68.174350 40.491610 0.826712 1.237506 2.075791
 934000.000000 68.111860 40.915260 0.838200 -0.500998 -0.840373
 936000.000000 67.606290 40.502700 0.800441 -2.682111 -4.498969
 938000.000000 67.308650 40.055050 0.805171 -3.238603 -5.432428
 940000.000000 67.130290 40.502170 0.755965 -2.994233 -5.022522
 942000.000000 67.578930 40.467590 0.808448 -2.682167 -4.499063
 944000.000000 68.003510 40.048580 0.823797 0.351043 0.588838
 946000.000000 67.652080 40.076600 0.764617 -2.677098 -4.490560
 948000.000000 67.236240 40.199540 0.803282 -3.259808 -5.467997
 950000.000000 67.463360 40.535100 0.838302 -2.683983 -4.502109
 952000.000000 68.795820 40.711330 0.894120 4.514087 7.571923
 954000.000000 67.697900 41.356460 0.795648 -0.508311 -0.852639
 956000.000000 68.675590 40.909490 0.844431 1.833650 3.075762
 958000.000000 68.571560 40.689280 0.794839 2.358621 3.956347
 960000.000000 68.520430 40.786610 0.845739 0.924730 1.551141
 962000.000000 68.907960 41.228800 0.845581 1.934577 3.245057
 964000.000000 68.646830 40.871690 0.750689 2.155931 3.616356
 966000.000000 68.199570 40.883540 0.772758 -0.417599 -0.700480
 968000.000000 68.863880 40.650630 0.710900 5.637627 9.456547
 970000.000000 69.421940 41.274590 0.649454 2.808926 4.711688
 972000.000000 69.043580 41.031270 0.825153 4.123806 6.917266
 974000.000000 69.386660 41.096380 0.747935 4.967610 8.332662
 976000.000000 69.226840 40.616150 0.870048 7.866639 13.195489
 978000.000000 68.898340 40.875950 0.832052 4.465623 7.490630
 980000.000000 69.293040 40.871840 0.804554 7.372409 12.366468
 982000.000000 68.370210 40.440450 0.696653 4.554753 7.640136
 984000.000000 68.022770 40.303640 0.672614 0.667757 1.120095
 986000.000000 67.342420 40.435190 0.776995 -2.703047 -4.534087
 988000.000000 67.340490 41.171800 0.742919 -2.682033 -4.498838
 990000.000000 67.419300 40.755990 0.797692 -2.644264 -4.435485
 992000.000000 67.296870 40.845870 0.641855 -2.682566 -4.499732
 994000.000000 67.405840 39.904630 0.767637 -2.818265 -4.727354
 996000.000000 66.809230 40.632520 0.756506 -3.047305 -5.111545
 998000.000000 67.519540 40.750440 0.706821 -1.516622 -2.543980
 1000000.000000 67.584110 41.068300 0.630906 -2.408844 -4.040591
 1002000.000000 68.243590 40.426710 0.744734 2.828242 4.744089
 1004000.000000 68.038530 40.694460 0.816903 -1.333628 -2.237026
 1006000.000000 68.372900 41.214540 0.856641 -0.430706 -0.722466
 1008000.000000 69.058790 41.583860 0.829658 1.933403 3.243087
 1010000.000000 68.330720 41.517870 0.848988 -0.430717 -0.722484
 1012000.000000 68.492920 41.595040 0.833011 -0.430697 -0.722451
 1014000.000000 67.884790 41.561800 0.805704 -0.431049 -0.723041
 1016000.000000 67.943170 41.205790 0.819877 -0.432038 -0.724700
 1018000.000000 67.898710 41.046020 0.822052 -0.487529 -0.817780
 1020000.000000 67.959730 41.377960 0.774474 -0.446121 -0.748322
 1022000.000000 69.687000 41.718130 0.753303 6.385219 10.710557
 1024000.000000 68.994800 41.118720 0.820417 3.058100 5.129653
 1026000.000000 68.425590 41.206840 0.779530 -0.430683 -0.722426
 1028000.000000 68.034170 41.329050 0.788454 -0.433106 -0.726491
 1030000.000000 68.594780 41.637910 0.785188 -0.430710 -0.722473
 1032000.000000 68.707330 41.676540 0.822313 1.577671 2.646383
 1034000.000000 68.248750 41.859840 0.723605 -0.431253 -0.723383
 1036000.000000 68.265940 41.607950 0.637837 -0.430735 -0.722514
 1038000.000000 67.695160 41.435590 0.708886 -0.433708 -0.727501
 1040000.000000 67.510920 41.474020 0.872808 -0.460345 -0.772181
 1042000.000000 67.432850 41.378270 0.783391 -0.771775 -1.294574
 1044000.000000 67.993210 41.175610 0.788345 -0.431162 -0.723231
 1046000.000000 68.365530 41.325090 0.853504 -0.430677 -0.722417
 1048000.000000 68.056740 41.014460 0.799554 -0.481710 -0.808020
 1050000.000000 68.202410 40.746170 0.834889 -0.411452 -0.690168
 1052000.000000 67.569220 41.094590 0.866421 -2.544213 -4.267659
 1054000.000000 67.336770 40.744610 0.819347 -2.681999 -4.498781
 1056000.000000 67.669490 40.821000 0.785182 -1.032818 -1.732447
 1058000.000000 67.934010 41.186000 0.817999 -0.433393 -0.726974
 1060000.000000 68.272250 41.187900 0.789656 -0.431040 -0.723025
 1062000.000000 68.775390 42.046180 0.789587 3.794461 6.364823
 1064000.000000 68.268930 42.100590 0.799778 0.113356 0.190143
 1066000.000000 67.944060 41.690680 0.783314 -0.431497 -0.723792
 1068000.000000 67.756570 41.572760 0.835712 -0.433123 -0.726519
 1070000.000000 67.544910 41.429120 0.847896 -0.466546 -0.782584
 1072000.000000 68.007000 42.031820 0.723508 -0.438381 -0.735340
 1074000.000000 68.633170 41.872150 0.924107 1.820135 3.053092
 1076000.000000 68.749050 42.132010 0.865528 4.045813 6.786441
 1078000.000000 68.708770 41.637150 0.863134 -0.315381 -0.529019
 1080000.000000 68.965690 41.535040 0.804726 1.513063 2.538010
 1082000.000000 68.653610 41.434180 0.773260 -0.430681 -0.722424
 1084000.000000 68.168620 41.718660 0.707052 -0.430945 -0.722866
 1086000.000000 68.656200 41.994200 0.748859 2.345123 3.933706
 1088000.000000 68.516420 41.521550 0.803424 -0.430675 -0.722414
 1090000.000000 68.014220 41.641940 0.804558 -0.430931 -0.722844
 1092000.000000 68.541060 41.676920 0.798779 -0.430710 -0.722472
 1094000.000000 67.615080 41.517560 0.821218 -0.439523 -0.737256
 1096000.000000 67.466080 41.309910 0.813984 -2.300892 -3.859513
 1098000.000000 68.425480 41.938720 0.788937 -0.422086 -0.708007
 1100000.000000 68.819100 42.133330 0.814426 3.304095 5.542284
 1102000.000000 68.881150 41.633330 0.784872 0.841730 1.411916
 1104000.000000 68.812590 41.269800 0.847723 -0.430432 -0.722006
 1106000.000000 69.085170 41.270470 0.841627 1.670726 2.802473
 1108000.000000 68.533430 41.115960 0.832592 -0.430754 -0.722546
 1110000.000000 68.643440 40.428790 0.753152 4.530327 7.599164
 1112000.000000 67.991140 40.431380 0.769850 0.048667 0.081633
 1114000.000000 68.635530 39.819420 0.794241 5.551554 9.312169
 1116000.000000 68.305580 39.936340 0.780407 3.595243 6.030655
 1118000.000000 68.350570 40.269550 0.742993 3.286645 5.513014
 1120000.000000 69.102940 41.307250 0.775011 1.772577 2.973318
 1122000.000000 69.436320 41.977410 0.832089 6.341295 10.636879
 1124000.000000 69.477700 41.370570 0.839576 1.903618 3.193126
 1126000.000000 69.607510 41.427290 0.770250 4.172086 6.998251
 1128000.000000 69.584310 41.949420 0.762582 6.503197 10.908453
 1130000.000000 69.494860 41.923900 0.755653 6.432790 10.790353
 1132000.000000 69.830400 42.143010 0.743426 6.872620 11.528123
 1134000.000000 69.975530 42.360650 0.796658 5.340702 8.958486
 1136000.000000 69.784500 42.075260 0.780788 6.510904 10.921381
 1138000.000000 69.963400 42.148600 0.757632 5.904202 9.903700
 1140000.000000 69.591610 41.835450 0.817298 7.123719 11.949316
 1142000.000000 69.493010 41.878400 0.815647 5.221032 8.757752
 1144000.000000 69.041300 42.332420 0.773275 4.370282 7.330705
 1146000.000000 69.568380 42.107200 0.828758 7.059658 11.841860
 1148000.000000 69.321070 42.156440 0.799010 5.793533 9.718064
 1150000.000000 68.896530 41.920500 0.800537 2.577747 4.323909
 1152000.000000 68.398300 42.292720 0.804931 1.554438 2.607412
 1154000.000000 69.062020 42.241260 0.804527 4.977465 8.349193
 1156000.000000 68.972090 41.971350 0.834376 4.025324 6.752073
 1158000.000000 69.680370 42.319930 0.771408 6.309246 10.583120
 1160000.000000 69.613260 42.494360 0.725378 2.772396 4.650413
 1162000.000000 69.397730 41.396920 0.777321 1.763879 2.958728
 1164000.000000 68.472650 41.400580 0.715196 -0.430674 -0.722413
 1166000.000000 67.622700 41.195040 0.738044 -1.380931 -2.316372
 1168000.000000 67.633540 41.537900 0.688173 -0.434754 -0.729256
 1170000.000000 67.709660 41.807810 0.727437 -0.445437 -0.747176
 1172000.000000 68.567580 41.989520 0.746908 2.220418 3.724526
 1174000.000000 69.217200 42.002270 0.748597 6.630615 11.122184
 1176000.000000 68.997520 41.806100 0.746484 3.232793 5.422682
 1178000.000000 69.219550 41.512940 0.742770 2.426217 4.069733
 1180000.000000 69.180840 41.666690 0.759850 3.755449 6.299385
 1182000.000000 69.154440 41.693010 0.778929 4.177637 7.007562
 1184000.000000 69.671700 41.645810 0.784975 6.005378 10.073412
 1186000.000000 69.597970 41.485020 0.748155 3.896658 6.536248
 1188000.000000 69.219490 40.840030 0.823617 6.808183 11.420036
 1190000.000000 68.332750 41.170130 0.757798 -0.430723 -0.722494
 1192000.000000 68.690460 41.002930 0.804885 0.823671 1.381625
 1194000.000000 68.937060 41.424590 0.769948 -0.430670 -0.722406
 1196000.000000 68.616440 40.831710 0.845107 0.153847 0.258064
 1198000.000000 67.931590 41.088450 0.907220 -0.598492 -1.003909
 1200000.000000 67.556150 41.519450 0.695246 -0.475992 -0.798429
 1202000.000000 67.453430 41.197770 0.800334 -2.679403 -4.494427
 1204000.000000 67.303240 40.978900 0.748699 -2.682046 -4.498860
 1206000.000000 68.002990 41.259860 0.817223 -0.431872 -0.724422
 1208000.000000 68.209640 41.451230 0.777472 -0.431219 -0.723326
 1210000.000000 68.434680 41.207300 0.796515 -0.430682 -0.722426
 1212000.000000 68.934510 40.698490 0.805898 5.656313 9.487891
 1214000.000000 69.776670 40.852310 0.786483 7.734814 12.974366
 1216000.000000 69.336520 41.317100 0.697090 1.077387 1.807207
 1218000.000000 69.598550 41.303280 0.656835 3.307635 5.548222
 1220000.000000 69.271470 42.079640 0.751903 6.160271 10.333230
 1222000.000000 68.916400 41.592120 0.727031 1.612702 2.705144
 1224000.000000 69.682810 41.172470 0.803090 6.358696 10.666067
 1226000.000000 69.489190 40.866420 0.797081 8.011594 13.438636
 1228000.000000 69.524860 41.285420 0.769856 3.423626 5.742785
 1230000.000000 70.287010 41.358380 0.785823 5.129349 8.603963
 1232000.000000 69.895950 41.785720 0.825599 6.685114 11.213601
 1234000.000000 70.242350 41.962880 0.809224 7.462934 12.518315
 1236000.000000 70.475930 42.081400 0.691003 6.170158 10.349814
 1238000.000000 70.611520 42.279890 0.617433 6.007850 10.077559
 1240000.000000 70.936220 42.316240 0.630276 2.912283 4.885059
 1242000.000000 70.545640 42.420420 0.742177 5.701046 9.562926
 1244000.000000 69.840360 42.410450 0.718222 4.324495 7.253902
 1246000.000000 69.376100 41.869240 0.794470 5.146037 8.631955
 1248000.000000 70.683620 42.698170 0.660396 0.497640 0.834741
 1250000.000000 69.766720 42.693160 0.766735 -0.641607 -1.076231
 1252000.000000 70.055020 42.262120 0.700158 5.056123 8.481133
 1254000.000000 70.335500 42.138780 0.660666 7.113936 11.932906
 1256000.000000 70.456280 42.961590 0.697659 -0.592172 -0.993309
 1258000.000000 69.614320 42.459200 0.687446 4.151794 6.964213
 1260000.000000 69.537320 42.654410 0.614854 0.236773 0.397163
 1262000.000000 69.461490 42.514760 0.650892 3.832415 6.428487
 1264000.000000 69.138990 42.440110 0.684980 4.012079 6.729855
 1266000.000000 70.609580 42.577850 0.664360 4.214249 7.068975
 1268000.000000 72.352630 42.023300 0.572514 4.269621 7.161856
 1270000.000000 70.865580 42.225990 0.677566 4.882552 8.189986
 1272000.000000 69.895580 41.901580 0.612607 7.965096 13.360640
 1274000.000000 68.628150 42.272910 0.685075 3.007673 5.045066
 1276000.000000 69.619500 42.320030 0.714474 5.466893 9.170158
 1278000.000000 69.957160 42.186180 0.531471 6.008597 10.078812
 1280000.000000 69.774160 43.024740 0.484521 -1.228057 -2.059941
 1282000.000000 69.302950 42.897590 0.480653 -1.272623 -2.134696
 1284000.000000 70.149510 41.790550 0.662642 7.561476 12.683609
 1286000.000000 70.072880 41.655890 0.745664 6.087226 10.210704
 1288000.000000 70.227600 42.270810 0.549454 5.532809 9.280726
 1290000.000000 70.679660 42.661660 0.677586 0.646651 1.084692
 1292000.000000 71.134550 42.538640 0.605433 -0.586643 -0.984034
 1294000.000000 70.609880 42.327310 0.569862 4.597786 7.712320
 1296000.000000 70.925850 42.714400 0.488598 -0.609260 -1.021972
 1298000.000000 71.248970 42.346740 0.495870 3.054386 5.123423
 1300000.000000 71.761440 42.100410 0.424921 4.471247 7.500063
 1302000.000000 71.836520 42.671960 0.496027 -1.404197 -2.355398
 1304000.000000 71.816510 42.513700 0.568369 -1.251455 -2.099189
 1306000.000000 71.802650 42.746360 0.583338 -1.434174 -2.405681
 1308000.000000 71.788110 42.690960 0.574570 -1.499994 -2.516088
 1310000.000000 72.492720 42.796950 0.618808 -2.896299 -4.858248
 1312000.000000 70.993390 42.213840 0.617649 4.548589 7.629797
 1314000.000000 71.478170 42.886580 0.619994 -1.721663 -2.887915
 1316000.000000 72.151220 42.507450 0.669873 -1.395183 -2.340278
 1318000.000000 72.052910 42.251490 0.672892 0.669588 1.123165
 1320000.000000 70.633370 42.006090 0.710878 7.550816 12.665728
 1322000.000000 71.248920 41.924680 0.663934 4.265798 7.155443
 1324000.000000 70.583690 42.471190 0.690883 5.211340 8.741494
 1326000.000000 70.240170 42.606030 0.619084 3.336717 5.597004
 1328000.000000 70.619330 42.218280 0.699434 6.733607 11.294943
 1330000.000000 70.907820 42.480400 0.686407 1.832188 3.073309
 1332000.000000 70.919270 42.583520 0.694874 -0.834726 -1.400168
 1334000.000000 70.971220 42.386450 0.660140 2.240040 3.757440
 1336000.000000 71.158760 42.476890 0.633029 2.294982 3.849599
 1338000.000000 70.921450 42.207690 0.612130 4.147343 6.956747
 1340000.000000 71.673690 43.279370 0.587748 -1.786898 -2.997340
 1342000.000000 72.048570 43.471280 0.544155 -3.048411 -5.113400
 1344000.000000 71.952640 42.823940 0.601056 -1.602182 -2.687498
 1346000.000000 71.690490 42.326280 0.620298 2.768797 4.644376
 1348000.000000 71.379880 41.861110 0.616487 6.134505 10.290010
 1350000.000000 70.497430 41.688620 0.698310 6.827030 11.451650
 1352000.000000 69.992550 41.672070 0.663720 5.906581 9.907690
 1354000.000000 70.875300 41.796610 0.661868 7.264036 12.184683
 1356000.000000 70.410980 41.749850 0.681389 7.167747 12.023168
 1358000.000000 70.446440 41.434980 0.674271 5.552120 9.313118
 1360000.000000 69.593690 41.748720 0.694469 5.980755 10.032110
 1362000.000000 70.202110 41.754850 0.713684 7.077583 11.871927
 1364000.000000 69.383500 42.010080 0.732882 6.561849 11.006836
 1366000.000000 69.400670 42.070780 0.743152 6.696192 11.232183
 1368000.000000 69.081590 42.359100 0.722936 4.024926 6.751405
 1370000.000000 69.358090 42.236950 0.705996 5.695074 9.552909
 1372000.000000 68.883890 42.410850 0.750904 2.490030 4.176773
 1374000.000000 68.864770 42.487140 0.665181 2.136224 3.583299
 1376000.000000 69.017410 41.693600 0.728915 1.774183 2.976012
 1378000.000000 69.173520 42.200830 0.728561 5.576327 9.353723
 1380000.000000 69.322940 42.368840 0.703695 4.649180 7.798528
 1382000.000000 69.060410 42.670440 0.638727 -0.326689 -0.547988
 1384000.000000 69.555140 42.718000 0.609788 0.328044 0.550260
 1386000.000000 69.957260 41.851310 0.732683 7.996657 13.413581
 1388000.000000 69.429470 41.723960 0.729201 5.522097 9.262757
 1390000.000000 69.358240 41.277410 0.790017 2.435471 4.085256
 1392000.000000 69.154030 41.366670 0.699834 1.488311 2.496491
 1394000.000000 69.796830 41.856010 0.709165 7.282910 12.216343
 1396000.000000 69.102460 42.128020 0.696057 4.764299 7.991628
 1398000.000000 69.470090 41.561310 0.777854 5.201433 8.724876
 1400000.000000 69.540200 42.438910 0.654320 4.812788 8.072964
 1402000.000000 70.088900 42.124500 0.683349 6.767163 11.351229
 1404000.000000 69.621240 41.887470 0.690971 6.094966 10.223687
 1406000.000000 70.262490 41.792870 0.744145 7.559126 12.679667
 1408000.000000 69.719110 41.229470 0.694235 5.120255 8.588708
 1410000.000000 69.170700 41.460150 0.788277 1.441258 2.417564
 1412000.000000 70.186270 41.176490 0.768248 7.680909 12.883946
 1414000.000000 70.696710 41.494020 0.751791 6.822750 11.444471
 1416000.000000 69.968090 41.274630 0.710134 5.852653 9.817232
 1418000.000000 70.459460 41.193880 0.747019 7.935662 13.311268
 1420000.000000 70.456270 41.327580 0.754266 7.067257 11.854607
 1422000.000000 70.592390 41.477400 0.739821 7.267792 12.190984
 1424000.000000 69.943360 41.904230 0.647056 8.399273 14.088928
 1426000.000000 69.872980 41.467170 0.707491 3.638142 6.102614
 1428000.000000 69.344780 41.883410 0.696038 5.655842 9.487101
 1430000.000000 69.018690 42.054520 0.747779 5.958843 9.995355
 1432000.000000 68.402330 41.879160 0.727306 -0.431011 -0.722977
 1434000.000000 68.864460 41.754380 0.748331 1.968423 3.301830
 1436000.000000 68.372510 41.820140 0.744688 -0.430719 -0.722487
 1438000.000000 68.413700 41.181280 0.717506 -0.430696 -0.722450
 1440000.000000 68.371290 42.012200 0.699251 0.849214 1.424470
 1442000.000000 68.037620 42.010690 0.685402 -0.439040 -0.736445
 1444000.000000 68.198460 42.460170 0.715506 -1.621359 -2.719665
 1446000.000000 68.602570 42.228100 0.720455 2.896565 4.858694
 1448000.000000 68.411780 42.262350 0.683969 2.268532 3.805232
 1450000.000000 68.446380 42.489040 0.718519 0.047965 0.080457
 1452000.000000 68.653270 41.991360 0.717750 2.258621 3.788608
 1454000.000000 67.771980 41.775550 0.633989 -0.438572 -0.735660
 1456000.000000 67.255310 41.737590 0.690921 -0.777275 -1.303799
 1458000.000000 67.448230 41.903070 0.692690 -0.611461 -1.025665
 1460000.000000 67.521560 41.818930 0.707806 -0.470141 -0.788613
 1462000.000000 67.933170 41.889790 0.730175 -0.434179 -0.728291
 1464000.000000 67.303710 41.711540 0.759601 -0.839814 -1.408703
 1466000.000000 68.142400 41.681160 0.714410 -0.430744 -0.722529
 1468000.000000 68.016310 41.374280 0.762311 -0.432315 -0.725164
 1470000.000000 67.387420 41.634390 0.746642 -0.449887 -0.754639
 1472000.000000 68.081350 41.058230 0.724854 -0.461505 -0.774127
 1474000.000000 68.262980 41.159740 0.782260 -0.431595 -0.723957
 1476000.000000 68.911110 41.526820 0.752230 0.835041 1.400696
 1478000.000000 69.109110 41.153590 0.809414 2.870650 4.815224
 1480000.000000 68.875670 40.397090 0.830957 6.812257 11.426870
 1482000.000000 68.646080 41.373100 0.766660 -0.430672 -0.722409
 1484000.000000 68.361370 40.866000 0.719990 -0.428209 -0.718277
 1486000.000000 69.201890 40.571430 0.777695 8.090674 13.571285
 1488000.000000 68.864600 41.123600 0.804216 0.539739 0.905357
 1490000.000000 68.875500 41.032280 0.757947 2.093532 3.511688
 1492000.000000 69.533870 40.672640 0.788061 6.976343 11.702108
 1494000.000000 68.093230 40.868600 0.770921 -0.823169 -1.380783
 1496000.000000 68.910690 40.602690 0.731263 5.841787 9.799005
 1498000.000000 67.834010 40.285140 0.709314 -0.966205 -1.620711
 1500000.000000 67.842430 41.215310 0.659289 -0.520653 -0.873342
 1502000.000000 68.018430 40.549840 0.673419 -0.006816 -0.011434
 1504000.000000 68.095800 41.002150 0.751107 -0.465378 -0.780624
 1506000.000000 67.802730 40.815520 0.722197 -0.853199 -1.431155
 1508000.000000 68.477290 41.067970 0.767787 -0.430780 -0.722590
 1510000.000000 68.618300 40.563450 0.694239 5.031025 8.439034
 1512000.000000 68.968500 41.050640 0.700600 3.298284 5.532537
 1514000.000000 68.671110 41.362790 0.679369 -0.430671 -0.722408
 1516000.000000 68.690180 40.996050 0.741092 0.597093 1.001562
 1518000.000000 69.378530 41.050190 0.770606 4.341048 7.281668
 1520000.000000 68.458960 40.490020 0.755426 4.337736 7.276112
 1522000.000000 68.913380 41.093360 0.735062 1.968462 3.301895
 1524000.000000 69.153170 41.646970 0.749540 2.453758 4.115930
 1526000.000000 69.597310 41.033300 0.749893 6.120538 10.266582
 1528000.000000 68.953640 41.114090 0.757641 1.998754 3.352707
 1530000.000000 68.862910 40.842350 0.719019 4.417931 7.410631
 1532000.000000 68.723240 40.418310 0.737571 5.184614 8.696664
 1534000.000000 68.900800 40.103950 0.797449 6.790152 11.389791
 1536000.000000 69.603720 40.651600 0.697102 7.288390 12.225535
 1538000.000000 68.906970 40.682690 0.759072 5.690503 9.545241
 1540000.000000 68.556450 40.441250 0.728376 5.649194 9.475950
 1542000.000000 68.463260 40.354350 0.773825 4.915577 8.245382
 1544000.000000 68.332190 40.544690 0.766472 2.207424 3.702730
 1546000.000000 69.268060 40.254750 0.751292 7.727102 12.961430
 1548000.000000 68.905170 39.928940 0.655862 8.114252 13.610835
 1550000.000000 68.831770 40.507560 0.740511 6.001990 10.067729
 1552000.000000 69.526370 40.873660 0.758819 8.191317 13.740103
 1554000.000000 68.989100 40.926140 0.784054 4.795423 8.043836
 1556000.000000 69.396820 40.575180 0.768077 8.428321 14.137653
 1558000.000000 69.587090 41.201340 0.733357 4.891054 8.204247
 1560000.000000 69.878310 41.062100 0.716314 8.619030 14.457548
 1562000.000000 69.832520 40.725810 0.751086 9.450273 15.851874
 1564000.000000 69.526200 40.310720 0.809165 7.811280 13.102630
 1566000.000000 69.293380 40.065170 0.684991 7.501046 12.582244
 1568000.000000 68.236890 40.520510 0.708705 1.812334 3.040006
 1570000.000000 68.579300 39.791600 0.748173 6.540558 10.971123
 1572000.000000 68.336780 40.040050 0.689943 0.816181 1.369060
 1574000.000000 68.581880 40.686050 0.693317 2.606412 4.371992
 1576000.000000 69.700640 40.640320 0.724539 8.413534 14.112850
 1578000.000000 69.707800 41.254360 0.666244 4.216199 7.072246
 1580000.000000 68.939170 41.826210 0.746300 2.298837 3.856066
 1582000.000000 69.012160 41.373290 0.763450 -0.400675 -0.672091
 1584000.000000 69.338170 41.325920 0.752276 1.152007 1.932375
 1586000.000000 69.187490 41.608460 0.691517 2.951725 4.951219
 1588000.000000 68.415610 41.737050 0.706223 -0.430719 -0.722487
 1590000.000000 68.176750 41.405920 0.758408 -0.430785 -0.722597
 1592000.000000 68.328200 42.305180 0.725295 0.478441 0.802536
 1594000.000000 68.234830 42.404450 0.739833 -0.740191 -1.241596
 1596000.000000 67.858580 42.006030 0.712828 -0.438445 -0.735448
 1598000.000000 68.374620 41.803240 0.752831 -0.430803 -0.722629
 1600000.000000 68.158600 42.073700 0.806935 -0.440348 -0.738640
 1602000.000000 67.098640 41.737570 0.805847 -1.475396 -2.474827
 1604000.000000 68.431290 41.142100 0.758730 -0.430723 -0.722494
 1606000.000000 67.675980 41.586690 0.750497 -0.437406 -0.733703
 1608000.000000 67.440950 40.990280 0.782763 -2.566953 -4.305803
 1610000.000000 67.108760 41.370310 0.725009 -1.907171 -3.199086
 1612000.000000 67.156360 41.453060 0.671457 -1.391972 -2.334892
 1614000.000000 67.192940 41.606920 0.799267 -0.685052 -1.149104
 1616000.000000 67.419610 41.806750 0.703962 -0.475839 -0.798172
 1618000.000000 67.739380 41.935030 0.736254 -0.462881 -0.776435
 1620000.000000 67.708280 42.018080 0.710257 -0.478931 -0.803359
 1622000.000000 68.029650 42.359010 0.751662 -1.289402 -2.162841
 1624000.000000 68.005680 42.370670 0.748774 -1.265428 -2.122627
 1626000.000000 68.692910 42.604820 0.818205 -0.264003 -0.442838
 1628000.000000 67.790990 42.189130 0.822608 -0.574555 -0.963757
 1630000.000000 68.622130 42.705730 0.704383 -1.745727 -2.928280
 1632000.000000 68.964920 42.456710 0.732272 2.145478 3.598822
 1634000.000000 68.040860 41.591920 0.750437 -0.430985 -0.722933
 1636000.000000 68.284570 41.754190 0.793938 -0.430818 -0.722653
 1638000.000000 68.029080 41.755690 0.754283 -0.432838 -0.726042
 1640000.000000 67.356340 41.754610 0.743927 -0.504793 -0.846738
 1642000.000000 67.709560 41.700350 0.828186 -0.433400 -0.726984
 1644000.000000 67.607570 41.571880 0.744018 -0.433610 -0.727336
 1646000.000000 67.518090 42.213490 0.749237 -1.055419 -1.770358
 1648000.000000 67.295090 41.611050 0.748459 -0.651971 -1.093616
 1650000.000000 67.193410 42.016950 0.695374 -1.543309 -2.588744
 1652000.000000 66.757630 41.363470 0.691633 -3.441653 -5.773024
 1654000.000000 67.095770 41.360890 0.704242 -2.399518 -4.024948
 1656000.000000 66.971820 41.479600 0.635748 -1.744296 -2.925880
 1658000.000000 66.942610 40.969730 0.726837 -3.249723 -5.451081
 1660000.000000 67.314490 40.813260 0.778469 -2.682092 -4.498937
 1662000.000000 67.032030 40.730700 0.777640 -2.980403 -4.999324
 1664000.000000 66.343980 40.979030 0.688419 -3.977570 -6.671970
 1666000.000000 66.732580 40.993040 0.775582 -3.565631 -5.980984
 1668000.000000 67.116240 41.423190 0.815266 -1.601803 -2.686862
 1670000.000000 67.334780 41.437830 0.797518 -0.926546 -1.554188
 1672000.000000 67.012030 41.670650 0.711904 -1.299454 -2.179702
 1674000.000000 67.284200 41.949580 0.704788 -1.201642 -2.015633
 1676000.000000 67.338650 41.836380 0.691512 -0.569008 -0.954454
 1678000.000000 67.075940 41.555300 0.693269 -1.192664 -2.000573
 1680000.000000 68.136320 42.280960 0.702046 -0.741148 -1.243201
 1682000.000000 67.377060 42.028480 0.706210 -1.241527 -2.082536
 1684000.000000 67.454720 41.626650 0.637661 -0.470784 -0.789692
 1686000.000000 66.767850 41.825960 0.675211 -3.088476 -5.180605
 1688000.000000 66.756510 41.801200 0.728016 -3.085153 -5.175031
 1690000.000000 66.808280 41.747030 0.691525 -2.664447 -4.469340
 1692000.000000 67.381230 41.948910 0.671200 -0.998221 -1.674414
 1694000.000000 67.501460 41.955310 0.647067 -0.743951 -1.247902
 1696000.000000 67.590430 42.161010 0.755670 -0.966844 -1.621782
 1698000.000000 67.430370 42.395940 0.697842 -1.917316 -3.216103
 1700000.000000 67.092780 42.120690 0.635469 -1.550163 -2.600241
 1702000.000000 68.121380 41.354490 0.709493 -0.430963 -0.722897
 1704000.000000 67.267830 41.266980 0.721951 -2.647902 -4.441587
 1706000.000000 67.980160 41.336160 0.659690 -0.436657 -0.732448
 1708000.000000 67.631090 41.612880 0.726738 -0.438975 -0.736336
 1710000.000000 67.365790 41.615710 0.684259 -0.453981 -0.761507
 1712000.000000 66.967800 41.609280 0.616870 -1.713524 -2.874263
 1714000.000000 66.710280 41.236640 0.681908 -3.612311 -6.059285
 1716000.000000 67.279530 42.281420 0.691622 -2.100876 -3.524006
 1718000.000000 68.353660 42.140420 0.701198 0.146433 0.245627
 1720000.000000 67.815550 42.465030 0.686340 -1.824166 -3.059853
 1722000.000000 68.153130 42.829460 0.725720 -1.862010 -3.123333
 1724000.000000 68.016670 42.401840 0.712031 -1.369366 -2.296973
 1726000.000000 68.761010 42.509440 0.717839 1.817842 3.049246
 1728000.000000 69.028940 42.988740 0.676002 -1.775147 -2.977629
 1730000.000000 67.914620 42.348190 0.686533 -1.316246 -2.207869
 1732000.000000 68.300680 42.308200 0.684216 0.001189 0.001995
 1734000.000000 67.791370 42.104470 0.665641 -0.516766 -0.866822
 1736000.000000 68.641430 41.999490 0.752428 2.612488 4.382184
 1738000.000000 68.530980 41.512190 0.722271 -0.430675 -0.722413
 1740000.000000 68.506620 41.825030 0.767362 -0.430758 -0.722553
 1742000.000000 68.914390 41.884210 0.746281 2.389399 4.007974
 1744000.000000 68.531870 41.907470 0.759134 -0.248032 -0.416049
 1746000.000000 68.806280 41.992670 0.731009 4.222515 7.082841
 1748000.000000 68.590970 41.393960 0.726517 -0.430678 -0.722419
 1750000.000000 68.330460 41.080780 0.740350 -0.430969 -0.722907
 1752000.000000 68.100800 41.546130 0.693662 -0.430866 -0.722733
 1754000.000000 68.618180 41.648010 0.731180 -0.429055 -0.719697
 1756000.000000 68.289060 41.607830 0.718598 -0.430766 -0.722567
 1758000.000000 68.040110 41.251020 0.722777 -0.432002 -0.724639
 1760000.000000 67.317530 41.529630 0.733078 -0.644018 -1.080275
 1762000.000000 67.545150 42.093030 0.737199 -0.751963 -1.261341
 1764000.000000 66.900730 41.592160 0.746779 -2.566560 -4.305144
 1766000.000000 67.374620 41.041530 0.754974 -2.585043 -4.336147
 1768000.000000 66.980910 40.767350 0.716376 -2.986153 -5.008969
 1770000.000000 66.892750 40.441340 0.757776 -3.296523 -5.529583
 1772000.000000 67.252540 41.508150 0.721464 -0.654483 -1.097828
 1774000.000000 67.119500 40.789550 0.799325 -2.979724 -4.998185
 1776000.000000 67.661050 40.721140 0.712593 -1.786165 -2.996111
 1778000.000000 67.161810 40.415630 0.827955 -3.011762 -5.051925
 1780000.000000 66.814050 40.887290 0.677185 -3.448412 -5.784361
 1782000.000000 67.860930 41.185350 0.742866 -0.622547 -1.044259
 1784000.000000 67.026490 40.754540 0.649891 -2.982270 -5.002455
 1786000.000000 68.000510 41.234490 0.722307 -0.431301 -0.723464
 1788000.000000 68.157800 41.005990 0.705897 -0.469801 -0.788043
 1790000.000000 67.580250 41.134080 0.734444 -2.660220 -4.462249
 1792000.000000 67.376140 41.241110 0.663438 -2.682203 -4.499123
 1794000.000000 68.403780 41.232180 0.725262 -0.430682 -0.722426
 1796000.000000 68.664650 41.033660 0.724526 -0.078653 -0.131933
 1798000.000000 68.561190 41.981320 0.759447 2.056721 3.449941
 1800000.000000 68.055780 41.243790 0.664845 -0.432039 -0.724701
 1802000.000000 68.121160 41.895620 0.584611 -0.432135 -0.724862
 1804000.000000 67.124470 41.576750 0.610877 -1.105736 -1.854760
 1806000.000000 67.997140 41.764650 0.620458 -0.432081 -0.724772
 1808000.000000 67.862010 41.843370 0.617125 -0.444559 -0.745702
 1810000.000000 67.836730 41.084670 0.658177 -1.659035 -2.782863
 1812000.000000 67.750190 41.391680 0.707472 -0.446499 -0.748956
 1814000.000000 68.368940 40.898560 0.650926 -0.422583 -0.708841
 1816000.000000 68.505200 40.752790 0.732872 1.125708 1.888261
 1818000.000000 68.154310 41.047430 0.730798 -0.474799 -0.796427
 1820000.000000 67.626110 40.645810 0.634327 -2.675515 -4.487905
 1822000.000000 67.930080 40.707070 0.670462 -1.085823 -1.821358
 1824000.000000 67.852510 40.511040 0.709923 -2.660306 -4.462393
 1826000.000000 67.275900 40.181210 0.741619 -3.237960 -5.431349
 1828000.000000 66.660680 40.013210 0.756021 -3.478391 -5.834648
 1830000.000000 67.315500 39.894440 0.750941 -2.812675 -4.717977
 1832000.000000 67.318130 40.457810 0.768998 -2.712651 -4.550197
 1834000.000000 67.162670 40.034060 0.712844 -3.260508 -5.469171
 1836000.000000 67.477120 40.643590 0.706838 -2.682234 -4.499175
 1838000.000000 67.772710 40.309590 0.713935 -0.774424 -1.299018
 1840000.000000 68.168800 40.520080 0.694953 0.326086 0.546976
 1842000.000000 67.976160 40.349110 0.707552 0.728812 1.222509
 1844000.000000 67.741340 40.914570 0.704410 -0.764084 -1.281673
 1846000.000000 68.408270 40.450200 0.731755 4.100271 6.877789
 1848000.000000 67.188230 40.674810 0.706619 -2.687406 -4.507851
 1850000.000000 67.526330 39.940350 0.716544 -2.087881 -3.502209
 1852000.000000 67.425470 40.164140 0.711845 -2.718732 -4.560397
 1854000.000000 67.195100 40.267380 0.736831 -3.255342 -5.460506
 1856000.000000 67.478180 40.213750 0.698978 -2.782719 -4.667729
 1858000.000000 67.362950 40.378750 0.690250 -2.690089 -4.512351
 1860000.000000 67.942620 39.703730 0.683946 0.461222 0.773653
 1862000.000000 67.803370 40.067360 0.699103 -2.582358 -4.331644
 1864000.000000 67.785840 39.981730 0.721122 -1.872129 -3.140306
 1866000.000000 68.545290 40.363800 0.689674 4.918566 8.250395
 1868000.000000 67.894970 40.457260 0.688848 -1.916583 -3.214874
 1870000.000000 67.536140 39.901720 0.716329 -2.277169 -3.819720
 1872000.000000 67.389650 39.815730 0.674557 -2.809762 -4.713091
 1874000.000000 67.146650 39.976200 0.696263 -3.145096 -5.275579
 1876000.000000 67.723840 39.458020 0.742696 -1.774462 -2.976480
 1878000.000000 68.325480 39.697560 0.710658 4.266398 7.156450
 1880000.000000 66.831370 40.146810 0.752686 -3.404687 -5.711017
 1882000.000000 67.131640 39.707270 0.751561 -2.820509 -4.731118
 1884000.000000 66.737000 39.874870 0.751659 -3.496278 -5.864652
 1886000.000000 67.028770 39.403040 0.700143 -3.474711 -5.828475
 1888000.000000 67.468890 39.574490 0.689910 -2.797838 -4.693089
 1890000.000000 66.882200 39.507620 0.766763 -3.606154 -6.048957
 1892000.000000 67.222330 39.391520 0.751900 -3.266833 -5.479781
 1894000.000000 66.614150 39.663480 0.806069 -3.776384 -6.334501
 1896000.000000 67.711180 39.473600 0.818304 -1.771917 -2.972211
 1898000.000000 67.860840 39.700800 0.699035 -0.918377 -1.540484
 1900000.000000 67.349780 39.239300 0.690702 -3.562613 -5.975922
 1902000.000000 66.973760 39.247580 0.715706 -3.681155 -6.174764
 1904000.000000 67.387030 38.895050 0.726716 -3.747857 -6.286650
 1906000.000000 67.419550 39.211320 0.695533 -3.554280 -5.961944
 1908000.000000 67.389960 39.573300 0.691842 -2.819908 -4.730110
 1910000.000000 67.832420 39.575450 0.744230 -1.784100 -2.992647
 1912000.000000 67.584060 39.297640 0.735923 -2.846223 -4.774250
 1914000.000000 67.814910 39.302280 0.688902 -1.762548 -2.956495
 1916000.000000 67.233420 39.742110 0.736792 -2.805656 -4.706203
 1918000.000000 66.510890 39.497660 0.690255 -3.860650 -6.475849
 1920000.000000 66.993010 39.805940 0.644162 -3.086587 -5.177437
 1922000.000000 66.543890 39.889880 0.681596 -3.774278 -6.330968
 1924000.000000 66.713800 40.010540 0.694727 -3.386396 -5.680336
 1926000.000000 66.871730 39.796110 0.746629 -3.430325 -5.754022
 1928000.000000 66.514350 40.010520 0.691784 -3.768944 -6.322021
 1930000.000000 66.887800 40.000330 0.683272 -3.310390 -5.552843
 1932000.000000 66.472970 39.864870 0.715820 -3.827559 -6.420342
 1934000.000000 66.706250 39.799140 0.706808 -3.683764 -6.179140
 1936000.000000 66.986660 39.807800 0.693058 -3.089421 -5.182190
 1938000.000000 66.965460 39.557110 0.663807 -3.470864 -5.822022
 1940000.000000 67.215400 39.501530 0.714766 -3.147770 -5.280065
 1942000.000000 66.638560 39.702910 0.679462 -3.777124 -6.335742
 1944000.000000 66.947330 39.431220 0.681572 -3.477874 -5.833781
 1946000.000000 66.834610 39.790890 0.690566 -3.562542 -5.975803
 1948000.000000 66.499160 40.376280 0.729791 -3.706475 -6.217236
 1950000.000000 67.220500 39.825500 0.708785 -2.807169 -4.708741
 1952000.000000 66.542790 40.415360 0.772827 -3.506765 -5.882243
 1954000.000000 66.481090 39.862980 0.749274 -3.814495 -6.398428
 1956000.000000 66.185850 39.786940 0.684760 -4.093223 -6.865966
 1958000.000000 66.176920 40.102490 0.716857 -4.077796 -6.840089
 1960000.000000 66.780920 40.162090 0.770769 -3.417705 -5.732853
 1962000.000000 66.598890 40.519690 0.725704 -3.492957 -5.859081
 1964000.000000 66.642550 40.107460 0.692744 -3.508863 -5.885762
 1966000.000000 66.858790 40.332730 0.685024 -3.292616 -5.523029
 1968000.000000 66.386490 39.955790 0.709747 -3.809722 -6.390422
 1970000.000000 66.801000 40.279840 0.646312 -3.269048 -5.483496
 1972000.000000 66.490870 39.435240 0.741885 -3.999659 -6.709022
 1974000.000000 66.332370 39.418230 0.713376 -4.070903 -6.828527
 1976000.000000 66.678940 40.079230 0.721282 -3.407621 -5.715939
 1978000.000000 66.460820 39.479770 0.702653 -3.958593 -6.640138
 1980000.000000 66.537920 40.350530 0.655827 -3.511694 -5.890510
 1982000.000000 66.375530 40.475950 0.712111 -3.888578 -6.522695
 1984000.000000 66.291500 40.141870 0.758593 -3.954880 -6.633910
 1986000.000000 66.625190 40.639250 0.685807 -3.415996 -5.729987
 1988000.000000 66.699160 40.880320 0.673829 -3.509042 -5.886062
 1990000.000000 66.410780 40.140300 0.681257 -3.906723 -6.553131
 1992000.000000 66.451500 40.503890 0.714954 -3.811437 -6.393299
 1994000.000000 66.606450 40.457740 0.729196 -3.516048 -5.897814
 1996000.000000 67.249560 40.022670 0.773893 -3.248563 -5.449135
 1998000.000000 66.736530 39.310110 0.763608 -3.900947 -6.543443
 2000000.000000 66.795760 39.571470 0.705858 -3.600994 -6.040302
 2002000.000000 66.839390 39.137490 0.722513 -3.850895 -6.459486
 2004000.000000 67.196770 38.933970 0.739541 -3.762221 -6.310744
 2006000.000000 67.018400 39.207990 0.689518 -3.695467 -6.198771
 2008000.000000 67.926660 39.627080 0.682352 -0.714260 -1.198098
 2010000.000000 67.301160 40.062220 0.660386 -3.239115 -5.433287
 2012000.000000 66.954310 39.738440 0.708155 -3.232823 -5.422733
 2014000.000000 67.578130 39.814140 0.755896 -2.609799 -4.377673
 2016000.000000 67.493140 39.670210 0.689346 -2.791656 -4.682720
 2018000.000000 67.084290 40.018520 0.698123 -3.256228 -5.461992
 2020000.000000 66.338160 40.265070 0.696082 -3.868110 -6.488362
 2022000.000000 67.013300 40.843370 0.714107 -2.977971 -4.995244
 2024000.000000 66.584000 40.171990 0.740838 -3.460965 -5.805418
 2026000.000000 66.902850 40.692140 0.708139 -3.013398 -5.054669
 2028000.000000 66.345770 40.654820 0.676157 -3.881828 -6.511373
 2030000.000000 66.663350 39.702050 0.717415 -3.785705 -6.350136
 2032000.000000 66.387890 40.142210 0.680413 -3.965016 -6.650912
 2034000.000000 67.244380 39.680130 0.689908 -2.812067 -4.716957
 2036000.000000 67.551410 39.817110 0.736153 -2.766327 -4.640233
 2038000.000000 67.005330 40.507460 0.707109 -3.081709 -5.169254
 2040000.000000 66.431110 40.643050 0.701575 -3.813468 -6.396706
 2042000.000000 66.461770 41.276450 0.706091 -3.727695 -6.252830
 2044000.000000 66.761100 40.656160 0.662499 -3.155119 -5.292392
 2046000.000000 66.554500 40.700950 0.699117 -3.528369 -5.918481
 2048000.000000 66.308940 40.981360 0.746738 -3.997824 -6.705944
 2050000.000000 66.666440 40.966880 0.697220 -3.619647 -6.071591
 2052000.000000 66.843300 41.064890 0.711171 -3.515520 -5.896928
 2054000.000000 66.952290 41.221100 0.638868 -2.917655 -4.894070
 2056000.000000 67.421640 40.705050 0.606090 -2.681874 -4.498572
 2058000.000000 67.074460 41.028820 0.702797 -2.684544 -4.503050
 2060000.000000 66.508410 41.209550 0.676173 -3.739099 -6.271959
 2062000.000000 66.633600 41.141510 0.817425 -3.614359 -6.062721
 2064000.000000 66.819600 41.038740 0.686237 -3.490575 -5.855085
 2066000.000000 66.221710 41.498130 0.664758 -3.738998 -6.271790
 2068000.000000 66.810480 41.415160 0.790818 -3.163450 -5.306366
 2070000.000000 66.492940 41.063370 0.690867 -3.807196 -6.386185
 2072000.000000 66.921510 41.595930 0.659571 -2.265592 -3.800301
 2074000.000000 67.249890 42.094230 0.747062 -1.626542 -2.728359
 2076000.000000 66.696450 41.708130 0.611498 -2.974721 -4.989793
 2078000.000000 66.563170 41.810140 0.658111 -3.121181 -5.235464
 2080000.000000 66.404480 41.909750 0.767329 -3.099614 -5.199288
 2082000.000000 67.125720 42.009930 0.581311 -1.862660 -3.124423
 2084000.000000 66.297980 41.162470 0.650736 -4.085305 -6.852685
 2086000.000000 65.650120 41.746520 0.633971 -3.868889 -6.489669
 2088000.000000 66.234880 41.210240 0.703465 -4.050694 -6.794628
 2090000.000000 66.641330 41.659330 0.717785 -3.084820 -5.174473
 2092000.000000 66.600280 41.200600 0.654069 -3.636821 -6.100398
 2094000.000000 66.560080 41.503280 0.723792 -3.340175 -5.602805
 2096000.000000 66.696830 41.822600 0.672688 -3.099502 -5.199100
 2098000.000000 66.817130 41.444940 0.630388 -3.078721 -5.164242
 2100000.000000 66.795440 41.965270 0.502857 -2.577371 -4.323278
 2102000.000000 66.632470 41.364060 0.598702 -3.354670 -5.627119
 2104000.000000 66.454140 41.405390 0.651708 -3.394452 -5.693849
 2106000.000000 66.516010 40.668020 0.594678 -3.836530 -6.435390
 2108000.000000 66.641920 40.701760 0.634344 -3.188682 -5.348691
 2110000.000000 66.498120 41.012910 0.606892 -3.765785 -6.316722
 2112000.000000 67.224150 40.992130 0.669528 -2.685406 -4.504496
 2114000.000000 66.443310 40.986850 0.592481 -3.975062 -6.667763
 2116000.000000 66.478440 40.784440 0.786527 -3.833512 -6.430327
 2118000.000000 66.067800 40.777480 0.765023 -4.064561 -6.817889
 2120000.000000 66.243910 41.215440 0.702802 -4.079215 -6.842469
 2122000.000000 66.413830 41.402330 0.722761 -3.421347 -5.738962
 2124000.000000 66.453140 41.336670 0.667185 -3.592121 -6.025419
 2126000.000000 66.825700 41.065050 0.720469 -3.492986 -5.859130
 2128000.000000 67.287300 41.153420 0.694226 -2.682265 -4.499227
 2130000.000000 66.874740 41.305490 0.666739 -3.214159 -5.391426
 2132000.000000 67.122070 42.157950 0.648229 -1.764160 -2.959199
 2134000.000000 66.716150 41.983500 0.603887 -3.056230 -5.126516
 2136000.000000 67.164670 42.139190 0.714250 -2.090322 -3.506303
 2138000.000000 66.782990 42.162180 0.645150 -2.317488 -3.887351
 2140000.000000 66.613370 41.828670 0.666356 -3.112392 -5.220722
 2142000.000000 66.725770 41.354010 0.618336 -3.335877 -5.595595
 2144000.000000 67.213350 41.297690 0.676448 -1.829691 -3.069121
 2146000.000000 67.063890 41.125080 0.693802 -2.699866 -4.528751
 2148000.000000 66.039950 41.139640 0.673102 -4.065041 -6.818694
 2150000.000000 66.435590 41.161740 0.673926 -3.984253 -6.683180
 2152000.000000 66.688440 41.450030 0.649554 -3.107251 -5.212098
 2154000.000000 66.212900 40.934300 0.630139 -3.963037 -6.647593
 2156000.000000 65.759860 41.257460 0.621638 -4.129891 -6.927473
 2158000.000000 66.720340 40.857000 0.595704 -3.479943 -5.837251
 2160000.000000 66.083470 40.834850 0.588118 -4.051528 -6.796027
 2162000.000000 65.930000 40.806800 0.590652 -4.163084 -6.983151
 2164000.000000 66.306590 40.470640 0.593933 -3.920771 -6.576696
 2166000.000000 66.156120 40.495580 0.663676 -4.107666 -6.890193
 2168000.000000 65.610210 40.051810 0.648071 -4.352320 -7.300575
 2170000.000000 66.203000 40.010220 0.667842 -4.094497 -6.868103
 2172000.000000 65.797240 39.852160 0.640154 -4.207393 -7.057475
 2174000.000000 66.076350 40.705200 0.696815 -4.205101 -7.053630
 2176000.000000 66.758070 40.929070 0.624708 -3.531299 -5.923396
 2178000.000000 66.075490 41.195500 0.719865 -4.158153 -6.974880
 2180000.000000 66.725300 40.602380 0.684808 -3.300090 -5.535566
 2182000.000000 66.284080 40.884330 0.683087 -4.050510 -6.794320
 2184000.000000 66.291840 40.452730 0.650938 -3.914803 -6.566685
 2186000.000000 65.885970 40.718560 0.645661 -4.205248 -7.053877
 2188000.000000 66.160900 41.294250 0.656451 -4.083456 -6.849583
 2190000.000000 65.844180 41.278320 0.630745 -4.108145 -6.890996
 2192000.000000 65.944900 41.491210 0.581064 -3.908785 -6.556590
 2194000.000000 65.964660 41.753440 0.589137 -3.833640 -6.430542
 2196000.000000 66.363770 42.055810 0.631816 -3.254361 -5.458860
 2198000.000000 65.998220 41.838620 0.668193 -3.753259 -6.295711
 2200000.000000 66.047320 41.773110 0.629271 -3.768600 -6.321444
 2202000.000000 67.024030 42.347390 0.713697 -2.089483 -3.504896
 2204000.000000 67.964890 40.943380 0.781703 -0.472315 -0.792261
 2206000.000000 67.139010 41.232290 0.781398 -2.686112 -4.505680
 2208000.000000 67.037530 41.702580 0.800811 -1.425139 -2.390526
 2210000.000000 67.238410 42.061380 0.722589 -1.402856 -2.353149
 2212000.000000 67.288060 41.018290 0.660341 -2.682183 -4.499090
 2214000.000000 67.946940 40.923020 0.639898 -0.443731 -0.744313
 2216000.000000 67.801320 41.370550 0.698614 -0.448207 -0.751821
 2218000.000000 67.760490 41.353490 0.651795 -0.533628 -0.895107
 2220000.000000 67.597120 42.136430 0.630619 -0.759401 -1.273818
 2222000.000000 67.394550 41.943670 0.629787 -0.983190 -1.649202
 2224000.000000 66.713540 42.461830 0.590758 -2.668799 -4.476640
 2226000.000000 66.335660 42.092940 0.647039 -3.272742 -5.489693
 2228000.000000 66.302600 41.864400 0.642638 -3.429905 -5.753318
 2230000.000000 66.766630 40.621230 0.680063 -3.203949 -5.374299
 2232000.000000 66.646540 41.249010 0.701372 -3.653424 -6.128248
 2234000.000000 66.855100 41.606800 0.640858 -3.019854 -5.065499
 2236000.000000 67.057130 41.163640 0.698661 -2.727056 -4.574360
 2238000.000000 67.160610 40.955920 0.725546 -2.686689 -4.506648
 2240000.000000 67.578280 40.349420 0.751469 -1.045762 -1.754160
 2242000.000000 67.384420 40.625570 0.723231 -2.682761 -4.500059
 2244000.000000 67.066760 41.091040 0.724784 -2.687978 -4.508810
 2246000.000000 67.564050 41.008990 0.686153 -1.425412 -2.390984
 2248000.000000 66.962220 41.208660 0.666768 -2.787354 -4.675504
 2250000.000000 67.682100 40.721540 0.671548 -2.373359 -3.981069
 2252000.000000 67.972340 41.155570 0.670560 -0.432587 -0.725621
 2254000.000000 67.582810 40.956420 0.693413 -0.784806 -1.316433
 2256000.000000 67.984510 40.767380 0.698598 -1.059834 -1.777764
 2258000.000000 68.175000 40.959870 0.702476 -0.432348 -0.725219
 2260000.000000 68.296720 41.154220 0.791030 -0.430975 -0.722917
 2262000.000000 68.170780 40.690040 0.729891 -0.240988 -0.404233
 2264000.000000 69.277690 41.057650 0.703460 5.093539 8.543895
 2266000.000000 68.633180 41.239600 0.762898 -0.430672 -0.722408
 2268000.000000 68.052690 41.127210 0.711585 -0.463085 -0.776779
 2270000.000000 68.764130 41.165820 0.785696 -0.423875 -0.711007
 2272000.000000 68.579390 41.582730 0.734741 -0.430706 -0.722465
 2274000.000000 68.172760 41.054380 0.682597 -0.475617 -0.797799
 2276000.000000 69.058200 41.811170 0.703654 3.322462 5.573093
 2278000.000000 68.881360 41.728600 0.685684 1.830010 3.069656
 2280000.000000 67.815110 41.991510 0.629747 -0.463011 -0.776654
 2282000.000000 68.067710 41.619070 0.691548 -0.430856 -0.722718
 2284000.000000 67.812600 41.872720 0.708252 -0.464170 -0.778598
 2286000.000000 67.910680 41.467960 0.691205 -0.433931 -0.727875
 2288000.000000 67.668730 41.483610 0.662083 -0.441069 -0.739848
 2290000.000000 67.606280 41.278950 0.696145 -0.974049 -1.633869
 2292000.000000 67.582100 41.607840 0.625500 -0.441990 -0.741394
 2294000.000000 67.786950 41.270930 0.737084 -0.452058 -0.758281
 2296000.000000 67.557670 41.089280 0.675041 -2.293043 -3.846347
 2298000.000000 67.423780 41.420060 0.662442 -0.602385 -1.010439
 2300000.000000 67.297880 42.284370 0.667027 -2.057048 -3.450489
 2302000.000000 68.032820 42.164320 0.690652 -0.477136 -0.800347
 2304000.000000 68.070200 42.463200 0.671087 -1.623960 -2.724028
 2306000.000000 67.264700 42.466050 0.590291 -2.149609 -3.605751
 2308000.000000 67.606720 42.105690 0.676389 -0.649669 -1.089754
 2310000.000000 68.051990 41.816540 0.677508 -0.431264 -0.723401
 2312000.000000 68.206590 42.015150 0.702747 -0.432156 -0.724899
 2314000.000000 67.960030 41.958410 0.725659 -0.443541 -0.743995
 2316000.000000 67.579930 42.030550 0.700571 -0.735142 -1.233126
 2318000.000000 67.216010 41.976510 0.653519 -1.485039 -2.491002
 2320000.000000 68.345830 42.248830 0.685092 1.266198 2.123919
 2322000.000000 69.016570 42.026890 0.746599 5.866316 9.840150
 2324000.000000 68.601250 42.200810 0.749274 2.856774 4.791949
 2326000.000000 68.559190 41.709770 0.803075 -0.430726 -0.722500
 2328000.000000 67.999270 41.479610 0.746315 -0.433121 -0.726517
 2330000.000000 67.941590 41.596820 0.769153 -0.432055 -0.724728
 2332000.000000 67.275390 41.772840 0.695563 -0.718405 -1.205052
 2334000.000000 66.914330 41.072830 0.734026 -2.912149 -4.884835
 2336000.000000 67.280730 40.653120 0.706044 -2.683036 -4.500521
 2338000.000000 68.007210 40.837420 0.762827 -0.514200 -0.862519
 2340000.000000 68.067710 41.310840 0.754094 -0.435040 -0.729735
 2342000.000000 67.270910 41.130720 0.648546 -2.682386 -4.499430
 2344000.000000 66.858440 41.019440 0.664001 -3.507840 -5.884046
 2346000.000000 67.038190 40.681250 0.729469 -2.985875 -5.008502
 2348000.000000 67.131570 40.824970 0.648988 -2.966911 -4.976692
 2350000.000000 66.941480 41.043910 0.773797 -2.771223 -4.648445
 2352000.000000 66.555460 40.889560 0.751883 -3.685786 -6.182532
 2354000.000000 66.418830 40.749230 0.715013 -3.872469 -6.495674
 2356000.000000 66.615920 40.350940 0.691518 -3.493826 -5.860539
 2358000.000000 65.986560 40.530230 0.658836 -4.291323 -7.198259
 2360000.000000 66.669820 40.300120 0.789443 -3.431466 -5.755936
 2362000.000000 66.764660 40.753100 0.694342 -3.039786 -5.098933
 2364000.000000 67.030090 40.491990 0.684529 -3.078893 -5.164531
 2366000.000000 67.133560 40.585510 0.684833 -2.865970 -4.807374
 2368000.000000 66.957810 40.348620 0.666406 -3.264572 -5.475988
 2370000.000000 66.928660 39.693420 0.614641 -3.450622 -5.788068
 2372000.000000 66.706810 40.558590 0.654170 -3.316888 -5.563743
 2374000.000000 66.327930 40.607260 0.603400 -3.924027 -6.582157
 2376000.000000 66.985330 39.897070 0.692037 -3.062860 -5.137637
 2378000.000000 66.336310 40.213070 0.666335 -3.945356 -6.617934
 2380000.000000 67.186710 40.570150 0.698668 -2.726558 -4.573524
 2382000.000000 66.750220 40.309360 0.670721 -3.282967 -5.506844
 2384000.000000 66.220390 40.479920 0.783013 -4.030369 -6.760535
 2386000.000000 66.144770 39.835030 0.618555 -4.135885 -6.937528
 2388000.000000 66.435130 39.623630 0.684352 -3.971363 -6.661559
 2390000.000000 66.859840 40.074830 0.719739 -3.297682 -5.531527
 2392000.000000 66.854860 39.913550 0.749386 -3.438549 -5.767817
 2394000.000000 67.646600 39.942440 0.720163 -2.668625 -4.476348
 2396000.000000 67.260850 39.966730 0.742484 -2.804400 -4.704096
 2398000.000000 66.082710 40.261480 0.739044 -4.170843 -6.996166
 2400000.000000 65.673150 40.399400 0.705674 -4.289684 -7.195510
 2402000.000000 66.835090 40.356650 0.760510 -3.268813 -5.483102
 2404000.000000 66.578160 40.328960 0.706406 -3.502441 -5.874989
 2406000.000000 67.647090 40.569800 0.673432 -2.681932 -4.498669
 2408000.000000 67.299730 40.685720 0.700546 -2.683344 -4.501037
 2410000.000000 67.583570 40.109250 0.707759 -2.695627 -4.521641
 2412000.000000 67.801240 40.297350 0.756087 -1.006011 -1.687481
 2414000.000000 67.816960 40.829160 0.680264 -0.788666 -1.322907
 2416000.000000 68.118780 40.477570 0.755029 0.797392 1.337543
 2418000.000000 67.899640 40.657910 0.704916 -2.620845 -4.396202
 2420000.000000 67.700390 40.764330 0.654441 -2.573956 -4.317550
 2422000.000000 67.286950 40.808270 0.751018 -2.682330 -4.499336
 2424000.000000 68.070740 40.533440 0.724143 -0.860471 -1.443352
 2426000.000000 68.128170 40.554680 0.745199 0.033361 0.055959
 2428000.000000 68.683750 41.506190 0.704728 -0.430672 -0.722409
 2430000.000000 68.172440 40.964870 0.706711 -0.432776 -0.725938
 2432000.000000 69.212800 41.815090 0.746114 5.061029 8.489363
 2434000.000000 68.562390 41.297910 0.749613 -0.430673 -0.722410
 2436000.000000 69.067190 41.204780 0.741245 2.973273 4.987364
 2438000.000000 68.900690 42.186450 0.760422 4.836896 8.113402
 2440000.000000 68.641390 42.297600 0.746232 3.355993 5.629338
 2442000.000000 68.527920 41.973490 0.712512 1.953599 3.276964
 2444000.000000 68.332300 41.991550 0.798588 1.634821 2.742246
 2446000.000000 68.956550 42.167010 0.748667 4.646576 7.794160
 2448000.000000 68.539910 42.818100 0.687429 -1.785141 -2.994393
 2450000.000000 68.826260 42.622790 0.717707 0.555169 0.931239
 2452000.000000 69.034420 42.670770 0.661919 -0.442506 -0.742260
 2454000.000000 68.652070 42.602810 0.793438 -0.202319 -0.339369
 2456000.000000 68.414670 43.113080 0.576110 -2.027440 -3.400825
 2458000.000000 67.745550 42.964360 0.590868 -2.047281 -3.434106
 2460000.000000 68.177340 42.601430 0.546336 -1.727518 -2.897736
 2462000.000000 67.471330 42.549080 0.733250 -2.021764 -3.391304
 2464000.000000 67.418060 42.625300 0.531585 -2.013022 -3.376640
 2466000.000000 67.886290 43.045440 0.538396 -2.055589 -3.448042
 2468000.000000 67.440000 43.011390 0.524062 -2.075229 -3.480986
 2470000.000000 67.258530 42.818090 0.495922 -2.132687 -3.577366
 2472000.000000 67.318340 42.444340 0.475114 -2.067279 -3.467651
 2474000.000000 67.254840 42.496100 0.565129 -2.097668 -3.518625
 2476000.000000 67.882790 42.742920 0.731644 -2.022139 -3.391933
 2478000.000000 67.711270 42.994810 0.783242 -2.036499 -3.416020
 2480000.000000 68.844170 42.941450 0.802903 -1.767780 -2.965272
 2482000.000000 69.449340 43.140180 0.833570 -1.784726 -2.993697
 2484000.000000 69.649630 43.217160 0.798123 -1.882287 -3.157345
 2486000.000000 69.292910 43.078230 0.754382 -1.804013 -3.026049
 2488000.000000 69.526550 43.058970 0.845293 -1.470728 -2.466997
 2490000.000000 69.802700 42.886200 0.754157 -1.583447 -2.656072
 2492000.000000 69.025930 42.860130 0.792722 -1.544733 -2.591133
 2494000.000000 68.742950 43.194500 0.770883 -1.958445 -3.285093
 2496000.000000 69.024860 43.279520 0.885496 -1.924329 -3.227867
 2498000.000000 68.481860 42.831540 0.799286 -1.692231 -2.838546
 2500000.000000 68.760260 42.739290 0.746921 -1.178089 -1.976125
 2502000.000000 68.661340 43.418210 0.750350 -2.021356 -3.390620
 2504000.000000 68.142460 43.125960 0.806891 -2.030257 -3.405550
 2506000.000000 68.612230 43.014410 0.696128 -1.903325 -3.192635
 2508000.000000 69.769930 43.612080 0.597785 -2.038034 -3.418595
 2510000.000000 68.295040 43.366990 0.631962 -2.030701 -3.406295
 2512000.000000 68.648360 44.061920 0.632413 -2.031978 -3.408437
 2514000.000000 68.250070 43.571050 0.670085 -2.029922 -3.404988
 2516000.000000 67.847570 43.560620 0.597315 -2.034758 -3.413100
 2518000.000000 68.015810 43.460710 0.558890 -2.032429 -3.409193
 2520000.000000 68.693970 43.023760 0.795590 -1.806296 -3.029878
 2522000.000000 68.549760 43.197670 0.764632 -1.941047 -3.255909
 2524000.000000 68.913590 43.358500 0.658431 -2.029099 -3.403608
 2526000.000000 68.931840 42.805840 0.796167 -1.201930 -2.016116
 2528000.000000 69.160810 43.237210 0.692201 -1.809116 -3.034609
 2530000.000000 68.692720 43.266200 0.640984 -2.016130 -3.381854
 2532000.000000 68.797750 43.275290 0.742350 -1.996940 -3.349664
 2534000.000000 68.050250 43.569630 0.758514 -2.029313 -3.403967
 2536000.000000 68.401670 43.546310 0.595443 -2.029490 -3.404264
 2538000.000000 68.490550 43.589760 0.629455 -2.028636 -3.402831
 2540000.000000 69.609800 42.859000 0.640648 -0.992261 -1.664417
 2542000.000000 68.423540 43.216210 0.629118 -2.031732 -3.408024
 2544000.000000 68.019470 43.052030 0.804005 -2.033523 -3.411029
 2546000.000000 68.066080 43.079500 0.765068 -2.039997 -3.421888
 2548000.000000 67.562580 43.194540 0.638155 -2.030194 -3.405444
 2550000.000000 67.491520 43.247400 0.693092 -2.033550 -3.411074
 2552000.000000 68.322750 43.004380 0.741164 -1.898011 -3.183721
 2554000.000000 69.128760 43.271800 0.733316 -1.889444 -3.169351
 2556000.000000 68.970620 43.954130 0.515342 -2.032591 -3.409465
 2558000.000000 69.049930 43.234760 0.704658 -1.804125 -3.026237
 2560000.000000 68.844580 43.668680 0.614108 -2.030662 -3.406229
 2562000.000000 69.336550 43.751400 0.703403 -2.043829 -3.428316
 2564000.000000 69.434700 43.214620 0.634411 -1.845526 -3.095683
 2566000.000000 69.228050 43.381650 0.773787 -2.008356 -3.368813
 2568000.000000 68.341830 43.511690 0.680043 -2.032116 -3.408668
 2570000.000000 68.933620 43.522920 0.622370 -2.028679 -3.402903
 2572000.000000 70.477530 43.926240 0.792796 -2.039478 -3.421017
 2574000.000000 69.890380 43.235700 0.810602 -1.778805 -2.983765
 2576000.000000 70.490840 43.518570 0.746714 -1.929693 -3.236864
 2578000.000000 68.958530 44.115770 0.778574 -2.038063 -3.418644
 2580000.000000 68.846000 44.067400 0.663503 -2.039088 -3.420363
 2582000.000000 67.752530 43.775200 0.645217 -2.031656 -3.407897
 2584000.000000 69.353360 44.309230 0.517581 -2.062795 -3.460129
 2586000.000000 68.856310 44.165150 0.620877 -2.039797 -3.421553
 2588000.000000 69.324540 43.192910 0.801555 -1.881346 -3.155767
 2590000.000000 70.171050 43.245690 0.742291 -1.998424 -3.352154
 2592000.000000 70.219090 43.121020 0.775295 -1.240053 -2.080063
 2594000.000000 70.724290 42.936760 0.774370 -1.458516 -2.446513
 2596000.000000 70.061430 43.378940 0.816232 -2.029304 -3.403952
 2598000.000000 70.285600 42.991200 0.676568 -1.220148 -2.046674
 2600000.000000 69.452120 42.758270 0.847023 0.159339 0.267275
 2602000.000000 69.454750 42.698600 0.862966 0.042342 0.071024
 2604000.000000 68.850150 43.322880 0.710461 -2.036000 -3.415183
 2606000.000000 69.660920 43.295770 0.668438 -1.957616 -3.283702
 2608000.000000 70.364350 43.164040 0.771245 -1.386861 -2.326319
 2610000.000000 70.485680 43.552910 0.570786 -1.930517 -3.238246
 2612000.000000 71.030390 43.113540 0.637992 -1.735289 -2.910771
 2614000.000000 70.777180 43.421130 0.476173 -1.734966 -2.910229
 2616000.000000 69.765840 42.653830 0.604922 0.658662 1.104839
 2618000.000000 70.373850 43.097430 0.585406 -1.333635 -2.237037
 2620000.000000 69.754040 42.488330 0.719731 3.175155 5.326000
 2622000.000000 70.089880 42.738670 0.580755 0.728517 1.222013
 2624000.000000 69.914020 43.851750 0.586333 -2.057030 -3.450459
 2626000.000000 71.155070 43.373220 0.648906 -1.737696 -2.914809
 2628000.000000 70.419770 43.205200 0.680710 -1.724694 -2.892999
 2630000.000000 71.073300 43.596440 0.660595 -1.939282 -3.252949
 2632000.000000 71.087560 43.692600 0.552375 -1.992820 -3.342753
 2634000.000000 70.354130 43.706040 0.613170 -2.028438 -3.402499
 2636000.000000 69.841680 43.501460 0.595236 -2.028674 -3.402895
 2638000.000000 69.463270 43.948750 0.536109 -2.058068 -3.452200
 2640000.000000 70.070490 43.501120 0.625026 -2.026293 -3.398901
 2642000.000000 69.260800 43.244760 0.527122 -1.960270 -3.288154
 2644000.000000 69.729870 43.267850 0.623227 -1.975733 -3.314092
 2646000.000000 69.582280 43.704600 0.634511 -2.061329 -3.457670
 2648000.000000 70.208400 43.459260 0.654738 -2.003793 -3.361159
 2650000.000000 70.107970 42.648740 0.777035 1.721811 2.888163
 2652000.000000 69.105850 42.652670 0.806841 0.706997 1.185916
 2654000.000000 69.897480 43.013670 0.722300 -1.334896 -2.239153
 2656000.000000 69.069940 42.951820 0.675178 -1.760193 -2.952545
 2658000.000000 69.686810 43.059350 0.730151 -1.762312 -2.956100
 2660000.000000 69.479670 42.413050 0.634278 4.609374 7.731757
 2662000.000000 69.525690 42.728890 0.609879 -0.108112 -0.181347
 2664000.000000 69.101390 42.391550 0.813326 3.942485 6.613119
 2666000.000000 69.799020 42.302980 0.723092 6.366349 10.678905
 2668000.000000 69.410760 42.902680 0.756245 -1.468779 -2.463728
 2670000.000000 69.255450 42.469840 0.716642 3.140861 5.268476
 2672000.000000 70.069810 43.030140 0.701886 -1.260456 -2.114287
 2674000.000000 69.911180 43.176120 0.759683 -1.242967 -2.084951
 2676000.000000 69.731560 43.350480 0.688679 -2.034282 -3.412302
 2678000.000000 69.642850 43.537830 0.792606 -2.028912 -3.403294
 2680000.000000 69.994960 43.647970 0.711444 -2.030220 -3.405488
 2682000.000000 69.170240 44.083100 0.507587 -2.029641 -3.404517
 2684000.000000 69.234560 43.267130 0.627857 -1.949465 -3.270030
 2686000.000000 70.021070 43.386970 0.696814 -2.029476 -3.404240
 2688000.000000 70.877160 43.327420 0.647155 -2.899297 -4.863277
 2690000.000000 70.545180 43.186420 0.681416 -1.704113 -2.858477
 2692000.000000 71.369610 43.110260 0.655713 -1.744804 -2.926732
 2694000.000000 70.600700 43.679880 0.660268 -2.009397 -3.370560
 2696000.000000 70.151700 43.942160 0.649023 -2.049441 -3.437729
 2698000.000000 70.085280 43.649270 0.654859 -2.031658 -3.407900
 2700000.000000 69.989320 44.177330 0.724100 -2.113725 -3.545559
 2702000.000000 69.954890 44.055270 0.624592 -2.179913 -3.656583
 2704000.000000 68.622190 43.898180 0.696769 -2.032926 -3.410027
 2706000.000000 69.048280 43.770250 0.602770 -2.030540 -3.406025
 2708000.000000 69.168960 43.616920 0.600487 -2.028647 -3.402850
 2710000.000000 68.691430 43.237630 0.615045 -2.026271 -3.398864
 2712000.000000 68.488180 43.983810 0.386859 -2.034929 -3.413387
 2714000.000000 69.338350 43.984240 0.510754 -2.116409 -3.550061
 2716000.000000 69.143830 44.187950 0.390950 -2.176865 -3.651470
 2718000.000000 69.210450 44.485590 0.362523 -2.060376 -3.456072
 2720000.000000 69.966300 44.108730 0.519929 -2.853633 -4.786680
 2722000.000000 68.907360 43.986740 0.467728 -2.041626 -3.424620
 2724000.000000 69.347760 44.197350 0.362174 -2.168954 -3.638200
 2726000.000000 69.495900 43.687380 0.506336 -2.047819 -3.435009
 2728000.000000 69.357770 43.200330 0.470817 -1.865836 -3.129751
 2730000.000000 69.260820 44.098800 0.339535 -2.046534 -3.432853
 2732000.000000 69.210520 44.384270 0.349849 -2.056073 -3.448854
 2734000.000000 69.991620 43.923890 0.445675 -2.084760 -3.496973
 2736000.000000 69.999380 43.811340 0.568046 -2.066091 -3.465658
 2738000.000000 69.683140 43.396830 0.730166 -2.030281 -3.405590
 2740000.000000 70.547530 43.533030 0.562332 -1.818657 -3.050613
 2742000.000000 70.709670 43.106610 0.637873 -1.734966 -2.910229
 2744000.000000 70.165240 43.415680 0.638478 -1.933054 -3.242502
 2746000.000000 71.112730 43.614590 0.593862 -1.839514 -3.085598
 2748000.000000 72.439050 43.252590 0.500977 -3.146510 -5.277951
 2750000.000000 71.426130 43.231400 0.576113 -1.738395 -2.915981
 2752000.000000 71.728130 43.440680 0.644338 -2.652528 -4.449347
 2754000.000000 71.132390 43.342810 0.540117 -1.745216 -2.927423
 2756000.000000 72.164020 43.103930 0.716584 -2.271949 -3.810964
 2758000.000000 72.153780 43.473190 0.653334 -2.653308 -4.450655
 2760000.000000 71.269380 44.036720 0.577948 -2.310644 -3.875871
 2762000.000000 71.828420 43.853260 0.524186 -2.658372 -4.459149
 2764000.000000 72.001810 43.821440 0.467890 -2.976184 -4.992247
 2766000.000000 71.236180 43.977650 0.523813 -1.983756 -3.327549
 2768000.000000 71.153940 44.176810 0.576925 -2.720972 -4.564154
 2770000.000000 71.412270 43.680320 0.588753 -1.792802 -3.007243
 2772000.000000 72.657560 42.827310 0.635862 -3.107574 -5.212640
 2774000.000000 72.272240 43.060000 0.628229 -2.607815 -4.374345
 2776000.000000 72.529890 43.076430 0.670743 -3.301409 -5.537779
 2778000.000000 73.443740 42.588260 0.702716 -3.502635 -5.875315
 2780000.000000 74.347780 43.894310 0.638139 -3.978962 -6.674305
 2782000.000000 74.561300 44.427640 0.556303 -4.096235 -6.871019
 2784000.000000 73.874620 44.249390 0.569961 -4.015132 -6.734977
 2786000.000000 73.360180 44.208940 0.471709 -3.456221 -5.797460
 2788000.000000 72.142190 44.290380 0.509475 -3.364864 -5.644218
 2790000.000000 72.694670 43.838810 0.578843 -3.606910 -6.050226
 2792000.000000 72.552510 43.997660 0.637876 -3.313009 -5.557236
 2794000.000000 72.446890 43.597620 0.656030 -3.148916 -5.281987
 2796000.000000 72.963650 43.329910 0.634708 -3.363413 -5.641784
 2798000.000000 71.678570 42.921760 0.632298 -1.705892 -2.861461
 2800000.000000 72.264090 42.901890 0.620958 -2.768805 -4.644389
 2802000.000000 73.009170 43.641960 0.590962 -3.302263 -5.539211
 2804000.000000 72.091780 43.343010 0.553096 -3.109136 -5.215260
 2806000.000000 71.413630 42.910150 0.544477 -1.736365 -2.912576
 2808000.000000 71.330850 42.115420 0.663150 2.608239 4.375056
 2810000.000000 71.734810 42.356280 0.640799 2.332272 3.912150
 2812000.000000 71.994730 42.492810 0.699605 -1.504425 -2.523520
 2814000.000000 70.921340 43.033420 0.644978 -1.735145 -2.910530
 2816000.000000 71.701970 42.715020 0.680732 -1.418154 -2.378809
 2818000.000000 71.782840 43.750190 0.525827 -2.666078 -4.472075
 2820000.000000 71.985530 43.017090 0.593283 -1.679452 -2.817110
 2822000.000000 72.712680 43.317610 0.603640 -3.149032 -5.282182
 2824000.000000 73.283200 43.566370 0.548048 -3.307391 -5.547813
 2826000.000000 72.426180 44.326300 0.527150 -3.396831 -5.697839
 2828000.000000 72.340690 43.534390 0.640322 -3.179259 -5.332884
 2830000.000000 71.410960 43.017380 0.703883 -1.749249 -2.934188
 2832000.000000 71.325900 43.838210 0.599941 -2.051408 -3.441029
 2834000.000000 71.793090 44.382780 0.537114 -3.377426 -5.665289
 2836000.000000 71.718390 43.761940 0.649464 -2.660946 -4.463467
 2838000.000000 71.855010 43.196760 0.680733 -1.740051 -2.918759
 2840000.000000 70.932790 43.182880 0.648532 -1.735101 -2.910456
 2842000.000000 71.656520 43.701930 0.612068 -2.655605 -4.454508
 2844000.000000 70.801360 42.763150 0.722063 0.426076 0.714699
 2846000.000000 70.423640 42.609520 0.756923 3.445324 5.779181
 2848000.000000 70.214270 42.659890 0.689983 1.938431 3.251521
 2850000.000000 70.352550 42.364350 0.726405 6.241883 10.470125
 2852000.000000 70.890200 43.799200 0.634989 -1.982611 -3.325629
 2854000.000000 70.873640 43.247490 0.635862 -1.737404 -2.914319
 2856000.000000 70.750030 42.732480 0.628647 0.328437 0.550919
 2858000.000000 71.562850 42.823670 0.659225 -1.436983 -2.410393
 2860000.000000 70.200140 42.981710 0.588111 -1.208065 -2.026406
 2862000.000000 70.725150 42.800640 0.713605 -0.004556 -0.007642
 2864000.000000 70.870790 42.290020 0.740869 4.919345 8.251702
 2866000.000000 70.090330 42.400390 0.746873 4.712999 7.905578
 2868000.000000 70.783230 42.413370 0.762274 4.870397 8.169597
 2870000.000000 70.801910 42.578300 0.723951 2.529814 4.243506
 2872000.000000 71.922110 42.176350 0.722759 2.324410 3.898962
 2874000.000000 72.247830 42.615500 0.712154 -1.530625 -2.567468
 2876000.000000 72.934730 43.258870 0.675001 -3.488470 -5.851555
 2878000.000000 71.924230 42.415290 0.711683 -1.404524 -2.355947
 2880000.000000 72.832120 42.703140 0.695514 -3.115091 -5.225249
 2882000.000000 73.038600 42.437030 0.713498 -3.029601 -5.081848
 2884000.000000 73.294080 42.610950 0.687482 -3.132830 -5.255004
 2886000.000000 73.104470 42.908510 0.707053 -3.156011 -5.293888
 2888000.000000 73.387220 43.759640 0.620683 -3.309289 -5.550997
 2890000.000000 73.875310 43.214600 0.682203 -3.571668 -5.991111
 2892000.000000 74.418310 43.678610 0.534919 -3.943910 -6.615509
 2894000.000000 74.212730 44.027430 0.694711 -3.974269 -6.666433
 2896000.000000 75.247040 43.753480 0.573976 -4.042979 -6.781687
 2898000.000000 73.698130 43.012510 0.609124 -3.613577 -6.061409
 2900000.000000 73.327880 42.746630 0.664265 -3.614199 -6.062452
 2902000.000000 73.420000 42.267870 0.774151 -3.235398 -5.427052
 2904000.000000 72.210800 42.248070 0.696037 2.417988 4.055930
 2906000.000000 72.355080 42.226210 0.838838 0.748471 1.255485
 2908000.000000 71.688460 42.142150 0.798213 4.473450 7.503759
 2910000.000000 72.354710 43.044010 0.585099 -3.021561 -5.068362
 2912000.000000 71.401600 42.565610 0.547168 0.152789 0.256289
 2914000.000000 70.960300 42.423880 0.492473 2.198863 3.688370
 2916000.000000 71.228270 42.028160 0.645986 4.535805 7.608353
 2918000.000000 71.209340 41.561250 0.771758 5.022049 8.423978
 2920000.000000 71.799420 41.878910 0.635524 0.011091 0.018604
 2922000.000000 71.522930 41.437680 0.723042 4.683096 7.855418
 2924000.000000 72.529070 41.687980 0.720862 2.088152 3.502663
 2926000.000000 72.832730 42.095220 0.690548 -3.026695 -5.076974
 2928000.000000 73.326110 42.127410 0.663652 -3.236887 -5.429550
 2930000.000000 73.537310 42.006040 0.630109 -3.471931 -5.823812
 2932000.000000 72.941200 42.691880 0.685456 -3.092068 -5.186630
 2934000.000000 72.603480 42.122580 0.780797 1.868498 3.134216
 2936000.000000 72.247870 41.194700 0.807972 5.399504 9.057120
 2938000.000000 72.036580 41.925380 0.528509 2.650953 4.446705
 2940000.000000 73.414790 42.012040 0.691515 -3.471377 -5.822883
 2942000.000000 72.451460 41.790730 0.663706 -1.266739 -2.124826
 2944000.000000 71.940520 41.780340 0.641281 -0.615789 -1.032923
 2946000.000000 72.397440 42.476400 0.613743 -1.415301 -2.374024
 2948000.000000 73.148590 42.067690 0.705275 -3.043371 -5.104946
 2950000.000000 73.088210 42.526290 0.722188 -3.047144 -5.111275
 2952000.000000 72.515590 42.474220 0.638948 -0.966173 -1.620657
 2954000.000000 73.294500 42.122670 0.695395 -3.259889 -5.468133
 2956000.000000 73.990950 42.869460 0.581980 -3.667515 -6.151884
 2958000.000000 73.902740 43.939030 0.536364 -3.578902 -6.003245
 2960000.000000 74.128330 43.944930 0.631239 -3.716665 -6.234328
 2962000.000000 73.744270 43.574990 0.606989 -3.705817 -6.216132
 2964000.000000 74.025030 42.849880 0.575780 -3.661203 -6.141297
 2966000.000000 73.914210 42.680990 0.543607 -3.645594 -6.115114
 2968000.000000 73.253920 43.444240 0.624027 -3.320757 -5.570233
 2970000.000000 73.080770 44.143480 0.406719 -3.307291 -5.547645
 2972000.000000 73.569030 44.115440 0.461228 -3.343768 -5.608832
 2974000.000000 75.035810 43.150040 0.434542 -3.991439 -6.695234
 2976000.000000 74.093270 43.253520 0.415594 -3.772275 -6.327609
 2978000.000000 73.838130 44.165010 0.466223 -3.789132 -6.355885
 2980000.000000 73.206720 43.973010 0.450739 -3.302486 -5.539585
 2982000.000000 72.091120 44.581310 0.228654 -3.399349 -5.702063
 2984000.000000 72.547510 44.962410 0.209339 -3.729272 -6.255475
 2986000.000000 73.398900 45.170900 0.248279 -3.852586 -6.462322
 2988000.000000 72.110260 44.855490 0.248132 -3.665246 -6.148078
 2990000.000000 72.304770 44.952790 0.250090 -3.658994 -6.137591
 2992000.000000 71.631610 45.022340 0.242048 -3.658129 -6.136140
 2994000.000000 72.096390 44.542440 0.271322 -3.373267 -5.658313
 2996000.000000 71.464700 44.628700 0.234569 -3.143553 -5.272991
 2998000.000000 71.202050 44.491830 0.190847 -2.876062 -4.824302
 3000000.000000 70.729550 44.283340 0.172006 -2.990819 -5.016795
 3002000.000000 70.579960 44.631380 0.182726 -2.966593 -4.976159
 3004000.000000 70.162830 44.410770 0.129152 -3.140448 -5.267783
 3006000.000000 71.149270 44.213990 0.162496 -2.858266 -4.794451
 3008000.000000 70.862140 45.083950 0.193416 -3.162402 -5.304609
 3010000.000000 70.044940 45.093000 0.110493 -3.154260 -5.290951
 3012000.000000 71.470970 44.895560 0.187090 -3.172620 -5.321748
 3014000.000000 70.901450 45.381800 0.185222 -3.359569 -5.635336
 3016000.000000 71.577790 45.731830 0.112343 -3.914472 -6.566130
 3018000.000000 71.709110 45.863530 0.186219 -3.975574 -6.668622
 3020000.000000 71.802730 45.688040 0.151072 -3.900743 -6.543101
 3022000.000000 71.561110 46.065050 0.132337 -3.976275 -6.669798
 3024000.000000 70.577410 45.287470 0.144806 -3.197811 -5.364004
 3026000.000000 71.697850 45.219320 0.180773 -3.661021 -6.140991
 3028000.000000 71.412820 45.095050 0.182043 -3.587564 -6.017775
 3030000.000000 70.392950 45.122730 0.057559 -3.157142 -5.295785
 3032000.000000 70.480680 45.449280 0.131944 -3.287749 -5.514865
 3034000.000000 69.967110 45.110200 0.054017 -3.151079 -5.285615
 3036000.000000 70.576630 45.535450 0.053346 -3.362955 -5.641016
 3038000.000000 69.998880 45.722910 0.060786 -3.279730 -5.501414
 3040000.000000 70.149960 45.496110 0.041245 -3.154152 -5.290770
 3042000.000000 70.152350 45.546350 0.046986 -3.153886 -5.290324
 3044000.000000 70.593450 45.006590 0.064462 -3.154822 -5.291894
 3046000.000000 69.682850 44.927900 0.065498 -3.120957 -5.235089
 3048000.000000 69.783810 44.955430 0.054680 -3.151814 -5.286848
 3050000.000000 70.748380 45.992090 0.025500 -3.487847 -5.850509
 3052000.000000 70.969570 45.538980 0.059699 -3.644442 -6.113182
 3054000.000000 70.977510 45.186110 0.115969 -3.355281 -5.628143
 3056000.000000 72.294570 46.158610 0.072761 -4.045034 -6.785134
 3058000.000000 72.963960 46.742520 0.048075 -4.245991 -7.122219
 3060000.000000 71.735020 46.451310 0.062379 -3.977579 -6.671985
 3062000.000000 71.167960 46.299630 0.074594 -3.854875 -6.466162
 3064000.000000 71.085460 45.889230 0.121347 -3.931494 -6.594682
 3066000.000000 70.422080 46.136000 0.057680 -3.600520 -6.039507
 3068000.000000 69.952440 46.336770 0.066678 -3.476380 -5.831275
 3070000.000000 70.714160 47.152840 0.022150 -3.927386 -6.587792
 3072000.000000 70.023410 46.726390 0.006598 -3.882601 -6.512669
 3074000.000000 69.733920 46.660140 0.003142 -3.766025 -6.317125
 3076000.000000 70.178770 46.780350 0.011994 -3.712950 -6.228097
 3078000.000000 70.982830 46.205780 0.097480 -3.802653 -6.378565
 3080000.000000 69.768560 46.064330 0.083243 -3.314011 -5.558917
 3082000.000000 70.008300 45.827920 0.106352 -3.161521 -5.303131
 3084000.000000 69.426420 45.722960 0.049834 -3.156233 -5.294261
 3086000.000000 68.619000 45.307930 0.021290 -2.944940 -4.939838
 3088000.000000 69.215320 45.641960 0.051184 -3.153148 -5.289086
 3090000.000000 68.595940 45.392920 0.050881 -2.919858 -4.897766
 3092000.000000 68.835710 44.853490 0.097496 -2.387393 -4.004610
 3094000.000000 70.256620 45.583940 0.116837 -3.153206 -5.289183
 3096000.000000 69.447810 45.290110 0.100904 -3.148152 -5.280706
 3098000.000000 68.917430 45.248920 0.121055 -2.767191 -4.641682
 3100000.000000 69.517350 45.347290 0.122257 -3.151201 -5.285820
 3102000.000000 69.781500 44.800220 0.125165 -2.755463 -4.622010
 3104000.000000 69.720900 45.355290 0.119456 -3.155893 -5.293690
 3106000.000000 68.990840 45.735920 0.039081 -3.152702 -5.288338
 3108000.000000 68.803140 46.071080 0.022710 -3.313557 -5.558156
 3110000.000000 67.826380 45.836410 0.000805 -3.251424 -5.453934
