#! FIELDS time proj ext cmap wham.bias weights
 0.000000 72.809700 39.924630 0.746932 -2.576331 -4.321534
 2000.000000 73.668590 39.772300 0.662594 -4.855211 -8.144124
 4000.000000 73.644860 40.481720 0.627584 -3.697404 -6.202020
 6000.000000 73.241260 40.220390 0.619638 -3.181314 -5.336331
 8000.000000 72.147960 40.511340 0.600466 6.512635 10.924285
 10000.000000 72.305950 40.070160 0.682707 0.968994 1.625389
 12000.000000 72.770650 40.025880 0.668283 -2.570733 -4.312144
 14000.000000 73.278190 40.637860 0.579821 -2.929472 -4.913892
 16000.000000 72.590820 40.509120 0.674818 5.097582 8.550677
 18000.000000 72.475950 39.453710 0.712995 -3.687030 -6.184619
 20000.000000 72.777880 40.153160 0.688210 -1.759273 -2.951002
 22000.000000 73.761620 40.904090 0.614633 -3.905248 -6.550657
 24000.000000 73.427900 39.876440 0.621844 -4.087621 -6.856570
 26000.000000 74.267600 39.831420 0.671226 -4.909150 -8.234601
 28000.000000 72.167780 40.391690 0.596079 6.545856 10.980009
 30000.000000 72.523400 38.871120 0.774178 -4.631699 -7.769205
 32000.000000 71.796670 38.889500 0.757008 -4.032261 -6.763709
 34000.000000 71.770570 38.731920 0.746000 -4.032885 -6.764755
 36000.000000 71.747260 38.550420 0.863657 -4.113190 -6.899459
 38000.000000 72.721510 38.991790 0.831042 -4.634199 -7.773399
 40000.000000 72.980120 39.044210 0.856004 -4.812219 -8.072009
 42000.000000 72.204310 38.271930 0.871357 -4.637888 -7.779587
 44000.000000 71.888770 38.858190 0.869539 -4.032346 -6.763851
 46000.000000 71.579520 38.841550 0.842631 -4.028352 -6.757152
 48000.000000 71.357940 38.406510 0.863429 -4.040323 -6.777232
 50000.000000 71.615120 38.605190 0.816746 -4.017724 -6.739324
 52000.000000 70.489260 37.720050 0.895707 -4.053406 -6.799177
 54000.000000 71.445760 37.819560 0.917592 -4.639816 -7.782821
 56000.000000 71.511650 38.487940 0.817812 -4.354652 -7.304487
 58000.000000 71.428860 39.127680 0.855012 -1.738390 -2.915973
 60000.000000 72.145680 39.176560 0.823866 -3.606508 -6.049551
 62000.000000 72.874690 39.321740 0.733781 -4.055834 -6.803250
 64000.000000 73.240550 39.246860 0.761639 -4.824390 -8.092425
 66000.000000 72.501820 38.169920 0.894050 -4.839057 -8.117027
 68000.000000 73.282410 38.777190 0.926663 -4.892254 -8.206260
 70000.000000 70.954220 37.982150 0.881865 -4.041988 -6.780025
 72000.000000 72.104910 37.774690 0.886757 -4.894077 -8.209318
 74000.000000 72.821380 38.067950 0.914185 -4.892086 -8.205978
 76000.000000 71.625330 38.148540 0.856543 -4.556608 -7.643248
 78000.000000 71.211260 38.483020 0.845907 -3.961742 -6.645420
 80000.000000 72.032630 37.719560 0.882608 -4.914923 -8.244285
 82000.000000 71.462650 38.041240 0.918511 -4.632721 -7.770919
 84000.000000 71.874310 38.354540 0.880563 -4.572522 -7.669942
 86000.000000 72.481760 39.251550 0.896925 -3.865338 -6.483712
 88000.000000 71.776590 38.338100 0.925662 -4.549543 -7.631397
 90000.000000 70.701900 38.136460 0.903068 -3.983096 -6.681239
 92000.000000 70.926660 38.133700 0.905994 -3.992054 -6.696266
 94000.000000 71.387410 38.787150 0.900133 -3.911430 -6.561027
 96000.000000 71.136540 37.557330 0.900553 -4.655797 -7.809627
 98000.000000 70.822440 38.375190 0.911014 -3.909537 -6.557852
 100000.000000 70.519190 38.199680 0.904080 -3.914586 -6.566321
 102000.000000 70.401860 38.582350 0.890697 -3.907771 -6.554889
 104000.000000 71.333240 39.171070 0.871107 0.608035 1.019917
 106000.000000 71.633890 39.459210 0.801881 -0.976397 -1.637806
 108000.000000 70.698920 39.215050 0.800788 -3.356977 -5.630988
 110000.000000 70.820770 39.061120 0.795708 -3.537634 -5.934022
 112000.000000 70.998780 39.572970 0.778006 3.459618 5.803158
 114000.000000 69.941460 39.243050 0.830612 0.299523 0.502420
 116000.000000 70.089040 40.463590 0.786285 5.466109 9.168843
 118000.000000 70.510430 40.190960 0.869967 7.595518 12.740711
 120000.000000 70.684670 40.353610 0.871015 6.195925 10.393036
 122000.000000 70.620280 40.456540 0.738525 6.691028 11.223521
 124000.000000 71.123210 40.736060 0.811676 8.622586 14.463513
 126000.000000 72.005420 40.548180 0.872341 8.550332 14.342314
 128000.000000 70.716190 40.699900 0.870629 8.123873 13.626973
 130000.000000 71.106140 40.540390 0.834296 9.127834 15.311016
 132000.000000 71.861490 40.314020 0.781474 8.730002 14.643693
 134000.000000 72.057670 40.038480 0.900744 4.999243 8.385723
 136000.000000 71.609570 40.121290 0.899814 8.742635 14.664883
 138000.000000 71.947670 39.616520 0.744891 -1.854312 -3.110420
 140000.000000 72.515700 39.858150 0.792509 -1.534770 -2.574421
 142000.000000 72.464030 39.938640 0.816599 -1.528086 -2.563209
 144000.000000 71.937690 40.275740 0.812072 9.314801 15.624634
 146000.000000 70.915510 41.289170 0.742877 4.981608 8.356142
 148000.000000 71.026270 41.300560 0.759448 5.243769 8.795891
 150000.000000 71.382030 40.858420 0.754840 9.010345 15.113940
 152000.000000 71.928030 41.100930 0.766911 5.162902 8.660244
 154000.000000 70.819250 41.596020 0.662730 3.091503 5.185683
 156000.000000 70.969620 40.948360 0.756192 5.641620 9.463245
 158000.000000 70.675080 41.671820 0.731959 3.059959 5.132771
 160000.000000 71.096980 42.171500 0.705397 5.697648 9.557226
 162000.000000 70.395550 41.857720 0.573914 3.745098 6.282022
 164000.000000 70.639610 41.530040 0.675870 2.817521 4.726106
 166000.000000 70.119780 41.784780 0.556921 2.042938 3.426821
 168000.000000 70.485580 41.603990 0.693544 1.492504 2.503524
 170000.000000 69.715350 41.079790 0.695829 2.847207 4.775901
 172000.000000 69.777750 41.500520 0.799894 -0.380426 -0.638127
 174000.000000 69.419170 41.228650 0.655566 -1.131563 -1.898082
 176000.000000 69.320740 41.193580 0.637718 0.279347 0.468576
 178000.000000 70.018490 41.421370 0.690428 0.783565 1.314351
 180000.000000 69.045280 40.901790 0.682062 -1.029415 -1.726739
 182000.000000 70.271090 41.153960 0.627364 5.461463 9.161050
 184000.000000 69.631780 40.756480 0.666415 1.181734 1.982239
 186000.000000 68.558110 40.803480 0.630344 -3.429018 -5.751830
 188000.000000 69.676900 41.285690 0.676050 1.576409 2.644266
 190000.000000 69.611620 41.903500 0.581194 0.233527 0.391718
 192000.000000 69.664290 41.556810 0.812521 -1.902576 -3.191378
 194000.000000 69.752010 41.155790 0.750200 1.468996 2.464092
 196000.000000 69.787670 41.452790 0.853544 -0.180092 -0.302087
 198000.000000 69.693320 41.531500 0.796202 -1.787359 -2.998113
 200000.000000 69.072950 41.752450 0.692666 -1.888148 -3.167177
 202000.000000 69.298070 42.108890 0.799665 0.365917 0.613789
 204000.000000 69.551530 42.202650 0.854227 1.173694 1.968753
 206000.000000 70.199870 42.217080 0.832935 2.958258 4.962178
 208000.000000 70.103580 41.748660 0.826892 1.567103 2.628656
 210000.000000 70.141240 42.163090 0.825593 3.855019 6.466403
 212000.000000 70.543490 41.664180 0.828074 0.664674 1.114923
 214000.000000 70.659690 41.991010 0.824263 2.906925 4.876072
 216000.000000 71.393530 41.890970 0.772238 1.536137 2.576714
 218000.000000 70.359090 41.584180 0.860027 -0.158109 -0.265211
 220000.000000 70.938880 42.228900 0.873373 6.954707 11.665815
 222000.000000 71.476800 41.474270 0.817410 2.999402 5.031193
 224000.000000 70.460600 42.272290 0.627952 3.156146 5.294115
 226000.000000 70.110420 41.372150 0.778019 2.335633 3.917787
 228000.000000 70.761690 41.374940 0.807457 4.465354 7.490178
 230000.000000 69.715080 42.414370 0.718888 2.013422 3.377311
 232000.000000 70.376880 42.050050 0.775442 4.803440 8.057283
 234000.000000 71.161280 42.324090 0.674714 5.522624 9.263641
 236000.000000 70.654900 41.966700 0.726059 3.961373 6.644801
 238000.000000 70.991850 41.220660 0.803588 3.885522 6.517569
 240000.000000 70.297400 40.850190 0.742072 4.769328 8.000064
 242000.000000 70.223070 41.197390 0.700046 5.547166 9.304808
 244000.000000 69.535470 41.192510 0.757276 -0.225949 -0.379007
 246000.000000 70.077570 41.102090 0.734714 3.936883 6.603722
 248000.000000 70.321170 42.262740 0.748141 2.004663 3.362619
 250000.000000 71.165050 42.742060 0.723242 0.758266 1.271914
 252000.000000 71.626820 42.401220 0.730750 -0.279665 -0.469109
 254000.000000 71.030860 43.336110 0.865301 1.339157 2.246300
 256000.000000 71.840360 42.595630 0.808711 2.787883 4.676391
 258000.000000 72.031860 42.230700 0.729948 -0.839965 -1.408956
 260000.000000 72.391220 42.766890 0.752467 -2.260924 -3.792471
 262000.000000 72.124620 43.365750 0.695787 -0.175568 -0.294497
 264000.000000 71.978220 43.248290 0.758457 0.672016 1.127239
 266000.000000 71.455750 43.043470 0.796001 -0.101011 -0.169436
 268000.000000 71.783820 42.010080 0.749055 0.723391 1.213415
 270000.000000 72.967300 42.589830 0.738746 -2.852418 -4.784642
 272000.000000 72.091750 42.583710 0.794356 -0.582487 -0.977063
 274000.000000 71.890590 42.931150 0.659911 1.953432 3.276684
 276000.000000 71.186890 42.810760 0.759768 0.409107 0.686236
 278000.000000 71.213110 42.668530 0.705643 -0.365930 -0.613811
 280000.000000 70.949160 43.032010 0.622177 1.354741 2.272441
 282000.000000 71.494050 41.684160 0.895483 2.419019 4.057659
 284000.000000 71.442530 42.005420 0.763853 2.566291 4.304693
 286000.000000 71.891110 42.375810 0.786168 -1.193880 -2.002613
 288000.000000 72.413680 42.432250 0.672430 0.597083 1.001547
 290000.000000 72.368130 43.179290 0.536705 -0.017153 -0.028772
 292000.000000 72.280690 42.393280 0.612891 -1.787431 -2.998234
 294000.000000 72.555570 42.088460 0.577173 -1.199892 -2.012697
 296000.000000 73.002690 41.808260 0.638857 -2.917440 -4.893710
 298000.000000 71.799320 42.766680 0.568814 1.340017 2.247743
 300000.000000 72.735780 42.804740 0.546497 -2.904570 -4.872122
 302000.000000 72.191520 43.495630 0.504250 -0.615797 -1.032937
 304000.000000 71.801830 43.144120 0.492044 0.546452 0.916617
 306000.000000 71.496800 43.096430 0.510965 0.520035 0.872306
 308000.000000 70.973330 42.449640 0.684476 3.145246 5.275831
 310000.000000 70.171860 42.400310 0.705211 3.505289 5.879767
 312000.000000 70.151620 42.903330 0.717737 2.219174 3.722439
 314000.000000 70.328170 43.325780 0.725462 -1.539742 -2.582761
 316000.000000 71.266780 43.294710 0.663248 1.136177 1.905822
 318000.000000 71.144680 43.509630 0.541789 1.241606 2.082668
 320000.000000 70.140820 43.062330 0.548334 -1.185750 -1.988975
 322000.000000 72.437280 43.448540 0.510199 -0.795101 -1.333702
 324000.000000 71.892780 43.771470 0.508540 -0.855819 -1.435550
 326000.000000 71.286720 43.630250 0.463641 -1.126489 -1.889571
 328000.000000 71.192900 43.909640 0.491556 -1.076408 -1.805565
 330000.000000 71.138190 43.191610 0.687940 2.166385 3.633891
 332000.000000 71.819010 43.044190 0.646219 0.955545 1.602829
 334000.000000 72.368410 42.351140 0.667388 3.225639 5.410682
 336000.000000 71.808080 42.175660 0.707795 2.085476 3.498174
 338000.000000 71.803630 43.005800 0.674869 1.361792 2.284268
 340000.000000 72.429590 42.723880 0.681550 -2.046467 -3.432741
 342000.000000 71.169990 43.569230 0.565674 0.497705 0.834850
 344000.000000 71.187420 42.854220 0.493391 0.058569 0.098243
 346000.000000 70.893700 42.658310 0.581337 3.020003 5.065749
 348000.000000 71.085030 42.394260 0.663617 5.242504 8.793769
 350000.000000 70.446770 42.270310 0.732417 2.787463 4.675686
 352000.000000 72.011310 42.570920 0.722002 -1.252922 -2.101650
 354000.000000 71.817040 41.521420 0.854478 2.526386 4.237756
 356000.000000 71.632260 42.060340 0.714778 3.309577 5.551480
 358000.000000 72.075410 42.262330 0.780619 -0.314107 -0.526883
 360000.000000 71.549370 42.061570 0.824322 2.844715 4.771721
 362000.000000 71.648650 42.693330 0.613959 3.567892 5.984777
 364000.000000 70.774480 42.538240 0.649828 2.836779 4.758409
 366000.000000 70.764620 42.865010 0.562586 1.473903 2.472323
 368000.000000 71.086720 42.276580 0.712085 4.800905 8.053031
 370000.000000 69.914690 42.734810 0.680646 2.813809 4.719879
 372000.000000 69.552070 42.529890 0.748216 1.951961 3.274217
 374000.000000 69.783800 42.673530 0.663146 1.298707 2.178449
 376000.000000 69.575400 43.167430 0.603739 -1.528990 -2.564726
 378000.000000 69.454550 43.552350 0.526290 -1.693999 -2.841511
 380000.000000 70.183140 43.444680 0.573277 -1.532248 -2.570191
 382000.000000 69.418890 43.216930 0.706082 -1.538904 -2.581355
 384000.000000 70.249620 43.675480 0.564303 -1.697777 -2.847849
 386000.000000 70.829020 43.929620 0.509933 -1.031878 -1.730871
 388000.000000 70.425750 43.231960 0.719075 -0.343132 -0.575569
 390000.000000 70.307560 43.132800 0.581715 -1.411619 -2.367848
 392000.000000 69.724180 43.028810 0.667735 0.667436 1.119556
 394000.000000 70.086720 42.914210 0.729252 1.731740 2.904818
 396000.000000 71.192930 43.168490 0.818557 0.926824 1.554654
 398000.000000 71.154670 43.130130 0.713209 1.871840 3.139822
 400000.000000 70.132760 43.148340 0.658784 -1.540084 -2.583335
 402000.000000 70.619150 43.028960 0.771246 2.022523 3.392577
 404000.000000 70.578120 42.622040 0.757751 2.361634 3.961401
 406000.000000 70.849480 43.239740 0.785414 1.511275 2.535010
 408000.000000 71.563930 42.568250 0.802929 2.542015 4.263972
 410000.000000 70.797840 42.246640 0.854300 5.491137 9.210825
 412000.000000 69.967130 42.697750 0.795471 2.549115 4.275882
 414000.000000 70.649730 43.103960 0.704671 0.720377 1.208359
 416000.000000 69.375520 42.955000 0.616174 -0.164587 -0.276077
 418000.000000 69.700530 43.333950 0.611722 -1.540748 -2.584448
 420000.000000 69.857550 42.511950 0.735314 3.035686 5.092055
 422000.000000 69.064230 42.435350 0.661283 -2.177362 -3.652304
 424000.000000 69.510390 42.177980 0.713055 0.656066 1.100484
 426000.000000 69.922650 42.070860 0.860499 2.712724 4.550319
 428000.000000 70.119460 41.795940 0.796631 2.430527 4.076962
 430000.000000 70.183770 42.379290 0.754463 2.833362 4.752677
 432000.000000 69.625750 41.602290 0.971774 -1.888444 -3.167673
 434000.000000 70.358320 41.695920 0.926065 2.375999 3.985497
 436000.000000 70.735730 41.929570 0.784496 2.554327 4.284624
 438000.000000 71.608140 42.178100 0.818888 4.497506 7.544110
 440000.000000 71.099230 41.557310 0.819875 4.395583 7.373145
 442000.000000 71.829460 41.551410 0.826692 2.027423 3.400796
 444000.000000 72.696830 41.749570 0.764901 -0.555314 -0.931483
 446000.000000 73.154700 42.451640 0.582658 -2.904883 -4.872647
 448000.000000 73.359380 42.289850 0.720770 -2.942001 -4.934908
 450000.000000 74.390590 42.327200 0.759067 -4.297807 -7.209135
 452000.000000 73.796550 42.144240 0.769928 -3.603589 -6.044655
 454000.000000 73.735710 42.780340 0.632950 -2.908982 -4.879522
 456000.000000 73.457740 42.534330 0.666990 -2.941698 -4.934400
 458000.000000 73.873640 43.178250 0.526400 -4.139493 -6.943580
 460000.000000 74.220490 42.555740 0.510032 -4.297808 -7.209137
 462000.000000 74.368630 42.168760 0.625735 -3.776889 -6.335348
 464000.000000 73.224990 41.964110 0.596367 -2.907083 -4.876337
 466000.000000 73.019730 42.839480 0.677074 -2.904535 -4.872063
 468000.000000 72.666780 42.126050 0.714816 0.349181 0.585715
 470000.000000 72.912510 42.781380 0.641378 -2.636765 -4.422906
 472000.000000 72.784530 41.770600 0.725465 -2.904983 -4.872814
 474000.000000 72.637640 41.527430 0.700261 -0.770706 -1.292780
 476000.000000 72.071980 41.846520 0.773852 -0.311909 -0.523196
 478000.000000 72.211140 42.366120 0.548911 -0.310682 -0.521137
 480000.000000 73.349710 41.820760 0.666985 -3.603438 -6.044402
 482000.000000 72.700890 41.942170 0.603652 -2.904653 -4.872261
 484000.000000 71.725310 41.631920 0.763319 0.869989 1.459319
 486000.000000 72.660600 41.487120 0.780717 -1.114726 -1.869840
 488000.000000 71.464120 41.258900 0.705331 3.552123 5.958326
 490000.000000 71.529380 41.606680 0.690087 2.745979 4.606101
 492000.000000 72.390620 42.166820 0.685599 0.933849 1.566436
 494000.000000 72.097130 42.166160 0.628256 -1.114982 -1.870269
 496000.000000 72.653140 42.852880 0.610802 -2.904754 -4.872430
 498000.000000 72.805080 43.290300 0.581994 -2.877835 -4.827276
 500000.000000 73.345130 41.974840 0.741848 -3.567991 -5.984943
 502000.000000 72.971680 42.743400 0.599186 0.996864 1.672138
 504000.000000 73.926840 43.401330 0.595909 -3.923038 -6.580498
 506000.000000 74.308460 43.574040 0.624340 -3.461055 -5.805569
 508000.000000 73.371950 42.524410 0.646902 -2.910106 -4.881408
 510000.000000 72.406230 42.394430 0.662461 0.472085 0.791875
 512000.000000 73.882670 42.457630 0.629546 -3.604425 -6.046057
 514000.000000 74.706430 42.836280 0.549464 -4.297808 -7.209137
 516000.000000 73.454850 41.543210 0.680671 -3.603458 -6.044435
 518000.000000 73.518800 41.416610 0.740262 -3.604193 -6.045668
 520000.000000 73.815740 41.616560 0.674891 -3.603623 -6.044712
 522000.000000 74.541520 41.998440 0.599849 -3.813867 -6.397375
 524000.000000 74.800900 42.527090 0.570329 -4.298253 -7.209883
 526000.000000 74.982150 42.480960 0.582450 -4.303664 -7.218960
 528000.000000 74.459290 43.166410 0.561045 -4.282175 -7.182914
 530000.000000 75.439600 42.376000 0.664277 -4.439340 -7.446542
 532000.000000 74.387530 42.544070 0.648334 -4.297807 -7.209135
 534000.000000 74.610250 42.042230 0.742987 -4.298399 -7.210128
 536000.000000 74.670770 42.352140 0.672648 -4.298103 -7.209632
 538000.000000 73.423660 41.680430 0.709512 -3.603436 -6.044398
 540000.000000 73.496400 42.374350 0.684989 -2.974042 -4.988654
 542000.000000 73.651240 42.044660 0.690306 -2.908838 -4.879281
 544000.000000 74.150190 42.792710 0.667176 -3.613156 -6.060703
 546000.000000 74.206940 43.190490 0.612702 -4.135481 -6.936850
 548000.000000 75.469290 42.687730 0.649146 -4.435836 -7.440665
 550000.000000 74.762420 43.563290 0.591504 -3.683717 -6.179062
 552000.000000 75.030960 43.311150 0.618544 -4.300634 -7.213877
 554000.000000 73.118250 43.375480 0.602741 -3.110561 -5.217651
 556000.000000 73.330270 43.779690 0.650089 -3.420533 -5.737597
 558000.000000 73.584940 43.179920 0.551294 -2.964015 -4.971834
 560000.000000 73.178510 43.083490 0.510010 -2.906358 -4.875121
 562000.000000 73.245690 43.285000 0.439426 -3.023431 -5.071499
 564000.000000 74.190750 43.925760 0.594498 -3.674899 -6.164270
 566000.000000 73.970700 44.116550 0.438211 -3.143716 -5.273265
 568000.000000 73.135100 43.895180 0.561180 -2.174936 -3.648234
 570000.000000 72.593960 43.973080 0.530562 -1.241560 -2.082591
 572000.000000 71.977680 43.735860 0.363812 -1.912389 -3.207839
 574000.000000 72.820420 43.813660 0.511228 -1.035109 -1.736290
 576000.000000 73.000810 44.338070 0.507955 -2.244136 -3.764310
 578000.000000 73.553220 44.126440 0.463907 -3.116668 -5.227894
 580000.000000 74.677400 44.098870 0.554206 -4.417037 -7.409131
 582000.000000 74.559840 43.896630 0.541060 -4.416900 -7.408902
 584000.000000 73.301780 45.151420 0.435321 -3.579386 -6.004057
 586000.000000 74.112400 44.441200 0.434779 -4.302364 -7.216779
 588000.000000 73.948660 43.569840 0.539496 -3.584360 -6.012400
 590000.000000 73.176470 43.762730 0.441984 -3.385945 -5.679579
 592000.000000 72.779910 43.585270 0.441094 -1.134479 -1.902973
 594000.000000 73.368640 43.860820 0.441209 -1.213206 -2.035030
 596000.000000 73.222350 44.199080 0.524957 -2.218831 -3.721864
 598000.000000 73.003690 43.652100 0.547283 -3.385646 -5.679078
 600000.000000 72.622120 43.842670 0.533305 -0.706683 -1.185390
 602000.000000 71.675120 43.929150 0.497407 -1.295744 -2.173479
 604000.000000 73.163510 44.115920 0.519919 -2.198035 -3.686981
 606000.000000 74.038260 44.153080 0.539523 -3.144108 -5.273922
 608000.000000 74.589240 44.176420 0.564102 -4.416891 -7.408887
 610000.000000 74.446830 44.570250 0.567792 -4.301778 -7.215796
 612000.000000 74.877170 43.886280 0.475175 -4.417762 -7.410348
 614000.000000 74.554880 44.766900 0.422413 -4.315615 -7.239006
 616000.000000 73.776420 45.137280 0.421736 -4.317125 -7.241539
 618000.000000 74.857690 44.736980 0.396045 -4.306617 -7.223913
 620000.000000 74.710360 44.424900 0.455003 -4.420102 -7.414273
 622000.000000 74.796340 44.463190 0.545155 -4.420907 -7.415623
 624000.000000 73.578950 44.828930 0.399182 -4.257756 -7.141954
 626000.000000 73.954930 44.944390 0.408869 -4.316131 -7.239872
 628000.000000 72.914720 44.164610 0.492437 -2.708144 -4.542637
 630000.000000 71.832740 44.418060 0.435953 -2.178184 -3.653683
 632000.000000 72.009590 44.513110 0.421416 -2.226681 -3.735031
 634000.000000 73.044900 44.602450 0.416300 -4.257522 -7.141561
 636000.000000 73.252710 44.587000 0.436802 -4.257565 -7.141633
 638000.000000 72.705860 44.148370 0.438429 -2.243188 -3.762720
 640000.000000 73.198690 44.386390 0.417372 -2.300621 -3.859058
 642000.000000 73.682760 44.207160 0.454067 -2.282538 -3.828726
 644000.000000 73.064680 45.207000 0.377522 -2.564080 -4.300984
 646000.000000 71.349690 44.496560 0.393067 -1.781384 -2.988091
 648000.000000 70.813640 44.149890 0.450855 -1.159092 -1.944259
 650000.000000 71.501810 44.854680 0.434411 -1.280985 -2.148722
 652000.000000 71.474190 43.920590 0.409726 -0.394505 -0.661741
 654000.000000 72.229550 43.578620 0.549226 -0.612283 -1.027043
 656000.000000 72.103840 44.062740 0.522513 -2.206619 -3.701380
 658000.000000 72.161050 43.733550 0.484223 -0.701324 -1.176400
 660000.000000 71.391010 43.952170 0.502721 -1.862647 -3.124401
 662000.000000 71.094610 43.831090 0.486576 -0.687485 -1.153187
 664000.000000 71.642410 43.571130 0.532781 0.200186 0.335791
 666000.000000 72.185980 43.148260 0.532861 0.298456 0.500629
 668000.000000 70.571830 43.575170 0.499372 -1.555481 -2.609162
 670000.000000 70.884770 43.652590 0.442729 -1.532292 -2.570264
 672000.000000 71.863250 43.965930 0.474364 -2.112571 -3.543624
 674000.000000 71.726830 44.075110 0.508317 -2.110839 -3.540718
 676000.000000 70.986720 44.170800 0.491642 -1.222523 -2.050658
 678000.000000 71.460930 44.431380 0.408448 -2.008112 -3.368404
 680000.000000 72.396620 44.384340 0.557508 -2.267841 -3.804073
 682000.000000 70.624240 44.455500 0.537541 -1.776600 -2.980066
 684000.000000 71.497500 44.390940 0.551239 -1.793280 -3.008045
 686000.000000 72.279320 44.619770 0.465184 -2.584144 -4.334639
 688000.000000 73.784980 44.913160 0.584133 -4.316309 -7.240170
 690000.000000 72.498700 44.902750 0.495326 -2.578316 -4.324864
 692000.000000 72.782320 44.510960 0.514469 -2.593877 -4.350966
 694000.000000 72.973080 43.789760 0.537356 -0.976170 -1.637426
 696000.000000 71.742980 43.419420 0.502543 -1.830888 -3.071129
 698000.000000 70.371150 43.955650 0.499414 -1.775366 -2.977996
 700000.000000 70.762890 43.982500 0.488589 -1.687941 -2.831350
 702000.000000 71.899360 43.814300 0.560877 -1.285544 -2.156370
 704000.000000 72.587510 44.287500 0.547906 -2.188371 -3.670770
 706000.000000 71.257830 44.086720 0.568955 -1.208403 -2.026973
 708000.000000 72.128880 45.476150 0.461555 -1.948434 -3.268300
 710000.000000 72.870250 45.498930 0.356239 -2.554257 -4.284507
 712000.000000 73.749050 45.110650 0.525424 -4.315919 -7.239516
 714000.000000 73.923580 45.764890 0.434148 -2.971178 -4.983850
 716000.000000 72.458830 45.592610 0.433735 -2.554685 -4.285225
 718000.000000 72.226690 45.015570 0.475605 -2.224861 -3.731979
 720000.000000 71.797660 45.175260 0.455854 -1.786706 -2.997018
 722000.000000 73.197570 45.595750 0.532158 -2.553943 -4.283980
 724000.000000 74.241130 45.295160 0.463251 -4.273411 -7.168213
 726000.000000 73.151790 44.912380 0.609455 -4.257455 -7.141449
 728000.000000 72.654840 45.281110 0.550377 -2.553932 -4.283962
 730000.000000 73.747010 45.319640 0.493943 -4.101471 -6.879802
 732000.000000 74.009900 45.061870 0.600991 -4.316256 -7.240082
 734000.000000 74.109040 45.854800 0.420072 -3.579790 -6.004735
 736000.000000 74.757360 45.652840 0.457606 -4.404095 -7.387423
 738000.000000 73.516610 46.173000 0.462568 -2.578863 -4.325781
 740000.000000 73.838050 45.394830 0.531563 -3.121288 -5.235644
 742000.000000 74.758650 45.213180 0.477075 -4.272936 -7.167417
 744000.000000 73.962520 44.389350 0.509162 -3.062669 -5.137317
 746000.000000 73.255830 44.806460 0.494130 -4.258087 -7.142509
 748000.000000 73.830230 44.639400 0.435590 -4.311147 -7.231512
 750000.000000 75.006070 44.889330 0.510280 -4.318000 -7.243007
 752000.000000 74.309780 45.344280 0.489969 -4.288944 -7.194268
 754000.000000 75.424630 45.895310 0.425027 -4.423651 -7.420226
 756000.000000 74.996100 45.400450 0.452846 -4.407494 -7.393124
 758000.000000 75.448370 45.221860 0.486777 -4.693873 -7.873496
 760000.000000 73.810030 46.237070 0.397186 -3.518763 -5.902368
 762000.000000 75.431570 45.184190 0.442915 -4.489009 -7.529857
 764000.000000 74.712040 45.139330 0.492525 -4.269676 -7.161948
 766000.000000 74.364710 44.837240 0.419810 -4.320496 -7.247194
 768000.000000 73.222000 45.144260 0.395751 -2.672702 -4.483186
 770000.000000 73.134310 45.725100 0.420666 -3.296801 -5.530049
 772000.000000 72.597990 45.439720 0.458515 -2.426470 -4.070157
 774000.000000 72.278380 45.691610 0.450834 -2.226751 -3.735149
 776000.000000 71.891330 44.381260 0.490164 -2.217418 -3.719494
 778000.000000 71.490660 44.800460 0.549848 -2.161083 -3.624997
 780000.000000 72.337800 42.989710 0.593667 0.131312 0.220263
 782000.000000 72.536710 43.048400 0.625180 0.031907 0.053522
 784000.000000 72.353800 43.002210 0.595499 0.775325 1.300529
 786000.000000 72.080240 42.500780 0.616037 0.154978 0.259960
 788000.000000 72.513550 42.636320 0.646791 -1.358010 -2.277924
 790000.000000 73.411850 42.941030 0.706546 -2.911479 -4.883711
 792000.000000 73.176180 43.312330 0.719030 -2.917675 -4.894104
 794000.000000 71.260260 43.081750 0.695234 0.686782 1.152007
 796000.000000 70.252560 43.133200 0.561696 -1.525566 -2.558982
 798000.000000 71.332820 43.287330 0.651274 1.001170 1.679361
 800000.000000 70.643740 43.794540 0.561705 -1.685596 -2.827416
 802000.000000 69.797380 43.614990 0.493739 -1.715785 -2.878055
 804000.000000 69.962930 43.936550 0.570000 -1.775876 -2.978852
 806000.000000 69.910650 44.295270 0.495567 -1.776542 -2.979969
 808000.000000 69.126320 43.361040 0.427983 -1.702871 -2.856393
 810000.000000 69.229950 42.482850 0.495796 -1.014724 -1.702097
 812000.000000 68.074980 42.249750 0.553584 -2.734098 -4.586172
 814000.000000 68.806910 42.151330 0.566638 -1.919309 -3.219446
 816000.000000 69.025830 41.880490 0.647059 -1.890811 -3.171644
 818000.000000 68.683570 41.598580 0.653940 -1.890686 -3.171434
 820000.000000 68.416390 41.129920 0.752233 -2.596291 -4.355015
 822000.000000 68.184220 40.878620 0.732083 -3.482948 -5.842292
 824000.000000 68.884460 40.867030 0.687062 -2.158096 -3.619987
 826000.000000 68.747700 41.248140 0.706283 -1.958126 -3.284558
 828000.000000 68.808420 40.504440 0.796600 -1.888931 -3.168490
 830000.000000 68.945200 41.229810 0.671835 -1.891540 -3.172866
 832000.000000 69.134280 41.701030 0.620693 -1.888298 -3.167428
 834000.000000 68.827790 41.735190 0.712378 -1.890116 -3.170478
 836000.000000 69.775900 42.162940 0.666250 1.931937 3.240628
 838000.000000 69.153330 41.651670 0.684743 -1.888164 -3.167204
 840000.000000 69.173570 42.035020 0.672406 -1.888650 -3.168019
 842000.000000 68.913750 42.198390 0.627262 -2.132558 -3.577150
 844000.000000 67.903870 41.790190 0.593426 -3.531803 -5.924241
 846000.000000 68.334240 41.506130 0.682154 -2.649762 -4.444707
 848000.000000 68.943890 40.860080 0.672086 -2.038803 -3.419885
 850000.000000 69.009150 41.364600 0.720301 -1.888664 -3.168042
 852000.000000 68.740770 41.511740 0.686357 -1.907955 -3.200401
 854000.000000 68.261150 41.973700 0.642692 -1.902286 -3.190892
 856000.000000 69.285170 41.560000 0.725940 -1.891134 -3.172185
 858000.000000 69.370000 41.653360 0.713101 -1.888891 -3.168423
 860000.000000 70.244530 41.759320 0.638782 3.331281 5.587886
 862000.000000 69.900880 42.062600 0.742180 2.213323 3.712625
 864000.000000 71.173590 42.072760 0.781256 3.784062 6.347380
 866000.000000 71.229980 42.818410 0.634860 1.551756 2.602913
 868000.000000 71.035740 43.461980 0.649729 0.064626 0.108403
 870000.000000 70.650370 43.108230 0.745447 0.878664 1.473871
 872000.000000 69.718950 42.575100 0.661085 0.527235 0.884384
 874000.000000 70.426070 42.655700 0.638203 1.331500 2.233456
 876000.000000 70.154350 42.970470 0.637318 1.694400 2.842184
 878000.000000 69.173340 42.901910 0.534244 -1.579432 -2.649337
 880000.000000 70.091770 42.236420 0.666267 3.644125 6.112650
 882000.000000 68.907770 42.402220 0.559975 -2.148791 -3.604379
 884000.000000 69.250250 42.157530 0.626133 -0.812249 -1.362465
 886000.000000 70.696070 42.098110 0.537891 4.959752 8.319481
 888000.000000 69.982450 41.634850 0.746727 1.603029 2.688919
 890000.000000 70.828980 41.298570 0.716077 3.822637 6.412086
 892000.000000 70.505140 41.859490 0.662694 5.287700 8.869580
 894000.000000 70.458650 41.534640 0.721744 -0.892099 -1.496405
 896000.000000 69.853260 40.902410 0.676729 3.858249 6.471821
 898000.000000 70.553340 41.435600 0.691891 3.124859 5.241634
 900000.000000 71.815440 41.480770 0.638411 2.794213 4.687009
 902000.000000 70.720200 41.711570 0.786375 4.959351 8.318808
 904000.000000 71.864320 41.773190 0.736432 2.784217 4.670242
 906000.000000 71.171680 41.492200 0.717910 3.129308 5.249097
 908000.000000 70.855950 41.682790 0.757443 3.529875 5.921007
 910000.000000 71.762570 42.531190 0.746380 0.332132 0.557117
 912000.000000 72.443750 42.252250 0.695394 1.690976 2.836441
 914000.000000 72.893610 42.173210 0.724941 -0.406571 -0.681981
 916000.000000 71.926090 42.479070 0.676803 1.998509 3.352296
 918000.000000 71.583980 42.268050 0.730216 1.736234 2.912356
 920000.000000 72.945560 42.320580 0.748878 -0.250885 -0.420834
 922000.000000 72.825890 42.699660 0.760124 -2.366986 -3.970379
 924000.000000 73.442760 42.365940 0.727513 -2.944490 -4.939083
 926000.000000 72.782270 42.753720 0.755667 -2.904559 -4.872103
 928000.000000 73.736160 43.387840 0.735402 -3.129292 -5.249070
 930000.000000 74.266630 43.543020 0.758915 -3.107200 -5.212013
 932000.000000 73.221410 43.656870 0.723170 -3.398249 -5.700218
 934000.000000 74.178510 43.739600 0.751096 -3.669665 -6.155491
 936000.000000 72.907670 43.808600 0.679737 -1.897967 -3.183647
 938000.000000 73.989900 43.119450 0.635551 -2.953117 -4.953554
 940000.000000 73.506790 43.193100 0.713642 -2.936922 -4.926389
 942000.000000 74.139390 42.983230 0.746684 -3.618658 -6.069932
 944000.000000 73.566290 43.390420 0.700903 -3.589470 -6.020972
 946000.000000 74.505790 44.080460 0.537961 -4.416884 -7.408875
 948000.000000 74.572330 43.227880 0.565507 -3.644677 -6.113576
 950000.000000 73.755250 44.074300 0.476173 -3.662402 -6.143308
 952000.000000 74.625730 43.868150 0.604592 -4.417556 -7.410002
 954000.000000 75.331610 43.848150 0.569901 -4.420024 -7.414142
 956000.000000 74.995390 44.202880 0.550233 -4.426322 -7.424706
 958000.000000 75.438190 44.259960 0.500633 -4.425517 -7.423356
 960000.000000 76.059240 44.311330 0.587201 -4.676974 -7.845149
 962000.000000 75.711250 44.865680 0.601243 -4.428055 -7.427613
 964000.000000 75.084820 44.004290 0.564394 -4.426737 -7.425402
 966000.000000 75.855530 43.471090 0.484603 -4.676249 -7.843933
 968000.000000 75.453110 43.194040 0.550652 -4.300983 -7.214463
 970000.000000 73.554950 43.633680 0.631124 -2.925929 -4.907949
 972000.000000 74.951940 43.198920 0.572593 -4.265537 -7.155006
 974000.000000 73.798360 42.625120 0.647306 -2.960303 -4.965608
 976000.000000 73.712170 42.518000 0.654299 -2.949418 -4.947349
 978000.000000 73.691290 42.648150 0.675137 -2.926342 -4.908642
 980000.000000 72.950070 41.572030 0.798743 -3.596506 -6.032774
 982000.000000 72.900440 41.527550 0.835395 -3.382566 -5.673911
 984000.000000 72.410720 42.418480 0.820285 -0.004309 -0.007228
 986000.000000 73.337230 42.143820 0.688944 -2.921383 -4.900324
 988000.000000 73.735960 41.623810 0.748861 -3.603481 -6.044474
 990000.000000 73.169480 41.923740 0.748432 -2.916482 -4.892103
 992000.000000 74.090720 42.011180 0.632306 -3.678896 -6.170975
 994000.000000 74.642730 42.114870 0.688330 -4.299130 -7.211354
 996000.000000 74.213980 42.258670 0.685138 -4.181723 -7.014416
 998000.000000 74.228650 43.161190 0.668489 -4.134825 -6.935749
 1000000.000000 74.936640 43.046420 0.556905 -4.297837 -7.209186
 1002000.000000 75.302070 42.849370 0.541186 -4.306703 -7.224057
 1004000.000000 75.881840 43.279440 0.669689 -4.306793 -7.224208
 1006000.000000 74.602660 43.177580 0.670057 -4.295873 -7.205891
 1008000.000000 74.991590 42.874010 0.703591 -4.297852 -7.209211
 1010000.000000 73.917700 43.051880 0.578660 -3.106675 -5.211132
 1012000.000000 75.386790 43.750090 0.537995 -4.510574 -7.566030
 1014000.000000 74.712740 43.352190 0.659587 -3.543101 -5.943192
 1016000.000000 74.919800 43.131660 0.716968 -4.297860 -7.209224
 1018000.000000 75.282830 43.016150 0.695416 -4.298299 -7.209961
 1020000.000000 74.942700 42.455650 0.806796 -4.307281 -7.225027
 1022000.000000 74.221690 41.810550 0.885415 -3.655475 -6.131688
 1024000.000000 75.529460 42.010110 0.764584 -4.465608 -7.490604
 1026000.000000 75.880330 42.716120 0.718601 -4.343438 -7.285677
 1028000.000000 75.935050 42.200500 0.794415 -4.572886 -7.670552
 1030000.000000 75.053690 41.868040 0.699032 -4.424002 -7.420815
 1032000.000000 74.195580 41.841000 0.727392 -3.656246 -6.132982
 1034000.000000 74.197150 42.490660 0.717211 -4.297809 -7.209139
 1036000.000000 74.073010 42.864380 0.719479 -3.029945 -5.082425
 1038000.000000 72.276960 43.489410 0.779287 -0.629437 -1.055817
 1040000.000000 73.977830 42.756100 0.640824 -4.133873 -6.934153
 1042000.000000 73.404240 43.028810 0.739191 -2.907586 -4.877181
 1044000.000000 72.690880 43.442410 0.669417 -0.802528 -1.346159
 1046000.000000 72.232430 43.521100 0.657751 -0.618121 -1.036836
 1048000.000000 73.708400 43.464180 0.789244 -2.924185 -4.905024
 1050000.000000 73.916970 43.992910 0.598714 -3.073746 -5.155897
 1052000.000000 73.071610 44.194160 0.619888 -2.174506 -3.647513
 1054000.000000 73.335320 45.138480 0.556021 -4.231143 -7.097313
 1056000.000000 73.142000 44.586380 0.535087 -4.257287 -7.141167
 1058000.000000 74.965600 44.706490 0.643684 -4.309387 -7.228560
 1060000.000000 73.346740 44.544940 0.618645 -4.257446 -7.141434
 1062000.000000 72.676620 44.533240 0.546195 -2.529635 -4.243206
 1064000.000000 72.156820 44.713950 0.512072 -2.576811 -4.322339
 1066000.000000 71.827020 44.307810 0.570780 -2.218137 -3.720700
 1068000.000000 71.180510 43.539360 0.493169 1.006535 1.688360
 1070000.000000 71.696550 43.822990 0.557526 -2.124516 -3.563660
 1072000.000000 72.626730 44.007380 0.549331 -1.605329 -2.692777
 1074000.000000 71.337370 43.378570 0.597798 -0.812717 -1.363251
 1076000.000000 71.734350 42.911660 0.664754 2.071499 3.474729
 1078000.000000 72.301620 42.957800 0.613069 -2.777287 -4.658617
 1080000.000000 71.994930 43.551530 0.705711 -0.637719 -1.069709
 1082000.000000 71.664750 42.654550 0.564326 3.552559 5.959057
 1084000.000000 70.732890 43.123560 0.605470 1.171987 1.965889
 1086000.000000 70.529050 44.075910 0.484373 -1.776341 -2.979632
 1088000.000000 70.867440 44.500570 0.553002 -1.784720 -2.993687
 1090000.000000 71.023690 44.781320 0.486888 -1.780756 -2.987038
 1092000.000000 71.051240 44.442000 0.629762 -1.780339 -2.986338
 1094000.000000 71.488760 44.635690 0.516653 -2.378750 -3.990112
 1096000.000000 70.175090 44.498170 0.498605 -1.775932 -2.978946
 1098000.000000 69.946470 44.027340 0.518302 -1.779112 -2.984280
 1100000.000000 71.230800 44.734450 0.382208 -1.813050 -3.041207
 1102000.000000 70.887780 45.068740 0.555952 -1.819534 -3.052084
 1104000.000000 71.083170 45.163060 0.584012 -1.214812 -2.037724
 1106000.000000 71.336980 44.886920 0.565127 -2.224873 -3.731999
 1108000.000000 71.191000 45.216590 0.589102 -2.099981 -3.522505
 1110000.000000 71.283960 44.816080 0.556347 -1.808500 -3.033575
 1112000.000000 71.071500 44.228980 0.566492 -1.762353 -2.956168
 1114000.000000 70.229100 44.002860 0.477877 -1.719194 -2.883774
 1116000.000000 69.844270 44.825410 0.366655 -1.775918 -2.978922
 1118000.000000 69.611240 44.491900 0.434791 -1.890590 -3.171273
 1120000.000000 70.051780 44.359130 0.512816 -1.776109 -2.979243
 1122000.000000 70.564330 43.472960 0.450547 -1.534710 -2.574320
 1124000.000000 70.184050 43.661590 0.528508 -1.774509 -2.976559
 1126000.000000 69.845920 43.423360 0.473774 -1.542617 -2.587584
 1128000.000000 69.143530 43.301310 0.538887 -1.711687 -2.871181
 1130000.000000 69.964050 44.773680 0.447937 -1.776045 -2.979135
 1132000.000000 69.007040 44.291050 0.373916 -1.210313 -2.030177
 1134000.000000 69.955650 45.298220 0.400128 -1.734806 -2.909961
 1136000.000000 70.617080 44.175560 0.407693 -1.769497 -2.968152
 1138000.000000 69.442190 44.599850 0.424672 -1.793858 -3.009015
 1140000.000000 69.502040 44.599650 0.529152 -1.780868 -2.987225
 1142000.000000 69.022490 44.392830 0.430848 -1.573776 -2.639850
 1144000.000000 68.807020 44.090800 0.340905 -1.786120 -2.996035
 1146000.000000 69.016040 43.543480 0.433071 -1.829836 -3.069364
 1148000.000000 69.377710 44.399720 0.427086 -1.823738 -3.059135
 1150000.000000 69.622410 43.432800 0.385002 -1.679403 -2.817028
 1152000.000000 68.492920 42.881870 0.485285 -2.633800 -4.417932
 1154000.000000 67.912120 43.416050 0.332376 -1.735467 -2.911070
 1156000.000000 67.910580 42.341000 0.464567 -3.410026 -5.719973
 1158000.000000 68.033270 42.960400 0.394495 -3.489419 -5.853146
 1160000.000000 67.640670 42.429090 0.382820 -3.472734 -5.825159
 1162000.000000 68.151910 43.019290 0.490733 -3.484853 -5.845487
 1164000.000000 68.922050 43.565340 0.439483 -1.696155 -2.845128
 1166000.000000 69.047120 43.662680 0.503175 -1.689138 -2.833358
 1168000.000000 68.463880 43.016400 0.384232 -2.330623 -3.909384
 1170000.000000 67.442320 43.228680 0.441198 -3.424904 -5.744929
 1172000.000000 68.077810 43.504170 0.479354 -1.126184 -1.889059
 1174000.000000 68.517630 43.186090 0.447180 -2.938177 -4.928494
 1176000.000000 68.578290 42.430300 0.450164 -2.156736 -3.617706
 1178000.000000 69.217640 43.093150 0.521233 -1.632687 -2.738667
 1180000.000000 69.176000 42.396750 0.595011 -1.566647 -2.627891
 1182000.000000 68.849150 42.539330 0.541568 -2.209184 -3.705682
 1184000.000000 68.007520 41.895290 0.510096 -2.934529 -4.922375
 1186000.000000 68.456740 42.185850 0.532495 -2.197713 -3.686441
 1188000.000000 68.120310 41.661080 0.528886 -3.794082 -6.364188
 1190000.000000 68.227520 42.372590 0.546347 -3.493866 -5.860606
 1192000.000000 69.576000 42.935960 0.456115 0.610376 1.023844
 1194000.000000 69.000770 43.184910 0.503434 -1.728965 -2.900163
 1196000.000000 69.892130 43.130660 0.547376 -1.519720 -2.549176
 1198000.000000 69.511940 43.167480 0.563872 -1.530803 -2.567767
 1200000.000000 70.287830 43.318150 0.445484 -1.541382 -2.585512
 1202000.000000 69.671760 43.862480 0.462174 -1.776631 -2.980118
 1204000.000000 69.220630 44.072550 0.398945 -1.852580 -3.107515
 1206000.000000 69.189170 43.536980 0.351845 -1.759288 -2.951027
 1208000.000000 69.736080 45.069960 0.363752 -1.775574 -2.978345
 1210000.000000 68.921210 45.256640 0.370843 -1.469880 -2.465575
 1212000.000000 68.380590 44.599430 0.327732 -2.212830 -3.711798
 1214000.000000 68.702190 44.438780 0.369603 -1.207239 -2.025021
 1216000.000000 68.552890 43.909680 0.438233 -1.784062 -2.992583
 1218000.000000 67.044440 43.348210 0.389322 -3.444651 -5.778053
 1220000.000000 67.766600 44.132660 0.434848 -1.481106 -2.484405
 1222000.000000 68.147870 43.781800 0.420790 -0.969222 -1.625772
 1224000.000000 67.805090 44.056770 0.377794 -1.263025 -2.118596
 1226000.000000 68.732110 43.845020 0.375246 -1.721043 -2.886875
 1228000.000000 68.341520 43.521030 0.438126 -1.825472 -3.062044
 1230000.000000 67.935930 41.957760 0.461813 -3.617085 -6.067293
 1232000.000000 67.268750 43.391080 0.437715 -3.294524 -5.526230
 1234000.000000 67.414820 43.416580 0.420931 -3.434412 -5.760878
 1236000.000000 66.816170 42.875900 0.399927 -3.789047 -6.355742
 1238000.000000 66.892210 43.856100 0.379047 -3.420068 -5.736817
 1240000.000000 67.077240 44.123860 0.379648 -2.595856 -4.354285
 1242000.000000 66.196980 43.881820 0.499008 -3.733021 -6.261764
 1244000.000000 67.120010 44.776210 0.422350 -2.400692 -4.026917
 1246000.000000 66.501710 43.980310 0.387562 -3.561808 -5.974572
 1248000.000000 67.224490 42.752250 0.454969 -3.491961 -5.857410
 1250000.000000 68.231750 43.531010 0.391930 -1.116338 -1.872544
 1252000.000000 67.831690 44.414800 0.424973 -1.507022 -2.527877
 1254000.000000 68.620820 44.152230 0.428705 -1.443438 -2.421221
 1256000.000000 67.351200 44.628570 0.403955 -2.361479 -3.961141
 1258000.000000 68.613710 44.326720 0.431584 -1.166437 -1.956580
 1260000.000000 68.454570 43.868760 0.386432 -1.794971 -3.010882
 1262000.000000 67.562080 43.028820 0.482764 -3.471330 -5.822804
 1264000.000000 68.229470 42.257390 0.472780 -2.466146 -4.136710
 1266000.000000 67.426020 42.022620 0.353324 -3.553683 -5.960943
 1268000.000000 67.520280 41.657230 0.422094 -4.015410 -6.735443
 1270000.000000 66.815060 41.844430 0.388486 -3.860741 -6.476001
 1272000.000000 66.915880 42.129230 0.451196 -3.861540 -6.477342
 1274000.000000 66.576220 41.161080 0.427412 -4.271051 -7.164255
 1276000.000000 67.604370 41.583940 0.378468 -3.927306 -6.587657
 1278000.000000 66.400170 41.967570 0.471018 -4.068599 -6.824662
 1280000.000000 65.933710 41.938620 0.446595 -4.244388 -7.119530
 1282000.000000 65.520330 41.790700 0.386773 -4.193574 -7.034295
 1284000.000000 66.489530 42.035220 0.423554 -4.111330 -6.896339
 1286000.000000 66.880980 42.634340 0.430214 -3.580712 -6.006281
 1288000.000000 66.307150 42.684300 0.321734 -3.806850 -6.385605
 1290000.000000 66.200480 42.775040 0.355806 -4.041607 -6.779386
 1292000.000000 66.876760 42.292320 0.376573 -3.364730 -5.643993
 1294000.000000 67.291590 42.069330 0.304383 -3.564290 -5.978735
 1296000.000000 67.848500 41.607400 0.387455 -3.874967 -6.499864
 1298000.000000 67.424120 42.305200 0.332687 -3.522104 -5.907972
 1300000.000000 66.787360 42.055890 0.416320 -3.816056 -6.401047
 1302000.000000 67.493870 41.891750 0.333094 -3.739574 -6.272756
 1304000.000000 67.442440 42.442760 0.320740 -3.480780 -5.838655
 1306000.000000 67.590170 43.368510 0.343254 -3.452250 -5.790799
 1308000.000000 67.618280 43.832570 0.353451 -1.679871 -2.817813
 1310000.000000 67.131430 43.331100 0.423766 -2.319279 -3.890355
 1312000.000000 66.108960 44.340510 0.377039 -3.740331 -6.274026
 1314000.000000 65.976170 43.049850 0.290531 -4.035654 -6.769400
 1316000.000000 65.661200 43.354960 0.283084 -3.951977 -6.629040
 1318000.000000 65.136990 43.297700 0.346716 -3.664980 -6.147632
 1320000.000000 66.796810 43.667390 0.340868 -3.379358 -5.668530
 1322000.000000 66.264310 43.797150 0.314891 -3.721910 -6.243126
 1324000.000000 66.478900 44.374110 0.327585 -3.701380 -6.208689
 1326000.000000 66.837050 44.347850 0.016216 -3.584416 -6.012494
 1328000.000000 66.573230 45.595030 0.188676 -2.714039 -4.552525
 1330000.000000 65.774420 45.530410 0.142841 -3.615288 -6.064279
 1332000.000000 64.490800 45.564010 0.187587 -3.189652 -5.350318
 1334000.000000 64.334450 44.451440 0.115172 -3.465339 -5.812755
 1336000.000000 63.277080 44.302780 0.007222 -3.840309 -6.441729
 1338000.000000 64.183010 44.817080 0.142626 -3.472079 -5.824060
 1340000.000000 64.042090 45.529090 0.067115 -3.465345 -5.812765
 1342000.000000 64.791090 44.798650 0.176890 -3.467361 -5.816146
 1344000.000000 64.104790 44.353130 0.006216 -3.464877 -5.811980
 1346000.000000 63.429070 45.695370 0.111229 -3.541629 -5.940723
 1348000.000000 62.588310 45.082980 0.063398 -3.684492 -6.180362
 1350000.000000 63.959680 44.975120 0.042882 -3.469454 -5.819657
 1352000.000000 63.497540 44.507700 0.132509 -3.720262 -6.240362
 1354000.000000 63.317870 44.813800 0.017765 -3.507436 -5.883368
 1356000.000000 63.319650 44.938510 0.010253 -3.488858 -5.852205
 1358000.000000 62.705330 46.222920 0.000113 -3.556630 -5.965886
 1360000.000000 63.465120 46.235170 0.141391 -3.306364 -5.546090
 1362000.000000 62.725000 47.270670 0.121803 -3.497073 -5.865985
 1364000.000000 64.237150 45.878710 0.043680 -3.333508 -5.591621
 1366000.000000 64.218080 46.046210 0.166492 -3.121385 -5.235807
 1368000.000000 63.932930 46.008930 0.065170 -3.414771 -5.727932
 1370000.000000 64.010410 46.653780 0.153274 -3.219460 -5.400318
 1372000.000000 63.757040 47.134520 0.044382 -3.007460 -5.044709
 1374000.000000 62.810580 45.954490 0.163212 -3.542956 -5.942949
 1376000.000000 62.031020 46.860940 0.121958 -3.941049 -6.610710
 1378000.000000 63.955020 46.297510 0.123902 -3.062501 -5.137035
 1380000.000000 64.224150 46.415840 0.043260 -3.210128 -5.384664
 1382000.000000 63.273470 46.916700 0.124144 -3.142202 -5.270725
 1384000.000000 62.778280 47.334950 0.077493 -3.497591 -5.866854
 1386000.000000 61.995840 46.905030 0.058944 -3.943331 -6.614538
 1388000.000000 61.745080 46.640850 0.124770 -4.295124 -7.204635
 1390000.000000 61.675950 45.432110 0.125392 -4.418783 -7.412060
 1392000.000000 62.620150 46.209800 0.012961 -3.541538 -5.940571
 1394000.000000 62.274860 45.486670 0.055717 -3.907647 -6.554681
 1396000.000000 61.615860 45.837620 0.000038 -4.066943 -6.821884
 1398000.000000 62.487110 45.638670 0.000057 -3.540553 -5.938918
 1400000.000000 62.906360 45.675460 0.000076 -3.567073 -5.983403
 1402000.000000 63.483670 45.863000 0.000132 -3.536025 -5.931323
 1404000.000000 64.598980 45.347340 0.000558 -3.448391 -5.784326
 1406000.000000 65.496590 44.463000 0.058648 -3.742065 -6.276934
 1408000.000000 65.663760 44.331430 0.069108 -3.801408 -6.376476
 1410000.000000 65.931200 44.523230 0.089618 -3.743042 -6.278573
 1412000.000000 65.524400 43.351120 0.090671 -3.657760 -6.135521
 1414000.000000 65.412020 42.459520 0.199399 -4.196921 -7.039909
 1416000.000000 65.520800 43.302380 0.196565 -3.584699 -6.012969
 1418000.000000 64.447940 43.672310 0.122900 -3.525392 -5.913487
 1420000.000000 64.996800 44.409060 0.190117 -3.482263 -5.841143
 1422000.000000 64.709620 44.989910 0.254866 -3.467519 -5.816411
 1424000.000000 64.870650 45.372960 0.152734 -3.328076 -5.582510
 1426000.000000 66.111790 45.515790 0.131557 -3.609963 -6.055347
 1428000.000000 66.371280 45.122490 0.248362 -3.611100 -6.057254
 1430000.000000 65.246360 45.876730 0.240981 -3.189221 -5.349595
 1432000.000000 65.595420 45.456760 0.176349 -3.642443 -6.109829
 1434000.000000 66.330030 44.967740 0.251044 -3.603987 -6.045323
 1436000.000000 64.980120 45.089980 0.183884 -3.364300 -5.643272
 1438000.000000 64.608860 45.095120 0.141686 -3.372746 -5.657439
 1440000.000000 66.589670 45.207710 0.199974 -3.553016 -5.959824
 1442000.000000 65.445310 46.341350 0.135646 -3.041239 -5.101370
 1444000.000000 65.768630 45.876610 0.164923 -3.446724 -5.781530
 1446000.000000 66.050030 45.729000 0.219521 -3.611677 -6.058222
 1448000.000000 65.342570 45.497860 0.201860 -3.666907 -6.150864
 1450000.000000 65.384750 45.260890 0.175289 -3.476039 -5.830703
 1452000.000000 65.064950 45.583410 0.187390 -3.045479 -5.108482
 1454000.000000 65.054120 46.448450 0.187280 -3.103002 -5.204971
 1456000.000000 64.454930 46.233620 0.204570 -2.978047 -4.995372
 1458000.000000 65.297620 45.859860 0.151729 -3.115456 -5.225861
 1460000.000000 65.774070 45.975480 0.189210 -3.580547 -6.006004
 1462000.000000 66.503260 45.325830 0.219394 -2.892407 -4.851719
 1464000.000000 67.130290 45.660320 0.248986 -2.491800 -4.179742
 1466000.000000 66.945340 46.338960 0.242029 -2.741646 -4.598833
 1468000.000000 66.279330 46.170750 0.242786 -2.682992 -4.500447
 1470000.000000 67.155750 47.039630 0.267848 -2.625882 -4.404651
 1472000.000000 66.604640 46.413230 0.182550 -2.632531 -4.415804
 1474000.000000 67.133590 47.164760 0.188535 -2.648369 -4.442370
 1476000.000000 67.255790 45.802230 0.217950 -2.631056 -4.413330
 1478000.000000 66.187650 45.175300 0.260293 -3.711915 -6.226361
 1480000.000000 66.491330 46.100870 0.212774 -2.665199 -4.470601
 1482000.000000 66.607830 46.149040 0.253068 -2.631238 -4.413635
 1484000.000000 66.935500 46.006380 0.191446 -2.524219 -4.234121
 1486000.000000 67.820320 45.695060 0.282046 -1.996243 -3.348495
 1488000.000000 67.260820 45.638030 0.178711 -2.643789 -4.434688
 1490000.000000 67.311020 45.671680 0.224983 -2.369330 -3.974311
 1492000.000000 67.352350 44.940040 0.373985 -2.585127 -4.336288
 1494000.000000 66.799310 45.453830 0.366310 -2.640549 -4.429253
 1496000.000000 67.123870 45.200610 0.303791 -2.461788 -4.129400
 1498000.000000 67.452890 45.460700 0.344478 -2.583194 -4.333046
 1500000.000000 67.946490 46.157130 0.278506 -2.015018 -3.379988
 1502000.000000 66.809110 46.196760 0.275012 -2.648809 -4.443108
 1504000.000000 66.215450 46.972900 0.224206 -2.614885 -4.386204
 1506000.000000 66.501010 47.425140 0.282343 -2.552429 -4.281441
 1508000.000000 65.052340 46.685180 0.237283 -3.018440 -5.063127
 1510000.000000 64.732620 47.164400 0.187461 -2.869418 -4.813158
 1512000.000000 64.898810 46.120750 0.196228 -3.143550 -5.272986
 1514000.000000 64.317020 45.915920 0.216413 -3.312885 -5.557028
 1516000.000000 64.622630 46.702330 0.255652 -3.064034 -5.139606
 1518000.000000 64.476010 46.949950 0.198158 -3.008471 -5.046405
 1520000.000000 64.958230 47.382150 0.201410 -2.903876 -4.870957
 1522000.000000 65.392990 47.424440 0.181808 -2.863233 -4.802783
 1524000.000000 65.588280 47.532960 0.085804 -2.870062 -4.814238
 1526000.000000 65.877090 47.085050 0.088461 -2.766349 -4.640270
 1528000.000000 65.823080 46.992090 0.237077 -2.975596 -4.991260
 1530000.000000 65.913990 47.397760 0.133879 -3.006942 -5.043840
 1532000.000000 66.395820 47.763770 0.184663 -2.964963 -4.973425
 1534000.000000 65.969420 47.372300 0.150817 -2.828681 -4.744825
 1536000.000000 65.430340 47.362980 0.167149 -2.870184 -4.814442
 1538000.000000 65.382960 47.839310 0.125788 -2.863797 -4.803729
 1540000.000000 64.276380 48.503060 0.050863 -2.912538 -4.885487
 1542000.000000 64.832420 48.181730 0.163569 -2.869344 -4.813033
 1544000.000000 64.619040 48.018320 0.159032 -3.243313 -5.440329
 1546000.000000 64.180470 47.560170 0.098413 -3.102766 -5.204575
 1548000.000000 63.783460 47.936890 0.181643 -3.296234 -5.529098
 1550000.000000 62.997550 47.861490 0.158512 -3.389759 -5.685977
 1552000.000000 63.502480 48.732900 0.009344 -3.087270 -5.178582
 1554000.000000 63.184460 48.666170 0.031910 -3.138211 -5.264031
 1556000.000000 62.798240 48.413590 0.008364 -3.427097 -5.748608
 1558000.000000 64.108040 47.067570 0.143401 -3.060154 -5.133098
 1560000.000000 63.890720 47.360280 0.160965 -3.012631 -5.053383
 1562000.000000 63.570340 47.659850 0.043440 -3.326742 -5.580272
 1564000.000000 64.429790 47.474490 0.107543 -3.017039 -5.060777
 1566000.000000 63.459830 48.025100 0.197544 -3.297178 -5.530682
 1568000.000000 63.879550 46.894960 0.128957 -3.013532 -5.054894
 1570000.000000 63.621510 46.930970 0.194567 -3.117235 -5.228845
 1572000.000000 64.507250 47.073840 0.181753 -3.010242 -5.049376
 1574000.000000 64.447100 47.011710 0.186215 -3.011989 -5.052306
 1576000.000000 63.630290 46.286080 0.169431 -3.158043 -5.297297
 1578000.000000 63.246470 46.480890 0.187461 -3.453659 -5.793163
 1580000.000000 63.602680 47.165720 0.021911 -3.190830 -5.352294
 1582000.000000 63.436840 46.959480 0.166731 -3.108468 -5.214140
 1584000.000000 63.033290 47.572450 0.005489 -3.362678 -5.640551
 1586000.000000 62.680740 48.074850 0.024493 -3.418515 -5.734212
 1588000.000000 63.375460 48.658430 0.126798 -3.060306 -5.133353
 1590000.000000 64.142030 48.195810 0.127053 -3.138675 -5.264809
 1592000.000000 63.396320 48.193580 0.001235 -3.297424 -5.531094
 1594000.000000 65.231940 48.552050 0.043429 -2.860628 -4.798413
 1596000.000000 63.797160 48.988320 0.052900 -2.858659 -4.795110
 1598000.000000 63.880470 48.889020 0.012698 -2.930125 -4.914987
 1600000.000000 64.690160 48.883880 0.056338 -2.860189 -4.797677
 1602000.000000 64.497410 48.126170 0.090584 -2.931802 -4.917800
 1604000.000000 64.975360 47.243220 0.056960 -2.864940 -4.805646
 1606000.000000 64.906220 47.296640 0.203302 -2.921311 -4.900203
 1608000.000000 64.883360 47.663100 0.064723 -2.923539 -4.903940
 1610000.000000 66.257570 47.600660 0.159181 -2.639987 -4.428310
 1612000.000000 65.452080 47.649010 0.065642 -2.866073 -4.807547
 1614000.000000 64.866230 48.230280 0.043980 -2.868919 -4.812321
 1616000.000000 65.095980 48.297010 0.014642 -2.860105 -4.797536
 1618000.000000 64.796360 49.136230 0.066689 -2.846208 -4.774225
 1620000.000000 65.666000 48.380080 0.044330 -2.860120 -4.797561
 1622000.000000 65.568070 47.463490 0.091983 -2.864095 -4.804229
 1624000.000000 66.052850 48.559330 0.012657 -2.863632 -4.803452
 1626000.000000 66.566370 48.814880 0.011861 -2.871616 -4.816845
 1628000.000000 66.755330 47.604210 0.047355 -2.451685 -4.112453
 1630000.000000 67.234770 47.391930 0.007488 -2.367731 -3.971629
 1632000.000000 67.575210 46.204220 0.039972 -2.283762 -3.830779
 1634000.000000 68.528040 45.878020 0.009931 -1.166528 -1.956732
 1636000.000000 68.186090 46.222580 0.044496 -1.913668 -3.209984
 1638000.000000 68.383010 45.698220 0.095112 -1.190856 -1.997540
 1640000.000000 67.112570 46.032290 0.050148 -2.433762 -4.082389
 1642000.000000 67.568950 45.267710 0.048957 -2.475376 -4.152192
 1644000.000000 66.602430 45.180350 0.100436 -3.552244 -5.958529
 1646000.000000 65.980490 45.922690 0.073294 -2.746340 -4.606707
 1648000.000000 65.694910 46.778610 0.179383 -3.011339 -5.051216
 1650000.000000 65.718970 46.810160 0.127087 -3.013605 -5.055017
 1652000.000000 66.064380 46.378490 0.117880 -2.970336 -4.982437
 1654000.000000 65.631120 45.462760 0.134453 -3.623564 -6.078161
 1656000.000000 66.229860 45.168460 0.125402 -3.714737 -6.231094
 1658000.000000 65.402030 46.992360 0.082674 -3.013875 -5.055470
 1660000.000000 66.134910 46.650190 0.082266 -2.705213 -4.537720
 1662000.000000 67.109050 47.220780 0.062723 -2.644365 -4.435654
 1664000.000000 66.691400 46.975460 0.062800 -2.687852 -4.508599
 1666000.000000 67.233430 46.815360 0.062822 -2.325606 -3.900968
 1668000.000000 65.449280 46.540620 0.064508 -3.042756 -5.103915
 1670000.000000 65.320020 46.514170 0.037066 -3.024471 -5.073243
 1672000.000000 64.306780 46.192910 0.062458 -3.257144 -5.463529
 1674000.000000 65.129210 44.660800 0.062535 -3.428873 -5.751587
 1676000.000000 65.068450 44.344940 0.063686 -3.441295 -5.772423
 1678000.000000 65.340000 45.136260 0.062615 -3.282463 -5.505999
 1680000.000000 64.775930 44.448770 0.086213 -3.464696 -5.811676
 1682000.000000 65.746200 44.145600 0.064505 -3.816876 -6.402422
 1684000.000000 65.764130 44.152220 0.027312 -3.830122 -6.424641
 1686000.000000 66.250460 44.680840 0.120551 -3.728842 -6.254754
 1688000.000000 66.454160 44.550890 0.064350 -3.596128 -6.032140
 1690000.000000 66.110690 44.983660 0.092453 -3.688307 -6.186761
 1692000.000000 66.840330 44.812190 0.068388 -2.717578 -4.558461
 1694000.000000 66.343150 43.055530 0.106719 -3.853643 -6.464095
 1696000.000000 65.661200 43.612980 0.034407 -3.441656 -5.773029
 1698000.000000 66.582830 44.003070 0.026954 -3.172177 -5.321005
 1700000.000000 65.350640 43.769630 0.017132 -3.466945 -5.815449
 1702000.000000 66.363450 44.451270 0.062782 -3.735665 -6.266199
 1704000.000000 65.352220 44.261170 0.066362 -3.828818 -6.422454
 1706000.000000 65.820990 44.536600 0.084771 -3.741478 -6.275950
 1708000.000000 66.564810 45.007980 0.062795 -3.543998 -5.944697
 1710000.000000 67.132990 44.090610 0.065863 -2.356555 -3.952882
 1712000.000000 66.367800 43.908750 0.119411 -3.678666 -6.170589
 1714000.000000 65.702330 45.318790 0.064797 -3.255472 -5.460724
 1716000.000000 65.570050 45.089390 0.066035 -3.368874 -5.650944
 1718000.000000 66.119510 45.008980 0.071887 -3.683097 -6.178022
 1720000.000000 66.511760 44.301500 0.098763 -3.715236 -6.231931
 1722000.000000 67.066420 43.894510 0.079154 -2.317271 -3.886987
 1724000.000000 66.286460 43.788730 0.066875 -3.696848 -6.201087
 1726000.000000 65.756230 43.564970 0.083490 -3.818927 -6.405863
 1728000.000000 66.113570 44.468900 0.113967 -3.738128 -6.270330
 1730000.000000 67.011290 44.872080 0.064835 -2.909515 -4.880416
 1732000.000000 66.349940 44.454070 0.149053 -3.735725 -6.266300
 1734000.000000 64.533180 44.382780 0.068817 -3.472451 -5.824684
 1736000.000000 65.223500 44.019640 0.063649 -3.421419 -5.739083
 1738000.000000 65.430820 44.738320 0.063181 -3.725358 -6.248910
 1740000.000000 65.164530 44.537170 0.074539 -3.386516 -5.680537
 1742000.000000 65.939400 44.507140 0.102625 -3.750063 -6.290350
 1744000.000000 67.590720 44.590890 0.120003 -1.855249 -3.111992
 1746000.000000 66.785620 44.245960 0.118567 -3.561892 -5.974712
 1748000.000000 65.257020 44.466170 0.066648 -3.806492 -6.385004
 1750000.000000 64.786940 44.156620 0.065806 -3.477251 -5.832736
 1752000.000000 65.551600 44.359210 0.063321 -3.818805 -6.405658
 1754000.000000 65.680640 42.600570 0.054512 -4.185876 -7.021382
 1756000.000000 66.106620 42.615870 0.071375 -4.305747 -7.222454
 1758000.000000 67.219510 43.009390 0.174538 -3.506081 -5.881095
 1760000.000000 66.054460 43.230000 0.103073 -3.830383 -6.425079
 1762000.000000 66.979320 43.205590 0.173368 -3.692593 -6.193950
 1764000.000000 66.848380 43.451570 0.113579 -3.717119 -6.235090
 1766000.000000 66.683720 42.471740 0.187591 -3.425657 -5.746192
 1768000.000000 66.524940 42.814060 0.126050 -3.853495 -6.463847
 1770000.000000 66.905280 42.648630 0.074327 -3.645632 -6.115178
 1772000.000000 66.215080 42.867850 0.028760 -4.180256 -7.011955
 1774000.000000 65.679030 43.087880 0.127874 -3.986933 -6.687676
 1776000.000000 65.774510 43.102290 0.108852 -3.992276 -6.696638
 1778000.000000 65.775610 43.533590 0.106177 -3.831046 -6.426191
 1780000.000000 65.729260 42.914840 0.118484 -3.929060 -6.590600
 1782000.000000 66.272830 43.339930 0.122493 -3.875883 -6.501401
 1784000.000000 65.505040 43.416220 0.117279 -3.615077 -6.063925
 1786000.000000 67.051160 43.807080 0.160041 -3.320369 -5.569582
 1788000.000000 66.619200 43.113280 0.156563 -3.828263 -6.421523
 1790000.000000 66.738110 42.928140 0.064542 -3.821393 -6.409999
 1792000.000000 66.028350 42.234410 0.185265 -4.285896 -7.189156
 1794000.000000 65.961500 41.717080 0.107340 -4.322120 -7.249918
 1796000.000000 66.703110 42.114900 0.087576 -3.926137 -6.585697
 1798000.000000 65.202940 42.490060 0.124671 -4.192739 -7.032894
 1800000.000000 65.532390 42.097560 0.154644 -4.192842 -7.033067
 1802000.000000 65.602380 42.814790 0.092826 -3.939826 -6.608658
 1804000.000000 65.119480 42.512570 0.066136 -4.192664 -7.032769
 1806000.000000 66.119680 42.284420 0.163467 -4.181490 -7.014025
 1808000.000000 66.464620 41.829510 0.127762 -4.140901 -6.945941
 1810000.000000 65.756560 41.833430 0.163979 -4.320510 -7.247217
 1812000.000000 65.999760 41.416910 0.112486 -4.336972 -7.274831
 1814000.000000 64.890280 41.867910 0.170758 -4.193830 -7.034724
 1816000.000000 64.298160 43.328810 0.096007 -3.609254 -6.054157
 1818000.000000 65.162540 42.684040 0.065906 -4.192657 -7.032757
 1820000.000000 64.335690 43.850110 0.062684 -3.523617 -5.910510
 1822000.000000 64.379920 43.286500 0.060153 -3.793089 -6.362522
 1824000.000000 64.440970 43.858900 0.068958 -3.492140 -5.857711
 1826000.000000 64.510230 43.459610 0.061547 -3.468792 -5.818547
 1828000.000000 65.052980 43.423100 0.056796 -3.662768 -6.143922
 1830000.000000 64.351620 44.126880 0.062454 -3.467432 -5.816265
 1832000.000000 65.460390 44.266730 0.004530 -3.771593 -6.326465
 1834000.000000 64.270300 44.525560 0.064033 -3.464598 -5.811512
 1836000.000000 64.752390 44.117800 0.079721 -3.481122 -5.839229
 1838000.000000 64.260200 44.616730 0.119757 -3.468512 -5.818077
 1840000.000000 64.659080 44.655140 0.124408 -3.464266 -5.810955
 1842000.000000 64.310420 45.001360 0.062301 -3.466226 -5.814242
 1844000.000000 65.088540 44.790220 0.175614 -3.408398 -5.717242
 1846000.000000 63.993560 45.234890 0.122841 -3.522417 -5.908497
 1848000.000000 63.853790 45.916300 0.150497 -3.417071 -5.731790
 1850000.000000 64.371980 44.865470 0.106488 -3.465165 -5.812463
 1852000.000000 64.426530 45.657380 0.131356 -3.297965 -5.532002
 1854000.000000 64.863110 45.266290 0.059914 -3.354600 -5.627001
 1856000.000000 65.743610 45.405610 0.088556 -3.618903 -6.070343
 1858000.000000 65.228070 45.982850 0.075126 -3.017744 -5.061959
 1860000.000000 65.323000 45.684650 0.112748 -3.723241 -6.245359
 1862000.000000 65.342720 45.194360 0.122029 -3.448175 -5.783964
 1864000.000000 65.156470 45.735920 0.113547 -3.087648 -5.179216
 1866000.000000 65.393240 45.960060 0.092356 -3.424886 -5.744899
 1868000.000000 64.971100 45.542630 0.065513 -3.306163 -5.545753
 1870000.000000 64.866250 45.195960 0.080427 -3.367631 -5.648859
 1872000.000000 64.619040 46.363120 0.061995 -3.146456 -5.277861
 1874000.000000 63.678060 46.291520 0.030845 -3.177258 -5.329528
 1876000.000000 63.568650 46.022420 0.062460 -3.394702 -5.694268
 1878000.000000 63.358380 46.573890 0.060190 -3.309580 -5.551485
 1880000.000000 64.391900 46.359060 0.062446 -3.058599 -5.130490
 1882000.000000 64.407850 46.182550 0.089441 -3.312635 -5.556609
 1884000.000000 64.253760 48.575990 0.000002 -2.927609 -4.910767
 1886000.000000 64.737080 47.801260 0.041304 -3.128501 -5.247743
 1888000.000000 64.388570 46.942330 0.062476 -3.012431 -5.053047
 1890000.000000 65.164430 47.246340 0.062398 -3.008140 -5.045850
 1892000.000000 65.027390 47.193200 0.062495 -2.880807 -4.832261
 1894000.000000 64.374250 46.631760 0.064581 -3.082431 -5.170465
 1896000.000000 65.069280 46.606550 0.097840 -3.185344 -5.343091
 1898000.000000 64.687670 46.134550 0.063609 -3.098165 -5.196857
 1900000.000000 64.910290 46.584390 0.062627 -3.052084 -5.119561
 1902000.000000 64.502750 47.563700 0.070270 -3.091840 -5.186248
 1904000.000000 64.863240 47.026510 0.063671 -2.942452 -4.935665
 1906000.000000 63.893720 47.701240 0.062974 -2.972231 -4.985616
 1908000.000000 63.801350 48.388150 0.028772 -3.070065 -5.149723
 1910000.000000 63.581160 47.671070 0.057943 -3.324680 -5.576813
 1912000.000000 63.993080 47.648320 0.035793 -2.919862 -4.897772
 1914000.000000 63.136530 46.708840 0.054189 -3.378118 -5.666450
 1916000.000000 63.283520 46.194960 0.000903 -3.488106 -5.850944
 1918000.000000 62.653510 47.124540 0.000001 -3.497657 -5.866965
 1920000.000000 62.681480 46.950840 0.000117 -3.500626 -5.871945
 1922000.000000 63.175810 47.512040 0.000038 -3.357510 -5.631882
 1924000.000000 62.714950 47.559370 0.000184 -3.496969 -5.865811
 1926000.000000 62.569520 47.845800 0.000383 -3.320098 -5.569128
 1928000.000000 62.171310 48.204120 0.000037 -3.455633 -5.796474
 1930000.000000 62.691790 48.096900 0.000734 -3.474592 -5.828276
 1932000.000000 62.776660 47.956730 0.000016 -3.491424 -5.856510
 1934000.000000 62.229780 48.609840 0.000010 -3.421258 -5.738813
 1936000.000000 61.888740 48.943940 0.000016 -3.431453 -5.755914
 1938000.000000 62.603270 48.467720 0.000110 -3.199433 -5.366724
 1940000.000000 62.197080 47.942350 0.000018 -3.482420 -5.841406
 1942000.000000 62.556670 47.307570 0.000649 -3.497118 -5.866061
 1944000.000000 63.155940 48.009000 0.000035 -3.382026 -5.673006
 1946000.000000 61.955960 47.416770 0.004294 -3.519331 -5.903321
 1948000.000000 63.067550 47.059390 0.015769 -3.326356 -5.579625
 1950000.000000 64.021060 46.422790 0.053467 -2.987146 -5.010634
 1952000.000000 63.041270 46.912820 0.002521 -3.305751 -5.545062
 1954000.000000 63.621390 47.390480 0.040755 -3.061527 -5.135401
 1956000.000000 63.491490 46.055340 0.051206 -3.505767 -5.880568
 1958000.000000 63.551900 45.165440 0.062217 -3.474711 -5.828475
 1960000.000000 63.463150 45.675800 0.128713 -3.540774 -5.939289
 1962000.000000 63.541550 46.801520 0.055801 -3.248377 -5.448823
 1964000.000000 63.621610 46.021660 0.120567 -3.438059 -5.766995
 1966000.000000 64.536470 46.050830 0.070836 -3.214404 -5.391837
 1968000.000000 65.182200 46.842910 0.071268 -2.989733 -5.014974
 1970000.000000 64.352830 46.489690 0.006570 -3.228292 -5.415132
 1972000.000000 63.798170 47.264190 0.025406 -2.884104 -4.837792
 1974000.000000 63.436610 47.369360 0.000922 -3.177219 -5.329463
 1976000.000000 63.971890 47.374090 0.065397 -2.950117 -4.948522
 1978000.000000 64.683680 46.795320 0.039047 -3.019943 -5.065648
 1980000.000000 65.050950 47.637440 0.001087 -2.866303 -4.807932
 1982000.000000 63.302640 46.334200 0.045495 -3.504900 -5.879114
 1984000.000000 63.109900 46.764680 0.014047 -3.368422 -5.650186
 1986000.000000 63.336900 47.026590 0.013658 -3.171779 -5.320337
 1988000.000000 62.855510 48.929530 0.004472 -3.031558 -5.085131
 1990000.000000 62.658270 49.100060 0.000011 -3.059906 -5.132682
 1992000.000000 63.122970 48.950630 0.000001 -3.082181 -5.170046
 1994000.000000 63.551050 49.040710 0.000767 -3.090686 -5.184312
 1996000.000000 63.514400 48.929320 0.000005 -2.980020 -4.998681
 1998000.000000 63.117180 49.175480 0.002614 -3.074139 -5.156556
 2000000.000000 64.240550 49.008420 0.002793 -2.881507 -4.833436
 2002000.000000 64.006110 48.716290 0.004087 -2.917261 -4.893409
 2004000.000000 63.450100 48.238950 0.040079 -3.240823 -5.436152
 2006000.000000 63.085260 48.396190 0.000053 -3.193621 -5.356975
 2008000.000000 62.519710 48.865780 0.001066 -3.274449 -5.492556
 2010000.000000 63.580990 48.831520 0.000018 -3.073932 -5.156209
 2012000.000000 61.795530 48.145970 0.000410 -3.436960 -5.765152
 2014000.000000 62.003530 48.265550 0.000009 -3.442883 -5.775087
 2016000.000000 62.452170 48.790320 0.000017 -3.232780 -5.422660
 2018000.000000 61.593990 48.673340 0.000221 -3.399261 -5.701915
 2020000.000000 62.037630 48.676580 0.000004 -3.470124 -5.820781
 2022000.000000 61.254020 49.563470 0.000004 -3.719157 -6.238509
 2024000.000000 62.289570 47.954550 0.000006 -3.454306 -5.794248
 2026000.000000 62.052430 47.680350 0.000016 -3.489636 -5.853510
 2028000.000000 62.108960 47.349400 0.006050 -3.499381 -5.869857
 2030000.000000 60.760340 48.778140 0.000000 -3.345309 -5.611416
 2032000.000000 60.265160 48.076310 0.000000 -4.224978 -7.086972
 2034000.000000 60.972740 48.305220 0.000001 -3.349834 -5.619007
 2036000.000000 60.063490 48.547620 0.000001 -3.619296 -6.071002
 2038000.000000 61.356210 47.762430 0.000000 -4.314820 -7.237673
 2040000.000000 61.677960 47.501700 0.000000 -3.557972 -5.968137
 2042000.000000 61.024650 48.398100 0.000000 -3.322643 -5.573397
 2044000.000000 61.265990 49.898030 0.000000 -3.241532 -5.437341
 2046000.000000 60.779690 49.003640 0.000001 -3.308303 -5.549343
 2048000.000000 61.518170 50.613310 0.000001 -3.268616 -5.482772
 2050000.000000 60.221280 50.027010 0.000000 -3.242613 -5.439154
 2052000.000000 60.672740 49.760120 0.000000 -3.298696 -5.533228
 2054000.000000 61.578480 50.217860 0.000001 -3.670446 -6.156801
 2056000.000000 61.079420 50.046140 0.000002 -3.303630 -5.541504
 2058000.000000 61.023290 51.340650 0.000001 -3.313096 -5.557382
 2060000.000000 60.286960 52.319060 0.000007 -3.424315 -5.743941
 2062000.000000 59.501220 51.627620 0.000000 -3.448513 -5.784531
 2064000.000000 60.019540 53.046810 0.000002 -3.275094 -5.493638
 2066000.000000 60.634520 52.056340 0.000000 -3.656370 -6.133190
 2068000.000000 60.406650 52.386140 0.000016 -3.352916 -5.624176
 2070000.000000 60.569950 52.897050 0.000000 -3.256742 -5.462854
 2072000.000000 60.586660 52.619770 0.000001 -3.254481 -5.459062
 2074000.000000 61.136520 51.816530 0.000000 -3.455409 -5.796098
 2076000.000000 61.410110 52.055060 0.000000 -3.608136 -6.052282
 2078000.000000 62.507960 50.680640 0.000001 -3.228039 -5.414708
 2080000.000000 61.421960 51.618340 0.000002 -3.667049 -6.151103
 2082000.000000 62.413980 51.451250 0.000001 -3.612497 -6.059597
 2084000.000000 61.922790 52.245500 0.000000 -3.263685 -5.474500
 2086000.000000 61.950070 51.815560 0.000000 -3.366655 -5.647222
 2088000.000000 62.776740 51.358670 0.000000 -3.329784 -5.585375
 2090000.000000 62.719580 51.263030 0.000000 -3.393380 -5.692051
 2092000.000000 61.659890 51.373200 0.000000 -3.369693 -5.652318
 2094000.000000 61.557050 52.463600 0.000000 -3.323267 -5.574443
 2096000.000000 60.601780 53.153340 0.000000 -3.392171 -5.690023
 2098000.000000 61.183680 53.113980 0.000000 -3.698859 -6.204461
 2100000.000000 60.384120 53.327530 0.000000 -3.315086 -5.560720
 2102000.000000 60.195270 53.045120 0.000000 -3.293692 -5.524834
 2104000.000000 60.226980 54.013570 0.000000 -3.302669 -5.539892
 2106000.000000 60.700460 53.232010 0.000000 -3.313862 -5.558667
 2108000.000000 62.108220 52.989190 0.000000 -3.407900 -5.716407
 2110000.000000 60.672130 53.091680 0.000000 -3.413867 -5.726416
 2112000.000000 61.914200 52.896990 0.000000 -3.391188 -5.688374
 2114000.000000 61.881920 51.708190 0.000000 -3.716207 -6.233560
 2116000.000000 63.469110 50.927510 0.000002 -3.296014 -5.528729
 2118000.000000 63.000030 50.217290 0.002043 -3.256769 -5.462900
 2120000.000000 62.776540 52.100950 0.000000 -3.251105 -5.453399
 2122000.000000 62.227390 51.962130 0.000000 -3.275480 -5.494285
 2124000.000000 62.470000 51.066560 0.001045 -3.234832 -5.426103
 2126000.000000 62.947480 50.687400 0.000226 -3.227073 -5.413088
 2128000.000000 63.460670 49.390250 0.001377 -3.067831 -5.145975
 2130000.000000 64.106340 49.402830 0.000000 -2.880548 -4.831827
 2132000.000000 63.635930 49.711250 0.000000 -3.194118 -5.357809
 2134000.000000 65.104170 49.234740 0.000003 -2.854822 -4.788674
 2136000.000000 64.540630 50.148450 0.000000 -2.997397 -5.027829
 2138000.000000 64.847890 49.427590 0.000000 -2.948794 -4.946303
 2140000.000000 64.950780 49.704590 0.000000 -3.008506 -5.046464
 2142000.000000 64.402600 49.600020 0.000000 -2.928693 -4.912585
 2144000.000000 65.298670 49.565130 0.026501 -2.999969 -5.032144
 2146000.000000 65.126860 50.556040 0.000000 -3.003139 -5.037461
 2148000.000000 63.177980 49.827230 0.000000 -3.295083 -5.527167
 2150000.000000 62.982870 51.285870 0.000000 -3.533506 -5.927098
 2152000.000000 61.978820 52.262890 0.000000 -3.247735 -5.447746
 2154000.000000 61.158260 51.770250 0.000000 -3.439826 -5.769959
 2156000.000000 61.254970 51.023910 0.000000 -3.326799 -5.580368
 2158000.000000 61.019940 50.426620 0.000000 -3.362045 -5.639489
 2160000.000000 61.394300 51.143570 0.000000 -3.263905 -5.474870
 2162000.000000 60.832320 51.157130 0.000000 -3.417918 -5.733211
 2164000.000000 60.787750 52.305770 0.000000 -3.348465 -5.616710
 2166000.000000 61.034900 51.699200 0.000000 -3.416737 -5.731230
 2168000.000000 61.429560 51.719150 0.000000 -3.267526 -5.480943
 2170000.000000 60.284860 51.625970 0.000000 -3.244206 -5.441826
 2172000.000000 59.953280 52.755690 0.000000 -3.412858 -5.724723
 2174000.000000 60.873030 52.312790 0.000000 -3.325619 -5.578388
 2176000.000000 62.088840 52.200500 0.000001 -3.246240 -5.445238
 2178000.000000 63.511010 52.137670 0.000000 -3.258565 -5.465912
 2180000.000000 61.330410 52.095600 0.000000 -3.330549 -5.586658
 2182000.000000 61.609520 52.177060 0.000177 -3.249764 -5.451149
 2184000.000000 63.158540 52.206440 0.000000 -3.300248 -5.535831
 2186000.000000 61.669690 51.333910 0.000000 -3.369895 -5.652657
 2188000.000000 62.177690 51.898260 0.000000 -3.409953 -5.719850
 2190000.000000 62.319410 52.277840 0.000000 -3.249428 -5.450586
 2192000.000000 61.090620 53.037440 0.000000 -3.322352 -5.572908
 2194000.000000 59.739740 52.440510 0.000000 -3.278885 -5.499997
 2196000.000000 59.198990 53.117770 0.000000 -3.480761 -5.838623
 2198000.000000 58.763930 53.433850 0.000000 -3.433048 -5.758590
 2200000.000000 58.963000 53.580040 0.000000 -3.451394 -5.789363
 2202000.000000 59.848950 53.548520 0.000000 -3.437959 -5.766827
 2204000.000000 59.751170 52.201880 0.000000 -3.270722 -5.486304
 2206000.000000 60.094700 51.744280 0.000000 -3.321012 -5.570661
 2208000.000000 59.307310 52.022990 0.000000 -3.400409 -5.703841
 2210000.000000 58.894110 53.238210 0.000000 -3.443483 -5.776093
 2212000.000000 58.467660 53.690430 0.000000 -3.450241 -5.787429
 2214000.000000 58.878520 53.691510 0.000000 -3.374309 -5.660061
 2216000.000000 58.221560 53.843200 0.000000 -3.452794 -5.791712
 2218000.000000 59.628640 53.322140 0.000000 -3.296981 -5.530351
 2220000.000000 59.407110 53.370320 0.000000 -3.313693 -5.558384
 2222000.000000 59.288340 53.131000 0.000000 -3.463738 -5.810069
 2224000.000000 59.117930 53.498850 0.000000 -3.269955 -5.485018
 2226000.000000 58.396950 52.845230 0.000000 -3.488821 -5.852143
 2228000.000000 59.782220 53.705970 0.000000 -3.295070 -5.527146
 2230000.000000 60.284730 52.667360 0.000000 -3.263174 -5.473643
 2232000.000000 60.048140 52.104250 0.000000 -3.329724 -5.585274
 2234000.000000 59.867950 52.412350 0.000000 -3.243810 -5.441162
 2236000.000000 59.533660 53.311440 0.000000 -3.458249 -5.800862
 2238000.000000 60.222220 53.955670 0.000000 -3.454639 -5.794806
 2240000.000000 61.927650 53.643900 0.000000 -3.329398 -5.584727
 2242000.000000 61.846680 52.813010 0.000000 -3.327442 -5.581446
 2244000.000000 61.254510 52.509240 0.000000 -3.326721 -5.580237
 2246000.000000 60.926360 52.938160 0.000000 -3.261568 -5.470949
 2248000.000000 60.110290 54.114520 0.000000 -3.345024 -5.610938
 2250000.000000 59.473090 54.146520 0.000000 -3.264706 -5.476213
 2252000.000000 58.979020 53.717990 0.000000 -3.442229 -5.773990
 2254000.000000 59.346830 53.880840 0.000000 -3.429621 -5.752841
 2256000.000000 58.884780 53.251810 0.000000 -3.441311 -5.772450
 2258000.000000 58.868230 52.741950 0.000000 -3.456827 -5.798477
 2260000.000000 57.884090 53.787500 0.000000 -3.391475 -5.688855
 2262000.000000 57.666490 54.069360 0.000000 -3.327561 -5.581646
 2264000.000000 57.233780 53.964940 0.000000 -3.446573 -5.781277
 2266000.000000 58.029780 54.221160 0.000000 -3.857182 -6.470031
 2268000.000000 58.567780 53.849160 0.000000 -3.444020 -5.776994
 2270000.000000 59.841990 53.250110 0.000000 -3.797722 -6.370293
 2272000.000000 60.885320 53.685460 0.000000 -3.317012 -5.563951
 2274000.000000 60.644590 53.303780 0.000000 -3.358918 -5.634244
 2276000.000000 60.925100 53.736350 0.000000 -3.223682 -5.407400
 2278000.000000 59.823880 53.577010 0.000000 -3.352730 -5.623864
 2280000.000000 60.441550 53.442040 0.000000 -3.732876 -6.261521
 2282000.000000 61.342420 53.646310 0.000000 -3.327766 -5.581990
 2284000.000000 62.583770 51.762170 0.000000 -3.394936 -5.694661
 2286000.000000 62.614000 52.419510 0.000000 -3.238811 -5.432777
 2288000.000000 63.086830 52.395610 0.000000 -3.314906 -5.560419
 2290000.000000 63.160750 51.749910 0.000000 -3.281248 -5.503961
 2292000.000000 63.204030 51.167020 0.000000 -3.211027 -5.386172
 2294000.000000 62.421660 51.275660 0.000000 -3.282671 -5.506348
 2296000.000000 63.097610 50.346990 0.000000 -3.268077 -5.481868
 2298000.000000 63.287440 49.575380 0.000002 -3.193437 -5.356667
 2300000.000000 62.618650 50.329220 0.000000 -3.284245 -5.508988
 2302000.000000 61.940330 50.851980 0.000000 -3.270794 -5.486425
 2304000.000000 62.618680 49.768580 0.000000 -3.399825 -5.702862
 2306000.000000 62.911680 50.032260 0.000000 -3.381180 -5.671586
 2308000.000000 61.466910 51.013590 0.000000 -3.349524 -5.618487
 2310000.000000 62.421850 51.110170 0.000000 -3.349791 -5.618935
 2312000.000000 60.407390 51.042370 0.000000 -3.221400 -5.403572
 2314000.000000 62.932320 51.110730 0.000000 -3.309780 -5.551820
 2316000.000000 63.707530 51.229660 0.000000 -3.503730 -5.877152
 2318000.000000 61.796270 53.303030 0.000000 -3.289489 -5.517784
 2320000.000000 59.965630 53.484340 0.000000 -3.730945 -6.258282
 2322000.000000 61.921310 53.411810 0.000000 -3.317557 -5.564865
 2324000.000000 62.418930 52.568940 0.000000 -3.339007 -5.600845
 2326000.000000 63.225660 52.732640 0.000000 -3.558186 -5.968496
 2328000.000000 62.492900 53.090570 0.000000 -3.451952 -5.790299
 2330000.000000 63.303530 53.392280 0.000000 -3.453582 -5.793033
 2332000.000000 63.554090 52.889940 0.000000 -3.254407 -5.458938
 2334000.000000 62.742220 53.726410 0.000000 -3.361883 -5.639218
 2336000.000000 62.956660 53.585590 0.000000 -3.376178 -5.663196
 2338000.000000 61.008220 53.809310 0.000000 -3.235816 -5.427753
 2340000.000000 60.633960 54.105010 0.000000 -3.253585 -5.457559
 2342000.000000 60.767940 53.876480 0.000000 -3.673574 -6.162048
 2344000.000000 61.085340 52.932470 0.000000 -3.351841 -5.622373
 2346000.000000 61.255880 52.587740 0.000000 -3.300359 -5.536017
 2348000.000000 61.757970 53.163270 0.000000 -3.262984 -5.473325
 2350000.000000 62.951500 53.256590 0.000000 -3.296436 -5.529437
 2352000.000000 63.400140 51.588820 0.000000 -3.334704 -5.593628
 2354000.000000 63.712490 51.096130 0.000000 -3.531526 -5.923777
 2356000.000000 63.770500 50.284930 0.000000 -3.385950 -5.679588
 2358000.000000 63.719950 50.655510 0.000000 -3.380704 -5.670788
 2360000.000000 63.172020 50.913630 0.000000 -3.219598 -5.400549
 2362000.000000 64.217580 50.269690 0.000000 -3.315547 -5.561494
 2364000.000000 65.518120 50.262550 0.000000 -3.021512 -5.068280
 2366000.000000 65.549800 49.601430 0.000000 -2.931944 -4.918039
 2368000.000000 65.865930 49.423250 0.087284 -2.890788 -4.849004
 2370000.000000 65.439150 50.284090 0.034629 -3.007058 -5.044035
 2372000.000000 65.813890 49.022500 0.000001 -2.931223 -4.916829
 2374000.000000 65.632200 48.877780 0.000005 -2.979525 -4.997851
 2376000.000000 66.713600 48.625240 0.005067 -2.872470 -4.818277
 2378000.000000 66.376650 48.057800 0.000032 -2.887098 -4.842814
 2380000.000000 66.275280 49.238060 0.000003 -2.905772 -4.874138
 2382000.000000 66.914890 48.070200 0.000113 -2.641135 -4.430236
 2384000.000000 66.021960 48.441990 0.000079 -2.865702 -4.806924
 2386000.000000 66.534950 49.487120 0.000001 -3.007553 -5.044865
 2388000.000000 66.255870 49.299790 0.003637 -2.853141 -4.785855
 2390000.000000 65.262750 49.242910 0.000003 -2.858399 -4.794674
 2392000.000000 64.880210 48.278780 0.000000 -2.860968 -4.798984
 2394000.000000 65.305740 49.265430 0.000001 -2.854617 -4.788330
 2396000.000000 64.702730 48.508370 0.000020 -2.863457 -4.803159
 2398000.000000 65.305840 48.927120 0.000024 -2.881524 -4.833464
 2400000.000000 65.099540 48.511560 0.049266 -2.864142 -4.804308
 2402000.000000 65.473870 47.912880 0.055985 -2.859830 -4.797075
 2404000.000000 65.608410 48.011420 0.000366 -2.864227 -4.804450
 2406000.000000 65.870280 48.321090 0.000184 -2.889433 -4.846731
 2408000.000000 65.480670 48.852890 0.062754 -2.883833 -4.837337
 2410000.000000 65.912550 48.512110 0.009670 -2.887135 -4.842876
 2412000.000000 66.829220 48.129380 0.061865 -2.623788 -4.401138
 2414000.000000 65.881100 48.642390 0.000019 -2.865058 -4.805844
 2416000.000000 66.815650 49.302910 0.000003 -2.834875 -4.755215
 2418000.000000 67.057050 49.912560 0.000000 -3.089006 -5.181494
 2420000.000000 67.133400 49.635820 0.000002 -2.976021 -4.991973
 2422000.000000 65.671390 50.971940 0.000000 -3.096381 -5.193865
 2424000.000000 66.980110 50.597430 0.000000 -3.121946 -5.236748
 2426000.000000 66.950540 49.107110 0.000002 -2.981169 -5.000609
 2428000.000000 67.788640 49.244800 0.000001 -3.090484 -5.183973
 2430000.000000 67.814750 51.117940 0.000000 -3.140403 -5.267707
 2432000.000000 66.409830 50.127070 0.000002 -3.088685 -5.180956
 2434000.000000 67.243020 50.165010 0.091614 -3.092267 -5.186964
 2436000.000000 66.156030 49.857640 0.000000 -3.052522 -5.120296
 2438000.000000 66.375750 48.998100 0.000007 -2.857486 -4.793143
 2440000.000000 67.286520 48.631010 0.000007 -2.651387 -4.447433
 2442000.000000 67.232010 48.460210 0.000001 -2.831170 -4.749000
 2444000.000000 65.451310 48.021070 0.000041 -2.912918 -4.886124
 2446000.000000 65.004040 47.844180 0.000000 -2.862059 -4.800814
 2448000.000000 66.404240 47.762480 0.000034 -2.927206 -4.910091
 2450000.000000 67.297570 47.689880 0.000000 -2.417824 -4.055654
 2452000.000000 67.843000 47.357430 0.000020 -2.307231 -3.870146
 2454000.000000 67.854760 48.205760 0.000001 -2.601912 -4.364443
 2456000.000000 68.522180 48.974340 0.000001 -2.799678 -4.696176
 2458000.000000 67.669190 47.213270 0.000403 -2.308997 -3.873108
 2460000.000000 68.166400 47.204010 0.000004 -2.349683 -3.941355
 2462000.000000 66.811250 47.547300 0.000017 -2.652624 -4.449508
 2464000.000000 67.121260 48.042690 0.000001 -2.605685 -4.370772
 2466000.000000 68.128320 47.576680 0.027405 -2.308362 -3.872043
 2468000.000000 68.126820 47.870610 0.029519 -2.345683 -3.934645
 2470000.000000 66.574270 48.557740 0.000005 -3.062320 -5.136731
 2472000.000000 67.001430 48.462720 0.000008 -2.831332 -4.749272
 2474000.000000 67.933460 47.239900 0.000212 -2.306931 -3.869643
 2476000.000000 67.346280 47.137640 0.002303 -2.308995 -3.873105
 2478000.000000 67.393580 47.378390 0.005267 -2.359230 -3.957369
 2480000.000000 68.380860 47.638960 0.000058 -2.312604 -3.879159
 2482000.000000 68.195950 46.564690 0.000997 -1.897294 -3.182518
 2484000.000000 67.895960 46.644130 0.035635 -2.303185 -3.863359
 2486000.000000 68.160920 47.309490 0.004988 -2.310063 -3.874896
 2488000.000000 67.548450 48.679560 0.000004 -2.742768 -4.600715
 2490000.000000 67.139700 48.740660 0.000001 -2.869539 -4.813361
 2492000.000000 67.600420 48.595720 0.000020 -2.642856 -4.433123
 2494000.000000 68.207260 48.757460 0.000153 -2.751104 -4.614698
 2496000.000000 69.239960 48.324630 0.062058 -2.105926 -3.532477
 2498000.000000 69.133800 48.880350 0.036433 -2.738872 -4.594180
 2500000.000000 67.860110 48.104280 0.021939 -2.600357 -4.361835
 2502000.000000 65.908240 47.512090 0.034655 -2.869979 -4.814099
 2504000.000000 67.101690 47.142340 0.000536 -2.638455 -4.425741
 2506000.000000 67.827380 46.999090 0.007738 -2.307784 -3.871074
 2508000.000000 69.220160 47.087880 0.001159 -1.918805 -3.218601
 2510000.000000 67.754710 46.586570 0.011769 -2.307391 -3.870414
 2512000.000000 68.532400 45.978170 0.065569 -1.161928 -1.949016
 2514000.000000 69.440970 46.603600 0.064434 -1.167389 -1.958177
 2516000.000000 69.002050 47.228270 0.000241 -1.972431 -3.308553
 2518000.000000 68.833940 46.356040 0.023084 -1.881061 -3.155289
 2520000.000000 69.080640 45.358750 0.091606 -1.142707 -1.916775
 2522000.000000 70.214040 46.096240 0.063379 -1.761670 -2.955023
 2524000.000000 68.857640 46.618470 0.027163 -1.897751 -3.183285
 2526000.000000 68.527090 45.349140 0.050960 -1.965284 -3.296565
 2528000.000000 67.947190 45.322820 0.061732 -2.204592 -3.697979
 2530000.000000 68.751250 46.186310 0.006160 -1.172984 -1.967562
 2532000.000000 67.974430 45.823340 0.009521 -1.899216 -3.185742
 2534000.000000 68.412100 45.677420 0.000058 -1.262131 -2.117097
 2536000.000000 67.094310 45.956310 0.000116 -2.634755 -4.419534
 2538000.000000 67.243170 46.413260 0.000626 -2.321457 -3.894009
 2540000.000000 66.699470 46.875700 0.001688 -2.640310 -4.428852
 2542000.000000 66.845060 46.519440 0.036146 -2.637553 -4.424228
 2544000.000000 66.792800 45.844740 0.070956 -2.674316 -4.485894
 2546000.000000 66.308240 45.823560 0.003853 -2.898627 -4.862153
 2548000.000000 66.804220 45.515410 0.046915 -2.648347 -4.442333
 2550000.000000 66.139000 46.650230 0.026954 -2.711082 -4.547565
 2552000.000000 66.954930 46.871590 0.063672 -2.421203 -4.061322
 2554000.000000 67.032400 46.796370 0.062283 -2.371354 -3.977706
 2556000.000000 66.658070 46.653160 0.063666 -2.638273 -4.425435
 2558000.000000 66.140210 46.169900 0.058013 -2.745890 -4.605952
 2560000.000000 66.056580 45.804410 0.049837 -3.346328 -5.613126
 2562000.000000 66.739770 45.303450 0.016758 -2.775495 -4.655611
 2564000.000000 67.041910 45.904750 0.001702 -2.608512 -4.375514
 2566000.000000 65.606750 46.652050 0.025241 -3.017514 -5.061574
 2568000.000000 65.517250 47.018300 0.061207 -3.015352 -5.057947
 2570000.000000 64.980130 47.718940 0.036987 -2.888609 -4.845349
 2572000.000000 66.273360 47.456070 0.054438 -2.637495 -4.424130
 2574000.000000 66.283750 47.125690 0.001589 -2.818196 -4.727238
 2576000.000000 67.381570 47.377680 0.001160 -2.363737 -3.964929
 2578000.000000 66.682600 47.500800 0.007893 -2.449641 -4.109024
 2580000.000000 66.920890 47.811100 0.001919 -2.602495 -4.365421
 2582000.000000 66.302950 46.492290 0.113683 -2.692449 -4.516310
 2584000.000000 65.506680 47.321510 0.000256 -2.869580 -4.813429
 2586000.000000 65.984790 47.627170 0.000063 -2.866958 -4.809031
 2588000.000000 66.062410 47.684890 0.000595 -2.870734 -4.815365
 2590000.000000 66.403920 48.141050 0.000032 -2.877120 -4.826077
 2592000.000000 64.874260 48.410030 0.000083 -2.861617 -4.800072
 2594000.000000 64.278620 49.236650 0.000000 -2.932357 -4.918731
 2596000.000000 64.152370 49.336960 0.035521 -2.886462 -4.841747
 2598000.000000 64.193180 48.716840 0.008877 -3.043175 -5.104617
 2600000.000000 65.036630 48.164970 0.001050 -2.862323 -4.801256
 2602000.000000 65.545560 48.382500 0.000168 -2.878441 -4.828293
 2604000.000000 65.291050 47.463380 0.000646 -2.864053 -4.804158
 2606000.000000 64.917620 47.316640 0.000003 -2.991451 -5.017856
 2608000.000000 65.996800 46.578500 0.000017 -2.821130 -4.732159
 2610000.000000 65.647820 46.398470 0.000013 -2.922264 -4.901801
 2612000.000000 65.675970 46.417840 0.000005 -3.025023 -5.074169
 2614000.000000 65.673490 46.535670 0.000001 -3.015070 -5.057474
 2616000.000000 65.830610 45.941840 0.000011 -3.377955 -5.666177
 2618000.000000 65.827100 45.880540 0.000449 -3.565498 -5.980761
 2620000.000000 66.263220 45.967240 0.032279 -2.855031 -4.789025
 2622000.000000 65.501770 45.643830 0.000287 -3.667911 -6.152549
 2624000.000000 67.400600 44.851170 0.047837 -2.323412 -3.897288
 2626000.000000 67.059140 45.011640 0.105196 -3.022657 -5.070200
 2628000.000000 67.126910 46.225630 0.040013 -2.382095 -3.995723
 2630000.000000 66.626050 46.013200 0.011090 -2.824974 -4.738607
 2632000.000000 67.893740 46.412880 0.031869 -2.177890 -3.653190
 2634000.000000 67.001280 46.090550 0.088473 -2.585548 -4.336994
 2636000.000000 67.202180 45.283740 0.043935 -2.676383 -4.489361
 2638000.000000 66.146640 44.522610 0.081364 -3.737038 -6.268502
 2640000.000000 65.753720 45.374850 0.108786 -3.611501 -6.057927
 2642000.000000 65.697860 46.514990 0.111429 -3.025087 -5.074277
 2644000.000000 64.514280 46.616870 0.098063 -3.102836 -5.204693
 2646000.000000 65.052550 46.114970 0.064378 -3.046976 -5.110993
 2648000.000000 64.606250 46.495350 0.120687 -2.964191 -4.972130
 2650000.000000 65.804200 46.970300 0.062434 -2.902062 -4.867915
 2652000.000000 65.115700 47.655390 0.124562 -2.863259 -4.802826
 2654000.000000 63.557630 47.841940 0.060434 -2.952828 -4.953069
 2656000.000000 64.326240 48.109850 0.062374 -3.308329 -5.549386
 2658000.000000 64.494620 48.257540 0.048319 -2.922006 -4.901369
 2660000.000000 64.549640 48.045570 0.000115 -2.942823 -4.936287
 2662000.000000 64.640590 47.096860 0.059449 -2.918333 -4.895208
 2664000.000000 64.471110 47.549270 0.001346 -3.047697 -5.112203
 2666000.000000 64.882340 47.038010 0.062560 -2.893201 -4.853051
 2668000.000000 65.015260 47.111320 0.116441 -3.002675 -5.036683
 2670000.000000 64.884890 47.911080 0.019834 -2.889262 -4.846444
 2672000.000000 65.540850 47.747570 0.018565 -2.860895 -4.798861
 2674000.000000 66.053900 47.171430 0.135834 -2.838592 -4.761450
 2676000.000000 65.611900 48.585810 0.117595 -2.863024 -4.802432
 2678000.000000 65.486290 48.425170 0.127257 -2.859300 -4.796186
 2680000.000000 65.211910 48.294380 0.124660 -2.862093 -4.800871
 2682000.000000 64.287810 46.551570 0.137310 -3.217328 -5.396741
 2684000.000000 64.202950 47.957880 0.118137 -2.998134 -5.029066
 2686000.000000 63.255510 48.502240 0.081876 -3.062500 -5.137033
 2688000.000000 63.047840 48.654570 0.065754 -3.140010 -5.267048
 2690000.000000 63.416800 48.774660 0.063368 -3.001869 -5.035331
 2692000.000000 62.370280 48.171650 0.054192 -3.300349 -5.536001
 2694000.000000 62.915680 49.054310 0.090086 -3.025000 -5.074131
 2696000.000000 63.799660 48.824820 0.036942 -2.905903 -4.874357
 2698000.000000 63.425520 48.370980 0.026199 -3.372103 -5.656361
 2700000.000000 62.107660 48.349670 0.005651 -3.485087 -5.845880
 2702000.000000 62.399630 49.091010 0.005212 -3.300769 -5.536705
 2704000.000000 63.049110 50.100230 0.046150 -3.346241 -5.612980
 2706000.000000 63.498470 51.486330 0.010572 -3.313516 -5.558087
 2708000.000000 64.102760 50.573640 0.005434 -3.267044 -5.480135
 2710000.000000 63.545200 49.391530 0.004461 -2.955420 -4.957417
 2712000.000000 63.568380 48.922010 0.116671 -2.909359 -4.880155
 2714000.000000 63.505810 49.007060 0.015935 -3.028700 -5.080337
 2716000.000000 62.691390 49.321360 0.000400 -3.233554 -5.423959
 2718000.000000 62.392910 49.949690 0.000047 -3.448082 -5.783808
 2720000.000000 62.157450 49.254820 0.000004 -3.443091 -5.775436
 2722000.000000 62.512590 50.002970 0.000004 -3.062487 -5.137011
 2724000.000000 62.628650 49.864150 0.000000 -3.162244 -5.304343
 2726000.000000 61.001470 50.343680 0.000016 -3.262429 -5.472394
 2728000.000000 60.238190 50.193270 0.000001 -3.212165 -5.388081
 2730000.000000 61.053180 49.986070 0.000106 -3.378851 -5.667680
 2732000.000000 59.378440 50.795830 0.000059 -3.350843 -5.620699
 2734000.000000 60.015600 51.701200 0.000045 -3.354406 -5.626676
 2736000.000000 61.100330 49.110290 0.000003 -3.231499 -5.420512
 2738000.000000 61.644280 49.148400 0.000019 -3.738950 -6.271709
 2740000.000000 61.904110 48.782770 0.000000 -3.387840 -5.682758
 2742000.000000 62.815370 49.011680 0.000654 -3.068627 -5.147310
 2744000.000000 62.970130 49.326370 0.000009 -3.178326 -5.331319
 2746000.000000 64.253180 49.670970 0.001138 -2.924765 -4.905997
 2748000.000000 63.280880 49.983280 0.000003 -3.203152 -5.372963
 2750000.000000 63.046230 50.396900 0.013518 -3.304782 -5.543437
 2752000.000000 63.931000 49.665260 0.040440 -2.990552 -5.016348
 2754000.000000 61.699590 50.561590 0.008750 -3.305001 -5.543804
 2756000.000000 62.255150 49.725270 0.000225 -3.429779 -5.753106
 2758000.000000 61.305060 50.605460 0.000002 -3.352697 -5.623809
 2760000.000000 60.489080 49.981010 0.000052 -3.319210 -5.567638
 2762000.000000 61.041360 50.082360 0.000337 -3.269749 -5.484672
 2764000.000000 61.788980 48.952750 0.000000 -3.361673 -5.638865
 2766000.000000 62.099360 49.976530 0.000011 -3.439495 -5.769404
 2768000.000000 60.437940 49.510360 0.000001 -3.573279 -5.993813
 2770000.000000 61.446760 48.823120 0.000004 -3.274292 -5.492293
 2772000.000000 61.823690 48.376220 0.000001 -3.444886 -5.778447
 2774000.000000 62.095380 48.140960 0.000000 -3.438197 -5.767227
 2776000.000000 62.621490 48.658450 0.000001 -3.218031 -5.397921
 2778000.000000 62.855470 49.150080 0.000009 -3.056685 -5.127279
 2780000.000000 61.643790 50.567470 0.000000 -3.325925 -5.578902
 2782000.000000 62.674370 50.785310 0.000000 -3.251502 -5.454065
 2784000.000000 63.747030 49.790260 0.000000 -3.155898 -5.293699
 2786000.000000 63.091620 49.797110 0.000008 -3.103246 -5.205380
 2788000.000000 63.163850 48.234250 0.000002 -3.353193 -5.624641
 2790000.000000 62.951880 49.726520 0.000000 -3.141382 -5.269350
 2792000.000000 62.038240 49.333530 0.000000 -3.389252 -5.685126
 2794000.000000 61.913620 50.108800 0.000000 -3.439940 -5.770150
 2796000.000000 60.519840 49.480200 0.000001 -3.420707 -5.737889
 2798000.000000 59.014120 50.909810 0.000000 -3.295191 -5.527349
 2800000.000000 60.485190 51.181650 0.000000 -3.320019 -5.568995
 2802000.000000 59.326570 51.713670 0.000002 -3.515918 -5.897596
 2804000.000000 60.919340 50.829580 0.000000 -3.370738 -5.654071
 2806000.000000 61.818610 50.346500 0.000000 -3.430409 -5.754163
 2808000.000000 61.031230 50.595370 0.000000 -3.303517 -5.541315
 2810000.000000 60.073050 50.041400 0.000000 -3.237134 -5.429964
 2812000.000000 60.073440 49.979690 0.000005 -3.363835 -5.642492
 2814000.000000 61.048870 49.620770 0.000000 -3.366912 -5.647653
 2816000.000000 60.649830 50.491820 0.000000 -3.379212 -5.668285
 2818000.000000 60.133800 50.321620 0.000000 -3.278375 -5.499141
 2820000.000000 60.856860 49.187920 0.000001 -3.369883 -5.652637
 2822000.000000 60.525080 50.032720 0.000000 -3.244863 -5.442928
 2824000.000000 60.408230 49.612230 0.000000 -3.304584 -5.543104
 2826000.000000 59.812350 49.663580 0.000000 -3.489696 -5.853611
 2828000.000000 60.471020 49.131040 0.000001 -3.495184 -5.862817
 2830000.000000 61.236350 49.170930 0.000000 -3.426041 -5.746836
 2832000.000000 62.303010 49.518460 0.000003 -3.338436 -5.599888
 2834000.000000 62.126090 48.708030 0.000006 -3.451090 -5.788853
 2836000.000000 62.289830 48.519430 0.000000 -3.438022 -5.766933
 2838000.000000 62.573480 49.269870 0.000001 -3.251102 -5.453394
 2840000.000000 61.883190 50.261970 0.000000 -3.590937 -6.023433
 2842000.000000 60.980820 50.372950 0.000007 -3.310703 -5.553368
 2844000.000000 61.351650 50.281120 0.000000 -3.256948 -5.463200
 2846000.000000 60.579810 50.878810 0.000000 -3.287436 -5.514340
 2848000.000000 61.779990 49.905130 0.000000 -3.329140 -5.584295
 2850000.000000 61.793960 50.326340 0.000003 -3.411042 -5.721677
 2852000.000000 61.820580 50.808170 0.000000 -3.305557 -5.544737
 2854000.000000 60.523920 51.526070 0.000000 -3.266602 -5.479393
 2856000.000000 59.951930 51.522060 0.000000 -3.252432 -5.455625
 2858000.000000 59.535670 50.888230 0.000000 -3.364829 -5.644159
 2860000.000000 60.242440 51.256860 0.000000 -3.288999 -5.516962
 2862000.000000 59.966840 50.480540 0.000000 -3.305349 -5.544388
 2864000.000000 60.375800 51.008180 0.000002 -3.241202 -5.436788
 2866000.000000 59.627500 51.043080 0.000000 -3.408985 -5.718226
 2868000.000000 58.881330 51.606630 0.000000 -3.435679 -5.763003
 2870000.000000 59.798160 51.599270 0.000008 -3.282951 -5.506817
 2872000.000000 60.003050 51.894850 0.000000 -3.252680 -5.456041
 2874000.000000 60.435080 50.690660 0.000022 -3.361992 -5.639401
 2876000.000000 61.149890 50.848850 0.001381 -3.415634 -5.729380
 2878000.000000 61.141100 51.394640 0.000010 -3.467365 -5.816153
 2880000.000000 60.970950 52.136360 0.000004 -3.446450 -5.781070
 2882000.000000 62.758730 50.810780 0.000096 -3.533862 -5.927695
 2884000.000000 62.370630 51.103070 0.000024 -3.711572 -6.225785
 2886000.000000 62.006880 50.435800 0.000107 -3.274748 -5.493058
 2888000.000000 63.088660 49.910730 0.000048 -3.170187 -5.317667
 2890000.000000 61.232160 50.606010 0.000226 -3.332327 -5.589640
 2892000.000000 60.708070 51.884700 0.000008 -3.276984 -5.496808
 2894000.000000 60.520250 51.881210 0.000003 -3.247435 -5.447243
 2896000.000000 60.963370 51.294070 0.000000 -3.342398 -5.606534
 2898000.000000 60.052600 52.301720 0.000001 -3.433953 -5.760108
 2900000.000000 59.147010 52.176420 0.000000 -3.432238 -5.757231
 2902000.000000 58.346530 53.196800 0.000000 -3.453989 -5.793716
 2904000.000000 58.177280 52.730990 0.000000 -3.445690 -5.779795
 2906000.000000 59.158100 53.098700 0.000000 -3.455229 -5.795796
 2908000.000000 60.583410 52.878000 0.000007 -3.256343 -5.462185
 2910000.000000 59.926920 52.018780 0.000000 -3.306281 -5.545951
 2912000.000000 58.670270 52.207770 0.000005 -3.425841 -5.746501
 2914000.000000 58.296250 52.217310 0.000000 -3.341384 -5.604833
 2916000.000000 58.690480 53.057960 0.000000 -3.488782 -5.852078
 2918000.000000 58.581460 52.188650 0.000001 -3.351715 -5.622162
 2920000.000000 58.780590 51.392310 0.000007 -3.406208 -5.713568
 2922000.000000 59.521720 51.334940 0.000091 -3.470967 -5.822195
 2924000.000000 58.584570 50.707540 0.002199 -3.736093 -6.266917
 2926000.000000 57.610150 51.932440 0.000016 -3.439555 -5.769505
 2928000.000000 58.063030 53.505030 0.000000 -3.452548 -5.791299
 2930000.000000 58.273740 52.733920 0.000010 -3.505779 -5.880589
 2932000.000000 58.416610 52.190060 0.000004 -3.360352 -5.636650
 2934000.000000 58.596900 51.942040 0.000208 -3.373195 -5.658192
 2936000.000000 59.492170 51.956960 0.000072 -3.437660 -5.766326
 2938000.000000 59.332970 51.536070 0.000076 -3.457464 -5.799545
 2940000.000000 58.546500 51.854370 0.000036 -3.313655 -5.558320
 2942000.000000 58.377350 51.803490 0.000007 -3.317005 -5.563939
 2944000.000000 58.399890 50.756540 0.001315 -3.312932 -5.557107
 2946000.000000 59.679920 50.499640 0.000089 -3.344255 -5.609648
 2948000.000000 59.121300 50.872240 0.000372 -3.304106 -5.542303
 2950000.000000 59.667790 50.694890 0.000007 -3.590613 -6.022889
 2952000.000000 60.981830 50.347820 0.000139 -3.302679 -5.539909
 2954000.000000 62.150490 50.416360 0.000906 -3.350157 -5.619548
 2956000.000000 62.024630 49.315870 0.000006 -3.372478 -5.656990
 2958000.000000 62.880530 50.186310 0.001069 -3.385843 -5.679408
 2960000.000000 63.594470 48.568540 0.003680 -3.233894 -5.424529
 2962000.000000 62.844180 49.605650 0.005042 -3.205546 -5.376978
 2964000.000000 63.903420 49.216610 0.067047 -3.029083 -5.080979
 2966000.000000 62.002770 48.187330 0.105367 -3.491324 -5.856342
 2968000.000000 62.183800 48.716670 0.001975 -3.446808 -5.781671
 2970000.000000 62.488560 47.269510 0.043454 -3.497362 -5.866470
 2972000.000000 63.401370 47.155570 0.001342 -3.126938 -5.245121
 2974000.000000 62.343540 47.054770 0.016614 -3.500325 -5.871440
 2976000.000000 62.310290 47.145240 0.006267 -3.515400 -5.896727
 2978000.000000 62.460540 48.226760 0.058391 -3.374681 -5.660685
 2980000.000000 61.376760 49.324410 0.000246 -3.770004 -6.323799
 2982000.000000 62.116530 48.879460 0.004080 -3.150121 -5.284008
 2984000.000000 61.582700 49.037780 0.000091 -3.615054 -6.063886
 2986000.000000 61.854030 48.375490 0.027131 -3.438203 -5.767237
 2988000.000000 62.748600 48.930260 0.040107 -3.121354 -5.235755
 2990000.000000 61.765550 50.210230 0.012964 -3.304162 -5.542397
 2992000.000000 61.469320 49.708330 0.034365 -3.394209 -5.693441
 2994000.000000 62.701410 49.968090 0.052459 -3.113476 -5.222540
 2996000.000000 62.270700 50.539820 0.000070 -3.607557 -6.051311
 2998000.000000 62.341000 50.292880 0.000001 -3.267920 -5.481604
 3000000.000000 63.226210 49.840510 0.000002 -3.357964 -5.632644
 3002000.000000 62.222190 51.024280 0.000021 -3.717141 -6.235127
 3004000.000000 62.033160 51.032850 0.000788 -3.288264 -5.515729
 3006000.000000 61.224320 49.511800 0.002068 -3.823876 -6.414164
 3008000.000000 61.087800 49.088020 0.000102 -3.226143 -5.411528
 3010000.000000 61.033680 49.145310 0.000057 -3.273908 -5.491649
 3012000.000000 59.731570 50.143850 0.000001 -3.308785 -5.550151
 3014000.000000 59.817280 50.452250 0.000001 -3.298984 -5.533711
 3016000.000000 59.526960 50.994690 0.000000 -3.405606 -5.712559
 3018000.000000 60.148390 51.154090 0.000005 -3.372461 -5.656961
 3020000.000000 61.724510 50.856250 0.000000 -3.281461 -5.504318
 3022000.000000 61.707150 51.020380 0.000000 -3.412103 -5.723457
 3024000.000000 61.839950 50.643210 0.000000 -3.266909 -5.479908
 3026000.000000 61.940300 50.882670 0.000000 -3.278397 -5.499178
 3028000.000000 60.474920 48.712050 0.000053 -3.465285 -5.812664
 3030000.000000 60.889390 49.729920 0.000033 -3.284790 -5.509902
 3032000.000000 59.718540 50.212690 0.000000 -3.318136 -5.565837
 3034000.000000 59.476300 49.847420 0.000000 -3.550351 -5.955354
 3036000.000000 60.591330 48.998880 0.000000 -3.639752 -6.105315
 3038000.000000 60.376960 48.804360 0.000005 -3.536443 -5.932024
 3040000.000000 59.841970 48.932500 0.000002 -3.494152 -5.861085
 3042000.000000 59.511170 50.122560 0.000000 -3.492021 -5.857511
 3044000.000000 58.260980 50.533890 0.000000 -3.626045 -6.082323
 3046000.000000 57.942750 51.196540 0.000001 -3.391216 -5.688421
 3048000.000000 57.592530 52.037180 0.000000 -3.409467 -5.719035
 3050000.000000 57.139470 51.945350 0.000000 -3.442118 -5.773804
 3052000.000000 56.455100 53.012400 0.000000 -3.376515 -5.663761
 3054000.000000 56.694310 53.665360 0.000000 -3.439435 -5.769303
 3056000.000000 56.736540 53.290540 0.000000 -3.447604 -5.783006
 3058000.000000 57.435360 52.178470 0.000000 -3.404324 -5.710408
 3060000.000000 58.039470 52.987520 0.000000 -3.306068 -5.545594
 3062000.000000 58.596490 52.174080 0.000002 -3.363769 -5.642381
 3064000.000000 58.907500 51.790730 0.000000 -3.459285 -5.802600
 3066000.000000 58.535630 52.128440 0.000000 -3.518675 -5.902220
 3068000.000000 56.865870 53.068200 0.000000 -3.409444 -5.718996
 3070000.000000 55.956710 53.236730 0.000003 -3.523436 -5.910206
 3072000.000000 56.881260 52.760800 0.000000 -3.440628 -5.771304
 3074000.000000 57.696980 52.807350 0.000000 -3.436675 -5.764674
 3076000.000000 57.635460 51.479890 0.000000 -3.468299 -5.817720
 3078000.000000 57.477380 52.890650 0.000000 -3.300254 -5.535841
 3080000.000000 56.481410 52.820780 0.000000 -3.464077 -5.810638
 3082000.000000 56.645580 52.241510 0.000000 -3.454789 -5.795058
 3084000.000000 57.704180 51.859270 0.000000 -3.314066 -5.559010
 3086000.000000 56.937770 51.529550 0.000056 -3.396977 -5.698084
 3088000.000000 57.586960 51.114500 0.000000 -3.438853 -5.768327
 3090000.000000 57.361910 52.031480 0.000000 -3.450578 -5.787995
 3092000.000000 57.251690 51.983210 0.000000 -3.463589 -5.809819
 3094000.000000 56.536310 52.420280 0.000000 -3.448803 -5.785017
 3096000.000000 57.521810 51.949520 0.000000 -3.444465 -5.777741
 3098000.000000 56.501780 52.988740 0.000000 -3.431217 -5.755518
 3100000.000000 56.147190 52.466750 0.000000 -3.508716 -5.885515
